{"learner":{"attributes":{"scikit_learn":"{\"_estimator_type\": \"regressor\"}"},"feature_names":["body_size","dmi_adx","dmi_minus","dmi_plus","feat_bi_amp","feat_bi_amp_rate","feat_bi_klu_cnt","feat_break_bi_amp","feat_break_bi_amp_rate","feat_break_bi_klu_cnt","feat_bsp1_bi_amp","feat_bsp1_bi_amp_rate","feat_bsp1_bi_klu_cnt","feat_bsp2_bi_amp","feat_bsp2_bi_amp_rate","feat_bsp2_bi_klu_cnt","feat_bsp2_break_bi_amp","feat_bsp2_break_bi_amp_rate","feat_bsp2_break_bi_bi_klu_cnt","feat_bsp2_retrace_rate","feat_bsp2s_bi_amp","feat_bsp2s_bi_amp_rate","feat_bsp2s_bi_klu_cnt","feat_bsp2s_break_bi_amp","feat_bsp2s_break_bi_amp_rate","feat_bsp2s_break_bi_klu_cnt","feat_bsp2s_lv","feat_bsp2s_retrace_rate","feat_bsp3_bi_amp","feat_bsp3_bi_amp_rate","feat_bsp3_bi_klu_cnt","feat_bsp3_zs_height","feat_bsp_bi_amp","feat_divergence_rate","feat_kdj_d","feat_kdj_j","feat_kdj_k","feat_level","feat_macd_dea","feat_macd_diff","feat_macd_value","feat_ppo","feat_rsi","feat_volume","feat_zs_cnt","high_low_spread_pct","is_bullish_candle","is_buy","is_segbsp","kdj_d","kdj_j","kdj_k","klu_close","klu_high","klu_low","klu_open","klu_volume","lower_shadow","macd_dea","macd_dif","macd_value","price_change_pct","rsi","upper_shadow"],"feature_types":["float","float","float","float","float","float","float","float","float","float","float","float","float","float","float","float","float","float","float","float","float","float","float","float","float","float","float","float","float","float","float","float","float","float","float","float","float","float","float","float","float","float","float","float","float","float","int","int","i","float","float","float","float","float","float","float","float","float","float","float","float","float","float","float"],"gradient_booster":{"model":{"gbtree_model_param":{"num_parallel_tree":"1","num_trees":"300"},"iteration_indptr":[0,1,2,3,4,5,6,7,8,9,10,11,12,13,14,15,16,17,18,19,20,21,22,23,24,25,26,27,28,29,30,31,32,33,34,35,36,37,38,39,40,41,42,43,44,45,46,47,48,49,50,51,52,53,54,55,56,57,58,59,60,61,62,63,64,65,66,67,68,69,70,71,72,73,74,75,76,77,78,79,80,81,82,83,84,85,86,87,88,89,90,91,92,93,94,95,96,97,98,99,100,101,102,103,104,105,106,107,108,109,110,111,112,113,114,115,116,117,118,119,120,121,122,123,124,125,126,127,128,129,130,131,132,133,134,135,136,137,138,139,140,141,142,143,144,145,146,147,148,149,150,151,152,153,154,155,156,157,158,159,160,161,162,163,164,165,166,167,168,169,170,171,172,173,174,175,176,177,178,179,180,181,182,183,184,185,186,187,188,189,190,191,192,193,194,195,196,197,198,199,200,201,202,203,204,205,206,207,208,209,210,211,212,213,214,215,216,217,218,219,220,221,222,223,224,225,226,227,228,229,230,231,232,233,234,235,236,237,238,239,240,241,242,243,244,245,246,247,248,249,250,251,252,253,254,255,256,257,258,259,260,261,262,263,264,265,266,267,268,269,270,271,272,273,274,275,276,277,278,279,280,281,282,283,284,285,286,287,288,289,290,291,292,293,294,295,296,297,298,299,300],"tree_info":[0,0,0,0,0,0,0,0,0,0,0,0,0,0,0,0,0,0,0,0,0,0,0,0,0,0,0,0,0,0,0,0,0,0,0,0,0,0,0,0,0,0,0,0,0,0,0,0,0,0,0,0,0,0,0,0,0,0,0,0,0,0,0,0,0,0,0,0,0,0,0,0,0,0,0,0,0,0,0,0,0,0,0,0,0,0,0,0,0,0,0,0,0,0,0,0,0,0,0,0,0,0,0,0,0,0,0,0,0,0,0,0,0,0,0,0,0,0,0,0,0,0,0,0,0,0,0,0,0,0,0,0,0,0,0,0,0,0,0,0,0,0,0,0,0,0,0,0,0,0,0,0,0,0,0,0,0,0,0,0,0,0,0,0,0,0,0,0,0,0,0,0,0,0,0,0,0,0,0,0,0,0,0,0,0,0,0,0,0,0,0,0,0,0,0,0,0,0,0,0,0,0,0,0,0,0,0,0,0,0,0,0,0,0,0,0,0,0,0,0,0,0,0,0,0,0,0,0,0,0,0,0,0,0,0,0,0,0,0,0,0,0,0,0,0,0,0,0,0,0,0,0,0,0,0,0,0,0,0,0,0,0,0,0,0,0,0,0,0,0,0,0,0,0,0,0,0,0,0,0,0,0,0,0,0,0,0,0,0,0,0,0,0,0,0,0,0,0,0,0],"trees":[{"base_weights":[-1.4603247E-8,2.160768E-1,-7.089665E-3,2.3591496E-2,-2.428073E-1,4.7014195E-2,-2.6400945E-1,-4.267823E-1,-1.2799206E-1,1.3527965E-2,2.477851E-1,-8.4607077E-1,-1.3031547E-1,-6.1519796E-1,-3.4294805E-1,-2.693445E-1,3.4725305E-2,4.5745573E-3,7.8819674E-1,5.6662637E-1,-8.473232E-2,-1.5443981E0,-1.3953546E-1,-2.0626399E-1,6.8593156E-1,-3.951144E-2,-6.739253E-1,-2.289165E-1,-4.1310492E-1,-4.668237E-2,-3.5778692E-1,3.8124572E-2,-1.7039761E-2,1.7293977E-2,-3.503733E-3,1.15670495E-1,3.847146E-2,7.342728E-2,2.9320586E-2,-2.0955348E-2,2.7657572E-2,-1.7537011E-1,9.022244E-2,4.457757E-2,-2.4056034E-2,-1.1270961E-2,-5.393028E-2,9.078481E-2,-4.034277E-3,-3.3913698E-2,-7.0164315E-2,-2.9081566E-2,-1.1529519E-2,-4.455182E-2,-1.4108841E-2,2.4944361E-2,-1.7916316E-2,-2.1849718E-2,-3.979399E-2,-1.1720668E-2,1.9935971E-2],"categories":[],"categories_nodes":[],"categories_segments":[],"categories_sizes":[],"default_left":[0,0,0,0,0,0,0,0,0,0,0,0,0,0,0,0,0,0,0,0,0,0,0,0,0,0,0,0,0,0,0,0,0,0,0,0,0,0,0,0,0,0,0,0,0,0,0,0,0,0,0,0,0,0,0,0,0,0,0,0,0],"id":0,"left_children":[1,-1,3,5,7,9,11,13,15,17,19,21,23,25,27,29,31,33,35,37,39,41,43,45,47,-1,49,51,53,55,57,-1,59,-1,-1,-1,-1,-1,-1,-1,-1,-1,-1,-1,-1,-1,-1,-1,-1,-1,-1,-1,-1,-1,-1,-1,-1,-1,-1,-1,-1],"loss_changes":[4.2158134E1,0E0,1.9843353E1,1.6368366E1,6.620285E0,1.5096642E1,1.4130456E1,1.7002964E0,4.5174503E0,1.3354987E1,3.408053E1,1.6559864E1,9.440396E0,1.9902039E-1,5.9344196E-1,2.0510392E0,1.6567605E0,1.2711006E1,2.8260994E0,7.3021317E0,7.183582E0,1.0287678E1,1.1715937E0,4.2389145E0,2.131865E0,0E0,1.259613E-2,2.1262741E-1,3.9562416E-1,1.2608521E0,3.3251858E-1,0E0,1.7791277E0,0E0,0E0,0E0,0E0,0E0,0E0,0E0,0E0,0E0,0E0,0E0,0E0,0E0,0E0,0E0,0E0,0E0,0E0,0E0,0E0,0E0,0E0,0E0,0E0,0E0,0E0,0E0,0E0],"parents":[2147483647,0,0,2,2,3,3,4,4,5,5,6,6,7,7,8,8,9,9,10,10,11,11,12,12,13,13,14,14,15,15,16,16,17,17,18,18,19,19,20,20,21,21,22,22,23,23,24,24,26,26,27,27,28,28,29,29,30,30,32,32],"right_children":[2,-1,4,6,8,10,12,14,16,18,20,22,24,26,28,30,32,34,36,38,40,42,44,46,48,-1,50,52,54,56,58,-1,60,-1,-1,-1,-1,-1,-1,-1,-1,-1,-1,-1,-1,-1,-1,-1,-1,-1,-1,-1,-1,-1,-1,-1,-1,-1,-1,-1,-1],"split_conditions":[6E0,2.160768E-1,4.6011E2,8.840186E-3,4.7098E2,3.45E0,4.2523E2,4.7388067E-3,2.5E1,5.3E1,1.0079627E-2,4.2306836E-4,4.4973E2,2.1163677E1,1.9766842E-3,8.2E-1,2.2199E0,1E1,6.4E1,8.344576E-1,4.4615E2,1.366279E1,2.224345E1,4.4111E2,7.9E1,-3.951144E-2,2.1112959E1,1.8E1,1.10489605E-2,6.5875626E-3,6E0,3.8124572E-2,4.9E1,1.7293977E-2,-3.503733E-3,1.15670495E-1,3.847146E-2,7.342728E-2,2.9320586E-2,-2.0955348E-2,2.7657572E-2,-1.7537011E-1,9.022244E-2,4.457757E-2,-2.4056034E-2,-1.1270961E-2,-5.393028E-2,9.078481E-2,-4.034277E-3,-3.3913698E-2,-7.0164315E-2,-2.9081566E-2,-1.1529519E-2,-4.455182E-2,-1.4108841E-2,2.4944361E-2,-1.7916316E-2,-2.1849718E-2,-3.979399E-2,-1.1720668E-2,1.9935971E-2],"split_indices":[25,0,55,11,55,7,54,21,9,18,8,5,52,3,5,7,16,9,9,33,53,2,3,52,6,0,1,9,5,40,6,0,9,0,0,0,0,0,0,0,0,0,0,0,0,0,0,0,0,0,0,0,0,0,0,0,0,0,0,0,0],"split_type":[0,0,0,0,0,0,0,0,0,0,0,0,0,0,0,0,0,0,0,0,0,0,0,0,0,0,0,0,0,0,0,0,0,0,0,0,0,0,0,0,0,0,0,0,0,0,0,0,0,0,0,0,0,0,0,0,0,0,0,0,0],"sum_hessian":[2.75E3,8E0,2.742E3,2.427E3,3.15E2,2.245E3,1.82E2,1.2E2,1.95E2,1.925E3,3.2E2,3.3E1,1.49E2,3.5E1,8.5E1,1.04E2,9.1E1,1.904E3,2.1E1,1.63E2,1.57E2,1.6E1,1.7E1,1.37E2,1.2E1,9E0,2.6E1,3.4E1,5.1E1,3E1,7.4E1,1.1E1,8E1,3.62E2,1.542E3,1E1,1.1E1,1E2,6.3E1,1.17E2,4E1,1.5E1,1E0,2E0,1.5E1,1.08E2,2.9E1,9E0,3E0,3E0,2.3E1,2.1E1,1.3E1,4.5E1,6E0,9E0,2.1E1,1.8E1,5.6E1,5.5E1,2.5E1],"tree_param":{"num_deleted":"0","num_feature":"64","num_nodes":"61","size_leaf_vector":"1"}},{"base_weights":[7.242735E-5,1.9686997E-1,-6.3868207E-3,1.2340694E-1,-5.5292353E-2,2.6867193E-1,-1.3593747E-3,-7.611418E-2,2.388404E-1,1.9827484E-1,8.71317E-1,-1.744919E-1,1.0009077E-1,-5.1912285E-2,-5.2572286E-1,3.9356336E-1,-2.3725463E-1,1.5330717E-1,1.0205947E0,1.1419336E0,2.3492293E-1,6.2101346E-2,-1.89438E-1,3.9888017E-2,7.082366E-1,-1.793728E-2,-2.723859E-1,-7.846432E-1,2.729431E-1,1.9796598E-1,6.9442165E-1,1.2193869E-1,-3.3865047E-1,7.4182353E-3,4.5821335E-2,1.7772005E-1,4.1838996E-3,1.21608905E-1,1.9276371E-2,-2.0822842E-2,4.8252713E-2,4.1252755E-2,-2.0902405E-2,2.8280659E-2,-6.341009E-3,2.775518E-3,8.957172E-2,2.0340977E-2,-4.606006E-3,-2.9460296E-2,1.66883E-2,-4.9544536E-2,-1.4193907E-1,3.982947E-3,4.10156E-2,2.6159793E-2,-1.5907994E-2,8.550655E-2,-3.3163033E-2,1.8812148E-2,-1.7067043E-2,-1.7605914E-2,-5.1366877E-2],"categories":[],"categories_nodes":[],"categories_segments":[],"categories_sizes":[],"default_left":[0,0,0,0,0,0,0,0,0,0,0,0,0,0,0,0,0,0,0,0,0,0,0,0,0,0,0,0,0,0,0,0,0,0,0,0,0,0,0,0,0,0,0,0,0,0,0,0,0,0,0,0,0,0,0,0,0,0,0,0,0,0,0],"id":1,"left_children":[1,-1,3,5,7,9,11,13,15,17,19,21,23,25,27,29,31,33,35,37,39,-1,41,43,45,47,49,51,53,55,57,59,61,-1,-1,-1,-1,-1,-1,-1,-1,-1,-1,-1,-1,-1,-1,-1,-1,-1,-1,-1,-1,-1,-1,-1,-1,-1,-1,-1,-1,-1,-1],"loss_changes":[3.499388E1,0E0,1.7418383E1,1.3611623E1,1.2224068E1,1.4548529E1,7.131014E0,2.0233839E1,9.816868E0,1.1380608E1,5.931608E0,1.9011002E0,9.344435E0,1.323848E1,1.9859293E1,5.747239E0,1.2431779E0,7.131326E0,1.17741585E1,1.525238E0,1.4171896E0,0E0,1.8311658E0,5.889701E0,2.9094143E0,9.552131E0,2.352354E0,1.2513638E1,7.513324E-1,1.4502256E0,6.711893E0,1.8703225E-1,6.4943194E-1,0E0,0E0,0E0,0E0,0E0,0E0,0E0,0E0,0E0,0E0,0E0,0E0,0E0,0E0,0E0,0E0,0E0,0E0,0E0,0E0,0E0,0E0,0E0,0E0,0E0,0E0,0E0,0E0,0E0,0E0],"parents":[2147483647,0,0,2,2,3,3,4,4,5,5,6,6,7,7,8,8,9,9,10,10,11,11,12,12,13,13,14,14,15,15,16,16,17,17,18,18,19,19,20,20,22,22,23,23,24,24,25,25,26,26,27,27,28,28,29,29,30,30,31,31,32,32],"right_children":[2,-1,4,6,8,10,12,14,16,18,20,22,24,26,28,30,32,34,36,38,40,-1,42,44,46,48,50,52,54,56,58,60,62,-1,-1,-1,-1,-1,-1,-1,-1,-1,-1,-1,-1,-1,-1,-1,-1,-1,-1,-1,-1,-1,-1,-1,-1,-1,-1,-1,-1,-1,-1],"split_conditions":[6E0,1.9686997E-1,3.7047425E-1,4.444E2,6.1E1,3.2E1,3.0020136E1,6.7E1,2E0,4.4364E2,3.8946163E-2,3.2E-1,5.2910053E1,4.6011E2,4.4364E2,3.21E0,1.4524E4,1.6E-1,4.2364532E1,2.6869565E-1,7.507399E1,6.2101346E-2,7.203725E0,4.3780427E0,4.0705048E1,9E0,2.0211282E0,1.0800622E0,3.3218622E-2,1.0566895E-1,4.72E0,1.550529E1,4.316111E1,7.4182353E-3,4.5821335E-2,1.7772005E-1,4.1838996E-3,1.21608905E-1,1.9276371E-2,-2.0822842E-2,4.8252713E-2,4.1252755E-2,-2.0902405E-2,2.8280659E-2,-6.341009E-3,2.775518E-3,8.957172E-2,2.0340977E-2,-4.606006E-3,-2.9460296E-2,1.66883E-2,-4.9544536E-2,-1.4193907E-1,3.982947E-3,4.10156E-2,2.6159793E-2,-1.5907994E-2,8.550655E-2,-3.3163033E-2,1.8812148E-2,-1.7067043E-2,-1.7605914E-2,-5.1366877E-2],"split_indices":[25,0,33,53,6,12,1,12,44,54,45,7,3,52,52,4,43,63,3,33,34,0,2,23,1,9,33,33,40,40,4,2,3,0,0,0,0,0,0,0,0,0,0,0,0,0,0,0,0,0,0,0,0,0,0,0,0,0,0,0,0,0,0],"split_type":[0,0,0,0,0,0,0,0,0,0,0,0,0,0,0,0,0,0,0,0,0,0,0,0,0,0,0,0,0,0,0,0,0,0,0,0,0,0,0,0,0,0,0,0,0,0,0,0,0,0,0,0,0,0,0,0,0,0,0,0,0,0,0],"sum_hessian":[2.75E3,8E0,2.742E3,7.5E2,1.992E3,3.46E2,4.04E2,1.861E3,1.31E2,3.11E2,3.5E1,1.49E2,2.55E2,1.767E3,9.4E1,9.9E1,3.2E1,2.96E2,1.5E1,2.4E1,1.1E1,2E0,1.47E2,2.33E2,2.2E1,1.532E3,2.35E2,7.1E1,2.3E1,6.1E1,3.8E1,7E0,2.5E1,2.36E2,6E1,8E0,7E0,2.2E1,2E0,4E0,7E0,4E0,1.43E2,6.9E1,1.64E2,5E0,1.7E1,1.72E2,1.36E3,2.24E2,1.1E1,5E1,2.1E1,9E0,1.4E1,5.2E1,9E0,3.3E1,5E0,6E0,1E0,1.4E1,1.1E1],"tree_param":{"num_deleted":"0","num_feature":"64","num_nodes":"63","size_leaf_vector":"1"}},{"base_weights":[3.0106783E-4,1.7937043E-1,-5.5833394E-3,1.1186544E-1,-4.9837455E-2,1.8986776E-1,-9.4043404E-2,-6.773411E-2,2.571365E-1,1.2151749E-1,4.6852106E-1,-2.0387922E-1,1.8493256E-1,-3.541665E-1,-5.2157108E-2,4.9313492E-1,-2.4166955E-1,9.447696E-2,4.870207E-1,7.296465E-1,1.78299E-1,-2.55391E-1,2.1111746E-1,3.5705492E-2,6.620406E-1,-1.8479294E-1,-1.4343655E0,-6.8894856E-2,2.3106498E-1,2.810984E-1,7.850223E-1,-8.164688E-2,-7.9154305E-2,3.8072802E-3,2.8368592E-2,1.1069681E-1,2.1126857E-2,1.2110862E-2,9.108066E-2,-9.183719E-3,4.5196738E-2,-2.8500278E-2,9.8939845E-3,-2.9140005E-2,3.8815364E-2,-1.9488057E-2,8.937837E-3,8.120224E-2,-1.5856681E-2,-8.198174E-2,-8.919212E-3,-1.8152454E-1,-1.235746E-2,-4.8069707E-3,-4.4273935E-2,1.3730203E-2,8.479938E-2,5.349018E-2,9.208496E-3,-2.143826E-3,8.4137954E-2,-1.8689496E-2,1.7300386E-2],"categories":[],"categories_nodes":[],"categories_segments":[],"categories_sizes":[],"default_left":[0,0,0,0,0,0,0,0,0,0,0,0,0,0,0,0,0,0,0,0,0,0,0,0,0,0,0,0,0,0,0,0,0,0,0,0,0,0,0,0,0,0,0,0,0,0,0,0,0,0,0,0,0,0,0,0,0,0,0,0,0,0,0],"id":2,"left_children":[1,-1,3,5,7,9,11,13,15,17,19,21,23,25,27,29,31,33,35,37,39,41,43,45,47,49,51,53,55,57,59,61,-1,-1,-1,-1,-1,-1,-1,-1,-1,-1,-1,-1,-1,-1,-1,-1,-1,-1,-1,-1,-1,-1,-1,-1,-1,-1,-1,-1,-1,-1,-1],"loss_changes":[2.9041634E1,0E0,1.4262569E1,1.2079942E1,1.0966574E1,1.0323153E1,6.380506E0,8.38748E0,1.3068094E1,4.2928004E0,7.9788322E0,3.2391214E0,4.1770105E0,1.7481785E1,8.491931E0,4.4211407E0,3.1030931E0,4.36479E0,4.894687E0,6.0632877E0,3.8857493E0,1.4236832E0,1.6254921E0,5.8672404E-1,1.8518257E0,5.087132E0,6.26598E0,1.3128199E1,5.668075E0,2.1094942E0,1.4269848E0,8.095771E-1,0E0,0E0,0E0,0E0,0E0,0E0,0E0,0E0,0E0,0E0,0E0,0E0,0E0,0E0,0E0,0E0,0E0,0E0,0E0,0E0,0E0,0E0,0E0,0E0,0E0,0E0,0E0,0E0,0E0,0E0,0E0],"parents":[2147483647,0,0,2,2,3,3,4,4,5,5,6,6,7,7,8,8,9,9,10,10,11,11,12,12,13,13,14,14,15,15,16,16,17,17,18,18,19,19,20,20,21,21,22,22,23,23,24,24,25,25,26,26,27,27,28,28,29,29,30,30,31,31],"right_children":[2,-1,4,6,8,10,12,14,16,18,20,22,24,26,28,30,32,34,36,38,40,42,44,46,48,50,52,54,56,58,60,62,-1,-1,-1,-1,-1,-1,-1,-1,-1,-1,-1,-1,-1,-1,-1,-1,-1,-1,-1,-1,-1,-1,-1,-1,-1,-1,-1,-1,-1,-1,-1],"split_conditions":[6E0,1.7937043E-1,3.7047425E-1,4.5101E2,5.059022E-3,8.095382E1,2.1806648E-3,4.240975E2,5.41E0,5.7E1,4.4761E4,4.7335E2,3.5E1,1.448603E6,6.3E1,6.2677045E-3,5.310402E-1,1.5E-1,6.2E1,6.7870565E-2,6.2094596E-3,4.3E1,9E0,2.7112467E-3,3.7E-1,2.5E1,3.7312546E1,6.7E1,3.8866975E0,5.955679E-1,6.442534E1,1.2E-1,-7.9154305E-2,3.8072802E-3,2.8368592E-2,1.1069681E-1,2.1126857E-2,1.2110862E-2,9.108066E-2,-9.183719E-3,4.5196738E-2,-2.8500278E-2,9.8939845E-3,-2.9140005E-2,3.8815364E-2,-1.9488057E-2,8.937837E-3,8.120224E-2,-1.5856681E-2,-8.198174E-2,-8.919212E-3,-1.8152454E-1,-1.235746E-2,-4.8069707E-3,-4.4273935E-2,1.3730203E-2,8.479938E-2,5.349018E-2,9.208496E-3,-2.143826E-3,8.4137954E-2,-1.8689496E-2,1.7300386E-2],"split_indices":[25,0,33,52,21,34,5,53,23,9,43,52,9,43,6,5,40,63,9,38,8,9,9,5,0,18,1,12,33,27,35,57,0,0,0,0,0,0,0,0,0,0,0,0,0,0,0,0,0,0,0,0,0,0,0,0,0,0,0,0,0,0,0],"split_type":[0,0,0,0,0,0,0,0,0,0,0,0,0,0,0,0,0,0,0,0,0,0,0,0,0,0,0,0,0,0,0,0,0,0,0,0,0,0,0,0,0,0,0,0,0,0,0,0,0,0,0,0,0,0,0,0,0,0,0,0,0,0,0],"sum_hessian":[2.75E3,8E0,2.742E3,7.5E2,1.992E3,5.44E2,2.06E2,1.883E3,1.09E2,4.38E2,1.06E2,1.48E2,5.8E1,9.6E1,1.787E3,7.4E1,3.5E1,4.09E2,2.9E1,5.5E1,5.1E1,1.32E2,1.6E1,4.5E1,1.3E1,8.4E1,1.2E1,1.688E3,9.9E1,4.4E1,3E1,2.8E1,7E0,3.16E2,9.3E1,8E0,2.1E1,1.3E1,4.2E1,2.6E1,2.5E1,1.22E2,1E1,4E0,1.2E1,8E0,3.7E1,1.1E1,2E0,1E1,7.4E1,9E0,3E0,1.6E3,8.8E1,8.7E1,1.2E1,1.8E1,2.6E1,2E0,2.8E1,2E1,8E0],"tree_param":{"num_deleted":"0","num_feature":"64","num_nodes":"63","size_leaf_vector":"1"}},{"base_weights":[4.008208E-4,1.6342638E-1,-4.960159E-3,1.9764684E-2,-1.9491889E-1,6.340202E-3,3.5302427E-1,-3.54504E-1,-9.540503E-2,-1.3267425E-2,2.5455174E-1,5.4484814E-1,-1.6962458E-1,-5.2614677E-1,-2.785314E-1,-2.136696E-1,4.060785E-2,1.1944243E-1,-6.648013E-2,-1.7605214E-1,3.4741816E-1,6.571599E-1,2.3682623E-1,-5.4987895E-1,1.9558479E-1,-5.495359E-1,-2.0164989E-2,-1.7647323E-1,-3.4186804E-1,-1.5894342E-2,-2.925678E-1,3.610244E-2,-7.3626004E-3,1.7306354E-2,-1.9017713E-2,1.1933088E-2,-9.805426E-3,-2.9491557E-2,-8.545864E-3,4.5288224E-2,-1.3647603E-2,2.5950262E-2,7.381212E-2,-9.133774E-3,4.205559E-2,-1.8156894E-2,-6.93398E-2,-3.5618732E-4,3.952403E-2,-3.3454813E-2,-6.0495E-2,-2.2828242E-2,-8.245359E-3,-3.712995E-2,-9.962319E-3,2.4072405E-2,-1.3181659E-2,-3.0607952E-2,2.3785203E-3,-7.704717E-3,2.0902772E-2],"categories":[],"categories_nodes":[],"categories_segments":[],"categories_sizes":[],"default_left":[0,0,0,0,0,0,0,0,0,0,0,0,0,0,0,0,0,0,0,0,0,0,0,0,0,0,0,0,0,0,0,0,0,0,0,0,0,0,0,0,0,0,0,0,0,0,0,0,0,0,0,0,0,0,0,0,0,0,0,0,0],"id":3,"left_children":[1,-1,3,5,7,9,11,13,15,17,19,21,23,25,27,29,31,33,35,37,39,41,43,45,47,49,-1,51,53,55,57,-1,59,-1,-1,-1,-1,-1,-1,-1,-1,-1,-1,-1,-1,-1,-1,-1,-1,-1,-1,-1,-1,-1,-1,-1,-1,-1,-1,-1,-1],"loss_changes":[2.4104404E1,0E0,1.28869E1,1.0860239E1,4.9845514E0,1.1367446E1,9.516533E0,1.4313097E0,3.1614354E0,1.5296848E1,6.8992233E0,2.2313862E0,3.7182317E0,1.624155E-1,4.955759E-1,1.6337814E0,1.4167466E0,1.032624E1,9.081806E0,3.086127E-1,7.2575226E0,1.4181976E0,1.2442816E0,5.612743E-1,5.5805796E-1,1.9075584E-1,0E0,1.5166497E-1,3.337493E-1,9.539126E-1,3.278656E-1,0E0,1.2375094E0,0E0,0E0,0E0,0E0,0E0,0E0,0E0,0E0,0E0,0E0,0E0,0E0,0E0,0E0,0E0,0E0,0E0,0E0,0E0,0E0,0E0,0E0,0E0,0E0,0E0,0E0,0E0,0E0],"parents":[2147483647,0,0,2,2,3,3,4,4,5,5,6,6,7,7,8,8,9,9,10,10,11,11,12,12,13,13,14,14,15,15,16,16,17,17,18,18,19,19,20,20,21,21,22,22,23,23,24,24,25,25,27,27,28,28,29,29,30,30,32,32],"right_children":[2,-1,4,6,8,10,12,14,16,18,20,22,24,26,28,30,32,34,36,38,40,42,44,46,48,50,-1,52,54,56,58,-1,60,-1,-1,-1,-1,-1,-1,-1,-1,-1,-1,-1,-1,-1,-1,-1,-1,-1,-1,-1,-1,-1,-1,-1,-1,-1,-1,-1,-1],"split_conditions":[6E0,1.6342638E-1,4.5995E2,5.3884564E-3,4.7098E2,4.563E2,5.41E0,4.7388067E-3,2.5E1,3.613216E-1,2.9E1,1.3170732E1,3E0,3.3472805E1,1.9766842E-3,8.2E-1,2.2199E0,4.5233E2,1.1E1,1E1,2.4653523E-1,1.2853312E-1,5.5005502E-2,2.7178534E1,8.548706E1,1.1024E0,-2.0164989E-2,1.8E1,1.10489605E-2,6.5875626E-3,9.2230804E1,3.610244E-2,1.8871328E0,1.7306354E-2,-1.9017713E-2,1.1933088E-2,-9.805426E-3,-2.9491557E-2,-8.545864E-3,4.5288224E-2,-1.3647603E-2,2.5950262E-2,7.381212E-2,-9.133774E-3,4.205559E-2,-1.8156894E-2,-6.93398E-2,-3.5618732E-4,3.952403E-2,-3.3454813E-2,-6.0495E-2,-2.2828242E-2,-8.245359E-3,-3.712995E-2,-9.962319E-3,2.4072405E-2,-1.3181659E-2,-3.0607952E-2,2.3785203E-3,-7.704717E-3,2.0902772E-2],"split_indices":[25,0,54,21,55,54,23,21,9,33,25,2,37,2,5,7,16,53,9,9,38,40,45,1,36,7,0,9,5,40,36,0,33,0,0,0,0,0,0,0,0,0,0,0,0,0,0,0,0,0,0,0,0,0,0,0,0,0,0,0,0],"split_type":[0,0,0,0,0,0,0,0,0,0,0,0,0,0,0,0,0,0,0,0,0,0,0,0,0,0,0,0,0,0,0,0,0,0,0,0,0,0,0,0,0,0,0,0,0,0,0,0,0,0,0,0,0,0,0,0,0,0,0,0,0],"sum_hessian":[2.75E3,8E0,2.742E3,2.427E3,3.15E2,2.334E3,9.3E1,1.2E2,1.95E2,2.164E3,1.7E2,6.8E1,2.5E1,3.5E1,8.5E1,1.04E2,9.1E1,6.19E2,1.545E3,3E1,1.4E2,4.9E1,1.9E1,1.2E1,1.3E1,3.2E1,3E0,3.4E1,5.1E1,3E1,7.4E1,1.1E1,8E1,5.28E2,9.1E1,2.24E2,1.321E3,1.2E1,1.8E1,1.15E2,2.5E1,9E0,4E1,7E0,1.2E1,4E0,8E0,7E0,6E0,8E0,2.4E1,2.1E1,1.3E1,4.5E1,6E0,9E0,2.1E1,7.1E1,3E0,6.1E1,1.9E1],"tree_param":{"num_deleted":"0","num_feature":"64","num_nodes":"61","size_leaf_vector":"1"}},{"base_weights":[3.9036674E-4,1.4889959E-1,-4.494008E-3,1.8178148E-2,-1.7323078E-1,-1.1998985E-2,3.1249204E-1,-1.1120189E-1,-4.692052E-1,-1.9071767E-2,6.874658E-1,4.9741444E-1,-1.6047542E-1,-2.284383E-1,-1.3017563E-2,-3.009773E-1,-1.1300488E0,-4.0906012E-2,1.7213683E-1,9.796638E-2,3.6232886E-1,1.1246418E-1,5.8405113E-1,-2.4159152E-2,-1.267028E-1,1.032607E0,-2.7950376E-1,-5.976728E-2,4.054811E-2,-4.7881126E-1,-4.5852542E-2,-1.2135347E-1,-1.4759468E-2,-5.4881144E-3,2.2691619E-2,5.1450696E-2,6.7628794E-3,-6.0072006E-3,4.0619005E-2,3.1313468E-2,-5.036053E-2,6.1905254E-2,9.512857E-3,-5.275912E-2,7.907512E-3,1.1498553E-2,1.2332659E-1,-5.1666874E-2,-1.7855931E-2,3.1299055E-2,-9.564798E-3,-3.5729084E-2,-9.42043E-2,1.1099298E-2,-3.5299323E-2],"categories":[],"categories_nodes":[],"categories_segments":[],"categories_sizes":[],"default_left":[0,0,0,0,0,0,0,0,0,0,0,0,0,0,0,0,0,0,0,0,0,0,0,0,0,0,0,0,0,0,0,0,0,0,0,0,0,0,0,0,0,0,0,0,0,0,0,0,0,0,0,0,0,0,0],"id":4,"left_children":[1,-1,3,5,7,9,11,13,15,17,19,21,23,25,27,29,31,33,35,-1,37,39,41,43,-1,45,47,49,-1,51,53,-1,-1,-1,-1,-1,-1,-1,-1,-1,-1,-1,-1,-1,-1,-1,-1,-1,-1,-1,-1,-1,-1,-1,-1],"loss_changes":[2.0008955E1,0E0,1.0496841E1,2.1488218E1,5.914487E0,1.0872131E1,1.9758835E1,3.104937E0,5.8855333E0,9.083263E0,1.735136E0,5.3371468E0,9.62322E0,8.209305E0,2.919809E0,2.0650582E0,7.231207E-1,7.3184986E0,7.94424E0,0E0,2.4672449E-1,3.990132E0,2.2000237E0,3.0560622E0,0E0,7.788372E-1,2.7566624E0,1.8221617E0,0E0,1.1833034E0,1.0026524E0,0E0,0E0,0E0,0E0,0E0,0E0,0E0,0E0,0E0,0E0,0E0,0E0,0E0,0E0,0E0,0E0,0E0,0E0,0E0,0E0,0E0,0E0,0E0,0E0],"parents":[2147483647,0,0,2,2,3,3,4,4,5,5,6,6,7,7,8,8,9,9,10,10,11,11,12,12,13,13,14,14,15,15,16,16,17,17,18,18,20,20,21,21,22,22,23,23,25,25,26,26,27,27,29,29,30,30],"right_children":[2,-1,4,6,8,10,12,14,16,18,20,22,24,26,28,30,32,34,36,-1,38,40,42,44,-1,46,48,50,-1,52,54,-1,-1,-1,-1,-1,-1,-1,-1,-1,-1,-1,-1,-1,-1,-1,-1,-1,-1,-1,-1,-1,-1,-1,-1],"split_conditions":[6E0,1.4889959E-1,1.0079627E-2,3.45E0,6.6E1,5.7E1,1.0513332E-3,3.9E1,5.4972046E1,2.5171417E-1,6.4E1,2.6659555E1,5.127314E-1,4.2306836E-4,4.484301E2,1.0226669E-2,3.149E-1,4.16309E1,2.41536E5,9.796638E-2,2.881435E1,6.7368424E-1,8.246027E1,3.431131E1,-1.267028E-1,1.341E-1,1.9E1,4.2596E2,4.054811E-2,4.94382E1,6.24E0,-1.2135347E-1,-1.4759468E-2,-5.4881144E-3,2.2691619E-2,5.1450696E-2,6.7628794E-3,-6.0072006E-3,4.0619005E-2,3.1313468E-2,-5.036053E-2,6.1905254E-2,9.512857E-3,-5.275912E-2,7.907512E-3,1.1498553E-2,1.2332659E-1,-5.1666874E-2,-1.7855931E-2,3.1299055E-2,-9.564798E-3,-3.5729084E-2,-9.42043E-2,1.1099298E-2,-3.5299323E-2],"split_indices":[25,0,8,7,12,18,41,9,1,40,9,1,40,5,52,5,0,2,43,0,1,27,42,1,0,0,22,52,0,3,4,0,0,0,0,0,0,0,0,0,0,0,0,0,0,0,0,0,0,0,0,0,0,0,0],"split_type":[0,0,0,0,0,0,0,0,0,0,0,0,0,0,0,0,0,0,0,0,0,0,0,0,0,0,0,0,0,0,0,0,0,0,0,0,0,0,0,0,0,0,0,0,0,0,0,0,0,0,0,0,0,0,0],"sum_hessian":[2.75E3,8E0,2.742E3,2.418E3,3.24E2,2.194E3,2.24E2,2.69E2,5.5E1,2.173E3,2.1E1,1.61E2,6.3E1,1.22E2,1.47E2,4.5E1,1E1,1.951E3,2.22E2,1E1,1.1E1,3E1,1.31E2,5.7E1,6E0,4E0,1.18E2,1.33E2,1.4E1,2.6E1,1.9E1,9E0,1E0,1.855E3,9.6E1,5.1E1,1.71E2,1E0,1E1,2.3E1,7E0,1.22E2,9E0,9E0,4.8E1,1E0,3E0,3.4E1,8.4E1,1.1E1,1.22E2,2.2E1,4E0,1.3E1,6E0],"tree_param":{"num_deleted":"0","num_feature":"64","num_nodes":"55","size_leaf_vector":"1"}},{"base_weights":[3.7861237E-4,1.3566408E-1,-4.071529E-3,1.7350428E-2,-1.686552E-1,3.1532448E-2,-2.3564179E-1,-3.0833286E-1,-8.156514E-2,2.5184946E-2,6.324379E-1,-3.5192445E-1,2.3855205E-1,-4.5084235E-1,-2.4509247E-1,-1.8703192E-1,3.9691135E-2,1.2618666E-2,3.269132E-1,8.639035E-2,3.2898027E-1,-2.8126377E-1,-1.0665357E-1,3.5043374E-1,-5.6985985E-2,-4.739158E-1,-1.4777598E-2,-1.5599267E-1,-3.0035016E-1,-8.642509E-3,-2.5827244E-1,3.2724377E-2,-3.3992657E-3,2.3378276E-3,-3.281836E-2,4.961071E-2,-7.1491236E-3,-5.7068407E-3,3.6926366E-2,-4.1358855E-2,-1.0128457E-2,1.6305152E-2,4.0570945E-2,7.890731E-3,-1.15434965E-2,-2.9993216E-2,-5.175933E-2,-2.1938775E-2,-9.106064E-3,-3.2799467E-2,-7.577897E-3,-2.1303063E-2,1.1442249E-2,-2.7048478E-2,2.61174E-3,-6.4913495E-3,1.874648E-2],"categories":[],"categories_nodes":[],"categories_segments":[],"categories_sizes":[],"default_left":[0,0,0,0,0,0,0,0,0,0,0,0,0,0,0,0,0,0,0,0,0,0,0,0,0,0,0,0,0,0,0,0,0,0,0,0,0,0,0,0,0,0,0,0,0,0,0,0,0,0,0,0,0,0,0,0,0],"id":5,"left_children":[1,-1,3,5,7,9,11,13,15,17,19,21,23,25,27,29,31,33,35,-1,37,39,-1,41,43,45,-1,47,49,51,53,-1,55,-1,-1,-1,-1,-1,-1,-1,-1,-1,-1,-1,-1,-1,-1,-1,-1,-1,-1,-1,-1,-1,-1,-1,-1],"loss_changes":[1.660934E1,0E0,9.673934E0,8.71895E0,3.8188438E0,8.756843E0,7.197081E0,9.799967E-1,2.5139713E0,8.629353E0,1.4015532E0,4.9514933E0,8.796675E-1,1.8170738E-1,3.7656403E-1,1.3321664E0,1.141062E0,8.02718E0,6.1695604E0,0E0,2.076894E-1,2.2444181E0,0E0,1.3064432E-1,7.265126E-2,9.552908E-2,0E0,1.2409538E-1,2.9796982E-1,8.041192E-1,2.6754332E-1,0E0,9.6317834E-1,0E0,0E0,0E0,0E0,0E0,0E0,0E0,0E0,0E0,0E0,0E0,0E0,0E0,0E0,0E0,0E0,0E0,0E0,0E0,0E0,0E0,0E0,0E0,0E0],"parents":[2147483647,0,0,2,2,3,3,4,4,5,5,6,6,7,7,8,8,9,9,10,10,11,11,12,12,13,13,14,14,15,15,16,16,17,17,18,18,20,20,21,21,23,23,24,24,25,25,27,27,28,28,29,29,30,30,32,32],"right_children":[2,-1,4,6,8,10,12,14,16,18,20,22,24,26,28,30,32,34,36,-1,38,40,-1,42,44,46,-1,48,50,52,54,-1,56,-1,-1,-1,-1,-1,-1,-1,-1,-1,-1,-1,-1,-1,-1,-1,-1,-1,-1,-1,-1,-1,-1,-1,-1],"split_conditions":[6E0,1.3566408E-1,4.5995E2,8.8E1,4.7098E2,5.7E1,4.4163E2,4.7388067E-3,2.5E1,5.3884564E-3,6.4E1,5.8307114E1,9.2E1,3.3472805E1,1.9766842E-3,8.2E-1,2.2199E0,1.619933E6,4.2399E0,8.639035E-2,2.881435E1,1.3E1,-1.0665357E-1,3.3213352E1,3.1844353E1,1.1024E0,-1.4777598E-2,3.1094942E1,1.10489605E-2,2.6485096E1,9.2230804E1,3.2724377E-2,1.8871328E0,2.3378276E-3,-3.281836E-2,4.961071E-2,-7.1491236E-3,-5.7068407E-3,3.6926366E-2,-4.1358855E-2,-1.0128457E-2,1.6305152E-2,4.0570945E-2,7.890731E-3,-1.15434965E-2,-2.9993216E-2,-5.175933E-2,-2.1938775E-2,-9.106064E-3,-3.2799467E-2,-7.577897E-3,-2.1303063E-2,1.1442249E-2,-2.7048478E-2,2.61174E-3,-6.4913495E-3,1.874648E-2],"split_indices":[25,0,54,9,55,18,52,21,9,21,9,1,6,2,5,7,16,43,7,0,1,6,0,1,1,7,0,1,5,3,36,0,33,0,0,0,0,0,0,0,0,0,0,0,0,0,0,0,0,0,0,0,0,0,0,0,0],"split_type":[0,0,0,0,0,0,0,0,0,0,0,0,0,0,0,0,0,0,0,0,0,0,0,0,0,0,0,0,0,0,0,0,0,0,0,0,0,0,0,0,0,0,0,0,0,0,0,0,0,0,0,0,0,0,0,0,0],"sum_hessian":[2.75E3,8E0,2.742E3,2.427E3,3.15E2,2.299E3,1.28E2,1.2E2,1.95E2,2.276E3,2.3E1,1.03E2,2.5E1,3.5E1,8.5E1,1.04E2,9.1E1,2.186E3,9E1,1.2E1,1.1E1,9.5E1,8E0,1.8E1,7E0,3.2E1,3E0,3.4E1,5.1E1,3E1,7.4E1,1.1E1,8E1,2.12E3,6.6E1,6.3E1,2.7E1,1E0,1E1,5.4E1,4.1E1,5E0,1.3E1,2E0,5E0,8E0,2.4E1,1.6E1,1.8E1,4.5E1,6E0,1.1E1,1.9E1,7.1E1,3E0,6.1E1,1.9E1],"tree_param":{"num_deleted":"0","num_feature":"64","num_nodes":"57","size_leaf_vector":"1"}},{"base_weights":[3.4187635E-4,1.23605035E-1,-3.7127056E-3,8.684498E-2,-3.7834685E-2,1.976833E-1,-8.334635E-3,-2.0710899E-2,-2.2134028E-1,1.3747138E-1,7.140287E-1,-1.5271282E-1,7.629452E-2,-3.9542206E-2,5.335885E-1,-1.6462092E-1,-7.22131E-1,9.722257E-2,8.75998E-1,9.4701463E-1,1.6913894E-1,5.6763697E-2,-1.6628267E-1,2.836631E-2,5.605948E-1,-9.5094755E-2,5.7068575E-2,7.886436E-2,6.1228764E-1,-4.1309178E-1,-1.2007963E-1,-9.095833E-2,-3.9754935E-2,3.150332E-3,3.991847E-2,1.5655504E-1,-9.2481746E-4,1.0080309E-1,1.6355162E-2,-2.038218E-2,3.8109705E-2,-1.9970132E-2,1.4334286E-2,2.310322E-2,-5.778508E-3,1.3128217E-1,3.8211968E-2,-2.0551374E-2,-1.3288626E-3,-1.5493515E-2,1.0631931E-2,-1.1629398E-2,4.0067535E-2,4.628843E-2,7.881882E-2,-3.2405548E-2,-8.986486E-2,2.279016E-4,-2.501213E-2],"categories":[],"categories_nodes":[],"categories_segments":[],"categories_sizes":[],"default_left":[0,0,0,0,0,0,0,0,0,0,0,0,0,0,0,0,0,0,0,0,0,0,0,0,0,0,0,0,0,0,0,0,0,0,0,0,0,0,0,0,0,0,0,0,0,0,0,0,0,0,0,0,0,0,0,0,0,0,0],"id":6,"left_children":[1,-1,3,5,7,9,11,13,15,17,19,21,23,25,27,29,31,33,35,37,39,-1,41,43,45,47,49,51,53,55,57,-1,-1,-1,-1,-1,-1,-1,-1,-1,-1,-1,-1,-1,-1,-1,-1,-1,-1,-1,-1,-1,-1,-1,-1,-1,-1,-1,-1],"loss_changes":[1.3787874E1,0E0,8.479176E0,7.924359E0,6.258042E0,1.0690123E1,4.960185E0,1.9060345E1,4.7098923E0,9.188977E0,4.41008E0,1.5606434E0,5.9262786E0,9.478138E0,2.098896E0,1.654747E0,6.727371E-1,5.881308E0,9.781257E0,1.0302353E0,1.0263005E0,0E0,1.5600214E0,4.098978E0,2.5861816E0,1.0123206E1,6.7511363E0,6.746372E-1,9.754467E-1,7.031281E-1,2.1009173E0,0E0,0E0,0E0,0E0,0E0,0E0,0E0,0E0,0E0,0E0,0E0,0E0,0E0,0E0,0E0,0E0,0E0,0E0,0E0,0E0,0E0,0E0,0E0,0E0,0E0,0E0,0E0,0E0],"parents":[2147483647,0,0,2,2,3,3,4,4,5,5,6,6,7,7,8,8,9,9,10,10,11,11,12,12,13,13,14,14,15,15,16,16,17,17,18,18,19,19,20,20,22,22,23,23,24,24,25,25,26,26,27,27,28,28,29,29,30,30],"right_children":[2,-1,4,6,8,10,12,14,16,18,20,22,24,26,28,30,32,34,36,38,40,-1,42,44,46,48,50,52,54,56,58,-1,-1,-1,-1,-1,-1,-1,-1,-1,-1,-1,-1,-1,-1,-1,-1,-1,-1,-1,-1,-1,-1,-1,-1,-1,-1,-1,-1],"split_conditions":[6E0,1.23605035E-1,3.7047425E-1,4.444E2,2E0,3.2E1,3.0020136E1,2.8837328E0,3.8866975E0,4.4364E2,3.8946163E-2,3.2E-1,5.2910053E1,3.2027045E-3,8.1318356E-2,3.0135384E-3,1.10489605E-2,4.447842E-3,4.2364532E1,2.6869565E-1,7.507399E1,5.6763697E-2,3.2360494E-1,4.3780427E0,2.3E1,4.4365E2,2.6E1,4.4364E2,6.655007E-3,3.4E1,1.6542879E0,-9.095833E-2,-3.9754935E-2,3.150332E-3,3.991847E-2,1.5655504E-1,-9.2481746E-4,1.0080309E-1,1.6355162E-2,-2.038218E-2,3.8109705E-2,-1.9970132E-2,1.4334286E-2,2.310322E-2,-5.778508E-3,1.3128217E-1,3.8211968E-2,-2.0551374E-2,-1.3288626E-3,-1.5493515E-2,1.0631931E-2,-1.1629398E-2,4.0067535E-2,4.628843E-2,7.881882E-2,-3.2405548E-2,-8.986486E-2,2.279016E-4,-2.501213E-2],"split_indices":[25,0,33,53,44,12,1,33,33,54,45,7,3,5,38,5,5,5,3,33,34,0,33,23,12,53,18,52,8,6,33,0,0,0,0,0,0,0,0,0,0,0,0,0,0,0,0,0,0,0,0,0,0,0,0,0,0,0,0],"split_type":[0,0,0,0,0,0,0,0,0,0,0,0,0,0,0,0,0,0,0,0,0,0,0,0,0,0,0,0,0,0,0,0,0,0,0,0,0,0,0,0,0,0,0,0,0,0,0,0,0,0,0,0,0,0,0,0,0,0,0],"sum_hessian":[2.75E3,8E0,2.742E3,7.5E2,1.992E3,3.46E2,4.04E2,1.823E3,1.69E2,3.11E2,3.5E1,1.49E2,2.55E2,1.764E3,5.9E1,1.53E2,1.6E1,2.96E2,1.5E1,2.4E1,1.1E1,2E0,1.47E2,2.33E2,2.2E1,1.12E3,6.44E2,9E0,5E1,2.2E1,1.31E2,9E0,7E0,2.44E2,5.2E1,8E0,7E0,2.2E1,2E0,4E0,7E0,1.33E2,1.4E1,6.9E1,1.64E2,3E0,1.9E1,4.76E2,6.44E2,1.21E2,5.23E2,6E0,3E0,2.9E1,2.1E1,2E1,2E0,6.8E1,6.3E1],"tree_param":{"num_deleted":"0","num_feature":"64","num_nodes":"59","size_leaf_vector":"1"}},{"base_weights":[5.055012E-4,1.12617925E-1,-3.1881076E-3,1.5996616E-2,-1.505847E-1,1.1829163E-3,2.115132E-1,-2.74614E-1,-7.324728E-2,2.3053423E-2,-1.7536688E-1,1.6266106E-1,9.073024E-2,-4.094163E-1,-2.1499196E-1,-1.6251317E-1,2.9428411E-2,-2.8018469E-2,1.3471135E-1,-6.535834E-1,-4.581946E-2,8.510796E-2,6.242793E-1,-4.301879E-1,-1.3569613E-2,-1.5261178E-1,-2.7670902E-1,-5.938007E-4,-2.2727299E-1,-1.0801527E-2,2.9852813E-1,-1.8490352E-3,-9.563698E-2,2.4593627E-2,-7.862068E-3,-6.288743E-3,-9.0731986E-2,1.4859999E-2,-2.5612876E-2,1.5729066E-2,-3.2798003E-2,6.5025985E-3,6.467443E-2,-2.7349979E-2,-4.6938814E-2,-1.083894E-2,-2.2599049E-2,-1.637745E-2,-3.164237E-2,1.9978441E-2,-1.2079104E-2,4.6640434E-3,-2.3933385E-2,-2.0276217E-2,5.546036E-3,-1.029279E-2,3.4438122E-2],"categories":[],"categories_nodes":[],"categories_segments":[],"categories_sizes":[],"default_left":[0,0,0,0,0,0,0,0,0,0,0,0,0,0,0,0,0,0,0,0,0,0,0,0,0,0,0,0,0,0,0,0,0,0,0,0,0,0,0,0,0,0,0,0,0,0,0,0,0,0,0,0,0,0,0,0,0],"id":7,"left_children":[1,-1,3,5,7,9,11,13,15,17,19,21,-1,23,25,27,29,31,33,35,37,39,41,43,-1,45,47,49,51,53,55,-1,-1,-1,-1,-1,-1,-1,-1,-1,-1,-1,-1,-1,-1,-1,-1,-1,-1,-1,-1,-1,-1,-1,-1,-1,-1],"loss_changes":[1.1441693E1,0E0,7.7589617E0,7.0320244E0,3.0109906E0,8.722708E0,5.664843E0,8.8447857E-1,1.8012083E0,1.1465963E1,1.539603E1,5.710657E0,0E0,1.4630747E-1,2.8886414E-1,1.1008811E0,9.992042E-1,1.2189024E1,1.49916E1,7.8866367E0,8.0930395E0,4.196263E0,2.4690723E-1,7.431555E-2,0E0,1.2152922E-1,1.3655448E-1,7.7076435E-1,2.589345E-1,1.0415388E0,2.563423E-1,0E0,0E0,0E0,0E0,0E0,0E0,0E0,0E0,0E0,0E0,0E0,0E0,0E0,0E0,0E0,0E0,0E0,0E0,0E0,0E0,0E0,0E0,0E0,0E0,0E0,0E0],"parents":[2147483647,0,0,2,2,3,3,4,4,5,5,6,6,7,7,8,8,9,9,10,10,11,11,13,13,14,14,15,15,16,16,17,17,18,18,19,19,20,20,21,21,22,22,23,23,25,25,26,26,27,27,28,28,29,29,30,30],"right_children":[2,-1,4,6,8,10,12,14,16,18,20,22,-1,24,26,28,30,32,34,36,38,40,42,44,-1,46,48,50,52,54,56,-1,-1,-1,-1,-1,-1,-1,-1,-1,-1,-1,-1,-1,-1,-1,-1,-1,-1,-1,-1,-1,-1,-1,-1,-1,-1],"split_conditions":[6E0,1.12617925E-1,4.5995E2,4.563E2,4.7098E2,1.2706898E0,3.8E1,4.7388067E-3,2.5E1,2.65E0,1.4821708E0,2.4579232E0,9.073024E-2,3.3472805E1,1.5723E5,8.2E-1,1.0713747E2,6.130423E-3,1.0079627E-2,2.44E0,4.7642156E-3,2.4653523E-1,1.3E0,1.1024E0,-1.3569613E-2,3.8E1,3E1,1.7193422E-2,8.7E-1,1.82E0,1.1592763E1,-1.8490352E-3,-9.563698E-2,2.4593627E-2,-7.862068E-3,-6.288743E-3,-9.0731986E-2,1.4859999E-2,-2.5612876E-2,1.5729066E-2,-3.2798003E-2,6.5025985E-3,6.467443E-2,-2.7349979E-2,-4.6938814E-2,-1.083894E-2,-2.2599049E-2,-1.637745E-2,-3.164237E-2,1.9978441E-2,-1.2079104E-2,4.6640434E-3,-2.3933385E-2,-2.0276217E-2,5.546036E-3,-1.029279E-2,3.4438122E-2],"split_indices":[25,0,54,54,55,33,25,21,9,7,33,33,0,2,43,7,35,8,8,4,5,38,4,7,0,9,12,40,10,10,3,0,0,0,0,0,0,0,0,0,0,0,0,0,0,0,0,0,0,0,0,0,0,0,0,0,0],"split_type":[0,0,0,0,0,0,0,0,0,0,0,0,0,0,0,0,0,0,0,0,0,0,0,0,0,0,0,0,0,0,0,0,0,0,0,0,0,0,0,0,0,0,0,0,0,0,0,0,0,0,0,0,0,0,0,0,0],"sum_hessian":[2.75E3,8E0,2.742E3,2.427E3,3.15E2,2.257E3,1.7E2,1.2E2,1.95E2,2.009E3,2.48E2,1.6E2,1E1,3.5E1,8.5E1,1.04E2,9.1E1,1.379E3,6.3E2,5.2E1,1.96E2,1.38E2,2.2E1,3.2E1,3E0,4.4E1,4.1E1,3E1,7.4E1,8E1,1.1E1,1.366E3,1.3E1,4.14E2,2.16E2,1.6E1,3.6E1,1.02E2,9.4E1,1.18E2,2E1,1E0,2.1E1,8E0,2.4E1,2.9E1,1.5E1,1.2E1,2.9E1,1.1E1,1.9E1,3E0,7.1E1,2E1,6E1,1E0,1E1],"tree_param":{"num_deleted":"0","num_feature":"64","num_nodes":"57","size_leaf_vector":"1"}},{"base_weights":[4.1774713E-4,1.02607444E-1,-2.9476658E-3,7.891349E-2,-3.2617822E-2,1.3628122E-1,-8.7201364E-2,-4.5035027E-2,1.8067029E-1,9.609195E-2,4.984379E-1,-1.6452545E-1,1.3550422E-1,-2.8366E-1,-3.192932E-2,3.2665217E-1,-2.2436915E-1,-1.0819411E-1,1.3681412E-1,7.7216613E-1,1.2410399E-1,-3.4155038E-1,-4.9398746E-2,-5.4687023E-2,3.2027528E-1,-1.4548168E-1,-1.186572E0,-5.246249E-2,1.3700365E-1,2.4315622E-1,7.148355E-1,-1.3742311E-2,-4.9874714E-1,1.9540612E-2,-2.6923507E-2,5.6170344E-2,1.0650386E-2,-1.8918317E-2,8.4498964E-2,-1.2842332E-2,4.342202E-2,-4.889537E-2,-1.451083E-2,-1.0676871E-2,1.8973634E-2,-2.3193423E-2,1.3492841E-3,1.8455291E-2,5.0540358E-2,-6.6779755E-2,-6.1096516E-3,-1.5226412E-1,-4.9755746E-3,-6.761376E-3,2.0135665E-2,1.7858759E-2,-7.468612E-2,5.1414855E-2,9.648294E-3,7.501381E-2,1.2795135E-2,3.6644544E-2,-8.416861E-3,-2.6385844E-2,-6.125703E-2],"categories":[],"categories_nodes":[],"categories_segments":[],"categories_sizes":[],"default_left":[0,0,0,0,0,0,0,0,0,0,0,0,0,0,0,0,0,0,0,0,0,0,0,0,0,0,0,0,0,0,0,0,0,0,0,0,0,0,0,0,0,0,0,0,0,0,0,0,0,0,0,0,0,0,0,0,0,0,0,0,0,0,0,0,0],"id":8,"left_children":[1,-1,3,5,7,9,11,13,15,17,19,21,23,25,27,29,31,33,35,37,39,41,43,45,47,49,51,53,55,57,59,61,63,-1,-1,-1,-1,-1,-1,-1,-1,-1,-1,-1,-1,-1,-1,-1,-1,-1,-1,-1,-1,-1,-1,-1,-1,-1,-1,-1,-1,-1,-1,-1,-1],"loss_changes":[9.498812E0,0E0,6.664863E0,6.968515E0,5.3421E0,7.8553677E0,3.259749E0,5.9454155E0,6.636544E0,4.0910974E0,5.4373217E0,2.8363695E0,1.739465E0,1.21789E1,6.2717123E0,2.4839458E0,1.7268871E0,4.06176E0,5.207484E0,2.3301315E0,1.9352715E0,1.5216408E0,1.2001066E0,3.052467E-1,5.3487754E-1,3.7937863E0,4.890877E0,6.2090077E0,7.337277E0,2.6929588E0,1.9407749E-1,5.127971E-1,1.8593335E-1,0E0,0E0,0E0,0E0,0E0,0E0,0E0,0E0,0E0,0E0,0E0,0E0,0E0,0E0,0E0,0E0,0E0,0E0,0E0,0E0,0E0,0E0,0E0,0E0,0E0,0E0,0E0,0E0,0E0,0E0,0E0,0E0],"parents":[2147483647,0,0,2,2,3,3,4,4,5,5,6,6,7,7,8,8,9,9,10,10,11,11,12,12,13,13,14,14,15,15,16,16,17,17,18,18,19,19,20,20,21,21,22,22,23,23,24,24,25,25,26,26,27,27,28,28,29,29,30,30,31,31,32,32],"right_children":[2,-1,4,6,8,10,12,14,16,18,20,22,24,26,28,30,32,34,36,38,40,42,44,46,48,50,52,54,56,58,60,62,64,-1,-1,-1,-1,-1,-1,-1,-1,-1,-1,-1,-1,-1,-1,-1,-1,-1,-1,-1,-1,-1,-1,-1,-1,-1,-1,-1,-1,-1,-1,-1,-1],"split_conditions":[6E0,1.02607444E-1,3.613216E-1,4.5233E2,5.059022E-3,8.535532E1,2.1806648E-3,4.240975E2,6.105E0,2.9E1,4.4761E4,4.5574E2,5.6290115E1,1.448603E6,2.5171417E-1,8.50456E-3,3.27E0,1.5E1,3.5E1,7.3E-1,2.5E1,8E0,4.7335E2,-2.800989E-1,3E1,5.353516E1,1.3693197E0,6.3E1,7.237966E4,8.835341E0,5.41E0,6.708078E0,3.759205E1,1.9540612E-2,-2.6923507E-2,5.6170344E-2,1.0650386E-2,-1.8918317E-2,8.4498964E-2,-1.2842332E-2,4.342202E-2,-4.889537E-2,-1.451083E-2,-1.0676871E-2,1.8973634E-2,-2.3193423E-2,1.3492841E-3,1.8455291E-2,5.0540358E-2,-6.6779755E-2,-6.1096516E-3,-1.5226412E-1,-4.9755746E-3,-6.761376E-3,2.0135665E-2,1.7858759E-2,-7.468612E-2,5.1414855E-2,9.648294E-3,7.501381E-2,1.2795135E-2,3.6644544E-2,-8.416861E-3,-2.6385844E-2,-6.125703E-2],"split_indices":[25,0,33,53,21,34,5,53,23,25,43,54,42,43,40,5,4,9,25,20,9,6,52,38,9,34,33,6,33,2,7,2,1,0,0,0,0,0,0,0,0,0,0,0,0,0,0,0,0,0,0,0,0,0,0,0,0,0,0,0,0,0,0,0,0],"split_type":[0,0,0,0,0,0,0,0,0,0,0,0,0,0,0,0,0,0,0,0,0,0,0,0,0,0,0,0,0,0,0,0,0,0,0,0,0,0,0,0,0,0,0,0,0,0,0,0,0,0,0,0,0,0,0,0,0,0,0,0,0,0,0,0,0],"sum_hessian":[2.75E3,8E0,2.742E3,7.29E2,2.013E3,5.42E2,1.87E2,1.903E3,1.1E2,4.89E2,5.3E1,1.39E2,4.8E1,9.8E1,1.805E3,8.1E1,2.9E1,8.1E1,4.08E2,3E1,2.3E1,5.4E1,8.5E1,2.4E1,2.4E1,8.6E1,1.2E1,1.61E3,1.95E2,6.8E1,1.3E1,1.7E1,1.2E1,2.8E1,5.3E1,2.6E1,3.82E2,2E0,2.8E1,1.3E1,1E1,3E1,2.4E1,6.9E1,1.6E1,6E0,1.8E1,1.5E1,9E0,1.1E1,7.5E1,9E0,3E0,1.52E3,9E1,1.87E2,8E0,2.3E1,4.5E1,1.2E1,1E0,2E0,1.5E1,5E0,7E0],"tree_param":{"num_deleted":"0","num_feature":"64","num_nodes":"65","size_leaf_vector":"1"}},{"base_weights":[4.0000648E-4,9.348678E-2,-2.666202E-3,1.4159803E-2,-1.3194112E-1,4.4368636E-3,2.726512E-1,-2.4411446E-1,-6.294242E-2,1.2758099E-1,-1.8226886E-2,8.644675E-1,6.2281087E-2,-3.6712894E-1,-1.8914229E-1,-1.413563E-1,2.6266173E-2,2.0050167E-1,-5.419958E-2,-8.050097E-2,6.6937596E-2,1.367479E0,-6.9936924E-3,-1.8209699E-1,2.976398E-1,-3.8590455E-1,-1.2044788E-2,-1.1527441E-1,-2.3612726E-1,3.9647434E-2,-1.5564889E-1,2.7659446E-2,-1.0687555E-2,-3.688371E-2,2.368646E-2,8.029272E-2,-1.2361605E-2,-5.4926958E-2,-5.3565525E-3,2.4589691E-2,-5.539139E-4,3.7400234E-2,1.988241E-1,-5.9302654E-2,-4.865341E-3,1.011608E-2,5.1235612E-2,-2.5146708E-2,-4.1886587E-2,-1.569479E-2,-2.2321248E-3,-2.5822496E-2,-6.033815E-3,1.4580513E-2,-1.8256929E-2,3.1720094E-2,-4.0747183E-3],"categories":[],"categories_nodes":[],"categories_segments":[],"categories_sizes":[],"default_left":[0,0,0,0,0,0,0,0,0,0,0,0,0,0,0,0,0,0,0,0,0,0,0,0,0,0,0,0,0,0,0,0,0,0,0,0,0,0,0,0,0,0,0,0,0,0,0,0,0,0,0,0,0,0,0,0,0],"id":9,"left_children":[1,-1,3,5,7,9,11,13,15,17,19,21,23,25,27,29,31,33,35,37,39,41,-1,43,45,47,-1,49,51,-1,53,-1,55,-1,-1,-1,-1,-1,-1,-1,-1,-1,-1,-1,-1,-1,-1,-1,-1,-1,-1,-1,-1,-1,-1,-1,-1],"loss_changes":[7.8848577E0,0E0,5.9683886E0,6.1010733E0,2.4304156E0,6.535839E0,1.0902201E1,7.420454E-1,1.3817657E0,4.835893E0,1.04957905E1,1.0906008E1,3.8502889E0,1.2025547E-1,2.677884E-1,8.688443E-1,8.632586E-1,5.4701004E0,6.3466196E0,1.4402658E1,1.0844605E1,8.507082E0,0E0,1.7807324E0,1.3825357E0,4.0899754E-2,0E0,1.3207561E-1,1.825304E-1,0E0,8.624916E-1,0E0,8.2113403E-1,0E0,0E0,0E0,0E0,0E0,0E0,0E0,0E0,0E0,0E0,0E0,0E0,0E0,0E0,0E0,0E0,0E0,0E0,0E0,0E0,0E0,0E0,0E0,0E0],"parents":[2147483647,0,0,2,2,3,3,4,4,5,5,6,6,7,7,8,8,9,9,10,10,11,11,12,12,13,13,14,14,15,15,16,16,17,17,18,18,19,19,20,20,21,21,23,23,24,24,25,25,27,27,28,28,30,30,32,32],"right_children":[2,-1,4,6,8,10,12,14,16,18,20,22,24,26,28,30,32,34,36,38,40,42,-1,44,46,48,-1,50,52,-1,54,-1,56,-1,-1,-1,-1,-1,-1,-1,-1,-1,-1,-1,-1,-1,-1,-1,-1,-1,-1,-1,-1,-1,-1,-1,-1],"split_conditions":[6E0,9.348678E-2,4.6011E2,4.3972603E1,4.7087E2,1E1,2.4404845E-3,4.7388067E-3,2.5E1,4.5193E2,3.0034673E-3,4.508201E2,2.6E1,3.3472805E1,1.9766842E-3,3.8610037E-2,2.2199E0,9.384E-1,1.6913857E1,4.2749E2,2.41536E5,2.203379E-3,-6.9936924E-3,4.2306836E-4,2.82E0,2.1112959E1,-1.2044788E-2,1.9E1,1.10489605E-2,3.9647434E-2,8.15E-1,2.7659446E-2,1.02E0,-3.688371E-2,2.368646E-2,8.029272E-2,-1.2361605E-2,-5.4926958E-2,-5.3565525E-3,2.4589691E-2,-5.539139E-4,3.7400234E-2,1.988241E-1,-5.9302654E-2,-4.865341E-3,1.011608E-2,5.1235612E-2,-2.5146708E-2,-4.1886587E-2,-1.569479E-2,-2.2321248E-3,-2.5822496E-2,-6.033815E-3,1.4580513E-2,-1.8256929E-2,3.1720094E-2,-4.0747183E-3],"split_indices":[25,0,55,2,54,9,11,21,9,54,5,52,9,2,5,33,16,16,1,54,43,40,0,5,10,1,0,9,5,0,16,0,20,0,0,0,0,0,0,0,0,0,0,0,0,0,0,0,0,0,0,0,0,0,0,0,0],"split_type":[0,0,0,0,0,0,0,0,0,0,0,0,0,0,0,0,0,0,0,0,0,0,0,0,0,0,0,0,0,0,0,0,0,0,0,0,0,0,0,0,0,0,0,0,0,0,0,0,0,0,0,0,0,0,0,0,0],"sum_hessian":[2.75E3,8E0,2.742E3,2.427E3,3.15E2,2.34E3,8.7E1,1.19E2,1.96E2,3.63E2,1.977E3,2.2E1,6.5E1,3.5E1,8.4E1,1.04E2,9.2E1,2.59E2,1.04E2,1.142E3,8.35E2,1.4E1,8E0,3.2E1,3.3E1,3.2E1,3E0,3.4E1,5E1,2E0,1.02E2,1.1E1,8.1E1,1.5E1,2.44E2,7E0,9.7E1,6.1E1,1.081E3,2.4E2,5.95E2,6E0,8E0,7E0,2.5E1,1.8E1,1.5E1,8E0,2.4E1,2.3E1,1.1E1,4.4E1,6E0,8E0,9.4E1,6E0,7.5E1],"tree_param":{"num_deleted":"0","num_feature":"64","num_nodes":"57","size_leaf_vector":"1"}},{"base_weights":[4.693436E-4,8.517684E-2,-2.324007E-3,-7.791705E-3,3.7696952E-1,-1.3040991E-2,3.7107676E-1,5.8859754E-1,6.847458E-2,-4.3361E-3,-2.2769202E-1,2.841616E-1,8.7050155E-2,8.0790915E-2,3.2023612E-1,2.342952E-1,-7.102937E-2,-1.2722676E-2,3.8603055E-1,-1.5375485E-1,-5.9703195E-1,3.5813785E-1,7.820245E-2,3.557261E-1,-3.5076737E-3,3.998103E-2,1.1248847E-1,-1.4234717E-2,2.4035077E-4,4.1233675E-4,-1.4037571E-2,5.4793652E-2,1.9059584E-2,-2.2903709E-2,1.1365661E-2,-8.753257E-2,-4.0813237E-2,2.1225493E-2,4.863329E-2,8.647218E-3,1.8874109E-4,9.502197E-3,3.722943E-2,1.4030379E-2,3.7905218E-3,2.0305605E-3,-2.6593439E-3],"categories":[],"categories_nodes":[],"categories_segments":[],"categories_sizes":[],"default_left":[0,0,0,0,0,0,0,0,0,0,0,0,0,0,0,0,0,0,0,0,0,0,0,0,0,0,0,0,0,0,0,0,0,0,0,0,0,0,0,0,0,0,0,0,0,0,0],"id":10,"left_children":[1,-1,3,5,7,9,11,13,15,17,19,21,-1,-1,23,25,27,29,31,33,35,37,39,41,-1,-1,43,-1,45,-1,-1,-1,-1,-1,-1,-1,-1,-1,-1,-1,-1,-1,-1,-1,-1,-1,-1],"loss_changes":[6.543793E0,0E0,5.691542E0,5.3845124E0,2.505857E0,4.9860754E0,1.3587179E0,1.0949388E0,4.098966E-1,8.405583E0,2.74823E0,4.7478366E-1,0E0,0E0,1.6379821E-1,1.1631277E-1,5.0862208E-2,5.4046555E0,1.6042356E0,1.7975891E0,5.364337E-1,3.456087E-1,6.1478503E-3,1.2137175E-2,0E0,0E0,7.1290955E-3,0E0,3.770556E-3,0E0,0E0,0E0,0E0,0E0,0E0,0E0,0E0,0E0,0E0,0E0,0E0,0E0,0E0,0E0,0E0,0E0,0E0],"parents":[2147483647,0,0,2,2,3,3,4,4,5,5,6,6,7,7,8,8,9,9,10,10,11,11,14,14,15,15,16,16,17,17,18,18,19,19,20,20,21,21,22,22,23,23,26,26,28,28],"right_children":[2,-1,4,6,8,10,12,14,16,18,20,22,-1,-1,24,26,28,30,32,34,36,38,40,42,-1,-1,44,-1,46,-1,-1,-1,-1,-1,-1,-1,-1,-1,-1,-1,-1,-1,-1,-1,-1,-1,-1],"split_conditions":[6E0,8.517684E-2,5.2E1,5.037196E-3,4.3152E2,3E0,9.85137E5,5.8E1,1E0,3.6300375E0,2.0354168E0,4.4429E2,8.7050155E-2,8.0790915E-2,4.1758156E1,1.884058E1,5.8932518E1,9.864036E-3,3.6145504E1,4.22E0,4.4747875E1,5.99005E1,3.149E-1,1.01E-2,-3.5076737E-3,3.998103E-2,4.261539E1,-1.4234717E-2,2.403E-1,4.1233675E-4,-1.4037571E-2,5.4793652E-2,1.9059584E-2,-2.2903709E-2,1.1365661E-2,-8.753257E-2,-4.0813237E-2,2.1225493E-2,4.863329E-2,8.647218E-3,1.8874109E-4,9.502197E-3,3.722943E-2,1.4030379E-2,3.7905218E-3,2.0305605E-3,-2.6593439E-3],"split_indices":[25,0,18,29,52,44,43,9,4,33,33,52,0,0,1,2,34,8,3,10,1,42,0,0,0,0,1,0,0,0,0,0,0,0,0,0,0,0,0,0,0,0,0,0,0,0,0],"split_type":[0,0,0,0,0,0,0,0,0,0,0,0,0,0,0,0,0,0,0,0,0,0,0,0,0,0,0,0,0,0,0,0,0,0,0,0,0,0,0,0,0,0,0,0,0,0,0],"sum_hessian":[2.75E3,8E0,2.742E3,2.704E3,3.8E1,2.668E3,3.6E1,2.2E1,1.6E1,2.565E3,1.03E2,3.2E1,4E0,1.1E1,1.1E1,7E0,9E0,2.512E3,5.3E1,8.7E1,1.6E1,2.3E1,9E0,1E1,1E0,2E0,5E0,4E0,5E0,2.22E3,2.92E2,2.8E1,2.5E1,6.8E1,1.9E1,5E0,1.1E1,1.2E1,1.1E1,8E0,1E0,1E0,9E0,3E0,2E0,3E0,2E0],"tree_param":{"num_deleted":"0","num_feature":"64","num_nodes":"47","size_leaf_vector":"1"}},{"base_weights":[5.453474E-4,7.760555E-2,-1.9993617E-3,6.88959E-2,-2.7695261E-2,1.5942079E-1,-9.565402E-3,-5.6752283E-2,4.729318E-2,1.0548241E-1,6.10472E-1,-1.3754228E-1,6.6119574E-2,-7.4678235E-2,1.9168057E-1,8.85922E-2,-2.4013938E-1,7.203472E-2,7.0303875E-1,8.2080334E-1,1.2140917E-1,5.2722305E-2,-1.504364E-1,3.1107115E-2,6.055718E-1,-5.5152807E-2,-4.0254498E-1,2.3690991E-1,-1.8757969E-1,-2.0235297E-1,1.348262E-1,-3.995953E-1,1.3317582E-1,3.774156E-3,5.3139057E-2,1.3125771E-1,-7.0571774E-3,4.3309506E-2,9.47518E-2,-1.9156232E-2,3.018402E-2,3.52457E-2,-1.6732235E-2,1.8989792E-2,-3.9658593E-3,1.2039807E-1,3.556379E-2,3.447564E-2,-6.404531E-3,-5.4103334E-2,1.9670993E-2,4.128593E-2,1.2383376E-2,-2.2106221E-2,7.3622763E-3,-4.6243514E-3,-1.00707985E-1,3.732098E-2,7.165766E-3,-6.928643E-2,-1.8098714E-2,-8.162941E-3,3.1898264E-2],"categories":[],"categories_nodes":[],"categories_segments":[],"categories_sizes":[],"default_left":[0,0,0,0,0,0,0,0,0,0,0,0,0,0,0,0,0,0,0,0,0,0,0,0,0,0,0,0,0,0,0,0,0,0,0,0,0,0,0,0,0,0,0,0,0,0,0,0,0,0,0,0,0,0,0,0,0,0,0,0,0,0,0],"id":11,"left_children":[1,-1,3,5,7,9,11,13,15,17,19,21,23,25,27,29,31,33,35,37,39,-1,41,43,45,47,49,51,53,55,57,59,61,-1,-1,-1,-1,-1,-1,-1,-1,-1,-1,-1,-1,-1,-1,-1,-1,-1,-1,-1,-1,-1,-1,-1,-1,-1,-1,-1,-1,-1,-1],"loss_changes":[5.430506E0,0E0,4.99888E0,5.1864953E0,4.3910704E0,8.183127E0,3.8059773E0,6.480645E0,6.704469E0,6.0253696E0,3.6034946E0,1.3307619E0,4.6463866E0,8.652156E0,1.7255013E0,6.658899E0,4.279656E0,4.5324917E0,7.637354E0,8.178425E-1,7.354585E-1,0E0,1.2817969E0,2.6257389E0,1.815259E0,4.574007E0,6.4136524E0,1.6996932E0,1.1247811E-1,8.495961E0,6.3881097E0,3.0801492E0,9.0410846E-1,0E0,0E0,0E0,0E0,0E0,0E0,0E0,0E0,0E0,0E0,0E0,0E0,0E0,0E0,0E0,0E0,0E0,0E0,0E0,0E0,0E0,0E0,0E0,0E0,0E0,0E0,0E0,0E0,0E0,0E0],"parents":[2147483647,0,0,2,2,3,3,4,4,5,5,6,6,7,7,8,8,9,9,10,10,11,11,12,12,13,13,14,14,15,15,16,16,17,17,18,18,19,19,20,20,22,22,23,23,24,24,25,25,26,26,27,27,28,28,29,29,30,30,31,31,32,32],"right_children":[2,-1,4,6,8,10,12,14,16,18,20,22,24,26,28,30,32,34,36,38,40,-1,42,44,46,48,50,52,54,56,58,60,62,-1,-1,-1,-1,-1,-1,-1,-1,-1,-1,-1,-1,-1,-1,-1,-1,-1,-1,-1,-1,-1,-1,-1,-1,-1,-1,-1,-1,-1,-1],"split_conditions":[6E0,7.760555E-2,3.613216E-1,4.444E2,1.7599371E-1,3.2E1,3.0020136E1,6.1E1,8.04148E1,4.4364E2,3.8946163E-2,3.2E-1,5.4346237E1,6.7E1,2E0,4.2397E2,6.923077E1,1.890948E-1,4.2364532E1,1.42E0,7.507399E1,5.2722305E-2,7.203725E0,4.3780427E0,2.3E1,7E0,4.478309E2,4.4877E2,4.316111E1,1.448603E6,1.6E1,2.4906723E-1,2.5202E0,3.774156E-3,5.3139057E-2,1.3125771E-1,-7.0571774E-3,4.3309506E-2,9.47518E-2,-1.9156232E-2,3.018402E-2,3.52457E-2,-1.6732235E-2,1.8989792E-2,-3.9658593E-3,1.2039807E-1,3.556379E-2,3.447564E-2,-6.404531E-3,-5.4103334E-2,1.9670993E-2,4.128593E-2,1.2383376E-2,-2.2106221E-2,7.3622763E-3,-4.6243514E-3,-1.00707985E-1,3.732098E-2,7.165766E-3,-6.928643E-2,-1.8098714E-2,-8.162941E-3,3.1898264E-2],"split_indices":[25,0,33,53,40,12,1,6,42,54,45,7,3,12,44,55,3,45,3,4,34,0,2,23,12,18,52,53,3,43,12,40,4,0,0,0,0,0,0,0,0,0,0,0,0,0,0,0,0,0,0,0,0,0,0,0,0,0,0,0,0,0,0],"split_type":[0,0,0,0,0,0,0,0,0,0,0,0,0,0,0,0,0,0,0,0,0,0,0,0,0,0,0,0,0,0,0,0,0,0,0,0,0,0,0,0,0,0,0,0,0,0,0,0,0,0,0,0,0,0,0,0,0,0,0,0,0,0,0],"sum_hessian":[2.75E3,8E0,2.742E3,7.29E2,2.013E3,3.38E2,3.91E2,1.451E3,5.62E2,3.03E2,3.5E1,1.45E2,2.46E2,1.354E3,9.7E1,4.92E2,7E1,2.88E2,1.5E1,2.4E1,1.1E1,2E0,1.43E2,2.32E2,1.4E1,1.279E3,7.5E1,8.7E1,1E1,6.7E1,4.25E2,4.9E1,2.1E1,2.69E2,1.9E1,8E0,7E0,7E0,1.7E1,4E0,7E0,4E0,1.39E2,7.1E1,1.61E2,3E0,1.1E1,2.7E1,1.252E3,6.1E1,1.4E1,3.3E1,5.4E1,9E0,1E0,5.7E1,1E1,8.8E1,3.37E2,2E1,2.9E1,1E1,1.1E1],"tree_param":{"num_deleted":"0","num_feature":"64","num_nodes":"63","size_leaf_vector":"1"}},{"base_weights":[6.936762E-4,1.5466953E-2,-1.13193646E-1,1.3858673E-1,-2.2196353E-3,-2.0960255E-1,-5.3892825E-2,7.1129763E-1,1.127914E-1,-2.6554602E-1,1.3071385E-2,-3.22746E-1,-1.5921707E-1,-1.2104406E-1,2.2502586E-2,7.968099E-2,-1.5742464E-2,1.9883093E-1,-7.2386675E-2,6.524589E-1,-3.5743862E-1,-1.5884085E-4,2.2200003E-1,-3.4044015E-1,-9.6082715E-3,-3.1509718E-1,-1.3423176E-1,7.264966E-2,-1.5928774E-1,4.6918336E-2,-2.8416497E-1,-3.490726E-1,2.3857465E-1,3.0957967E-1,-9.280273E-2,-1.2072808E-1,1.3169028E-1,-2.269538E-1,-8.809977E-1,2.403906E-2,-1.7641185E-1,-1.4331841E-1,3.296013E-1,-2.2264054E-2,-3.6923043E-2,5.3672553E-3,-3.5734143E-2,-1.5309466E-1,-4.8573785E-2,2.3893343E-1,-1.6507174E-1,5.235095E-3,-1.9592108E-1,-1.13464944E-1,1.0981776E-1,-8.194494E-3,-3.0421078E-2,-5.1148154E-2,1.8482015E-2,1.2891628E-1,1.9082172E-2,1.019376E-2,4.1402854E-2,-1.2596679E-2,1.8510638E-2,1.8819105E-2,-3.222354E-2,-9.664956E-2,-1.7007327E-2,-1.534432E-1,-2.6305264E-2,-2.8659124E-3,1.122531E-2,-5.474906E-2,-6.7015733E-3,-6.08756E-3,-2.1071048E-2,6.826551E-2,2.2352278E-2,-1.6366778E-2,3.8489052E-3,-6.152952E-3,2.3758998E-3,-9.889702E-3,2.8260618E-2,-2.2903286E-2,1.4132805E-2,1.8335594E-2,-1.7346742E-2,-4.876097E-3,-2.188701E-2,-2.0224972E-2,2.8212402E-2,2.180265E-2,3.7637334E-3],"categories":[],"categories_nodes":[],"categories_segments":[],"categories_sizes":[],"default_left":[0,0,0,0,0,0,0,0,0,0,0,0,0,0,0,0,0,0,0,0,0,0,0,0,0,0,0,0,0,0,0,0,0,0,0,0,0,0,0,0,0,0,0,0,0,0,0,0,0,0,0,0,0,0,0,0,0,0,0,0,0,0,0,0,0,0,0,0,0,0,0,0,0,0,0,0,0,0,0,0,0,0,0,0,0,0,0,0,0,0,0,0,0,0,0],"id":12,"left_children":[1,3,5,7,9,11,13,15,17,19,21,23,25,27,29,-1,-1,31,33,35,37,39,41,43,-1,45,47,49,51,53,55,57,59,61,63,65,-1,67,69,71,73,75,77,-1,-1,-1,-1,79,81,83,85,87,89,91,93,-1,-1,-1,-1,-1,-1,-1,-1,-1,-1,-1,-1,-1,-1,-1,-1,-1,-1,-1,-1,-1,-1,-1,-1,-1,-1,-1,-1,-1,-1,-1,-1,-1,-1,-1,-1,-1,-1,-1,-1],"loss_changes":[4.6302776E0,5.3048654E0,1.7953167E0,4.440392E0,8.584004E0,6.327081E-1,1.0133429E0,1.0911603E0,4.6985874E0,1.0103084E1,5.5698447E0,1.1167145E-1,2.8875446E-1,7.893659E-1,7.0967174E-1,0E0,0E0,4.4602E0,7.61765E-1,5.810121E0,7.1099215E0,8.090591E0,4.7642846E0,2.9713392E-2,0E0,1.9054174E-1,1.1374545E-1,7.50967E-1,5.3140354E-1,8.901179E-1,3.4471154E-3,1.3084575E0,9.185706E0,6.62348E-2,8.528105E-1,4.341386E-1,0E0,3.495326E0,8.075882E0,7.7572823E0,9.259466E0,1.427406E-1,3.3303938E0,0E0,0E0,0E0,0E0,1.2986326E-1,1.5518744E-2,1.9024271E-1,1.8915014E-1,5.729272E-1,2.3248482E-1,9.351163E-1,4.8385894E-1,0E0,0E0,0E0,0E0,0E0,0E0,0E0,0E0,0E0,0E0,0E0,0E0,0E0,0E0,0E0,0E0,0E0,0E0,0E0,0E0,0E0,0E0,0E0,0E0,0E0,0E0,0E0,0E0,0E0,0E0,0E0,0E0,0E0,0E0,0E0,0E0,0E0,0E0,0E0,0E0],"parents":[2147483647,0,0,1,1,2,2,3,3,4,4,5,5,6,6,7,7,8,8,9,9,10,10,11,11,12,12,13,13,14,14,17,17,18,18,19,19,20,20,21,21,22,22,23,23,25,25,26,26,27,27,28,28,29,29,30,30,31,31,32,32,33,33,34,34,35,35,37,37,38,38,39,39,40,40,41,41,42,42,47,47,48,48,49,49,50,50,51,51,52,52,53,53,54,54],"right_children":[2,4,6,8,10,12,14,16,18,20,22,24,26,28,30,-1,-1,32,34,36,38,40,42,44,-1,46,48,50,52,54,56,58,60,62,64,66,-1,68,70,72,74,76,78,-1,-1,-1,-1,80,82,84,86,88,90,92,94,-1,-1,-1,-1,-1,-1,-1,-1,-1,-1,-1,-1,-1,-1,-1,-1,-1,-1,-1,-1,-1,-1,-1,-1,-1,-1,-1,-1,-1,-1,-1,-1,-1,-1,-1,-1,-1,-1,-1,-1],"split_conditions":[4.6011E2,9E0,4.7087E2,1.5225406E1,3.7737607E-3,4.7388067E-3,2.5E1,3.3639145E1,4.5163E2,-5.8675766E-2,4.5697E2,3.3472805E1,-5.763174E-2,6.9E-1,4E0,7.968099E-2,-1.5742464E-2,9.384E-1,4.6E-1,1.3E1,2.4E1,1.2706898E0,2.7E1,2.1112959E1,-9.6082715E-3,2.4271084E1,2.7E0,8.156744E1,4.722972E2,1.82E0,2.4521837E1,3.395253E1,1.059E0,4.164402E1,4.3098507E-3,4.4489E2,1.3169028E-1,4.3263E2,2.7178534E1,6.1740032E-3,1.4821708E0,4.2306836E-4,7.889899E-2,-2.2264054E-2,-3.6923043E-2,5.3672553E-3,-3.5734143E-2,2.0211282E0,9.885419E-2,7E0,1.9183407E1,1.371E4,2.1941887E1,1.7433186E0,1.93E0,-8.194494E-3,-3.0421078E-2,-5.1148154E-2,1.8482015E-2,1.2891628E-1,1.9082172E-2,1.019376E-2,4.1402854E-2,-1.2596679E-2,1.8510638E-2,1.8819105E-2,-3.222354E-2,-9.664956E-2,-1.7007327E-2,-1.534432E-1,-2.6305264E-2,-2.8659124E-3,1.122531E-2,-5.474906E-2,-6.7015733E-3,-6.08756E-3,-2.1071048E-2,6.826551E-2,2.2352278E-2,-1.6366778E-2,3.8489052E-3,-6.152952E-3,2.3758998E-3,-9.889702E-3,2.8260618E-2,-2.2903286E-2,1.4132805E-2,1.8335594E-2,-1.7346742E-2,-4.876097E-3,-2.188701E-2,-2.0224972E-2,2.8212402E-2,2.180265E-2,3.7637334E-3],"split_indices":[55,9,54,1,17,21,9,3,53,40,53,2,38,7,26,0,0,16,13,9,9,33,25,1,0,1,4,36,52,10,1,3,16,1,5,52,0,53,1,8,33,5,38,0,0,0,0,33,45,9,2,43,1,33,4,0,0,0,0,0,0,0,0,0,0,0,0,0,0,0,0,0,0,0,0,0,0,0,0,0,0,0,0,0,0,0,0,0,0,0,0,0,0,0,0],"split_type":[0,0,0,0,0,0,0,0,0,0,0,0,0,0,0,0,0,0,0,0,0,0,0,0,0,0,0,0,0,0,0,0,0,0,0,0,0,0,0,0,0,0,0,0,0,0,0,0,0,0,0,0,0,0,0,0,0,0,0,0,0,0,0,0,0,0,0,0,0,0,0,0,0,0,0,0,0,0,0,0,0,0,0,0,0,0,0,0,0,0,0,0,0,0,0],"sum_hessian":[2.75E3,2.435E3,3.15E2,3.05E2,2.13E3,1.19E2,1.96E2,1.2E1,2.93E2,1.16E2,2.014E3,3.5E1,8.4E1,1.04E2,9.2E1,1.1E1,1E0,2E2,9.3E1,1E1,1.06E2,1.895E3,1.19E2,3.2E1,3E0,1E1,7.4E1,1.7E1,8.7E1,8.6E1,6E0,1.3E1,1.87E2,4E0,8.9E1,5E0,5E0,8.6E1,2E1,1.667E3,2.28E2,2.7E1,9.2E1,8E0,2.4E1,1E0,9E0,6E1,1.4E1,1E1,7E0,1.6E1,7.1E1,2.4E1,6.2E1,1E0,5E0,1E1,3E0,7E0,1.8E2,2E0,2E0,8E1,9E0,2E0,3E0,5E0,8.1E1,9E0,1.1E1,1.044E3,6.23E2,5.1E1,1.77E2,1.3E1,1.4E1,2E1,7.2E1,5.7E1,3E0,1.2E1,2E0,1E0,9E0,6E0,1E0,8E0,8E0,1E1,6.1E1,2E1,4E0,2.4E1,3.8E1],"tree_param":{"num_deleted":"0","num_feature":"64","num_nodes":"95","size_leaf_vector":"1"}},{"base_weights":[6.008049E-4,-4.1805916E-3,3.3319896E-1,3.622093E-3,-1.9995777E-1,5.2948725E-1,4.803251E-2,-3.3919252E-3,3.3568177E-1,-1.3285388E-1,-5.3555685E-1,7.219323E-2,2.9291826E-1,1.9731593E-1,-7.619747E-2,-2.6210291E-2,7.584001E-2,4.7463545E-1,1.6778417E-1,-1.989149E-1,1.0169933E-1,-8.035838E-2,-3.5691363E-1,3.2696947E-1,-4.082264E-3,3.4559272E-2,9.029155E-2,-1.3956581E-1,-1.0690942E-2,-1.1672146E-2,-1.990818E-1,1.3525909E-1,-1.694103E-1,9.1537017E-1,3.6750308E-1,-1.334588E-1,2.6483E-1,-2.1751659E-1,5.3299952E-2,-4.591729E-2,1.6824341E-1,-3.8806114E-2,-1.34117445E-2,8.981675E-3,3.417031E-2,1.1640339E-2,2.5378584E-3,-7.873535E-3,-1.9144382E-2,4.9893856E-3,-2.80344E-3,6.699114E-2,-1.5026984E-3,-6.551056E-2,-9.697353E-3,9.290031E-3,4.2229857E-2,-2.1333614E-2,2.9996673E-2,2.798208E-2,1.0043023E-1,-9.571971E-3,4.3502074E-2,-1.913902E-2,7.579794E-4,-8.264703E-3,3.3101108E-2,-2.4415791E-2,9.847018E-3,-1.3178127E-2,1.478455E-3,9.694554E-3,2.7719045E-2,1.0766983E-4,8.363724E-4],"categories":[],"categories_nodes":[],"categories_segments":[],"categories_sizes":[],"default_left":[0,0,0,0,0,0,0,0,0,0,0,0,0,0,0,0,0,0,0,0,0,0,0,0,0,0,0,0,0,0,0,0,0,0,0,0,0,0,0,0,0,0,0,0,0,0,0,0,0,0,0,0,0,0,0,0,0,0,0,0,0,0,0,0,0,0,0,0,0,0,0,0,0,0,0],"id":13,"left_children":[1,3,5,7,9,11,13,15,17,19,21,-1,23,25,27,29,31,33,35,37,39,-1,41,43,-1,-1,45,47,49,51,53,55,57,59,61,63,65,67,-1,69,71,-1,-1,-1,-1,-1,-1,-1,-1,73,-1,-1,-1,-1,-1,-1,-1,-1,-1,-1,-1,-1,-1,-1,-1,-1,-1,-1,-1,-1,-1,-1,-1,-1,-1],"loss_changes":[4.3762636E0,4.1450696E0,2.157586E0,6.080018E0,2.2709293E0,8.356433E-1,3.3030808E-1,4.6248994E0,1.1801834E0,1.383774E0,5.2717066E-1,0E0,1.4971924E-1,9.5749736E-2,4.00183E-2,4.9889536E0,8.358412E0,1.0328898E0,7.9543746E-1,1.0553598E0,2.0418549E-1,0E0,3.12289E-2,7.7445507E-3,0E0,0E0,7.215824E-3,7.05421E-4,1.7715809E-3,4.2014093E0,7.107299E0,5.5659027E0,2.3731842E0,1.5792847E-3,8.235328E-1,5.8644637E-2,4.8728514E-1,5.964873E-1,0E0,3.843303E-2,8.1875324E-2,0E0,0E0,0E0,0E0,0E0,0E0,0E0,0E0,4.3805703E-5,0E0,0E0,0E0,0E0,0E0,0E0,0E0,0E0,0E0,0E0,0E0,0E0,0E0,0E0,0E0,0E0,0E0,0E0,0E0,0E0,0E0,0E0,0E0,0E0,0E0],"parents":[2147483647,0,0,1,1,2,2,3,3,4,4,5,5,6,6,7,7,8,8,9,9,10,10,12,12,13,13,14,14,15,15,16,16,17,17,18,18,19,19,20,20,22,22,23,23,26,26,27,27,28,28,29,29,30,30,31,31,32,32,33,33,34,34,35,35,36,36,37,37,39,39,40,40,49,49],"right_children":[2,4,6,8,10,12,14,16,18,20,22,-1,24,26,28,30,32,34,36,38,40,-1,42,44,-1,-1,46,48,50,52,54,56,58,60,62,64,66,68,-1,70,72,-1,-1,-1,-1,-1,-1,-1,-1,74,-1,-1,-1,-1,-1,-1,-1,-1,-1,-1,-1,-1,-1,-1,-1,-1,-1,-1,-1,-1,-1,-1,-1,-1,-1],"split_conditions":[5.2E1,3E0,4.3152E2,3.6300375E0,2.0354168E0,5.8E1,1E0,1.9500394E-1,3.6145504E1,4.22E0,4.4747875E1,7.219323E-2,4.1758156E1,1.884058E1,5.8932518E1,1.3527743E0,4.5478E0,4.376235E2,1.5E1,1.13132355E2,7.5067474E1,-8.035838E-2,5.4972046E1,1.01E-2,-4.082264E-3,3.4559272E-2,4.261539E1,4.736434E1,2.403E-1,6E0,1.4821708E0,4.920256E1,9E0,1.3E1,7.493621E1,8.345882E1,5.711702E0,5E0,5.3299952E-2,1.4E-2,6.0345486E1,-3.8806114E-2,-1.34117445E-2,8.981675E-3,3.417031E-2,1.1640339E-2,2.5378584E-3,-7.873535E-3,-1.9144382E-2,2.285E-1,-2.80344E-3,6.699114E-2,-1.5026984E-3,-6.551056E-2,-9.697353E-3,9.290031E-3,4.2229857E-2,-2.1333614E-2,2.9996673E-2,2.798208E-2,1.0043023E-1,-9.571971E-3,4.3502074E-2,-1.913902E-2,7.579794E-4,-8.264703E-3,3.3101108E-2,-2.4415791E-2,9.847018E-3,-1.3178127E-2,1.478455E-3,9.694554E-3,2.7719045E-2,1.0766983E-4,8.363724E-4],"split_indices":[18,44,52,33,33,9,4,40,3,10,1,0,1,2,34,33,7,52,9,35,42,0,1,0,0,0,1,1,0,25,33,1,26,9,35,34,2,44,0,57,1,0,0,0,0,0,0,0,0,0,0,0,0,0,0,0,0,0,0,0,0,0,0,0,0,0,0,0,0,0,0,0,0,0,0],"split_type":[0,0,0,0,0,0,0,0,0,0,0,0,0,0,0,0,0,0,0,0,0,0,0,0,0,0,0,0,0,0,0,0,0,0,0,0,0,0,0,0,0,0,0,0,0,0,0,0,0,0,0,0,0,0,0,0,0,0,0,0,0,0,0,0,0,0,0,0,0,0,0,0,0,0,0],"sum_hessian":[2.75E3,2.712E3,3.8E1,2.609E3,1.03E2,2.2E1,1.6E1,2.556E3,5.3E1,8.7E1,1.6E1,1.1E1,1.1E1,7E0,9E0,1.985E3,5.71E2,2.8E1,2.5E1,6.8E1,1.9E1,5E0,1.1E1,1E1,1E0,2E0,5E0,4E0,5E0,1.832E3,1.53E2,4.6E2,1.11E2,4E0,2.4E1,6E0,1.9E1,6.7E1,1E0,6E0,1.3E1,9E0,2E0,1E0,9E0,3E0,2E0,3E0,1E0,3E0,2E0,8E0,1.824E3,2.7E1,1.26E2,4.02E2,5.8E1,1.02E2,9E0,1E0,3E0,3E0,2.1E1,4E0,2E0,3E0,1.6E1,6.2E1,5E0,2E0,4E0,9E0,4E0,2E0,1E0],"tree_param":{"num_deleted":"0","num_feature":"64","num_nodes":"75","size_leaf_vector":"1"}},{"base_weights":[6.433197E-4,-7.3255165E-3,1.754211E-1,-1.1845099E-2,3.0997613E-1,7.159317E-1,1.830187E-2,-2.1184277E-2,1.5091282E-1,5.21283E-1,1.5869011E-1,1.1660767E0,-4.483161E-2,-1.4821878E-1,1.879761E-1,-2.62585E-1,-1.0933425E-2,2.7681386E-1,-9.878738E-2,-1.2652263E-2,5.765921E-1,2.655604E-2,9.5336825E-2,4.430545E-1,1.7595349E-1,2.8506026E-3,-5.5015977E-2,-5.2187294E-2,-6.044112E-2,2.3661204E-1,-3.9401304E-2,-1.5440227E0,-1.4953032E-1,8.087189E-2,-2.878667E-2,-1.5049934E-2,3.6098084E-1,-4.563359E-1,1.9844228E-2,3.645771E-2,8.853038E-2,2.1782726E-2,1.1063525E-1,7.159144E-2,-7.699889E-2,-2.743689E-3,-6.291603E-3,1.5314458E-1,-1.4673723E-1,4.7921744E-1,1.0742227E-1,-1.9402345E-1,-2.369251E-2,-1.0618652E-2,-7.603177E-2,2.051686E-2,-8.359708E-3,-1.644832E-2,-9.013691E-4,1.5046099E-2,-3.2350164E-2,4.6482597E-2,9.91205E-3,-1.1926079E-2,-5.1182486E-2,3.4594674E-2,-4.1920124E-3,3.3364773E-3,-6.481707E-4,5.152298E-3,1.4114005E-2,9.68345E-4,-1.6852295E-2,-2.0461578E-2,2.042697E-2,-1.9335283E-2,1.1568814E-2,3.1006003E-2,7.5552024E-2,-5.0283214E-3,2.3097841E-2],"categories":[],"categories_nodes":[],"categories_segments":[],"categories_sizes":[],"default_left":[0,0,0,0,0,0,0,0,0,0,0,0,0,0,0,0,0,0,0,0,0,0,0,0,0,0,0,0,0,0,0,0,0,0,0,0,0,0,0,0,0,0,0,0,0,0,0,0,0,0,0,0,0,0,0,0,0,0,0,0,0,0,0,0,0,0,0,0,0,0,0,0,0,0,0,0,0,0,0,0,0],"id":14,"left_children":[1,3,5,7,9,11,13,15,17,19,21,23,25,27,29,31,33,35,37,-1,39,-1,41,43,-1,-1,45,-1,47,49,-1,51,53,55,57,59,61,63,65,-1,-1,67,69,-1,71,-1,-1,73,75,77,79,-1,-1,-1,-1,-1,-1,-1,-1,-1,-1,-1,-1,-1,-1,-1,-1,-1,-1,-1,-1,-1,-1,-1,-1,-1,-1,-1,-1,-1,-1],"loss_changes":[3.8328106E0,3.778146E0,1.0177851E1,3.9491825E0,1.1000855E0,9.29853E0,2.6837626E0,6.0746565E0,4.4600353E0,6.1039543E-1,1.3040572E-1,6.5148487E0,9.784158E-3,1.5427849E0,1.4235904E0,1.4256377E1,3.865505E0,2.3145704E0,2.0450501E0,0E0,5.9355974E-1,0E0,1.5594244E-2,1.3322397E0,0E0,0E0,4.5254454E-4,0E0,7.5973666E-1,1.3275752E0,0E0,3.6834068E0,2.3813322E0,7.8672433E0,5.295006E0,1.1718212E0,1.9390097E0,1.6340661E-1,7.5973797E-1,0E0,0E0,1.5257008E-3,1.6169757E-2,0E0,3.3365965E-2,0E0,0E0,2.6128328E-1,3.7712884E-1,4.6682334E-1,5.9617877E-1,0E0,0E0,0E0,0E0,0E0,0E0,0E0,0E0,0E0,0E0,0E0,0E0,0E0,0E0,0E0,0E0,0E0,0E0,0E0,0E0,0E0,0E0,0E0,0E0,0E0,0E0,0E0,0E0,0E0,0E0],"parents":[2147483647,0,0,1,1,2,2,3,3,4,4,5,5,6,6,7,7,8,8,9,9,10,10,11,11,12,12,13,13,14,14,15,15,16,16,17,17,18,18,20,20,22,22,23,23,26,26,28,28,29,29,31,31,32,32,33,33,34,34,35,35,36,36,37,37,38,38,41,41,42,42,44,44,47,47,48,48,49,49,50,50],"right_children":[2,4,6,8,10,12,14,16,18,20,22,24,26,28,30,32,34,36,38,-1,40,-1,42,44,-1,-1,46,-1,48,50,-1,52,54,56,58,60,62,64,66,-1,-1,68,70,-1,72,-1,-1,74,76,78,80,-1,-1,-1,-1,-1,-1,-1,-1,-1,-1,-1,-1,-1,-1,-1,-1,-1,-1,-1,-1,-1,-1,-1,-1,-1,-1,-1,-1,-1,-1],"split_conditions":[4.16309E1,5.037196E-3,2.4404845E-3,5.059022E-3,4.31125E2,4.508201E2,2.9E1,4.22885E2,5.41E0,3.5E-2,7.802828E1,6.096664E1,4.241486E1,4.2306836E-4,2.1E1,2.5E1,1E1,1E1,4.3262E2,-1.2652263E-2,3.6740944E1,2.655604E-2,1E0,4.80663E1,1.7595349E-1,2.8506026E-3,1.01205894E2,-5.2187294E-2,4.3753E2,4.0341243E-2,-3.9401304E-2,2.48E0,4.876024E-1,4.5193E2,2.7E1,9E0,4.4314E2,2.7178534E1,6.965405E0,3.645771E-2,8.853038E-2,6E-2,9.0064414E-2,7.159144E-2,8E-2,-2.743689E-3,-6.291603E-3,8.5E-1,3.5E-2,9.65E-1,3.0135384E-3,-1.9402345E-1,-2.369251E-2,-1.0618652E-2,-7.603177E-2,2.051686E-2,-8.359708E-3,-1.644832E-2,-9.013691E-4,1.5046099E-2,-3.2350164E-2,4.6482597E-2,9.91205E-3,-1.1926079E-2,-5.1182486E-2,3.4594674E-2,-4.1920124E-3,3.3364773E-3,-6.481707E-4,5.152298E-3,1.4114005E-2,9.68345E-4,-1.6852295E-2,-2.0461578E-2,2.042697E-2,-1.9335283E-2,1.1568814E-2,3.1006003E-2,7.5552024E-2,-5.0283214E-3,2.3097841E-2],"split_indices":[2,29,11,21,53,52,9,52,23,0,34,42,2,5,22,18,9,9,52,0,1,0,46,2,0,0,35,0,52,38,0,4,40,54,25,25,52,1,2,0,0,0,45,0,0,0,0,13,57,4,5,0,0,0,0,0,0,0,0,0,0,0,0,0,0,0,0,0,0,0,0,0,0,0,0,0,0,0,0,0,0],"split_type":[0,0,0,0,0,0,0,0,0,0,0,0,0,0,0,0,0,0,0,0,0,0,0,0,0,0,0,0,0,0,0,0,0,0,0,0,0,0,0,0,0,0,0,0,0,0,0,0,0,0,0,0,0,0,0,0,0,0,0,0,0,0,0,0,0,0,0,0,0,0,0,0,0,0,0,0,0,0,0,0,0],"sum_hessian":[2.75E3,2.631E3,1.19E2,2.595E3,3.6E1,2.6E1,9.3E1,2.455E3,1.4E2,1.4E1,2.2E1,1.6E1,1E1,4.7E1,4.6E1,9.9E1,2.356E3,9.3E1,4.7E1,1E0,1.3E1,7E0,1.5E1,8E0,8E0,1E0,9E0,8E0,3.9E1,4.3E1,3E0,7E0,9.2E1,3.83E2,1.973E3,2.1E1,7.2E1,1.1E1,3.6E1,9E0,4E0,3E0,1.2E1,5E0,3E0,3E0,6E0,1.1E1,2.8E1,1.4E1,2.9E1,5E0,2E0,8.7E1,5E0,2.18E2,1.65E2,2.5E2,1.723E3,1.4E1,7E0,5.1E1,2.1E1,2E0,9E0,5E0,3.1E1,2E0,1E0,5E0,7E0,2E0,1E0,1E0,1E1,2.4E1,4E0,1E1,4E0,1.3E1,1.6E1],"tree_param":{"num_deleted":"0","num_feature":"64","num_nodes":"81","size_leaf_vector":"1"}},{"base_weights":[6.183803E-4,-3.6684442E-3,2.9881164E-1,1.7210862E-3,-2.3039824E-1,4.7601256E-1,4.1492045E-2,-1.8265283E-2,7.359283E-2,-3.705021E-1,-1.5152481E-1,6.44649E-2,2.6770845E-1,-1.7606502E-2,3.231541E-2,-2.9501582E-2,1.7349686E-1,8.575391E-2,-6.2451595E-1,-2.9930852E-2,-4.227012E-2,-1.7703708E-1,1.3510089E-1,2.9901484E-1,-3.833084E-3,-1.247756E-1,3.2707315E-2,-1.8256841E-2,-3.0072707E-1,3.107563E-1,6.68837E-2,9.438511E-2,-6.194587E-1,-7.126859E-2,-3.140896E-2,-7.671735E-3,5.5214316E-3,-2.4409977E-1,-1.0112252E-1,2.6926398E-3,1.6218359E-2,8.577657E-3,3.11761E-2,-6.5259016E-3,-1.8142097E-2,-1.2251921E-3,9.23955E-3,3.1412248E-3,-6.1085755E-3,-4.661517E-2,2.0231199E-2,3.771687E-2,-8.50549E-3,-6.951253E-4,3.6843784E-2,1.04187345E-2,-5.194837E-2,8.50407E-3,-1.1690934E-1,-2.8659299E-2,-9.718344E-3,-1.6747205E-2,-1.8025789E-3,1.1258359E-3,-4.4305027E-3],"categories":[],"categories_nodes":[],"categories_segments":[],"categories_sizes":[],"default_left":[0,0,0,0,0,0,0,0,0,0,0,0,0,0,0,0,0,0,0,0,0,0,0,0,0,0,0,0,0,0,0,0,0,0,0,0,0,0,0,0,0,0,0,0,0,0,0,0,0,0,0,0,0,0,0,0,0,0,0,0,0,0,0,0,0],"id":15,"left_children":[1,3,5,7,9,11,13,15,17,19,21,-1,23,25,-1,27,29,31,33,35,-1,37,39,41,-1,43,45,47,49,51,53,55,57,-1,-1,-1,-1,59,61,-1,-1,-1,-1,-1,-1,63,-1,-1,-1,-1,-1,-1,-1,-1,-1,-1,-1,-1,-1,-1,-1,-1,-1,-1,-1],"loss_changes":[3.5177057E0,3.3155932E0,1.7585425E0,3.8093867E0,6.4003944E-1,6.3535833E-1,2.8866854E-1,4.4761143E0,4.952146E0,3.784535E-1,3.310415E-1,0E0,1.2643325E-1,8.4962375E-2,0E0,5.9752846E0,1.6620865E0,3.5157866E0,4.985547E-2,2.0170473E-2,0E0,1.7386651E-1,7.351607E-3,3.1559467E-3,0E0,5.0173327E-3,2.2392271E-2,4.0097013E0,6.585081E0,1.3464184E0,1.4720666E0,3.4358358E0,2.8099415E0,0E0,0E0,0E0,0E0,9.700668E-2,1.0724975E-1,0E0,0E0,0E0,0E0,0E0,0E0,4.8011164E-3,0E0,0E0,0E0,0E0,0E0,0E0,0E0,0E0,0E0,0E0,0E0,0E0,0E0,0E0,0E0,0E0,0E0,0E0,0E0],"parents":[2147483647,0,0,1,1,2,2,3,3,4,4,5,5,6,6,7,7,8,8,9,9,10,10,12,12,13,13,15,15,16,16,17,17,18,18,19,19,21,21,22,22,23,23,25,25,26,26,27,27,28,28,29,29,30,30,31,31,32,32,37,37,38,38,45,45],"right_children":[2,4,6,8,10,12,14,16,18,20,22,-1,24,26,-1,28,30,32,34,36,-1,38,40,42,-1,44,46,48,50,52,54,56,58,-1,-1,-1,-1,60,62,-1,-1,-1,-1,-1,-1,64,-1,-1,-1,-1,-1,-1,-1,-1,-1,-1,-1,-1,-1,-1,-1,-1,-1,-1,-1],"split_conditions":[5.2E1,1.7934628E-2,4.3152E2,1.9500394E-1,3.423117E1,5.8E1,4.6575344E1,6.1E1,7.237966E4,5.41685E-2,5.310402E-1,6.44649E-2,4.1758156E1,-5.0132167E-2,3.231541E-2,6.7E1,4.4877E2,2.3E1,4.9019608E1,1.65E-1,-4.227012E-2,1.9E1,5.7389294E1,1.01E-2,-3.833084E-3,3.6012756E1,2.368421E1,8E0,4.4365E2,2.969732E-1,2.4579232E0,3.2371506E1,3.295E-1,-7.126859E-2,-3.140896E-2,-7.671735E-3,5.5214316E-3,2.25E2,9.560789E0,2.6926398E-3,1.6218359E-2,8.577657E-3,3.11761E-2,-6.5259016E-3,-1.8142097E-2,3.519992E1,9.23955E-3,3.1412248E-3,-6.1085755E-3,-4.661517E-2,2.0231199E-2,3.771687E-2,-8.50549E-3,-6.951253E-4,3.6843784E-2,1.04187345E-2,-5.194837E-2,8.50407E-3,-1.1690934E-1,-2.8659299E-2,-9.718344E-3,-1.6747205E-2,-1.8025789E-3,1.1258359E-3,-4.4305027E-3],"split_indices":[18,8,52,40,1,9,3,6,33,40,40,0,1,61,0,12,53,15,3,0,0,6,1,0,0,1,2,6,53,38,33,2,0,0,0,0,0,9,2,0,0,0,0,0,0,3,0,0,0,0,0,0,0,0,0,0,0,0,0,0,0,0,0,0,0],"split_type":[0,0,0,0,0,0,0,0,0,0,0,0,0,0,0,0,0,0,0,0,0,0,0,0,0,0,0,0,0,0,0,0,0,0,0,0,0,0,0,0,0,0,0,0,0,0,0,0,0,0,0,0,0,0,0,0,0,0,0,0,0,0,0,0,0],"sum_hessian":[2.75E3,2.712E3,3.8E1,2.65E3,6.2E1,2.2E1,1.6E1,2.074E3,5.76E2,2.1E1,4.1E1,1.1E1,1.1E1,1.4E1,2E0,1.96E3,1.14E2,5.67E2,9E0,3E0,1.8E1,3.8E1,3E0,1E1,1E0,4E0,1E1,1.883E3,7.7E1,4.9E1,6.5E1,5.61E2,6E0,6E0,3E0,2E0,1E0,1.9E1,1.9E1,1E0,2E0,1E0,9E0,3E0,1E0,7E0,3E0,8.72E2,1.011E3,5.8E1,1.9E1,4.2E1,7E0,5.3E1,1.2E1,5.53E2,8E0,3E0,3E0,1.4E1,5E0,1E1,9E0,6E0,1E0],"tree_param":{"num_deleted":"0","num_feature":"64","num_nodes":"65","size_leaf_vector":"1"}},{"base_weights":[4.892716E-4,7.2712195E-3,-1.7219426E-1,1.3598321E-3,2.9121158E-1,-1.1546167E-1,-4.5573974E-1,9.564164E-3,-1.7892969E-1,8.929658E-2,2.5089476E-1,-1.7484738E-1,9.519212E-2,-6.764769E-2,-3.0739287E-1,-1.6635338E-2,8.616087E-2,-6.675779E-1,-1.19687445E-1,9.3500204E-2,3.6320072E-1,-1.9196339E-1,4.9452048E-2,3.7545413E-2,2.6062315E-2,-3.3272054E-2,-1.2050299E-2,5.965286E-2,-1.9620601E-2,1.24619E-1,-1.15269385E-1,-7.842151E-2,-5.626129E-2,-2.9127583E-1,-2.9609784E-2,4.1865358E-1,3.012469E-3,-2.1535754E-3,4.038754E-1,-2.1655986E-1,9.829349E-2,-8.825551E-2,7.336528E-2,-2.9740294E-3,1.668948E-2,3.0340372E-2,6.838679E-3,-2.8093887E-2,-2.0647566E-3,-1.8515205E-2,1.0076011E-2,-1.4813682E-3,-4.3487288E-2,8.174001E-3,-2.3715694E-2,8.0556574E-4,5.1928915E-2,-1.6197339E-2,1.6769709E-2,1.1877895E-3,-1.0790031E-3,4.127733E-2,8.626506E-3,-3.747468E-2,-1.7199142E-2,1.2405499E-2,-1.5257001E-3,-1.14284465E-2,-5.084321E-4,2.7880378E-3,8.422271E-3],"categories":[],"categories_nodes":[],"categories_segments":[],"categories_sizes":[],"default_left":[0,0,0,0,0,0,0,0,0,0,0,0,0,0,0,0,0,0,0,0,0,0,0,0,0,0,0,0,0,0,0,0,0,0,0,0,0,0,0,0,0,0,0,0,0,0,0,0,0,0,0,0,0,0,0,0,0,0,0,0,0,0,0,0,0,0,0,0,0,0,0],"id":16,"left_children":[1,3,5,7,9,11,13,15,17,-1,19,21,23,-1,25,27,29,31,33,35,37,39,-1,41,-1,-1,-1,-1,43,45,47,-1,49,51,53,55,57,59,61,63,65,67,69,-1,-1,-1,-1,-1,-1,-1,-1,-1,-1,-1,-1,-1,-1,-1,-1,-1,-1,-1,-1,-1,-1,-1,-1,-1,-1,-1,-1],"loss_changes":[3.2230325E0,4.4442225E0,1.6203516E0,3.8401186E0,1.0860438E0,1.1175086E0,3.48732E-1,4.984307E0,3.191293E0,0E0,8.8521075E-1,8.854563E-1,1.809459E-1,0E0,1.6708016E-2,3.399878E0,4.9179816E0,8.115063E-1,1.5679158E0,6.7545384E-1,4.4669008E-1,5.0675845E-1,0E0,7.8573644E-2,0E0,0E0,0E0,0E0,3.4835863E0,5.327691E0,1.5931458E0,0E0,7.937175E-2,1.3830285E0,1.5908878E0,2.0242065E-1,5.434045E-1,6.1289145E-4,4.0696144E-2,3.7970543E-1,1.9444086E-2,8.078376E-3,4.0718764E-3,0E0,0E0,0E0,0E0,0E0,0E0,0E0,0E0,0E0,0E0,0E0,0E0,0E0,0E0,0E0,0E0,0E0,0E0,0E0,0E0,0E0,0E0,0E0,0E0,0E0,0E0,0E0,0E0],"parents":[2147483647,0,0,1,1,2,2,3,3,4,4,5,5,6,6,7,7,8,8,10,10,11,11,12,12,14,14,15,15,16,16,17,17,18,18,19,19,20,20,21,21,23,23,28,28,29,29,30,30,32,32,33,33,34,34,35,35,36,36,37,37,38,38,39,39,40,40,41,41,42,42],"right_children":[2,4,6,8,10,12,14,16,18,-1,20,22,24,-1,26,28,30,32,34,36,38,40,-1,42,-1,-1,-1,-1,44,46,48,-1,50,52,54,56,58,60,62,64,66,68,70,-1,-1,-1,-1,-1,-1,-1,-1,-1,-1,-1,-1,-1,-1,-1,-1,-1,-1,-1,-1,-1,-1,-1,-1,-1,-1,-1,-1],"split_conditions":[3E0,3.6300375E0,2.0354168E0,8.04148E1,-1.0008869E-1,4.22E0,4.4747875E1,1.7228718E-1,4.2812E2,8.929658E-2,4.494E2,1.13132355E2,6.0345486E1,-6.764769E-2,5.4972046E1,6E0,4.5478E0,4.2306836E-4,5.3259623E-3,4.3253E2,4.9068894E0,5E0,4.9452048E-2,3.395253E1,2.6062315E-2,-3.3272054E-2,-1.2050299E-2,5.965286E-2,4.3972603E1,2.41536E5,8.680555E-2,-7.842151E-2,6.09E-2,2.857E3,7.96E-2,1.8E0,5.2E1,2.01E-2,4.6011E2,1.1887243E-1,2.2805689E1,5.1872284E1,7.4619705E1,-2.9740294E-3,1.668948E-2,3.0340372E-2,6.838679E-3,-2.8093887E-2,-2.0647566E-3,-1.8515205E-2,1.0076011E-2,-1.4813682E-3,-4.3487288E-2,8.174001E-3,-2.3715694E-2,8.0556574E-4,5.1928915E-2,-1.6197339E-2,1.6769709E-2,1.1877895E-3,-1.0790031E-3,4.127733E-2,8.626506E-3,-3.747468E-2,-1.7199142E-2,1.2405499E-2,-1.5257001E-3,-1.14284465E-2,-5.084321E-4,2.7880378E-3,8.422271E-3],"split_indices":[44,33,33,42,61,10,1,40,52,0,52,35,1,0,1,25,7,5,8,52,2,44,0,3,0,0,0,0,2,43,45,0,0,43,63,4,9,0,52,38,1,1,42,0,0,0,0,0,0,0,0,0,0,0,0,0,0,0,0,0,0,0,0,0,0,0,0,0,0,0,0],"split_type":[0,0,0,0,0,0,0,0,0,0,0,0,0,0,0,0,0,0,0,0,0,0,0,0,0,0,0,0,0,0,0,0,0,0,0,0,0,0,0,0,0,0,0,0,0,0,0,0,0,0,0,0,0,0,0,0,0,0,0,0,0,0,0,0,0,0,0,0,0,0,0],"sum_hessian":[2.75E3,2.647E3,1.03E2,2.594E3,5.3E1,8.7E1,1.6E1,2.482E3,1.12E2,2E0,5.1E1,6.8E1,1.9E1,5E0,1.1E1,1.85E3,6.32E2,1.1E1,1.01E2,2.2E1,2.9E1,6.7E1,1E0,1.5E1,4E0,9E0,2E0,8E0,1.842E3,5.31E2,1.01E2,9E0,2E0,3.4E1,6.7E1,4E0,1.8E1,3E0,2.6E1,6.2E1,5E0,3E0,1.2E1,1.748E3,9.4E1,1.26E2,4.05E2,3.6E1,6.5E1,1E0,1E0,1.2E1,2.2E1,4.4E1,2.3E1,1E0,3E0,9E0,9E0,1E0,2E0,2.5E1,1E0,1.2E1,5E1,4E0,1E0,2E0,1E0,3E0,9E0],"tree_param":{"num_deleted":"0","num_feature":"64","num_nodes":"71","size_leaf_vector":"1"}},{"base_weights":[4.5621666E-4,5.2311953E-2,-2.1400569E-2,3.6793336E-4,1.4754137E-1,1.2424981E-1,-3.4502797E-2,-5.7470486E-2,1.09127305E-1,2.0572847E-1,-5.9327945E-2,2.9561073E-1,-4.65295E-2,-2.282656E-1,-2.2321329E-2,-4.4245362E-2,-9.505748E-2,3.7822902E-1,4.7812168E-2,3.1741506E-1,8.816372E-2,-1.6567086E-1,1.5122083E-1,-3.4058326E-1,4.1288885E-1,5.1626104E-1,-1.15277246E-1,-1.0203598E-1,-1.1980422E0,-2.2456679E-1,-1.0680989E-2,-8.5366726E-2,1.9206217E-1,1.8778366E-1,1.0859778E-1,2.3619492E-2,6.2853193E-1,1.1485319E-1,5.0773054E-1,3.1712434E-1,-7.275072E-2,-3.434008E-2,-3.0162024E-1,4.1128274E-2,5.0538946E-2,-5.0723726E-1,1.611975E-1,7.92016E-1,1.7404708E-1,6.175763E-2,1.0777178E-2,-1.3000329E-1,2.716649E-2,5.1321095E-1,-1.9833077E-1,-1.6293501E-2,-1.3887702E-1,-1.05431296E-1,-1.0000895E0,1.599612E-1,-2.9315092E-2,-1.0038652E-2,5.404946E-2,3.1122452E-2,-2.6954863E-2,5.4383134E-3,5.8021616E-2,1.0305442E-2,-8.875794E-3,2.586715E-2,7.487943E-2,2.5722846E-2,-9.163066E-3,6.433206E-2,1.631465E-2,1.681384E-2,4.35547E-2,3.5115536E-2,-1.0576329E-2,2.7437217E-3,-2.1394862E-2,1.485477E-3,-3.3571523E-2,1.7489E-2,-1.1121723E-2,-8.661502E-2,-3.0924022E-2,-1.7378667E-2,3.307878E-2,9.4187826E-2,-2.5780892E-3,2.7894959E-2,-4.0530145E-2,2.4542413E-3,-1.587457E-2,-7.6269577E-3,1.2136499E-1,-6.2212754E-2,-1.0192958E-2,-1.506838E-1,-5.0179353E-3,-1.3570157E-1,5.301641E-3,3.6248665E-2,-2.89686E-2,-8.717028E-3,3.4812582E-3],"categories":[],"categories_nodes":[],"categories_segments":[],"categories_sizes":[],"default_left":[0,0,0,0,0,0,0,0,0,0,0,0,0,0,0,0,0,0,0,0,0,0,0,0,0,0,0,0,0,0,0,0,0,0,0,0,0,0,0,0,0,0,0,0,0,0,0,0,0,0,0,0,0,0,0,0,0,0,0,0,0,0,0,0,0,0,0,0,0,0,0,0,0,0,0,0,0,0,0,0,0,0,0,0,0,0,0,0,0,0,0,0,0,0,0,0,0,0,0,0,0,0,0,0,0,0,0],"id":17,"left_children":[1,3,5,7,9,11,13,15,17,19,21,23,25,27,29,31,-1,33,35,37,39,41,43,45,47,49,51,53,55,57,59,61,63,65,-1,67,69,71,73,75,77,79,81,-1,83,85,87,89,91,-1,-1,93,-1,95,97,-1,-1,99,101,103,105,-1,-1,-1,-1,-1,-1,-1,-1,-1,-1,-1,-1,-1,-1,-1,-1,-1,-1,-1,-1,-1,-1,-1,-1,-1,-1,-1,-1,-1,-1,-1,-1,-1,-1,-1,-1,-1,-1,-1,-1,-1,-1,-1,-1,-1,-1],"loss_changes":[3.119102E0,4.0363703E0,3.698842E0,3.3339305E0,3.478898E0,4.6961393E0,4.189186E0,4.044691E0,3.0179176E0,2.9263573E0,1.4580365E0,6.1095524E0,3.1934502E0,1.2731281E1,3.9361885E0,3.3397083E0,0E0,4.3788447E0,2.1065784E0,4.3750105E0,4.112652E0,7.573788E-1,5.5525166E-1,1.1688745E0,6.0196476E0,3.0591822E-1,4.5128065E-1,5.6708236E0,2.142807E0,8.302257E0,5.038255E0,2.799149E0,2.8892279E0,1.434266E0,0E0,1.312444E0,7.3189974E-2,1.699267E0,2.6516514E0,7.383604E-1,9.6075845E-1,2.6107198E-1,2.3158157E-1,0E0,3.6139816E-1,4.4278836E-1,2.8472674E-1,3.21076E0,2.7263885E0,0E0,0E0,3.192793E-1,0E0,5.4602013E0,3.2866576E0,0E0,0E0,6.118824E0,4.582515E0,1.4311148E1,5.3010845E0,0E0,0E0,0E0,0E0,0E0,0E0,0E0,0E0,0E0,0E0,0E0,0E0,0E0,0E0,0E0,0E0,0E0,0E0,0E0,0E0,0E0,0E0,0E0,0E0,0E0,0E0,0E0,0E0,0E0,0E0,0E0,0E0,0E0,0E0,0E0,0E0,0E0,0E0,0E0,0E0,0E0,0E0,0E0,0E0,0E0,0E0],"parents":[2147483647,0,0,1,1,2,2,3,3,4,4,5,5,6,6,7,7,8,8,9,9,10,10,11,11,12,12,13,13,14,14,15,15,17,17,18,18,19,19,20,20,21,21,22,22,23,23,24,24,25,25,26,26,27,27,28,28,29,29,30,30,31,31,32,32,33,33,35,35,36,36,37,37,38,38,39,39,40,40,41,41,42,42,44,44,45,45,46,46,47,47,48,48,51,51,53,53,54,54,57,57,58,58,59,59,60,60],"right_children":[2,4,6,8,10,12,14,16,18,20,22,24,26,28,30,32,-1,34,36,38,40,42,44,46,48,50,52,54,56,58,60,62,64,66,-1,68,70,72,74,76,78,80,82,-1,84,86,88,90,92,-1,-1,94,-1,96,98,-1,-1,100,102,104,106,-1,-1,-1,-1,-1,-1,-1,-1,-1,-1,-1,-1,-1,-1,-1,-1,-1,-1,-1,-1,-1,-1,-1,-1,-1,-1,-1,-1,-1,-1,-1,-1,-1,-1,-1,-1,-1,-1,-1,-1,-1,-1,-1,-1,-1,-1],"split_conditions":[3.983597E-1,2.9E1,8E0,3.8883236E1,4.2399E0,4.5163E2,1.51E0,7.529171E1,1.71E0,4.4534E2,4.057076E-3,8.988E-1,7.2E-1,1.43E0,4.240975E2,1.6E-1,-9.505748E-2,4.577861E1,3.45E-1,6.3080784E1,3.8020834E-1,1.3249E4,6.965405E0,4.3589745E1,1.22E0,1.7682926E1,1.56208E0,-5.8675766E-2,2.3E1,1.448603E6,4.3197E2,5.2702248E1,2.3E1,4.16309E1,1.0859778E-1,1.5E1,4.164402E1,3.808043E1,2.94686E-1,1.9280559E0,7E0,7.415E0,1.6788778E1,4.1128274E-2,8.52E-2,2.6E-1,5.5E-2,1.2916532E-1,1.4843518E-1,6.175763E-2,1.0777178E-2,4.523599E2,2.716649E-2,1.3E1,4.3829E2,-1.6293501E-2,-1.3887702E-1,1.12E0,3.7312546E1,4.69E0,2.7E1,-1.0038652E-2,5.404946E-2,3.1122452E-2,-2.6954863E-2,5.4383134E-3,5.8021616E-2,1.0305442E-2,-8.875794E-3,2.586715E-2,7.487943E-2,2.5722846E-2,-9.163066E-3,6.433206E-2,1.631465E-2,1.681384E-2,4.35547E-2,3.5115536E-2,-1.0576329E-2,2.7437217E-3,-2.1394862E-2,1.485477E-3,-3.3571523E-2,1.7489E-2,-1.1121723E-2,-8.661502E-2,-3.0924022E-2,-1.7378667E-2,3.307878E-2,9.4187826E-2,-2.5780892E-3,2.7894959E-2,-4.0530145E-2,2.4542413E-3,-1.587457E-2,-7.6269577E-3,1.2136499E-1,-6.2212754E-2,-1.0192958E-2,-1.506838E-1,-5.0179353E-3,-1.3570157E-1,5.301641E-3,3.6248665E-2,-2.89686E-2,-8.717028E-3,3.4812582E-3],"split_indices":[33,9,9,1,7,53,16,42,10,52,5,7,7,7,53,63,0,3,63,42,27,43,2,3,7,2,33,40,9,43,54,2,9,2,0,9,1,1,33,26,15,7,3,0,63,4,0,39,45,0,0,52,0,9,52,0,0,13,1,7,9,0,0,0,0,0,0,0,0,0,0,0,0,0,0,0,0,0,0,0,0,0,0,0,0,0,0,0,0,0,0,0,0,0,0,0,0,0,0,0,0,0,0,0,0,0,0],"split_type":[0,0,0,0,0,0,0,0,0,0,0,0,0,0,0,0,0,0,0,0,0,0,0,0,0,0,0,0,0,0,0,0,0,0,0,0,0,0,0,0,0,0,0,0,0,0,0,0,0,0,0,0,0,0,0,0,0,0,0,0,0,0,0,0,0,0,0,0,0,0,0,0,0,0,0,0,0,0,0,0,0,0,0,0,0,0,0,0,0,0,0,0,0,0,0,0,0,0,0,0,0,0,0,0,0,0,0],"sum_hessian":[2.75E3,8.15E2,1.935E3,5.28E2,2.87E2,1.59E2,1.776E3,3.45E2,1.83E2,2.24E2,6.3E1,7.9E1,8E1,1.04E2,1.672E3,3.41E2,4E0,3.3E1,1.5E2,1.14E2,1.1E2,4.2E1,2.1E1,1.2E1,6.7E1,8E0,7.2E1,9.3E1,1.1E1,9E1,1.582E3,2.91E2,5E1,2.7E1,6E0,1.45E2,5E0,5.6E1,5.8E1,4.5E1,6.5E1,2.2E1,2E1,5E0,1.6E1,9E0,3E0,2.5E1,4.2E1,6E0,2E0,7E1,2E0,1.2E1,8.1E1,2E0,9E0,7.9E1,1.1E1,1.55E2,1.427E3,2.85E2,6E0,4E1,1E1,2.1E1,6E0,8.5E1,6E1,2E0,3E0,3.3E1,2.3E1,4.1E1,1.7E1,2.1E1,2.4E1,4E0,6.1E1,1.7E1,5E0,2E0,1.8E1,9E0,7E0,2E0,7E0,1E0,2E0,2.1E1,4E0,3.6E1,6E0,1.1E1,5.9E1,7E0,5E0,1.4E1,6.7E1,2E0,7.7E1,8E0,3E0,1.07E2,4.8E1,7.5E2,6.77E2],"tree_param":{"num_deleted":"0","num_feature":"64","num_nodes":"107","size_leaf_vector":"1"}},{"base_weights":[4.3667256E-4,6.5045306E-3,-1.5406452E-1,1.2305719E-3,2.5982708E-1,-1.02170534E-1,-4.1362965E-1,1.1624896E-2,-1.0830797E-1,8.201914E-2,2.2250171E-1,-1.549857E-1,8.51503E-2,-6.1283965E-2,-2.795555E-1,2.3620958E-3,2.1765363E-1,-5.8520883E-1,-2.3292674E-2,9.1414995E-2,3.315969E-1,-1.7123E-1,4.748138E-2,3.2379027E-2,2.3698831E-2,-3.1067237E-2,-1.396537E-2,3.0297123E-2,-5.474686E-2,-6.313613E-2,3.9247802E-1,2.1275735E-1,-7.3012567E-1,3.321182E-1,-6.655044E-2,3.755826E-1,1.9402947E-2,-1.4723986E-3,3.7162414E-1,-1.9415987E-1,9.807179E-2,-8.548023E-2,6.615272E-2,1.9647998E-3,3.5067387E-2,-6.9028786E-3,5.6175627E-2,8.9238834E-4,-9.548509E-2,3.1081349E-2,1.1164888E-1,-7.5512384E-5,4.2652156E-2,-7.928344E-2,7.7627907E-3,7.066645E-2,-7.680143E-4,-1.9768974E-2,3.9327443E-3,1.0161847E-3,4.6439733E-2,1.0977541E-2,-1.41174225E-2,1.5642494E-3,-1.2391527E-3,7.7946605E-3,3.806129E-2,-1.5768532E-2,-3.5225E-2,1.2136854E-2,-9.205982E-4,-1.0959315E-2,-6.5707415E-4,1.8866757E-3,7.303501E-3],"categories":[],"categories_nodes":[],"categories_segments":[],"categories_sizes":[],"default_left":[0,0,0,0,0,0,0,0,0,0,0,0,0,0,0,0,0,0,0,0,0,0,0,0,0,0,0,0,0,0,0,0,0,0,0,0,0,0,0,0,0,0,0,0,0,0,0,0,0,0,0,0,0,0,0,0,0,0,0,0,0,0,0,0,0,0,0,0,0,0,0,0,0,0,0],"id":18,"left_children":[1,3,5,7,9,11,13,15,17,-1,19,21,23,-1,25,27,29,31,33,35,37,39,-1,41,-1,-1,-1,43,45,47,49,51,53,55,57,59,61,63,65,67,69,71,73,-1,-1,-1,-1,-1,-1,-1,-1,-1,-1,-1,-1,-1,-1,-1,-1,-1,-1,-1,-1,-1,-1,-1,-1,-1,-1,-1,-1,-1,-1,-1,-1],"loss_changes":[2.580041E0,3.5374417E0,1.3586056E0,2.9558718E0,9.469602E-1,8.8381445E-1,2.8272867E-1,4.524309E0,9.108739E0,0E0,7.13336E-1,7.8721786E-1,1.5258026E-1,0E0,8.8531375E-3,3.623081E0,5.0318465E0,4.087056E0,2.9739647E0,5.042999E-1,3.7383842E-1,4.389453E-1,0E0,6.9343425E-2,0E0,0E0,0E0,5.196001E0,6.6071978E0,2.5788002E0,3.3779192E0,2.7417E-1,1.5304871E0,2.6781008E0,2.395952E0,1.5755463E-1,3.2024428E-1,9.413533E-4,3.6327362E-2,3.0772996E-1,1.611266E-2,6.8908427E-3,2.8527267E-3,0E0,0E0,0E0,0E0,0E0,0E0,0E0,0E0,0E0,0E0,0E0,0E0,0E0,0E0,0E0,0E0,0E0,0E0,0E0,0E0,0E0,0E0,0E0,0E0,0E0,0E0,0E0,0E0,0E0,0E0,0E0,0E0],"parents":[2147483647,0,0,1,1,2,2,3,3,4,4,5,5,6,6,7,7,8,8,10,10,11,11,12,12,14,14,15,15,16,16,17,17,18,18,19,19,20,20,21,21,23,23,27,27,28,28,29,29,30,30,31,31,32,32,33,33,34,34,35,35,36,36,37,37,38,38,39,39,40,40,41,41,42,42],"right_children":[2,4,6,8,10,12,14,16,18,-1,20,22,24,-1,26,28,30,32,34,36,38,40,-1,42,-1,-1,-1,44,46,48,50,52,54,56,58,60,62,64,66,68,70,72,74,-1,-1,-1,-1,-1,-1,-1,-1,-1,-1,-1,-1,-1,-1,-1,-1,-1,-1,-1,-1,-1,-1,-1,-1,-1,-1,-1,-1,-1,-1,-1,-1],"split_conditions":[3E0,3.6300375E0,2.0354168E0,1.3527743E0,-1.0008869E-1,4.22E0,4.4747875E1,1.0209405E0,1.4821708E0,8.201914E-2,4.50815E2,1.13132355E2,6.0345486E1,-6.1283965E-2,5.4714294E1,4.5109E2,4.401E2,2.44E0,4.3414E2,4.3253E2,4.9068894E0,5E0,4.748138E-2,3.395253E1,2.3698831E-2,-3.1067237E-2,-1.396537E-2,4.3972603E1,3.9E1,4.876024E-1,3.6120978E-1,1.19E0,4.2306836E-4,5.6321896E-3,4.4783E2,1.8E0,1.0642763E-1,2.01E-2,2.5591187E-3,4.017094E1,2.2805689E1,5.1872284E1,3.6541145E1,1.9647998E-3,3.5067387E-2,-6.9028786E-3,5.6175627E-2,8.9238834E-4,-9.548509E-2,3.1081349E-2,1.1164888E-1,-7.5512384E-5,4.2652156E-2,-7.928344E-2,7.7627907E-3,7.066645E-2,-7.680143E-4,-1.9768974E-2,3.9327443E-3,1.0161847E-3,4.6439733E-2,1.0977541E-2,-1.41174225E-2,1.5642494E-3,-1.2391527E-3,7.7946605E-3,3.806129E-2,-1.5768532E-2,-3.5225E-2,1.2136854E-2,-9.205982E-4,-1.0959315E-2,-6.5707415E-4,1.8866757E-3,7.303501E-3],"split_indices":[44,33,33,33,61,10,1,33,33,0,53,35,1,0,1,53,52,4,53,52,2,44,0,3,0,0,0,2,25,40,40,4,5,5,54,4,40,0,8,3,1,1,3,0,0,0,0,0,0,0,0,0,0,0,0,0,0,0,0,0,0,0,0,0,0,0,0,0,0,0,0,0,0,0,0],"split_type":[0,0,0,0,0,0,0,0,0,0,0,0,0,0,0,0,0,0,0,0,0,0,0,0,0,0,0,0,0,0,0,0,0,0,0,0,0,0,0,0,0,0,0,0,0,0,0,0,0,0,0,0,0,0,0,0,0,0,0,0,0,0,0,0,0,0,0,0,0,0,0,0,0,0,0],"sum_hessian":[2.75E3,2.647E3,1.03E2,2.594E3,5.3E1,8.7E1,1.6E1,2.37E3,2.24E2,2E0,5.1E1,6.8E1,1.9E1,5E0,1.1E1,2.269E3,1.01E2,3.3E1,1.91E2,2.4E1,2.7E1,6.7E1,1E0,1.5E1,4E0,8E0,3E0,1.524E3,7.45E2,3.9E1,6.2E1,5E0,2.8E1,2E1,1.71E2,4E0,2E1,3E0,2.4E1,6.2E1,5E0,3E0,1.2E1,1.476E3,4.8E1,7.29E2,1.6E1,3.7E1,2E0,5.7E1,5E0,3E0,2E0,2.6E1,2E0,9E0,1.1E1,7.6E1,9.5E1,1E0,3E0,1.3E1,7E0,1E0,2E0,1E0,2.3E1,5.2E1,1E1,4E0,1E0,2E0,1E0,2E0,1E1],"tree_param":{"num_deleted":"0","num_feature":"64","num_nodes":"75","size_leaf_vector":"1"}},{"base_weights":[4.855978E-4,3.8982006E-3,-2.6444376E-1,1.4812517E-2,-7.937481E-2,-4.9637303E-1,1.662345E-1,4.3847742E-3,1.5175818E-1,-1.5279151E-1,-3.402084E-2,-1.1588178E-1,-9.009197E-1,3.6637017E-1,-3.756633E-2,1.2677501E-2,-1.6221523E-1,1.16391644E-1,6.523844E-2,-8.254219E-2,-2.0901759E-1,1.2537639E-1,-5.3864945E-2,-1.9063789E-1,3.905958E-2,-2.3594385E-2,-1.2471997E-1,5.523894E-1,-2.5180457E-2,3.1578403E-2,-6.935292E-2,-5.0848824E-1,-9.035984E-2,7.326073E-2,4.748893E-1,-1.9177641E-1,-5.7001222E-2,-1.376838E-1,-2.9002873E-2,-7.5625494E-2,1.8894315E-1,8.380128E-2,-8.292555E-2,-3.287407E-2,-4.503009E-2,1.8671203E-2,7.344534E-2,1.4178901E-2,7.9065777E-4,-1.13534825E-2,4.0829208E-2,-6.354617E-2,9.478419E-3,-4.0466547E-2,-3.6121744E-3,1.1724542E-2,-2.2228306E-2,-9.996685E-3,6.052133E-2,-2.2840315E-2,6.893219E-3,-7.0586912E-3,6.8518813E-3,-6.8267332E-3,-1.575581E-2,1.6637066E-3,-1.2591603E-2,2.206253E-2,9.408831E-3,-9.916286E-3,1.316792E-2,-1.1211255E-2,9.47554E-3,6.398741E-3,-1.0143458E-2],"categories":[],"categories_nodes":[],"categories_segments":[],"categories_sizes":[],"default_left":[0,0,0,0,0,0,0,0,0,0,0,0,0,0,0,0,0,0,0,0,0,0,0,0,0,0,0,0,0,0,0,0,0,0,0,0,0,0,0,0,0,0,0,0,0,0,0,0,0,0,0,0,0,0,0,0,0,0,0,0,0,0,0,0,0,0,0,0,0,0,0,0,0,0,0],"id":19,"left_children":[1,3,5,7,9,11,13,15,17,19,21,23,25,27,-1,29,31,33,-1,35,37,39,41,43,-1,-1,-1,45,-1,47,49,51,53,55,57,59,61,63,-1,65,67,69,71,-1,73,-1,-1,-1,-1,-1,-1,-1,-1,-1,-1,-1,-1,-1,-1,-1,-1,-1,-1,-1,-1,-1,-1,-1,-1,-1,-1,-1,-1,-1,-1],"loss_changes":[2.488206E0,2.47057E0,3.5785553E0,3.4309003E0,1.0436697E0,3.4359088E0,1.5475218E0,3.0884802E0,2.9339879E0,4.567287E-1,6.2672E-1,5.666722E-1,2.238677E0,1.289018E0,0E0,3.3030953E0,2.5915005E0,2.4391823E0,0E0,1.4251563E-1,3.4147072E-1,2.9538375E-1,7.070656E-1,2.2650287E-1,0E0,0E0,0E0,3.954823E-1,0E0,4.51486E0,8.466558E0,1.4390249E0,1.502596E0,1.8979754E0,1.3340993E0,1.1123344E-1,8.327924E-2,4.0289283E-2,0E0,2.9934477E-2,3.033024E-2,2.8461587E-1,7.625894E-1,0E0,4.953407E-2,0E0,0E0,0E0,0E0,0E0,0E0,0E0,0E0,0E0,0E0,0E0,0E0,0E0,0E0,0E0,0E0,0E0,0E0,0E0,0E0,0E0,0E0,0E0,0E0,0E0,0E0,0E0,0E0,0E0,0E0],"parents":[2147483647,0,0,1,1,2,2,3,3,4,4,5,5,6,6,7,7,8,8,9,9,10,10,11,11,12,12,13,13,15,15,16,16,17,17,19,19,20,20,21,21,22,22,23,23,27,27,29,29,30,30,31,31,32,32,33,33,34,34,35,35,36,36,37,37,39,39,40,40,41,41,42,42,44,44],"right_children":[2,4,6,8,10,12,14,16,18,20,22,24,26,28,-1,30,32,34,-1,36,38,40,42,44,-1,-1,-1,46,-1,48,50,52,54,56,58,60,62,64,-1,66,68,70,72,-1,74,-1,-1,-1,-1,-1,-1,-1,-1,-1,-1,-1,-1,-1,-1,-1,-1,-1,-1,-1,-1,-1,-1,-1,-1,-1,-1,-1,-1,-1,-1],"split_conditions":[8.5E-1,4.6011E2,1.04E0,4.563E2,4.7087E2,1.295773E6,4.4565487E1,8.04148E1,3.8E1,1.85207E5,1.6963884E1,1.7E1,2.1425E0,1.6959095E1,-3.756633E-2,4.5109E2,3.64178E1,2.2593354E-1,6.523844E-2,-5.0962012E-2,3.22E0,1.969394E1,2.2714286E-1,2.0608585E-1,3.905958E-2,-2.3594385E-2,-1.2471997E-1,2.01E-2,-2.5180457E-2,1.25E0,3.43E0,1.98E-1,1.9E1,2.7849948E-1,1.633E0,1.015E-1,7.3E-2,4.5953043E-2,-2.9002873E-2,1.4412351E1,3.1021269E1,2.3355637E1,1.8871328E0,-3.287407E-2,4.2306836E-4,1.8671203E-2,7.344534E-2,1.4178901E-2,7.9065777E-4,-1.13534825E-2,4.0829208E-2,-6.354617E-2,9.478419E-3,-4.0466547E-2,-3.6121744E-3,1.1724542E-2,-2.2228306E-2,-9.996685E-3,6.052133E-2,-2.2840315E-2,6.893219E-3,-7.0586912E-3,6.8518813E-3,-6.8267332E-3,-1.575581E-2,1.6637066E-3,-1.2591603E-2,2.206253E-2,9.408831E-3,-9.916286E-3,1.316792E-2,-1.1211255E-2,9.47554E-3,6.398741E-3,-1.0143458E-2],"split_indices":[0,55,0,54,54,43,3,42,25,43,15,15,4,2,0,53,1,40,0,38,7,3,33,61,0,0,0,57,0,7,7,57,12,38,7,0,63,40,0,3,1,3,33,0,5,0,0,0,0,0,0,0,0,0,0,0,0,0,0,0,0,0,0,0,0,0,0,0,0,0,0,0,0,0,0],"split_type":[0,0,0,0,0,0,0,0,0,0,0,0,0,0,0,0,0,0,0,0,0,0,0,0,0,0,0,0,0,0,0,0,0,0,0,0,0,0,0,0,0,0,0,0,0,0,0,0,0,0,0,0,0,0,0,0,0,0,0,0,0,0,0,0,0,0,0,0,0,0,0,0,0,0,0],"sum_hessian":[2.75E3,2.716E3,3.4E1,2.402E3,3.14E2,2.2E1,1.2E1,2.233E3,1.69E2,1.19E2,1.95E2,1.2E1,1E1,9E0,3E0,2.128E3,1.05E2,1.59E2,1E1,5.4E1,6.5E1,2.1E1,1.74E2,1.1E1,1E0,4E0,6E0,7E0,2E0,1.73E3,3.98E2,1.7E1,8.8E1,1.43E2,1.6E1,9E0,4.5E1,3.6E1,2.9E1,5E0,1.6E1,3E1,1.44E2,5E0,6E0,3E0,4E0,3.05E2,1.425E3,3.65E2,3.3E1,1.4E1,3E0,1.2E1,7.6E1,1.25E2,1.8E1,3E0,1.3E1,8E0,1E0,4.1E1,4E0,9E0,2.7E1,2E0,3E0,1.1E1,5E0,6E0,2.4E1,1.24E2,2E1,2E0,4E0],"tree_param":{"num_deleted":"0","num_feature":"64","num_nodes":"75","size_leaf_vector":"1"}},{"base_weights":[3.9682875E-4,-3.1560706E-3,2.475409E-1,-6.6082003E-3,2.4669547E-1,3.9350826E-1,3.5494428E-2,-1.3129382E-1,2.9162671E-3,4.2375302E-1,1.2049728E-1,5.4599006E-2,2.0823415E-1,1.6380806E-1,-7.070592E-2,-6.44817E-1,-6.708628E-2,1.6282965E-1,-5.8974917E-3,-6.9741607E-3,4.905552E-1,2.479904E-2,7.130528E-2,2.339005E-2,-3.7047758E-3,5.1926337E-3,2.627082E-2,-1.2521069E-2,-1.3500969E-2,-2.4518996E-1,-1.6030195E-1,-8.839519E-3,-5.907872E-1,5.0935674E-1,-9.808161E-2,-8.4637314E-2,9.359589E-3,-1.1245138E-2,1.0199013E-2,3.218996E-1,7.8955546E-2,1.6031861E-3,7.991785E-2,-2.2790708E-2,3.385673E-3,-1.033252E-1,1.6151455E-3,-1.8435003E-2,1.4751543E-2,-8.143054E-2,-3.0162597E-2,4.0118575E-2,7.7827826E-2,1.9663153E-2,-3.4727376E-2,6.1671913E-4,-2.0212198E-2,1.5625948E-2,-5.8930553E-4,7.864925E-3,3.4018863E-2,1.413095E-3,-1.1726171E-3,4.4783084E-3,1.0945472E-2,-6.671965E-4,-2.5939634E-3,-6.6880886E-5,5.7473185E-4],"categories":[],"categories_nodes":[],"categories_segments":[],"categories_sizes":[],"default_left":[0,0,0,0,0,0,0,0,0,0,0,0,0,0,0,0,0,0,0,0,0,0,0,0,0,0,0,0,0,0,0,0,0,0,0,0,0,0,0,0,0,0,0,0,0,0,0,0,0,0,0,0,0,0,0,0,0,0,0,0,0,0,0,0,0,0,0,0,0],"id":20,"left_children":[1,3,5,7,9,11,13,15,17,19,21,-1,23,25,27,29,31,33,35,37,39,-1,41,-1,-1,-1,-1,-1,43,45,-1,47,49,51,53,55,57,-1,-1,59,-1,61,63,65,67,-1,-1,-1,-1,-1,-1,-1,-1,-1,-1,-1,-1,-1,-1,-1,-1,-1,-1,-1,-1,-1,-1,-1,-1],"loss_changes":[2.4163737E0,2.3416467E0,1.1931558E0,3.1794918E0,7.756798E-1,5.36077E-1,2.4324039E-1,6.2214317E0,3.507642E0,4.3502402E-1,1.2656474E-1,0E0,8.421135E-2,7.487948E-2,2.9488958E-2,7.6483517E0,5.1804376E0,1.1803624E1,2.8347526E0,4.594868E-2,4.0140724E-1,0E0,1.0677516E-2,0E0,0E0,0E0,0E0,0E0,1.0183969E-3,3.3119407E0,0E0,4.253253E0,8.531418E-1,1.3167772E0,5.5763E0,4.087143E0,4.43061E0,0E0,0E0,1.7732382E-2,0E0,6.666631E-4,1.17026195E-2,2.9958552E-5,3.2569602E-5,0E0,0E0,0E0,0E0,0E0,0E0,0E0,0E0,0E0,0E0,0E0,0E0,0E0,0E0,0E0,0E0,0E0,0E0,0E0,0E0,0E0,0E0,0E0,0E0],"parents":[2147483647,0,0,1,1,2,2,3,3,4,4,5,5,6,6,7,7,8,8,9,9,10,10,12,12,13,13,14,14,15,15,16,16,17,17,18,18,19,19,20,20,22,22,28,28,29,29,31,31,32,32,33,33,34,34,35,35,36,36,39,39,41,41,42,42,43,43,44,44],"right_children":[2,4,6,8,10,12,14,16,18,20,22,-1,24,26,28,30,32,34,36,38,40,-1,42,-1,-1,-1,-1,-1,44,46,-1,48,50,52,54,56,58,-1,-1,60,-1,62,64,66,68,-1,-1,-1,-1,-1,-1,-1,-1,-1,-1,-1,-1,-1,-1,-1,-1,-1,-1,-1,-1,-1,-1,-1,-1],"split_conditions":[5.2E1,5.037196E-3,4.3152E2,4.253E2,4.31125E2,5.8E1,1E0,2.62E0,4.3168E2,2.01E-2,6.2540184E1,5.4599006E-2,4.1758156E1,2.2493994E1,5.8932518E1,2.325E0,4.876024E-1,1.300058E-1,2.7E1,3.5E-2,3.8414436E1,2.479904E-2,-1.291795E-2,2.339005E-2,-3.7047758E-3,5.1926337E-3,2.627082E-2,-1.2521069E-2,8.256575E1,5.795E-1,-1.6030195E-1,4.09E-2,1E1,9.22567E5,1.1793044E1,1.5E1,4.3780427E0,-1.1245138E-2,1.0199013E-2,5.269461E1,7.8955546E-2,6E-2,9.0064414E-2,2.285E-1,6E-2,-1.033252E-1,1.6151455E-3,-1.8435003E-2,1.4751543E-2,-8.143054E-2,-3.0162597E-2,4.0118575E-2,7.7827826E-2,1.9663153E-2,-3.4727376E-2,6.1671913E-4,-2.0212198E-2,1.5625948E-2,-5.8930553E-4,7.864925E-3,3.4018863E-2,1.413095E-3,-1.1726171E-3,4.4783084E-3,1.0945472E-2,-6.671965E-4,-2.5939634E-3,-6.6880886E-5,5.7473185E-4],"split_indices":[18,29,52,55,53,9,4,16,55,57,34,0,1,3,34,7,40,38,25,0,1,0,61,0,0,0,0,0,36,4,0,57,6,43,2,9,23,0,0,42,0,0,45,0,0,0,0,0,0,0,0,0,0,0,0,0,0,0,0,0,0,0,0,0,0,0,0,0,0],"split_type":[0,0,0,0,0,0,0,0,0,0,0,0,0,0,0,0,0,0,0,0,0,0,0,0,0,0,0,0,0,0,0,0,0,0,0,0,0,0,0,0,0,0,0,0,0,0,0,0,0,0,0,0,0,0,0,0,0,0,0,0,0,0,0,0,0,0,0,0,0],"sum_hessian":[2.75E3,2.712E3,3.8E1,2.676E3,3.6E1,2.2E1,1.6E1,1.89E2,2.487E3,1.4E1,2.2E1,1.1E1,1.1E1,7E0,9E0,2E1,1.69E2,1.29E2,2.358E3,2E0,1.2E1,5E0,1.7E1,1E1,1E0,4E0,3E0,4E0,5E0,1.5E1,5E0,1.53E2,1.6E1,5.5E1,7.4E1,3.82E2,1.976E3,1E0,1E0,9E0,3E0,2E0,1.5E1,3E0,2E0,3E0,1.2E1,7.2E1,8.1E1,8E0,8E0,4.1E1,1.4E1,3.4E1,4E1,2.16E2,1.66E2,1.85E2,1.791E3,1E0,8E0,1E0,1E0,8E0,7E0,1E0,2E0,1E0,1E0],"tree_param":{"num_deleted":"0","num_feature":"64","num_nodes":"69","size_leaf_vector":"1"}},{"base_weights":[3.468836E-4,5.768976E-1,-1.1234996E-3,1.4214204E-1,-4.519559E-2,-1.0404775E-1,7.224343E-3,2.6765952E-2,-1.9032424E-2,-3.7911046E-1,6.3086436E-3,4.3476856E-1,4.5122905E-3,3.971386E-1,-5.2677804E-1,-4.2531E-2,3.2100892E-1,2.4540612E-2,1.332362E-1,-1.4272694E-1,1.61461E-2,8.1489205E-2,-1.8359327E-1,-3.2475775E-1,-9.357738E-1,7.7774185E-1,-8.187863E-2,8.384604E-2,1.3924228E-1,1.6083574E-1,-3.876173E-2,-1.3325319E0,-9.540091E-2,3.1612894E-1,4.4270954E-3,-2.5734201E-2,-4.864678E-3,-9.557581E-2,-2.3573404E-2,-1.0990627E-1,1.3816579E-2,1.10003255E-1,8.877364E-3,-3.2112233E-2,-3.2782515E-3,3.127508E-2,-1.2851881E-2,4.7609094E-3,1.8270826E-2,-7.7545904E-3,-6.4453285E-4,-1.4694345E-1,-2.555579E-2,2.2546759E-2,-1.6678363E-2,-1.3213076E-2,3.6886904E-2,-5.642989E-3,2.535085E-3],"categories":[],"categories_nodes":[],"categories_segments":[],"categories_sizes":[],"default_left":[0,0,0,0,0,0,0,0,0,0,0,0,0,0,0,0,0,0,0,0,0,0,0,0,0,0,0,0,0,0,0,0,0,0,0,0,0,0,0,0,0,0,0,0,0,0,0,0,0,0,0,0,0,0,0,0,0,0,0],"id":21,"left_children":[1,3,5,-1,7,9,11,-1,-1,13,15,17,19,21,23,25,27,29,-1,31,33,-1,35,37,39,41,43,-1,45,47,49,51,53,55,57,-1,-1,-1,-1,-1,-1,-1,-1,-1,-1,-1,-1,-1,-1,-1,-1,-1,-1,-1,-1,-1,-1,-1,-1],"loss_changes":[2.33281E0,3.7418454E0,2.3592432E0,0E0,2.779633E-1,6.2555065E0,2.9432244E0,0E0,0E0,6.972186E0,2.2883906E0,5.8587885E0,4.327511E0,2.5756361E0,3.8273726E0,4.2272577E0,1.764359E0,1.09767884E-1,0E0,1.0289995E1,8.228386E0,0E0,3.72418E-2,1.7407856E0,2.957653E0,1.2346344E0,1.4459687E0,0E0,7.835357E-1,1.2076348E-3,1.0780476E-2,6.5655994E-1,4.137503E0,2.1291704E0,2.8715763E0,0E0,0E0,0E0,0E0,0E0,0E0,0E0,0E0,0E0,0E0,0E0,0E0,0E0,0E0,0E0,0E0,0E0,0E0,0E0,0E0,0E0,0E0,0E0,0E0],"parents":[2147483647,0,0,1,1,2,2,4,4,5,5,6,6,9,9,10,10,11,11,12,12,13,13,14,14,15,15,16,16,17,17,19,19,20,20,22,22,23,23,24,24,25,25,26,26,28,28,29,29,30,30,31,31,32,32,33,33,34,34],"right_children":[2,4,6,-1,8,10,12,-1,-1,14,16,18,20,22,24,26,28,30,-1,32,34,-1,36,38,40,42,44,-1,46,48,50,52,54,56,58,-1,-1,-1,-1,-1,-1,-1,-1,-1,-1,-1,-1,-1,-1,-1,-1,-1,-1,-1,-1,-1,-1,-1,-1],"split_conditions":[6E0,2.3700628E1,3.7737607E-3,1.4214204E-1,7.493621E1,4.4365E2,3.908174E-3,2.6765952E-2,-1.9032424E-2,2.0723501E1,9.99E-2,3.808585E-3,2.6E1,3.79118E5,4.409869E2,4.4534E2,7E0,2.6846853E1,1.332362E-1,4.2191E2,7.563294E-3,8.1489205E-2,1.17365265E1,4.2511E2,3.1634792E1,6.09E-2,4.5062E2,8.384604E-2,9.206349E-1,8.5E-2,8.6E-1,1.04E0,4.3152E2,4.2243E2,2.7636368E1,-2.5734201E-2,-4.864678E-3,-9.557581E-2,-2.3573404E-2,-1.0990627E-1,1.3816579E-2,1.10003255E-1,8.877364E-3,-3.2112233E-2,-3.2782515E-3,3.127508E-2,-1.2851881E-2,4.7609094E-3,1.8270826E-2,-7.7545904E-3,-6.4453285E-4,-1.4694345E-1,-2.555579E-2,2.2546759E-2,-1.6678363E-2,-1.3213076E-2,3.6886904E-2,-5.642989E-3,2.535085E-3],"split_indices":[18,3,17,0,35,53,17,0,0,3,57,8,18,43,52,52,9,3,0,52,17,0,2,52,1,0,53,0,19,0,4,0,52,52,1,0,0,0,0,0,0,0,0,0,0,0,0,0,0,0,0,0,0,0,0,0,0,0,0],"split_type":[0,0,0,0,0,0,0,0,0,0,0,0,0,0,0,0,0,0,0,0,0,0,0,0,0,0,0,0,0,0,0,0,0,0,0,0,0,0,0,0,0,0,0,0,0,0,0,0,0,0,0,0,0,0,0,0,0,0,0],"sum_hessian":[2.75E3,6E0,2.744E3,2E0,4E0,2.05E2,2.539E3,1E0,3E0,5.8E1,1.47E2,1.5E1,2.524E3,9E0,4.9E1,1.28E2,1.9E1,1.1E1,4E0,1.84E2,2.34E3,5E0,4E0,3.4E1,1.5E1,5E0,1.23E2,4E0,1.5E1,3E0,8E0,6E0,1.78E2,8.7E1,2.253E3,2E0,2E0,3E0,3.1E1,1.3E1,2E0,3E0,2E0,2E1,1.03E2,9E0,6E0,1E0,2E0,3E0,5E0,5E0,1E0,3.2E1,1.46E2,9E0,7.8E1,5.76E2,1.677E3],"tree_param":{"num_deleted":"0","num_feature":"64","num_nodes":"59","size_leaf_vector":"1"}},{"base_weights":[3.7511022E-4,6.5974016E-3,-1.3376425E-1,-1.9851371E-3,1.2204817E-1,-1.8565679E-1,1.10549875E-1,4.1364614E-2,-3.9215736E-2,4.8488694E-1,6.1182845E-2,-2.8399137E-1,-5.6973934E-2,2.1960883E-1,-1.5452059E-1,-9.744585E-2,7.382963E-2,4.107479E-2,-7.774001E-2,1.0732353E-2,4.956965E-2,2.0343843E-1,-2.193722E-2,-3.182026E-1,5.9837988E-3,6.425705E-2,-1.866362E-1,8.757833E-2,2.7166104E-2,-6.821752E-6,-1.8025128E-2,6.955002E-2,-1.802671E-1,1.4233212E-1,7.944872E-3,-1.6810718E-1,8.744265E-2,-2.8806517E-1,-4.0455963E-2,5.0410382E-2,2.710408E-1,1.7462863E-2,-3.7828425E-1,1.6305177E-2,-3.4071383E-1,2.03127E-1,-4.9444843E-2,-1.2783305E-1,-2.5737038E-2,1.3001174E-3,9.989353E-3,1.633173E-2,-1.5098092E-2,-3.1536054E-2,-9.812079E-3,7.238775E-3,7.2660826E-2,-4.075209E-3,1.927135E-2,-1.3469818E-1,-6.8910546E-3,5.081054E-4,2.3631176E-2,-1.17542796E-1,-2.37287E-2,1.3266592E-1,-4.582751E-3,7.887547E-3,-1.2769522E-2,2.1774542E-2,5.36757E-2,-1.1171694E-2,1.3046834E-2,-4.4116415E-2,9.381734E-3,-4.260037E-2,-2.5848595E-2,3.711979E-2,5.4058204E-3,-1.0422273E-2,2.022199E-3,-1.4774059E-2,-4.112906E-3],"categories":[],"categories_nodes":[],"categories_segments":[],"categories_sizes":[],"default_left":[0,0,0,0,0,0,0,0,0,0,0,0,0,0,0,0,0,0,0,0,0,0,0,0,0,0,0,0,0,0,0,0,0,0,0,0,0,0,0,0,0,0,0,0,0,0,0,0,0,0,0,0,0,0,0,0,0,0,0,0,0,0,0,0,0,0,0,0,0,0,0,0,0,0,0,0,0,0,0,0,0,0,0],"id":22,"left_children":[1,3,5,7,9,11,13,15,17,19,21,23,25,27,29,31,33,35,37,-1,-1,39,41,43,-1,45,47,49,-1,-1,-1,51,53,55,57,59,61,63,65,67,69,71,73,-1,75,77,79,81,-1,-1,-1,-1,-1,-1,-1,-1,-1,-1,-1,-1,-1,-1,-1,-1,-1,-1,-1,-1,-1,-1,-1,-1,-1,-1,-1,-1,-1,-1,-1,-1,-1,-1,-1],"loss_changes":[2.2970161E0,2.606206E0,1.56725E0,3.9541545E0,3.989676E0,1.2618713E0,6.699169E-1,5.108535E0,4.0799437E0,5.2913666E-2,1.8608768E0,6.8952227E-1,7.193514E-1,8.616805E-2,2.7806863E-2,2.9861608E0,4.142052E0,4.1660094E0,6.975367E0,0E0,0E0,5.863502E-1,1.4106162E0,6.189017E-1,0E0,3.8899824E-1,5.8606148E-2,4.2118654E-3,0E0,0E0,0E0,1.513516E0,1.5670857E0,1.8337475E1,4.227761E0,9.028528E0,4.3024445E0,5.7589445E0,5.627187E0,1.0639806E-1,4.4958138E-1,1.3429958E0,3.3824575E-1,0E0,2.4054432E-1,2.555291E-1,5.5534415E-2,1.8088445E-2,0E0,0E0,0E0,0E0,0E0,0E0,0E0,0E0,0E0,0E0,0E0,0E0,0E0,0E0,0E0,0E0,0E0,0E0,0E0,0E0,0E0,0E0,0E0,0E0,0E0,0E0,0E0,0E0,0E0,0E0,0E0,0E0,0E0,0E0,0E0],"parents":[2147483647,0,0,1,1,2,2,3,3,4,4,5,5,6,6,7,7,8,8,9,9,10,10,11,11,12,12,13,13,14,14,15,15,16,16,17,17,18,18,21,21,22,22,23,23,25,25,26,26,27,27,31,31,32,32,33,33,34,34,35,35,36,36,37,37,38,38,39,39,40,40,41,41,42,42,44,44,45,45,46,46,47,47],"right_children":[2,4,6,8,10,12,14,16,18,20,22,24,26,28,30,32,34,36,38,-1,-1,40,42,44,-1,46,48,50,-1,-1,-1,52,54,56,58,60,62,64,66,68,70,72,74,-1,76,78,80,82,-1,-1,-1,-1,-1,-1,-1,-1,-1,-1,-1,-1,-1,-1,-1,-1,-1,-1,-1,-1,-1,-1,-1,-1,-1,-1,-1,-1,-1,-1,-1,-1,-1,-1,-1],"split_conditions":[9.2E1,3.9E1,4.4163E2,2.41536E5,4.5E1,5.1519E5,5.4339953E-3,3.1166212E-3,4.3714E2,6E0,1.2268658E1,9.241379E-3,1.39E2,3.1844353E1,8.8E-3,3.3639145E1,4.4643E2,4.2351E2,4.41965E2,1.0732353E-2,4.956965E-2,3.0284473E1,8.341709E-1,1.55E0,5.9837988E-3,1.0331253E1,4.1436462E1,1.124E-1,2.7166104E-2,-6.821752E-6,-1.8025128E-2,5.268964E-2,4.4651E2,4.4383E2,6.0249213E-3,2.62E0,1.301491E-1,3.2402058E-3,6E0,5.3E1,1.4403625E-1,4.9E1,2.6518381E1,1.6305177E-2,4.3867E2,4.72E0,9.3382576E1,7.901196E1,-2.5737038E-2,1.3001174E-3,9.989353E-3,1.633173E-2,-1.5098092E-2,-3.1536054E-2,-9.812079E-3,7.238775E-3,7.2660826E-2,-4.075209E-3,1.927135E-2,-1.3469818E-1,-6.8910546E-3,5.081054E-4,2.3631176E-2,-1.17542796E-1,-2.37287E-2,1.3266592E-1,-4.582751E-3,7.887547E-3,-1.2769522E-2,2.1774542E-2,5.36757E-2,-1.1171694E-2,1.3046834E-2,-4.4116415E-2,9.381734E-3,-4.260037E-2,-2.5848595E-2,3.711979E-2,5.4058204E-3,-1.0422273E-2,2.022199E-3,-1.4774059E-2,-4.112906E-3],"split_indices":[9,25,52,43,25,43,5,21,55,9,2,5,9,1,0,3,53,52,54,0,0,1,27,7,0,2,3,0,0,0,0,39,52,52,8,16,45,17,18,25,45,25,1,0,53,4,35,42,0,0,0,0,0,0,0,0,0,0,0,0,0,0,0,0,0,0,0,0,0,0,0,0,0,0,0,0,0,0,0,0,0,0,0],"split_type":[0,0,0,0,0,0,0,0,0,0,0,0,0,0,0,0,0,0,0,0,0,0,0,0,0,0,0,0,0,0,0,0,0,0,0,0,0,0,0,0,0,0,0,0,0,0,0,0,0,0,0,0,0,0,0,0,0,0,0,0,0,0,0,0,0,0,0,0,0,0,0,0,0,0,0,0,0,0,0,0,0,0,0],"sum_hessian":[2.75E3,2.629E3,1.21E2,2.448E3,1.81E2,1E2,2.1E1,1.131E3,1.317E3,2.5E1,1.56E2,5.6E1,4.4E1,1.5E1,6E0,2.14E2,9.17E2,4.27E2,8.9E2,1E0,2.4E1,5.7E1,9.9E1,5.1E1,5E0,2.3E1,2.1E1,5E0,1E1,1E0,5E0,7.1E1,1.43E2,4.49E2,4.68E2,7.7E1,3.5E2,1.33E2,7.57E2,1.8E1,3.9E1,9E1,9E0,2E0,4.9E1,1E1,1.3E1,1.3E1,8E0,1E0,4E0,5E1,2.1E1,5.3E1,9E1,4.02E2,4.7E1,3.71E2,9.7E1,5E0,7.2E1,2.26E2,1.24E2,6E0,1.27E2,2E0,7.55E2,1.6E1,2E0,3.4E1,5E0,4.2E1,4.8E1,8E0,1E0,2.2E1,2.7E1,4E0,6E0,7E0,6E0,1E1,3E0],"tree_param":{"num_deleted":"0","num_feature":"64","num_nodes":"83","size_leaf_vector":"1"}},{"base_weights":[3.3255795E-4,4.3963287E-3,-1.7312479E-1,-1.0588947E-3,1.5175521E-1,-2.3967154E-1,-7.551906E-2,4.3929135E-3,-1.8174371E-1,2.0199223E-1,-3.004822E-1,-2.8054448E-2,-2.7972472E-1,-1.05722405E-1,1.24580756E-1,-4.237954E-3,2.0286103E-1,-5.391565E-2,-4.9305278E-1,3.5838914E-1,1.1339053E-1,1.9917207E-2,-4.5029234E-2,-7.596522E-2,6.1148317E-3,-3.2574216E-1,-1.0670673E-1,-1.610716E-1,-5.4682154E-2,2.6814297E-3,1.4823148E-2,4.631911E-2,-5.9839548E-3,3.731238E-1,8.342993E-2,-1.3498828E-1,5.21295E-1,-9.184828E-2,-2.332866E-1,3.938385E-1,-1.0375093E-2,3.568049E-2,4.018298E-1,-2.202885E-3,-8.394211E-3,-2.2736866E-2,-3.7976834E-1,-1.4029527E-2,-3.8044383E-3,-1.7017838E-2,-3.5001896E-3,4.508275E-3,-7.506653E-2,-7.467586E-3,8.3226804E-4,-5.118538E-3,5.2057963E-2,2.9096773E-2,-6.076514E-3,-5.0828033E-3,-5.599561E-2,6.697393E-2,1.0012288E-2,-4.9312625E-2,2.3866057E-2,5.481993E-2,3.0892966E-2,-1.3308403E-2,8.62563E-3,-1.6221957E-2,4.6785425E-2,-4.061872E-2,-1.4750346E-2,-1.2045774E-2,-3.7313716E-3],"categories":[],"categories_nodes":[],"categories_segments":[],"categories_sizes":[],"default_left":[0,0,0,0,0,0,0,0,0,0,0,0,0,0,0,0,0,0,0,0,0,0,0,0,0,0,0,0,0,0,0,0,0,0,0,0,0,0,0,0,0,0,0,0,0,0,0,0,0,0,0,0,0,0,0,0,0,0,0,0,0,0,0,0,0,0,0,0,0,0,0,0,0,0,0],"id":23,"left_children":[1,3,5,7,9,11,13,15,17,19,21,23,25,27,29,31,33,35,37,39,41,-1,-1,43,-1,45,47,49,51,-1,-1,-1,53,55,57,59,61,-1,63,65,-1,67,69,-1,-1,-1,71,-1,-1,-1,-1,-1,73,-1,-1,-1,-1,-1,-1,-1,-1,-1,-1,-1,-1,-1,-1,-1,-1,-1,-1,-1,-1,-1,-1],"loss_changes":[1.9399159E0,2.1617825E0,3.9110708E-1,2.5560415E0,2.2417243E0,3.0576205E-1,1.763504E-1,4.3157864E0,2.9977634E0,1.1649241E0,8.3821803E-1,3.4561556E-2,2.1205854E-1,5.899313E-2,5.2742623E-3,1.9737289E0,2.10401E0,2.63523E0,2.2170014E0,5.487206E-1,1.2632964E0,0E0,0E0,3.020726E-4,0E0,4.120636E-2,1.31127015E-2,6.672412E-3,3.185524E-2,0E0,0E0,0E0,2.3661005E0,2.7170215E0,1.9030138E0,1.7240427E0,3.7058794E-1,0E0,1.9571486E0,2.1073627E-1,0E0,4.0410784E-1,5.227876E-1,0E0,0E0,0E0,2.5992393E-2,0E0,0E0,0E0,0E0,0E0,1.6069032E-2,0E0,0E0,0E0,0E0,0E0,0E0,0E0,0E0,0E0,0E0,0E0,0E0,0E0,0E0,0E0,0E0,0E0,0E0,0E0,0E0,0E0,0E0],"parents":[2147483647,0,0,1,1,2,2,3,3,4,4,5,5,6,6,7,7,8,8,9,9,10,10,11,11,12,12,13,13,14,14,15,15,16,16,17,17,18,18,19,19,20,20,23,23,25,25,26,26,27,27,28,28,32,32,33,33,34,34,35,35,36,36,38,38,39,39,41,41,42,42,46,46,52,52],"right_children":[2,4,6,8,10,12,14,16,18,20,22,24,26,28,30,32,34,36,38,40,42,-1,-1,44,-1,46,48,50,52,-1,-1,-1,54,56,58,60,62,-1,64,66,-1,68,70,-1,-1,-1,72,-1,-1,-1,-1,-1,74,-1,-1,-1,-1,-1,-1,-1,-1,-1,-1,-1,-1,-1,-1,-1,-1,-1,-1,-1,-1,-1,-1],"split_conditions":[1.7934628E-2,5.3884564E-3,8.526819E1,1.619933E6,5.7118255E-1,3.4836132E-2,5.310402E-1,3.05E-1,6.506514E-4,6.965405E0,3.27E0,2.17E0,6.647218E-1,4.3260822E1,5.7389294E1,6E0,4.3685E2,2.4487333E-1,7.0727E1,2.799E-1,8.50456E-3,1.9917207E-2,-4.5029234E-2,1.5973564E1,6.1148317E-3,2.23E0,2.0160952E-1,3.846618E1,2.8742332E1,2.6814297E-3,1.4823148E-2,4.631911E-2,3.3E1,2.5E-2,3.7E-1,6.03222E-1,1.0050522E2,-9.184828E-2,9.714663E1,3.3591993E0,-1.0375093E-2,6.7252725E-2,6.09E-2,-2.202885E-3,-8.394211E-3,-2.2736866E-2,2.37E0,-1.4029527E-2,-3.8044383E-3,-1.7017838E-2,-3.5001896E-3,4.508275E-3,2.5E1,-7.467586E-3,8.3226804E-4,-5.118538E-3,5.2057963E-2,2.9096773E-2,-6.076514E-3,-5.0828033E-3,-5.599561E-2,6.697393E-2,1.0012288E-2,-4.9312625E-2,2.3866057E-2,5.481993E-2,3.0892966E-2,-1.3308403E-2,8.62563E-3,-1.6221957E-2,4.6785425E-2,-4.061872E-2,-1.4750346E-2,-1.2045774E-2,-3.7313716E-3],"split_indices":[8,21,34,43,40,40,40,63,41,2,4,20,38,1,1,25,52,40,42,63,5,0,0,1,0,4,40,2,3,0,0,0,25,57,63,19,35,0,35,2,0,45,0,0,0,0,20,0,0,0,0,0,6,0,0,0,0,0,0,0,0,0,0,0,0,0,0,0,0,0,0,0,0,0,0],"split_type":[0,0,0,0,0,0,0,0,0,0,0,0,0,0,0,0,0,0,0,0,0,0,0,0,0,0,0,0,0,0,0,0,0,0,0,0,0,0,0,0,0,0,0,0,0,0,0,0,0,0,0,0,0,0,0,0,0,0,0,0,0,0,0,0,0,0,0,0,0,0,0,0,0,0,0],"sum_hessian":[2.75E3,2.688E3,6.2E1,2.593E3,9.5E1,3.6E1,2.6E1,2.518E3,7.5E1,8.6E1,9E0,6E0,3E1,2.3E1,3E0,2.414E3,1.04E2,5.4E1,2.1E1,3E1,5.6E1,2E0,7E0,4E0,2E0,2.3E1,7E0,1E1,1.3E1,1E0,2E0,8E0,2.406E3,4.2E1,6.2E1,4.8E1,6E0,7E0,1.4E1,2.8E1,2E0,4.5E1,1.1E1,1E0,3E0,1E1,1.3E1,4E0,3E0,9E0,1E0,2E0,1.1E1,4.14E2,1.992E3,1.1E1,3.1E1,2.5E1,3.7E1,4.1E1,7E0,4E0,2E0,9E0,5E0,8E0,2E1,1E1,3.5E1,1E0,1E1,1.1E1,2E0,4E0,7E0],"tree_param":{"num_deleted":"0","num_feature":"64","num_nodes":"75","size_leaf_vector":"1"}},{"base_weights":[2.882771E-4,5.5432543E-3,-1.335143E-1,-3.8620678E-4,1.684482E-1,-8.620662E-2,-3.7054726E-1,1.0069257E-2,-1.3366319E-1,2.3140946E-1,-2.0336251E-1,-1.671144E-1,1.9731719E-2,-5.454405E-2,-2.5222173E-1,1.8871663E-3,1.9206217E-1,-4.9958807E-1,-5.147293E-2,1.985507E-1,6.035757E-2,-3.533782E-2,-8.07562E-2,-2.1486337E-1,-2.8983938E-2,1.1625684E-1,-9.9339634E-2,-2.8902257E-2,-1.4289603E-2,1.9124893E-2,-6.159421E-2,-5.8849774E-2,3.4832272E-1,1.8939427E-1,-6.24909E-1,-1.6714357E-1,6.189171E-2,-4.6477452E-2,2.2445768E-1,-1.3853087E-2,-6.830296E-3,-2.929158E-1,-1.4833146E-1,-1.06454596E-1,4.2425882E-2,4.4897508E-2,7.9033345E-2,-1.3604605E-1,2.3306256E-2,-1.463934E-3,8.673471E-3,2.5731415E-2,-9.479464E-3,-2.1879114E-2,2.5381213E-2,5.1755935E-2,1.0350501E-2,3.5819479E-3,4.7863413E-2,-6.776716E-2,5.8257263E-3,3.760622E-2,-1.8690674E-2,7.9883724E-2,1.1261719E-3,5.635313E-3,-1.1944643E-2,4.010106E-2,1.6692365E-2,-3.4696534E-3,2.3312708E-3,1.7880251E-3,-3.385924E-2,-8.799759E-3,-1.8333202E-2,