{"learner":{"attributes":{"best_iteration":"0","best_score":"1.1802271009115626","scikit_learn":"{\"_estimator_type\": \"regressor\"}"},"feature_names":["body_size","dmi_adx","dmi_minus","dmi_plus","feat_bi_amp","feat_bi_amp_rate","feat_bi_klu_cnt","feat_break_bi_amp","feat_break_bi_amp_rate","feat_break_bi_klu_cnt","feat_bsp1_bi_amp","feat_bsp1_bi_amp_rate","feat_bsp1_bi_klu_cnt","feat_bsp2_bi_amp","feat_bsp2_bi_amp_rate","feat_bsp2_bi_klu_cnt","feat_bsp2_break_bi_amp","feat_bsp2_break_bi_amp_rate","feat_bsp2_break_bi_bi_klu_cnt","feat_bsp2_retrace_rate","feat_bsp2s_bi_amp","feat_bsp2s_bi_amp_rate","feat_bsp2s_bi_klu_cnt","feat_bsp2s_break_bi_amp","feat_bsp2s_break_bi_amp_rate","feat_bsp2s_break_bi_klu_cnt","feat_bsp2s_lv","feat_bsp2s_retrace_rate","feat_bsp3_bi_amp","feat_bsp3_bi_amp_rate","feat_bsp3_bi_klu_cnt","feat_bsp3_zs_height","feat_bsp_bi_amp","feat_divergence_rate","feat_kdj_d","feat_kdj_j","feat_kdj_k","feat_level","feat_macd_dea","feat_macd_diff","feat_macd_value","feat_ppo","feat_rsi","feat_volume","feat_zs_cnt","high_low_spread_pct","is_bullish_candle","is_buy","is_segbsp","kdj_d","kdj_j","kdj_k","klu_close","klu_high","klu_low","klu_open","klu_volume","lower_shadow","macd_dea","macd_dif","macd_value","price_change_pct","rsi","upper_shadow"],"feature_types":["float","float","float","float","float","float","float","float","float","float","float","float","float","float","float","float","float","float","float","float","float","float","float","float","float","float","float","float","float","float","float","float","float","float","float","float","float","float","float","float","float","float","float","float","float","float","int","int","i","float","float","float","float","float","float","float","float","float","float","float","float","float","float","float"],"gradient_booster":{"model":{"gbtree_model_param":{"num_parallel_tree":"1","num_trees":"21"},"iteration_indptr":[0,1,2,3,4,5,6,7,8,9,10,11,12,13,14,15,16,17,18,19,20,21],"tree_info":[0,0,0,0,0,0,0,0,0,0,0,0,0,0,0,0,0,0,0,0,0],"trees":[{"base_weights":[1.1306766E-2,-2.4965504E-2,2.7551053E0,-1.2606777E0,2.962337E-2,3.2901213E-1,1.10505156E-1,-1.4759341E-1,-9.116583E-1,4.358152E-1,-1.7927371E-1,-5.8518745E-2,-1.2871668E-1,1.9520354E0,3.1429648E-1,-7.682754E-1,1.0815652E-1,3.1300348E-1,6.866326E-2,-2.5152755E-1,5.038517E-1,1.1235579E0,-9.052951E-1,2.9657987E-1,-8.969279E-1,-5.3456433E-2,8.696606E-2,-5.7747252E-2,6.587211E-2,-2.7656028E-2,2.3530832E-1,-2.3151271E-2,-1.1371503E-1,8.535283E-2,-5.810947E-3,-1.1492977E-1,-4.7690924E-2],"categories":[],"categories_nodes":[],"categories_segments":[],"categories_sizes":[],"default_left":[0,0,0,0,0,0,0,0,0,0,0,0,0,0,0,0,0,0,0,0,0,0,0,0,0,0,0,0,0,0,0,0,0,0,0,0,0],"id":0,"left_children":[1,3,5,7,9,-1,-1,-1,11,13,15,-1,-1,17,19,21,23,-1,-1,25,27,29,31,33,35,-1,-1,-1,-1,-1,-1,-1,-1,-1,-1,-1,-1],"loss_changes":[7.627846E1,5.102238E1,4.752777E0,8.1980896E-1,6.145199E1,0E0,0E0,0E0,8.984194E-1,4.4485126E1,8.107302E1,0E0,0E0,2.4300728E1,2.4713333E1,4.169261E1,6.1186775E1,0E0,0E0,1.8836954E1,2.919234E1,1.9794708E1,2.2564201E1,5.3861027E1,4.6952667E0,0E0,0E0,0E0,0E0,0E0,0E0,0E0,0E0,0E0,0E0,0E0,0E0],"parents":[2147483647,0,0,1,1,2,2,3,3,4,4,8,8,9,9,10,10,13,13,14,14,15,15,16,16,19,19,20,20,21,21,22,22,23,23,24,24],"right_children":[2,4,6,8,10,-1,-1,-1,12,14,16,-1,-1,18,20,22,24,-1,-1,26,28,30,32,34,36,-1,-1,-1,-1,-1,-1,-1,-1,-1,-1,-1,-1],"split_conditions":[1.558E1,1.2E1,3.880008E1,1E1,4.418E2,3.2901213E-1,1.10505156E-1,-1.4759341E-1,1.6968174E0,2.24E0,4.5222E2,-5.8518745E-2,-1.2871668E-1,4.3409E2,3.077619E1,-3.4723452E-1,3.7E1,3.1300348E-1,6.866326E-2,1.136619E0,2.595E0,1.3841616E-1,2.78E0,4.5815E2,4.548547E1,-5.3456433E-2,8.696606E-2,-5.7747252E-2,6.587211E-2,-2.7656028E-2,2.3530832E-1,-2.3151271E-2,-1.1371503E-1,8.535283E-2,-5.810947E-3,-1.1492977E-1,-4.7690924E-2],"split_indices":[7,25,1,9,53,0,0,0,26,10,53,0,0,52,12,59,12,0,0,33,13,45,10,54,1,0,0,0,0,0,0,0,0,0,0,0,0],"split_type":[0,0,0,0,0,0,0,0,0,0,0,0,0,0,0,0,0,0,0,0,0,0,0,0,0,0,0,0,0,0,0,0,0,0,0,0,0],"sum_hessian":[7.62E2,7.53E2,9E0,3.1E1,7.22E2,6E0,3E0,1.7E1,1.4E1,2.45E2,4.77E2,9E0,5E0,1.7E1,2.28E2,1.56E2,3.21E2,8E0,9E0,5.7E1,1.71E2,1E1,1.46E2,2.71E2,5E1,4.6E1,1.1E1,2.1E1,1.5E2,5E0,5E0,3.8E1,1.08E2,1.05E2,1.66E2,3E1,2E1],"tree_param":{"num_deleted":"0","num_feature":"64","num_nodes":"37","size_leaf_vector":"1"}},{"base_weights":[6.874844E-3,-8.621339E-2,9.7442883E-1,4.0216604E-1,-1.9082879E-1,7.201041E-1,3.0008656E-1,2.7357596E-1,1.19240515E-1,-3.0020544E-1,3.8866147E-1,1.2757291E0,3.622231E-1,-6.1297566E-1,3.3437183E-1,-9.0808856E-1,-1.6357459E-1,2.1878019E-1,2.0900972E-1,9.6203506E-2,1.8410246E-1,6.0956903E-2,7.6640433E-1,4.654984E-2,-8.453278E-1,5.988765E-1,-5.50212E-1,8.5245997E-1,-1.0740423E0,1.0548043E0,-2.2908403E-1,5.251241E-1,-8.3548987E-1,-7.0232614E-3,2.1954844E-2,3.3921402E-2,9.206532E-2,-3.7288807E-2,-9.2867315E-2,-1.7690264E-2,7.943865E-2,-6.820994E-2,1.2286205E-2,-5.2529633E-2,1.804173E-1,2.754884E-2,-1.13149785E-1,-5.90579E-3,1.2607245E-1,-1.17987385E-2,-7.901E-2,5.5353064E-3,7.618592E-2,-1.0934281E-1,3.801356E-2],"categories":[],"categories_nodes":[],"categories_segments":[],"categories_sizes":[],"default_left":[0,0,0,0,0,0,0,0,0,0,0,0,0,0,0,0,0,0,0,0,0,0,0,0,0,0,0,0,0,0,0,0,0,0,0,0,0,0,0,0,0,0,0,0,0,0,0,0,0,0,0,0,0,0,0],"id":1,"left_children":[1,3,5,7,9,11,-1,-1,13,15,17,19,21,23,25,27,29,31,-1,-1,-1,33,35,-1,37,39,41,43,45,47,49,51,53,-1,-1,-1,-1,-1,-1,-1,-1,-1,-1,-1,-1,-1,-1,-1,-1,-1,-1,-1,-1,-1,-1],"loss_changes":[6.772375E1,3.5053635E1,3.148159E1,7.9276505E1,3.5919067E1,1.1304962E1,0E0,0E0,1.734707E1,3.9278748E1,2.5325628E1,2.0271492E0,4.49766E0,6.696124E0,2.022238E1,2.6356499E1,3.1287045E1,2.721414E1,0E0,0E0,0E0,5.088786E-1,6.160126E-1,0E0,3.5044193E-1,1.0212669E1,1.9151263E0,1.1565443E1,6.600357E0,4.7819576E0,2.2939283E1,7.1048393E0,6.4445505E0,0E0,0E0,0E0,0E0,0E0,0E0,0E0,0E0,0E0,0E0,0E0,0E0,0E0,0E0,0E0,0E0,0E0,0E0,0E0,0E0,0E0,0E0],"parents":[2147483647,0,0,1,1,2,2,3,3,4,4,5,5,8,8,9,9,10,10,11,11,12,12,13,13,14,14,15,15,16,16,17,17,21,21,22,22,24,24,25,25,26,26,27,27,28,28,29,29,30,30,31,31,32,32],"right_children":[2,4,6,8,10,12,-1,-1,14,16,18,20,22,24,26,28,30,32,-1,-1,-1,34,36,-1,38,40,42,44,46,48,50,52,54,-1,-1,-1,-1,-1,-1,-1,-1,-1,-1,-1,-1,-1,-1,-1,-1,-1,-1,-1,-1,-1,-1],"split_conditions":[1.6936637E-2,2.83E0,1.435E1,4.3409E2,3E0,9.99E0,3.0008656E-1,2.7357596E-1,1.4173229E-1,1.3E1,7.45096E-1,4.3137255E-1,3.2E1,4.4485E2,2.0871863E0,5.5913006E1,2.85E0,5.13E0,2.0900972E-1,9.6203506E-2,1.8410246E-1,5.635528E1,3.2861042E1,4.654984E-2,4.2948708E-2,-2.7816598E-3,3.116046E-1,3.03E0,7E0,1.8032786E-1,4.1E1,2.2E0,1.6E1,-7.0232614E-3,2.1954844E-2,3.3921402E-2,9.206532E-2,-3.7288807E-2,-9.2867315E-2,-1.7690264E-2,7.943865E-2,-6.820994E-2,1.2286205E-2,-5.2529633E-2,1.804173E-1,2.754884E-2,-1.13149785E-1,-5.90579E-3,1.2607245E-1,-1.17987385E-2,-7.901E-2,5.5353064E-3,7.618592E-2,-1.0934281E-1,3.801356E-2],"split_indices":[24,10,7,52,37,7,0,0,33,9,60,27,6,54,33,35,23,7,0,0,0,42,1,0,38,38,60,4,18,27,12,7,30,0,0,0,0,0,0,0,0,0,0,0,0,0,0,0,0,0,0,0,0,0,0],"split_type":[0,0,0,0,0,0,0,0,0,0,0,0,0,0,0,0,0,0,0,0,0,0,0,0,0,0,0,0,0,0,0,0,0,0,0,0,0,0,0,0,0,0,0,0,0,0,0,0,0,0,0,0,0,0,0],"sum_hessian":[7.49E2,6.84E2,6.5E1,1.2E2,5.64E2,5.9E1,6E0,1.2E1,1.08E2,4.75E2,8.9E1,2.2E1,3.7E1,2.4E1,8.4E1,8.6E1,3.89E2,8.2E1,7E0,1.6E1,6E0,2.2E1,1.5E1,4E0,2E1,6.5E1,1.9E1,7E0,7.9E1,1.9E1,3.7E2,6.4E1,1.8E1,1.2E1,1E1,5E0,1E1,4E0,1.6E1,1.3E1,5.2E1,1.6E1,3E0,3E0,4E0,3E0,7.6E1,3E0,1.6E1,3.1E2,6E1,2.2E1,4.2E1,1.5E1,3E0],"tree_param":{"num_deleted":"0","num_feature":"64","num_nodes":"55","size_leaf_vector":"1"}},{"base_weights":[-1.7953506E-2,-4.9225967E-2,1.92192E0,-1.0855316E0,5.0806062E-5,2.6525882E-1,1.0067872E-1,-5.2393913E-2,-1.1608427E0,-8.2905106E-2,5.922474E-1,-4.0722545E-2,-1.2282898E-1,6.1314577E-1,-1.6329658E-1,-2.6952922E-1,7.331797E-1,9.7754484E-1,-2.5062943E-1,-6.1731476E-1,-9.097072E-2,1.0235811E-2,-5.2725357E-1,1.6176961E-1,6.328255E-1,2.1049013E-2,1.87592E-1,8.832788E-2,-5.9556138E-2,-9.812105E-2,1.5381962E-3,-2.3126487E-2,2.4743803E-2,-6.580629E-2,-2.0692855E-2,1.6268055E-1,5.6254566E-2],"categories":[],"categories_nodes":[],"categories_segments":[],"categories_sizes":[],"default_left":[0,0,0,0,0,0,0,0,0,0,0,0,0,0,0,0,0,0,0,0,0,0,0,0,0,0,0,0,0,0,0,0,0,0,0,0,0],"id":2,"left_children":[1,3,5,7,9,-1,-1,-1,11,13,15,-1,-1,17,19,21,23,25,27,29,31,-1,33,-1,35,-1,-1,-1,-1,-1,-1,-1,-1,-1,-1,-1,-1],"loss_changes":[4.589112E1,3.825475E1,4.9873695E0,6.613121E-1,3.517615E1,0E0,0E0,0E0,8.1031036E-1,3.5139896E1,1.0931763E1,0E0,0E0,2.077702E1,1.836039E1,1.3424357E0,5.497364E0,3.1095234E1,8.319698E0,1.7839823E1,2.3176792E1,0E0,1.1254072E-1,0E0,3.7558804E0,0E0,0E0,0E0,0E0,0E0,0E0,0E0,0E0,0E0,0E0,0E0,0E0],"parents":[2147483647,0,0,1,1,2,2,3,3,4,4,8,8,9,9,10,10,13,13,14,14,15,15,16,16,17,17,18,18,19,19,20,20,22,22,24,24],"right_children":[2,4,6,8,10,-1,-1,-1,12,14,16,-1,-1,18,20,22,24,26,28,30,32,-1,34,-1,36,-1,-1,-1,-1,-1,-1,-1,-1,-1,-1,-1,-1],"split_conditions":[3.3941273E-2,1.2E1,3.880008E1,2.2666077E1,5.286576E-1,2.6525882E-1,1.0067872E-1,-5.2393913E-2,2.5E-2,4.3315E2,9.815983E-3,-4.0722545E-2,-1.2282898E-1,2.6512128E-1,4.17E0,6.079837E1,4.4393465E-3,-1.7868426E-4,2.25E-1,4.506348E2,2E0,1.0235811E-2,6.4196344E-3,1.6176961E-1,4.3339E2,2.1049013E-2,1.87592E-1,8.832788E-2,-5.9556138E-2,-9.812105E-2,1.5381962E-3,-2.3126487E-2,2.4743803E-2,-6.580629E-2,-2.0692855E-2,1.6268055E-1,5.6254566E-2],"split_indices":[8,25,1,1,27,0,0,0,0,55,38,0,0,38,16,34,8,41,0,52,37,0,8,0,52,0,0,0,0,0,0,0,0,0,0,0,0],"split_type":[0,0,0,0,0,0,0,0,0,0,0,0,0,0,0,0,0,0,0,0,0,0,0,0,0,0,0,0,0,0,0,0,0,0,0,0,0],"sum_hessian":[7.57E2,7.46E2,1.1E1,3.3E1,7.13E2,5E0,6E0,5E0,2.8E1,6.26E2,8.7E1,3E0,2.5E1,6.4E1,5.62E2,1.2E1,7.5E1,4.5E1,1.9E1,7.6E1,4.86E2,5E0,7E0,6E0,6.9E1,2.5E1,2E1,4E0,1.5E1,4.8E1,2.8E1,3.44E2,1.42E2,4E0,3E0,3E0,6.6E1],"tree_param":{"num_deleted":"0","num_feature":"64","num_nodes":"37","size_leaf_vector":"1"}},{"base_weights":[4.50219E-2,2.2887856E-2,2.1572958E-1,3.134958E-1,-1.3446742E-1,1.6611348E0,1.7542101E-1,-5.6844586E-1,1.21895924E-1,2.6773724E-1,5.094253E-1,-2.2029626E-1,4.5136446E-1,9.245796E-1,-6.865609E-1,5.859486E-1,-1.8191808E-1,6.463141E-3,6.264003E-2,-3.4675694E-1,1.2964612E0,1.0413623E0,3.259439E-1,-1.311019E-2,2.1936844E-1,1.164731E-1,-8.11136E-1,1.9614987E-1,1.1647236E0,1.0368577E-1,-9.492762E-1,-5.322009E-2,3.7026778E-2,1.9884679E-1,4.6356365E-2,8.157866E-4,1.8454401E-1,-5.4440077E-2,4.179997E-2,-2.7769128E-2,2.3409294E-2,-3.86136E-2,1.00817E-1,-9.074467E-2,4.5931367E-3,8.1671104E-2,-5.382277E-3,7.748246E-2,2.4675632E-1,5.438108E-2,-1.5350734E-2,-6.3139655E-2,-1.21652044E-1],"categories":[],"categories_nodes":[],"categories_segments":[],"categories_sizes":[],"default_left":[0,0,0,0,0,0,0,0,0,0,0,0,0,0,0,0,0,0,0,0,0,0,0,0,0,0,0,0,0,0,0,0,0,0,0,0,0,0,0,0,0,0,0,0,0,0,0,0,0,0,0,0,0],"id":3,"left_children":[1,3,-1,5,7,9,11,13,15,-1,17,19,21,23,25,27,29,-1,-1,31,33,35,37,39,-1,41,43,45,47,49,51,-1,-1,-1,-1,-1,-1,-1,-1,-1,-1,-1,-1,-1,-1,-1,-1,-1,-1,-1,-1,-1,-1],"loss_changes":[3.6059807E1,3.5271152E1,0E0,4.9951263E1,5.5742023E1,2.757766E1,2.7093853E1,3.341186E1,4.455749E1,0E0,5.667987E-1,1.9919222E1,1.0327532E1,1.6907188E1,1.747052E1,2.783617E1,4.204263E1,0E0,0E0,1.2845198E1,3.4439802E0,2.0569002E1,9.989589E0,6.580128E-1,0E0,1.1207694E1,1.2509537E1,1.1909618E1,2.316262E1,1.5970105E1,3.4645767E0,0E0,0E0,0E0,0E0,0E0,0E0,0E0,0E0,0E0,0E0,0E0,0E0,0E0,0E0,0E0,0E0,0E0,0E0,0E0,0E0,0E0,0E0],"parents":[2147483647,0,0,1,1,3,3,4,4,5,5,6,6,7,7,8,8,10,10,11,11,12,12,13,13,14,14,15,15,16,16,19,19,20,20,21,21,22,22,23,23,25,25,26,26,27,27,28,28,29,29,30,30],"right_children":[2,4,-1,6,8,10,12,14,16,-1,18,20,22,24,26,28,30,-1,-1,32,34,36,38,40,-1,42,44,46,48,50,52,-1,-1,-1,-1,-1,-1,-1,-1,-1,-1,-1,-1,-1,-1,-1,-1,-1,-1,-1,-1,-1,-1],"split_conditions":[1.558E1,4.418E2,2.1572958E-1,2.74E0,4.529E2,4.3409E2,2.8E1,-3.4723452E-1,4.5815E2,2.6773724E-1,4.3936E2,4.9860217E-3,4.335E2,2.0095117E-1,2.24E0,6.71046E5,3.456E0,6.463141E-3,6.264003E-2,9.131709E-1,7.283962E-3,4.317799E2,3.145058E-1,4.4804E2,2.1936844E-1,2.587601E1,3.4888792E-1,2.9166986E1,9.449472E-1,2.94E0,7.731E4,-5.322009E-2,3.7026778E-2,1.9884679E-1,4.6356365E-2,8.157866E-4,1.8454401E-1,-5.4440077E-2,4.179997E-2,-2.7769128E-2,2.3409294E-2,-3.86136E-2,1.00817E-1,-9.074467E-2,4.5931367E-3,8.1671104E-2,-5.382277E-3,7.748246E-2,2.4675632E-1,5.438108E-2,-1.5350734E-2,-6.3139655E-2,-1.21652044E-1],"split_indices":[7,53,0,10,55,52,9,39,54,0,52,31,53,45,10,43,32,0,0,33,31,53,33,52,0,2,45,1,33,20,43,0,0,0,0,0,0,0,0,0,0,0,0,0,0,0,0,0,0,0,0,0,0],"split_type":[0,0,0,0,0,0,0,0,0,0,0,0,0,0,0,0,0,0,0,0,0,0,0,0,0,0,0,0,0,0,0,0,0,0,0,0,0,0,0,0,0,0,0,0,0,0,0,0,0,0,0,0,0],"sum_hessian":[7.76E2,7.69E2,7E0,2.7E2,4.99E2,2.4E1,2.46E2,1.85E2,3.14E2,1.2E1,1.2E1,1.01E2,1.45E2,1.3E1,1.72E2,1.24E2,1.9E2,3E0,9E0,9.4E1,7E0,2.4E1,1.21E2,8E0,5E0,2.3E1,1.49E2,7.5E1,4.9E1,1.39E2,5.1E1,7.5E1,1.9E1,3E0,4E0,1.1E1,1.3E1,1.1E1,1.1E2,4E0,4E0,1.5E1,8E0,1.34E2,1.5E1,2.1E1,5.4E1,3.9E1,1E1,5.1E1,8.8E1,2.5E1,2.6E1],"tree_param":{"num_deleted":"0","num_feature":"64","num_nodes":"53","size_leaf_vector":"1"}},{"base_weights":[4.7586174E-3,-5.3701904E-2,6.4383185E-1,2.5101644E-1,-1.9006932E-1,4.959684E-1,2.2694266E-1,-7.621109E-1,3.762187E-1,-3.2877722E-1,8.8767484E-2,8.4761006E-1,2.8232524E-1,-9.730419E-1,-9.65583E-2,1.4197078E0,2.6020434E-1,-1.2672043E-1,-7.1264493E-1,-6.481181E-2,1.017409E0,9.685298E-2,3.6338472E-3,6.36204E-2,7.0714873E-1,-2.2518715E-2,-1.1009337E0,-3.281823E-2,1.3420527E-2,-1.4404236E-1,2.052259E0,-5.743697E-2,5.29349E-1,-2.1708475E-1,3.3619198E-1,-8.026972E-1,3.8602427E-2,-4.7567016E-1,2.0867485E-1,-9.284064E-2,1.5151957E0,-9.292634E-3,1.833042E-2,3.9559238E-2,9.8803245E-2,-1.2289603E-1,-4.166203E-2,2.8578639E-2,2.4302304E-1,-4.7512896E-2,1.8272065E-2,6.2527336E-2,-5.7948735E-2,-1.3709008E-2,-9.194211E-2,-2.9590566E-2,9.5516786E-2,-8.817575E-2,6.0573764E-2,6.0363468E-2,-6.442165E-2,-7.424907E-3,1.0139263E-1,-6.2641606E-2,3.325878E-2,1.8571435E-1,3.7148163E-2],"categories":[],"categories_nodes":[],"categories_segments":[],"categories_sizes":[],"default_left":[0,0,0,0,0,0,0,0,0,0,0,0,0,0,0,0,0,0,0,0,0,0,0,0,0,0,0,0,0,0,0,0,0,0,0,0,0,0,0,0,0,0,0,0,0,0,0,0,0,0,0,0,0,0,0,0,0,0,0,0,0,0,0,0,0,0,0],"id":4,"left_children":[1,3,5,7,9,11,-1,13,15,17,19,21,23,25,27,29,31,33,35,37,39,-1,-1,41,43,-1,45,-1,-1,-1,47,49,51,53,55,57,-1,59,61,63,65,-1,-1,-1,-1,-1,-1,-1,-1,-1,-1,-1,-1,-1,-1,-1,-1,-1,-1,-1,-1,-1,-1,-1,-1,-1,-1],"loss_changes":[2.852497E1,2.9046062E1,1.3981323E1,2.7646835E1,1.8734112E1,4.1552553E0,0E0,3.1683397E0,2.2827112E1,2.4878635E1,2.3123035E1,2.0224915E0,3.5014608E0,1.3410721E0,4.3759418E-1,3.739171E1,1.5038602E1,8.971025E0,1.1333599E1,1.5744595E1,1.2994259E1,0E0,0E0,5.319464E-1,6.084237E-1,0E0,6.375866E-1,0E0,0E0,0E0,9.716698E0,8.241322E0,1.0471533E1,9.825091E0,1.4042425E1,1.2030899E1,0E0,1.05800495E1,1.9306541E1,2.0537062E0,5.344696E0,0E0,0E0,0E0,0E0,0E0,0E0,0E0,0E0,0E0,0E0,0E0,0E0,0E0,0E0,0E0,0E0,0E0,0E0,0E0,0E0,0E0,0E0,0E0,0E0,0E0,0E0],"parents":[2147483647,0,0,1,1,2,2,3,3,4,4,5,5,7,7,8,8,9,9,10,10,11,11,12,12,13,13,14,14,15,15,16,16,17,17,18,18,19,19,20,20,23,23,24,24,26,26,30,30,31,31,32,32,33,33,34,34,35,35,37,37,38,38,39,39,40,40],"right_children":[2,4,6,8,10,12,-1,14,16,18,20,22,24,26,28,30,32,34,36,38,40,-1,-1,42,44,-1,46,-1,-1,-1,48,50,52,54,56,58,-1,60,62,64,66,-1,-1,-1,-1,-1,-1,-1,-1,-1,-1,-1,-1,-1,-1,-1,-1,-1,-1,-1,-1,-1,-1,-1,-1,-1,-1],"split_conditions":[7.386E0,2.77E0,1.435E1,1.5E1,4.1454784E1,9.99E0,2.2694266E-1,2.4789915E1,4.3425E2,6.5097336E1,1.268902E6,4.3686E2,7.575979E1,4.4506E2,5.669E3,2.42E0,2E0,1.4386685E-2,4.6969E2,5.3989677E0,1.7905113E-1,9.685298E-2,3.6338472E-3,1.8649995E-1,4.244356E1,-2.2518715E-2,1.7287523E-1,-3.281823E-2,1.3420527E-2,-1.4404236E-1,8.465608E-2,1.2676E4,2.6010864E0,6.917E-1,4.3376E2,1.21E0,3.8602427E-2,1.104289E-2,7.58378E5,4.6109516E1,7.3208725E-1,-9.292634E-3,1.833042E-2,3.9559238E-2,9.8803245E-2,-1.2289603E-1,-4.166203E-2,2.8578639E-2,2.4302304E-1,-4.7512896E-2,1.8272065E-2,6.2527336E-2,-5.7948735E-2,-1.3709008E-2,-9.194211E-2,-2.9590566E-2,9.5516786E-2,-8.817575E-2,6.0573764E-2,6.0363468E-2,-6.442165E-2,-7.424907E-3,1.0139263E-1,-6.2641606E-2,3.325878E-2,1.8571435E-1,3.7148163E-2],"split_indices":[23,7,7,18,1,7,0,2,53,42,43,54,49,55,43,20,7,8,53,2,40,0,0,39,1,0,39,0,0,0,33,43,33,0,54,0,0,17,43,1,19,0,0,0,0,0,0,0,0,0,0,0,0,0,0,0,0,0,0,0,0,0,0,0,0,0,0],"split_type":[0,0,0,0,0,0,0,0,0,0,0,0,0,0,0,0,0,0,0,0,0,0,0,0,0,0,0,0,0,0,0,0,0,0,0,0,0,0,0,0,0,0,0,0,0,0,0,0,0,0,0,0,0,0,0,0,0,0,0,0,0,0,0,0,0,0,0],"sum_hessian":[7.6E2,6.97E2,6.3E1,2.15E2,4.82E2,5.9E1,4E0,2.3E1,1.92E2,3.22E2,1.6E2,2.1E1,3.8E1,1.7E1,6E0,1.8E1,1.74E2,2.12E2,1.1E2,1.38E2,2.2E1,1.8E1,3E0,2.6E1,1.2E1,3E0,1.4E1,3E0,3E0,3E0,1.5E1,8E1,9.4E1,1.78E2,3.4E1,1.02E2,8E0,5.5E1,8.3E1,7E0,1.5E1,1.1E1,1.5E1,7E0,5E0,1.1E1,3E0,3E0,1.2E1,2.9E1,5.1E1,8.7E1,7E0,1.61E2,1.7E1,1.7E1,1.7E1,9.7E1,5E0,7E0,4.8E1,6.2E1,2.1E1,3E0,4E0,1.1E1,4E0],"tree_param":{"num_deleted":"0","num_feature":"64","num_nodes":"67","size_leaf_vector":"1"}},{"base_weights":[1.7952014E-2,-1.0957383E-2,1.5074376E0,7.206149E-1,-7.393619E-2,8.2942486E-2,2.1495342E-1,1.9648042E0,4.0559718E-1,8.032735E-1,-1.0726979E-1,2.2598985E-1,1.0796925E-1,1.518027E-1,1.9286485E-1,5.1063275E-1,1.385386E-1,-5.0104838E-2,-5.5670077E-1,3.7029228E-1,-8.651869E-2,-1.3693261E-2,6.4685956E-2,-1.8878332E-1,1.4804527E-1,4.1067547E-1,-7.431498E-1,3.8223446E-3,1.1426164E-1,9.703641E-3,-6.425774E-2,6.0104698E-2,-1.453875E-2,1.5429913E-2,9.2394754E-2,-5.1848996E-2,-1.12650745E-1],"categories":[],"categories_nodes":[],"categories_segments":[],"categories_sizes":[],"default_left":[0,0,0,0,0,0,0,0,0,0,0,0,0,0,0,0,0,0,0,0,0,0,0,0,0,0,0,0,0,0,0,0,0,0,0,0,0],"id":5,"left_children":[1,3,5,7,9,-1,-1,11,13,15,17,-1,-1,19,-1,21,-1,23,25,27,-1,-1,-1,29,31,33,35,-1,-1,-1,-1,-1,-1,-1,-1,-1,-1],"loss_changes":[3.392531E1,3.5465244E1,4.4494705E0,2.2874483E1,2.077736E1,0E0,0E0,3.6034012E-1,1.8826283E1,3.5320702E0,1.7510239E1,0E0,0E0,1.0047752E1,0E0,1.8156681E0,0E0,1.6766829E1,1.4226652E1,9.327439E0,0E0,0E0,0E0,4.668039E1,3.349727E1,1.4602914E0,4.8495483E0,0E0,0E0,0E0,0E0,0E0,0E0,0E0,0E0,0E0,0E0],"parents":[2147483647,0,0,1,1,2,2,3,3,4,4,7,7,8,8,9,9,10,10,13,13,15,15,17,17,18,18,19,19,23,23,24,24,25,25,26,26],"right_children":[2,4,6,8,10,-1,-1,12,14,16,18,-1,-1,20,-1,22,-1,24,26,28,-1,-1,-1,30,32,34,36,-1,-1,-1,-1,-1,-1,-1,-1,-1,-1],"split_conditions":[3.2310877E-2,4.335E2,6.35E0,7E-2,2.85E0,8.2942486E-2,2.1495342E-1,6.1E-2,8.9802915E-1,1.9E1,3.7E1,2.2598985E-1,1.0796925E-1,1.2944051E-2,1.9286485E-1,1.3E1,1.385386E-1,4.5215E2,4.41395E2,7.728701E1,-8.651869E-2,-1.3693261E-2,6.4685956E-2,4.445E2,4.5815E2,4.4E1,1.4742E5,3.8223446E-3,1.1426164E-1,9.703641E-3,-6.425774E-2,6.0104698E-2,-1.453875E-2,1.5429913E-2,9.2394754E-2,-5.1848996E-2,-1.12650745E-1],"split_indices":[8,53,23,0,23,0,0,57,60,25,12,0,0,5,0,22,0,53,52,49,0,0,0,52,54,12,43,0,0,0,0,0,0,0,0,0,0],"split_type":[0,0,0,0,0,0,0,0,0,0,0,0,0,0,0,0,0,0,0,0,0,0,0,0,0,0,0,0,0,0,0,0,0,0,0,0,0],"sum_hessian":[7.83E2,7.69E2,1.4E1,6E1,7.09E2,8E0,6E0,1.1E1,4.9E1,2.5E1,6.84E2,7E0,4E0,4.3E1,6E0,1.8E1,7E0,6.08E2,7.6E1,3.6E1,7E0,3E0,1.5E1,3.58E2,2.5E2,1.2E1,6.4E1,2.6E1,1E1,2.2E2,1.38E2,9.8E1,1.52E2,9E0,3E0,4.2E1,2.2E1],"tree_param":{"num_deleted":"0","num_feature":"64","num_nodes":"37","size_leaf_vector":"1"}},{"base_weights":[-2.2279195E-2,-8.083882E-2,5.931939E-1,3.4175372E-1,-1.4363171E-1,4.2342436E-1,1.6102424E-1,2.0169616E-1,1.2948418E-1,2.7229053E-1,-2.2265294E-1,8.4151514E-2,1.4177126E-1,-4.9954668E-1,3.4555244E-1,-7.794338E-1,5.0677484E-1,-2.99364E-1,3.3486196E-1,-9.7868256E-2,3.4337628E-1,-6.790134E-1,4.079401E-2,4.013713E-1,-3.398929E-2,-1.1392502E-1,-2.8192302E-2,1.2046307E-1,3.9993918E-1,-3.344421E-1,8.0730855E-1,9.678048E-1,-1.0494213E-2,-2.0812271E-2,-9.718301E-4,1.9400848E-2,4.9326934E-2,-2.2654643E-2,-7.47737E-2,-2.326369E-3,4.943418E-2,5.96438E-2,1.386926E-2,-4.066316E-2,2.8426502E-2,4.2005006E-2,1.1202742E-1,1.3417388E-1,-5.5191886E-2,-7.618074E-2,2.8704753E-2],"categories":[],"categories_nodes":[],"categories_segments":[],"categories_sizes":[],"default_left":[0,0,0,0,0,0,0,0,0,0,0,0,0,0,0,0,0,0,0,0,0,0,0,0,0,0,0,0,0,0,0,0,0,0,0,0,0,0,0,0,0,0,0,0,0,0,0,0,0,0,0],"id":6,"left_children":[1,3,5,7,9,11,-1,-1,13,15,17,-1,19,21,23,25,27,29,31,33,35,37,-1,39,-1,-1,-1,-1,41,43,45,47,49,-1,-1,-1,-1,-1,-1,-1,-1,-1,-1,-1,-1,-1,-1,-1,-1,-1,-1],"loss_changes":[2.7388542E1,1.847166E1,1.0510626E1,3.1527798E1,1.9972872E1,6.6122503E0,0E0,0E0,1.1166222E1,2.428918E1,2.1908155E1,0E0,1.7974074E0,3.7242408E0,2.476478E0,2.7589264E0,5.322237E0,1.7652878E1,1.3658511E1,1.4141506E-1,2.833581E-1,2.928877E-1,0E0,2.3088827E0,0E0,0E0,0E0,0E0,3.4885254E0,1.9601395E1,1.0721769E0,1.3321596E1,9.431579E0,0E0,0E0,0E0,0E0,0E0,0E0,0E0,0E0,0E0,0E0,0E0,0E0,0E0,0E0,0E0,0E0,0E0,0E0],"parents":[2147483647,0,0,1,1,2,2,3,3,4,4,5,5,8,8,9,9,10,10,12,12,13,13,14,14,15,15,16,16,17,17,18,18,19,19,20,20,21,21,23,23,28,28,29,29,30,30,31,31,32,32],"right_children":[2,4,6,8,10,12,-1,-1,14,16,18,-1,20,22,24,26,28,30,32,34,36,38,-1,40,-1,-1,-1,-1,42,44,46,48,50,-1,-1,-1,-1,-1,-1,-1,-1,-1,-1,-1,-1,-1,-1,-1,-1,-1,-1],"split_conditions":[1.6936637E-2,2.35E0,4.3985E2,4.3409E2,1.104289E-2,2.3924315E-2,1.6102424E-1,2.0169616E-1,9.914E3,1.1E1,3.4539512E-1,8.4151514E-2,2.686859E-1,2.09E0,1.8007741E0,3.8741723E-1,5.394843E-3,2.87E0,4.259193E-1,4.3368E2,1.1666E5,2.04E-2,4.079401E-2,1.4173229E-1,-3.398929E-2,-1.1392502E-1,-2.8192302E-2,1.2046307E-1,3.293E4,1.5777078E0,4.2024994E1,8.681393E1,8.354E4,-2.0812271E-2,-9.718301E-4,1.9400848E-2,4.9326934E-2,-2.2654643E-2,-7.47737E-2,-2.326369E-3,4.943418E-2,5.96438E-2,1.386926E-2,-4.066316E-2,2.8426502E-2,4.2005006E-2,1.1202742E-1,1.3417388E-1,-5.5191886E-2,-7.618074E-2,2.8704753E-2],"split_indices":[24,10,52,52,24,24,0,0,43,9,45,0,39,10,33,27,24,28,45,54,43,63,0,33,0,0,0,0,43,33,1,36,43,0,0,0,0,0,0,0,0,0,0,0,0,0,0,0,0,0,0],"split_type":[0,0,0,0,0,0,0,0,0,0,0,0,0,0,0,0,0,0,0,0,0,0,0,0,0,0,0,0,0,0,0,0,0,0,0,0,0,0,0,0,0,0,0,0,0,0,0,0,0,0,0],"sum_hessian":[7.59E2,6.94E2,6.5E1,8.9E1,6.05E2,5.7E1,8E0,9E0,8E1,9.6E1,5.09E2,2.2E1,3.5E1,2E1,6E1,1.7E1,7.9E1,4.48E2,6.1E1,1.6E1,1.9E1,1.7E1,3E0,5.6E1,4E0,9E0,8E0,9E0,7E1,4.35E2,1.3E1,2.1E1,4E1,6E0,1E1,1.1E1,8E0,3E0,1.4E1,1E1,4.6E1,3.9E1,3.1E1,3.9E2,4.5E1,7E0,6E0,1.7E1,4E0,1.1E1,2.9E1],"tree_param":{"num_deleted":"0","num_feature":"64","num_nodes":"51","size_leaf_vector":"1"}},{"base_weights":[1.5237281E-2,-1.2125546E-2,1.383557E0,-7.371534E-1,2.2276517E-2,7.160288E-2,1.8656406E-1,-8.354877E-1,1.8422587E-2,7.560343E-2,-5.097969E-1,-9.542264E-2,-4.8071402E-1,-6.403471E-1,1.0662116E-1,-1.2831864E0,-2.2903323E-1,-1.6224781E-2,-5.797356E-2,-9.220425E-2,-4.679469E-1,-1.517017E-1,2.1438712E-1,-1.6290283E-1,-5.421225E-2,8.551136E-2,-4.0193227E-1,-2.286776E-2,-5.801308E-2,-5.4008693E-2,2.0118076E-2,1.8285787E-2,1.5450118E-1,-1.9204775E-2,2.4862822E-2,-4.9415894E-2,6.340965E-3],"categories":[],"categories_nodes":[],"categories_segments":[],"categories_sizes":[],"default_left":[0,0,0,0,0,0,0,0,0,0,0,0,0,0,0,0,0,0,0,0,0,0,0,0,0,0,0,0,0,0,0,0,0,0,0,0,0],"id":7,"left_children":[1,3,5,7,9,-1,-1,11,-1,13,15,-1,17,19,21,23,25,-1,-1,-1,27,29,31,-1,-1,33,35,-1,-1,-1,-1,-1,-1,-1,-1,-1,-1],"loss_changes":[2.8646593E1,1.8719923E1,3.2330456E0,3.2995548E0,2.025404E1,0E0,0E0,7.0368195E-1,0E0,1.4449558E1,1.3668964E1,0E0,1.4709091E-1,7.4077034E-1,1.7409962E1,3.2567005E0,2.7308502E0,0E0,0E0,0E0,2.9645777E-1,2.5360542E1,1.8046228E1,0E0,0E0,8.6834884E-1,1.447751E0,0E0,0E0,0E0,0E0,0E0,0E0,0E0,0E0,0E0,0E0],"parents":[2147483647,0,0,1,1,2,2,3,3,4,4,7,7,9,9,10,10,12,12,13,13,14,14,15,15,16,16,20,20,21,21,22,22,25,25,26,26],"right_children":[2,4,6,8,10,-1,-1,12,-1,14,16,-1,18,20,22,24,26,-1,-1,-1,28,30,32,-1,-1,34,36,-1,-1,-1,-1,-1,-1,-1,-1,-1,-1],"split_conditions":[1.435E1,1.2E1,6.35E0,1.03549E6,5.5E1,7.160288E-2,1.8656406E-1,1.3657843E-1,1.8422587E-2,1.2E1,6.2E1,-9.542264E-2,8E0,4.4720966E-1,5E0,1.3732313E1,5.03E0,-1.6224781E-2,-5.797356E-2,-9.220425E-2,3.33E0,8.721461E-1,1.5777078E0,-1.6290283E-1,-5.421225E-2,7.7131796E-1,9E1,-2.286776E-2,-5.801308E-2,-5.4008693E-2,2.0118076E-2,1.8285787E-2,1.5450118E-1,-1.9204775E-2,2.4862822E-2,-4.9415894E-2,6.340965E-3],"split_indices":[7,18,23,43,9,0,0,38,0,25,9,0,6,27,6,2,10,0,0,0,7,33,33,0,0,33,6,0,0,0,0,0,0,0,0,0,0],"split_type":[0,0,0,0,0,0,0,0,0,0,0,0,0,0,0,0,0,0,0,0,0,0,0,0,0,0,0,0,0,0,0,0,0,0,0,0,0],"sum_hessian":[7.6E2,7.46E2,1.4E1,3.3E1,7.13E2,7E0,7E0,3E1,3E0,6.49E2,6.4E1,2.1E1,9E0,2.6E1,6.23E2,1.6E1,4.8E1,3E0,6E0,8E0,1.8E1,1.83E2,4.4E2,1E1,6E0,1.7E1,3.1E1,7E0,1.1E1,8.7E1,9.6E1,4.31E2,9E0,6E0,1.1E1,2.6E1,5E0],"tree_param":{"num_deleted":"0","num_feature":"64","num_nodes":"37","size_leaf_vector":"1"}},{"base_weights":[-2.556533E-3,-4.5260295E-2,8.107458E-1,2.1723E-2,-3.3412805E-1,1.1072267E0,-8.546268E-3,2.5694332E-1,-1.1355517E-1,-5.905874E-1,8.15921E-2,1.6087006E-1,1.7688541E-1,-2.0442842E-2,1.1830473E-2,-2.6298374E-1,4.4118646E-1,-5.7201177E-1,1.4035699E-1,-1.2469653E0,-4.0668458E-1,-9.778144E-2,8.7267643E-1,2.3594506E-2,-0E0,-2.3935302E-1,-9.844357E-2,1.1664765E0,3.285273E-1,-6.6047263E-1,2.2625782E-1,1.8741064E-1,-1.7249885E-1,-2.3181016E-2,-1.4278756E-1,9.556811E-2,-6.5114385E-1,-3.0284894E-1,3.1220564E-1,-1.8127054E-2,1.6221862E-1,1.03609644E-1,-2.1192871E-2,1.7949681E-1,4.2285066E-2,-3.0153995E-2,4.7574915E-2,4.9411938E-2,-7.258785E-2,1.14093535E-1,-5.8986723E-2,-3.279542E-2,2.788251E-2,-2.0738354E-2,1.0051618E-1,-1.43588185E-2,-7.6801986E-2,-6.3280105E-3,-7.0180595E-2,-1.9545896E-2,5.2367087E-2],"categories":[],"categories_nodes":[],"categories_segments":[],"categories_sizes":[],"default_left":[0,0,0,0,0,0,0,0,0,0,0,0,0,0,0,0,0,0,0,0,0,0,0,0,0,0,0,0,0,0,0,0,0,0,0,0,0,0,0,0,0,0,0,0,0,0,0,0,0,0,0,0,0,0,0,0,0,0,0,0,0],"id":8,"left_children":[1,3,5,7,9,11,13,15,17,19,21,-1,23,-1,-1,25,27,29,31,33,35,37,39,-1,-1,-1,41,43,45,47,49,51,-1,-1,-1,53,55,57,59,-1,-1,-1,-1,-1,-1,-1,-1,-1,-1,-1,-1,-1,-1,-1,-1,-1,-1,-1,-1,-1,-1],"loss_changes":[2.6459951E1,1.4086101E1,9.349703E0,1.881742E1,1.4705381E1,1.2600056E1,3.0612355E-1,2.082513E1,4.3776344E1,9.587843E0,7.6835E0,0E0,1.0118765E-1,0E0,0E0,1.949712E1,1.254097E1,9.655354E0,2.141018E1,2.8087711E0,8.466848E0,3.7929165E0,8.337582E0,0E0,0E0,0E0,7.0898476E0,8.83383E0,1.3147232E1,9.519405E0,1.1178985E1,1.1252027E1,0E0,0E0,0E0,6.6261787E0,2.5273304E0,2.746411E0,1.7454783E0,0E0,0E0,0E0,0E0,0E0,0E0,0E0,0E0,0E0,0E0,0E0,0E0,0E0,0E0,0E0,0E0,0E0,0E0,0E0,0E0,0E0,0E0],"parents":[2147483647,0,0,1,1,2,2,3,3,4,4,5,5,6,6,7,7,8,8,9,9,10,10,12,12,15,15,16,16,17,17,18,18,19,19,20,20,21,21,22,22,26,26,27,27,28,28,29,29,30,30,31,31,35,35,36,36,37,37,38,38],"right_children":[2,4,6,8,10,12,14,16,18,20,22,-1,24,-1,-1,26,28,30,32,34,36,38,40,-1,-1,-1,42,44,46,48,50,52,-1,-1,-1,54,56,58,60,-1,-1,-1,-1,-1,-1,-1,-1,-1,-1,-1,-1,-1,-1,-1,-1,-1,-1,-1,-1,-1,-1],"split_conditions":[4.4E1,5.03E0,7.3E1,4.45E2,1.6170345E-2,4.5799E2,8.261377E-3,-3.2214244E-4,4.5215E2,6.753247E-1,1.3144348E0,1.6087006E-1,4E0,-2.0442842E-2,1.1830473E-2,4.03E0,2.24E0,7.256215E1,5.9E1,8.9805963E-4,7.1770334E0,3.820937E-3,1.0634439E-1,2.3594506E-2,-0E0,-2.3935302E-1,3.107955E1,4.3411E2,1.1E1,-3.8738525E-1,4.0781283E-4,1.5E1,-1.7249885E-1,-2.3181016E-2,-1.4278756E-1,6.111954E-1,7.127498E-4,9.188778E1,4.377E2,-1.8127054E-2,1.6221862E-1,1.03609644E-1,-2.1192871E-2,1.7949681E-1,4.2285066E-2,-3.0153995E-2,4.7574915E-2,4.9411938E-2,-7.258785E-2,1.14093535E-1,-5.8986723E-2,-3.279542E-2,2.788251E-2,-2.0738354E-2,1.0051618E-1,-1.43588185E-2,-7.6801986E-2,-6.3280105E-3,-7.0180595E-2,-1.9545896E-2,5.2367087E-2],"split_indices":[25,10,9,54,11,53,5,41,53,33,33,0,26,0,0,16,10,42,18,41,2,41,45,0,0,0,35,53,9,38,5,12,0,0,0,38,41,36,53,0,0,0,0,0,0,0,0,0,0,0,0,0,0,0,0,0,0,0,0,0,0],"split_type":[0,0,0,0,0,0,0,0,0,0,0,0,0,0,0,0,0,0,0,0,0,0,0,0,0,0,0,0,0,0,0,0,0,0,0,0,0,0,0,0,0,0,0,0,0,0,0,0,0,0,0,0,0,0,0,0,0,0,0,0,0],"sum_hessian":[7.62E2,7.25E2,3.7E1,5.89E2,1.36E2,2.7E1,1E1,2.15E2,3.74E2,8.4E1,5.2E1,1.7E1,1E1,4E0,6E0,5.6E1,1.59E2,1.33E2,2.41E2,1.7E1,6.7E1,4.3E1,9E0,7E0,3E0,3E0,5.3E1,2E1,1.39E2,1.2E2,1.3E1,2.36E2,5E0,3E0,1.4E1,2.2E1,4.5E1,2.9E1,1.4E1,4E0,5E0,4E0,4.9E1,1E1,1E1,2.6E1,1.13E2,6E0,1.14E2,6E0,7E0,3.5E1,2.01E2,1.7E1,5E0,9E0,3.6E1,1.9E1,1E1,4E0,1E1],"tree_param":{"num_deleted":"0","num_feature":"64","num_nodes":"61","size_leaf_vector":"1"}},{"base_weights":[2.7678747E-2,-5.696427E-2,3.0341262E-1,8.163309E-2,-3.7535274E-1,2.5261745E-1,1.493892E-1,4.3129962E-2,1.5843436E-1,-5.0385034E-1,3.8151222E-1,2.9621357E-1,-8.0303594E-2,1.5718963E-2,2.1580441E-1,-1.7937346E-1,-9.405709E-1,-2.6092574E-1,1.8721133E-1,2.4645153E-1,1.1257899E0,-2.1435787E-1,1.9228357E-1,1.2152547E-1,-2.7923363E-1,-1.0886056E0,-3.7775034E-1,2.5754247E-2,-4.230201E-1,7.890032E-1,1.613788E-1,4.1012064E-2,1.5963012E-1,1.2430794E-2,-4.8408676E-2,-2.0836454E-2,3.0754438E-2,-1.3319015E-2,-8.32509E-2,-1.1843727E-1,-3.1684037E-2,-2.2524E-2,-5.0558504E-2,-7.6622027E-3,-5.785569E-2,2.1667887E-2,1.2805091E-1,8.135038E-2,1.088003E-2],"categories":[],"categories_nodes":[],"categories_segments":[],"categories_sizes":[],"default_left":[0,0,0,0,0,0,0,0,0,0,0,0,0,0,0,0,0,0,0,0,0,0,0,0,0,0,0,0,0,0,0,0,0,0,0,0,0,0,0,0,0,0,0,0,0,0,0,0,0],"id":9,"left_children":[1,3,5,7,9,11,-1,13,-1,15,17,19,-1,21,-1,23,25,27,-1,29,31,33,35,-1,37,39,41,-1,43,45,47,-1,-1,-1,-1,-1,-1,-1,-1,-1,-1,-1,-1,-1,-1,-1,-1,-1,-1],"loss_changes":[1.768617E1,2.561001E1,1.0211733E1,2.314398E1,1.7321394E1,8.103039E0,0E0,2.2647606E1,0E0,2.1116856E1,2.5547688E1,6.438038E0,0E0,1.5922769E1,0E0,1.2501307E1,4.774433E0,1.7222676E0,0E0,7.0703354E0,2.1752558E0,1.5625307E1,1.0325742E1,0E0,6.499137E0,3.1701088E0,1.0548115E-1,0E0,6.983168E-1,5.480137E0,4.550972E0,0E0,0E0,0E0,0E0,0E0,0E0,0E0,0E0,0E0,0E0,0E0,0E0,0E0,0E0,0E0,0E0,0E0,0E0],"parents":[2147483647,0,0,1,1,2,2,3,3,4,4,5,5,7,7,9,9,10,10,11,11,13,13,15,15,16,16,17,17,19,19,20,20,21,21,22,22,24,24,25,25,26,26,28,28,29,29,30,30],"right_children":[2,4,6,8,10,12,-1,14,-1,16,18,20,-1,22,-1,24,26,28,-1,30,32,34,36,-1,38,40,42,-1,44,46,48,-1,-1,-1,-1,-1,-1,-1,-1,-1,-1,-1,-1,-1,-1,-1,-1,-1,-1],"split_conditions":[6.84E0,3.44E0,3.3962592E-2,7.485657E1,1.7085946E0,4.5744E2,1.493892E-1,5.282669E-1,1.5843436E-1,4.953599E-1,6.30754E5,1.3144348E0,-8.0303594E-2,4.5215E2,2.1580441E-1,4.317799E2,9.276313E-3,2.7883735E-1,1.8721133E-1,1.5702171E-2,6.5155365E-2,4.4516E2,1.8503937E-1,1.2152547E-1,2.1412804E1,4.8E1,9.456873E-3,2.5754247E-2,9.5252935E-3,9.65402E5,4.1924328E-2,4.1012064E-2,1.5963012E-1,1.2430794E-2,-4.8408676E-2,-2.0836454E-2,3.0754438E-2,-1.3319015E-2,-8.32509E-2,-1.1843727E-1,-3.1684037E-2,-2.2524E-2,-5.0558504E-2,-7.6622027E-3,-5.785569E-2,2.1667887E-2,1.2805091E-1,8.135038E-2,1.088003E-2],"split_indices":[7,4,24,42,33,52,0,45,0,39,43,33,0,53,0,53,21,38,0,8,61,52,33,0,2,12,5,0,40,43,45,0,0,0,0,0,0,0,0,0,0,0,0,0,0,0,0,0,0],"split_type":[0,0,0,0,0,0,0,0,0,0,0,0,0,0,0,0,0,0,0,0,0,0,0,0,0,0,0,0,0,0,0,0,0,0,0,0,0,0,0,0,0,0,0,0,0,0,0,0,0],"sum_hessian":[7.55E2,5.78E2,1.77E2,4.03E2,1.75E2,1.71E2,6E0,3.94E2,9E0,1.5E2,2.5E1,1.65E2,6E0,3.9E2,4E0,8.7E1,6.3E1,1.8E1,7E0,1.57E2,8E0,1.69E2,2.21E2,5E0,8.2E1,4.9E1,1.4E1,4E0,1.4E1,2E1,1.37E2,4E0,4E0,7.5E1,9.4E1,4.9E1,1.72E2,6.6E1,1.6E1,4.3E1,6E0,8E0,6E0,5E0,9E0,1E1,1E1,9E0,1.28E2],"tree_param":{"num_deleted":"0","num_feature":"64","num_nodes":"49","size_leaf_vector":"1"}},{"base_weights":[1.3050334E-2,-2.0681357E-2,6.215188E-1,-3.5589125E-2,1.0566722E0,8.8449526E-1,-5.237884E-3,-6.0514754E-1,-1.0099297E-2,1.572935E-1,4.336746E-2,1.3664204E-1,1.7855508E-2,-1.7763274E-2,1.1221299E-2,-1.1020745E-1,-4.63351E-1,-5.755453E-1,1.8675534E-2,-2.3842184E-1,-6.0573764E-2,-6.6336644E-1,-1.9470587E-1,1.3406137E-1,-1.4816524E-1,-3.1346437E-2,-5.0669415E-3,-8.066964E-2,-4.88256E-2,6.9421926E-3,-3.8706694E-2,4.4212293E-2,3.1623342E-3,-3.6832128E-2,1.4143092E-2],"categories":[],"categories_nodes":[],"categories_segments":[],"categories_sizes":[],"default_left":[0,0,0,0,0,0,0,0,0,0,0,0,0,0,0,0,0,0,0,0,0,0,0,0,0,0,0,0,0,0,0,0,0,0,0],"id":10,"left_children":[1,3,5,7,9,11,13,15,17,-1,-1,-1,-1,-1,-1,-1,19,21,23,25,-1,27,29,31,33,-1,-1,-1,-1,-1,-1,-1,-1,-1,-1],"loss_changes":[1.6020607E1,1.17724085E1,6.850271E0,1.0501428E1,2.3335018E0,9.467615E0,2.896977E-1,1.517148E0,1.1423324E1,0E0,0E0,0E0,0E0,0E0,0E0,0E0,6.0386276E-1,9.221878E-1,1.282041E1,1.16776586E-1,0E0,1.5429115E-1,4.6509868E-1,1.2372188E1,1.7416504E1,0E0,0E0,0E0,0E0,0E0,0E0,0E0,0E0,0E0,0E0],"parents":[2147483647,0,0,1,1,2,2,3,3,4,4,5,5,6,6,7,7,8,8,16,16,17,17,18,18,19,19,21,21,22,22,23,23,24,24],"right_children":[2,4,6,8,10,12,14,16,18,-1,-1,-1,-1,-1,-1,-1,20,22,24,26,-1,28,30,32,34,-1,-1,-1,-1,-1,-1,-1,-1,-1,-1],"split_conditions":[4.4E1,4.9860217E-3,7.3E1,1.2E1,7.283962E-3,4.5749E2,3.56E0,4.3864E2,1.2E1,1.572935E-1,4.336746E-2,1.3664204E-1,1.7855508E-2,-1.7763274E-2,1.1221299E-2,-1.1020745E-1,1.6968174E0,5.9860703E1,3.69E0,3.33E0,-6.0573764E-2,9E0,5.829458E1,4.45E2,1.5337979E-2,-3.1346437E-2,-5.0669415E-3,-8.066964E-2,-4.88256E-2,6.9421926E-3,-3.8706694E-2,4.4212293E-2,3.1623342E-3,-3.6832128E-2,1.4143092E-2],"split_indices":[25,31,9,25,31,54,4,54,18,0,0,0,0,0,0,0,26,42,4,4,0,9,34,54,8,0,0,0,0,0,0,0,0,0,0],"split_type":[0,0,0,0,0,0,0,0,0,0,0,0,0,0,0,0,0,0,0,0,0,0,0,0,0,0,0,0,0,0,0,0,0,0,0],"sum_hessian":[7.76E2,7.36E2,4E1,7.27E2,9E0,2.8E1,1.2E1,3E1,6.97E2,4E0,5E0,1.6E1,1.2E1,5E0,7E0,5E0,2.5E1,3.3E1,6.64E2,1.1E1,1.4E1,2.6E1,7E0,3.93E2,2.71E2,7E0,4E0,1.2E1,1.4E1,3E0,4E0,9.7E1,2.96E2,1.54E2,1.17E2],"tree_param":{"num_deleted":"0","num_feature":"64","num_nodes":"35","size_leaf_vector":"1"}},{"base_weights":[1.1837506E-2,-3.185265E-2,4.794709E-1,-4.5718834E-2,8.959134E-1,3.344185E-1,1.1388673E-1,2.2579025E-1,-9.3587644E-2,1.2947848E-1,3.9753504E-2,6.972208E-1,3.9525796E-2,-1.8285826E-1,4.564703E-1,-1.5872438E-1,2.0134495E-1,5.6545105E-2,1.18970685E-1,-9.827382E-3,2.2101631E-2,2.9626757E-1,-5.275471E-1,8.613525E-2,3.6537623E-1,-2.3902208E-1,1.0922779E-1,3.23069E-1,-3.9261833E-1,4.628077E-2,-2.9405478E-2,-6.262755E-2,-4.661582E-3,-7.0768767E-3,4.0293213E-2,-1.3860121E-2,-5.9700847E-2,-2.1675752E-2,4.3504532E-2,2.1357791E-2,1.23715E-1,-7.413756E-2,2.4705399E-2],"categories":[],"categories_nodes":[],"categories_segments":[],"categories_sizes":[],"default_left":[0,0,0,0,0,0,0,0,0,0,0,0,0,0,0,0,0,0,0,0,0,0,0,0,0,0,0,0,0,0,0,0,0,0,0,0,0,0,0,0,0,0,0],"id":11,"left_children":[1,3,5,7,9,11,-1,13,15,-1,-1,17,19,21,23,25,27,-1,-1,-1,-1,29,31,-1,33,35,37,39,41,-1,-1,-1,-1,-1,-1,-1,-1,-1,-1,-1,-1,-1,-1],"loss_changes":[1.5301542E1,8.742446E0,5.5932245E0,8.767766E0,1.3039341E0,5.6761065E0,0E0,9.6318035E0,1.1054779E1,0E0,0E0,7.092371E-1,8.092834E-1,6.2899485E0,1.9599638E0,1.0173097E1,7.6390486E0,0E0,0E0,0E0,0E0,1.725964E0,9.481106E-1,0E0,9.626193E-1,1.2893288E1,1.1693207E1,8.297984E0,4.2482195E0,0E0,0E0,0E0,0E0,0E0,0E0,0E0,0E0,0E0,0E0,0E0,0E0,0E0,0E0],"parents":[2147483647,0,0,1,1,2,2,3,3,4,4,5,5,7,7,8,8,11,11,12,12,13,13,14,14,15,15,16,16,21,21,22,22,24,24,25,25,26,26,27,27,28,28],"right_children":[2,4,6,8,10,12,-1,14,16,-1,-1,18,20,22,24,26,28,-1,-1,-1,-1,30,32,-1,34,36,38,40,42,-1,-1,-1,-1,-1,-1,-1,-1,-1,-1,-1,-1,-1,-1],"split_conditions":[1.6936637E-2,4.9860217E-3,4.397597E2,5E0,7.283962E-3,9.99E0,1.1388673E-1,4.4583E2,3.75E-1,1.2947848E-1,3.9753504E-2,6.016598E-1,5.93E0,2.06E0,2.05E0,9.686312E-1,8.333015E-1,5.6545105E-2,1.18970685E-1,-9.827382E-3,2.2101631E-2,7.1347E4,1.9288981E-1,8.613525E-2,5.136221E1,5.04535E-1,2.1659918E-1,1.4154379E-3,8.075E0,4.628077E-2,-2.9405478E-2,-6.262755E-2,-4.661582E-3,-7.0768767E-3,4.0293213E-2,-1.3860121E-2,-5.9700847E-2,-2.1675752E-2,4.3504532E-2,2.1357791E-2,1.23715E-1,-7.413756E-2,2.4705399E-2],"split_indices":[24,31,52,23,31,7,0,52,63,0,0,27,20,4,7,33,39,0,0,0,0,43,38,0,42,39,40,41,4,0,0,0,0,0,0,0,0,0,0,0,0,0,0],"split_type":[0,0,0,0,0,0,0,0,0,0,0,0,0,0,0,0,0,0,0,0,0,0,0,0,0,0,0,0,0,0,0,0,0,0,0,0,0,0,0,0,0,0,0],"sum_hessian":[7.45E2,6.82E2,6.3E1,6.73E2,9E0,5.3E1,1E1,1E2,5.73E2,4E0,5E0,2.3E1,3E1,3.6E1,6.4E1,4.7E2,1.03E2,2E1,3E0,1.7E1,1.3E1,1.5E1,2.1E1,1E1,5.4E1,3.62E2,1.08E2,8.6E1,1.7E1,1.2E1,3E0,1.7E1,4E0,4E0,5E1,2.84E2,7.8E1,5.4E1,5.4E1,7.8E1,8E0,1.1E1,6E0],"tree_param":{"num_deleted":"0","num_feature":"64","num_nodes":"43","size_leaf_vector":"1"}},{"base_weights":[-1.1025476E-2,-2.9854383E-2,1.0061048E0,2.1634744E-2,-3.4916583E-1,6.486896E-2,1.2565644E-1,2.3559867E-3,9.673182E-2,-5.643419E-1,-1.04086846E-1,6.525551E-1,-2.0447763E-2,-3.9849892E-1,-1.1308914E0,2.1154246E-1,-5.0187653E-1,-1.6955633E-2,1.220227E0,-8.849011E-2,1.9980155E-1,-6.515646E-1,-2.0195271E-1,-1.3293366E-1,-3.7666712E-2,-3.227587E-2,1.4083256E-1,8.682538E-3,-7.8142023E-1,-5.901624E-2,2.5926722E-2,1.8365742E-1,6.699817E-2,-4.113323E-2,-3.6619752E-4,-5.5224326E-2,3.0316312E-2,-2.9140074E-2,-7.522374E-2,4.0462043E-2,-3.2938372E-2,-2.0862823E-2,2.9330922E-2,-3.5275754E-2,2.6486216E-2,-3.1849127E-2,-9.117134E-2],"categories":[],"categories_nodes":[],"categories_segments":[],"categories_sizes":[],"default_left":[0,0,0,0,0,0,0,0,0,0,0,0,0,0,0,0,0,0,0,0,0,0,0,0,0,0,0,0,0,0,0,0,0,0,0,0,0,0,0,0,0,0,0,0,0,0,0],"id":12,"left_children":[1,3,5,7,9,-1,-1,11,-1,13,15,17,19,21,23,25,27,29,31,33,35,37,39,-1,-1,41,-1,43,45,-1,-1,-1,-1,-1,-1,-1,-1,-1,-1,-1,-1,-1,-1,-1,-1,-1,-1],"loss_changes":[1.4755634E1,1.2551959E1,2.4760818E-1,1.1860684E1,5.464342E0,0E0,0E0,9.625128E0,0E0,4.658064E0,6.5384603E0,8.50239E0,9.343003E0,2.0213232E0,1.1247482E0,8.645192E0,3.3666992E0,1.92776E0,2.588581E0,1.3020165E1,1.1569193E1,3.6534882E-1,2.2127497E0,0E0,0E0,1.4881668E0,0E0,9.179848E-1,4.91354E-1,0E0,0E0,0E0,0E0,0E0,0E0,0E0,0E0,0E0,0E0,0E0,0E0,0E0,0E0,0E0,0E0,0E0,0E0],"parents":[2147483647,0,0,1,1,2,2,3,3,4,4,7,7,9,9,10,10,11,11,12,12,13,13,14,14,15,15,16,16,17,17,18,18,19,19,20,20,21,21,22,22,25,25,27,27,28,28],"right_children":[2,4,6,8,10,-1,-1,12,-1,14,16,18,20,22,24,26,28,30,32,34,36,38,40,-1,-1,42,-1,44,46,-1,-1,-1,-1,-1,-1,-1,-1,-1,-1,-1,-1,-1,-1,-1,-1,-1,-1],"split_conditions":[1.435E1,5.77E0,4.4507E2,1.6085098E-2,7.01E0,6.486896E-2,1.2565644E-1,4.3970917E1,9.673182E-2,1.204077E6,1.5E1,1.4742E5,8.721461E-1,8.4180855E1,7.2280467E-1,1.3144348E0,1.4449E4,1.8E0,6.76517E5,6E0,5.802163E1,3.3541432E-1,8.539061E1,-1.3293366E-1,-3.7666712E-2,9.77E0,1.4083256E-1,3.4794042E-1,4.3761E2,-5.901624E-2,2.5926722E-2,1.8365742E-1,6.699817E-2,-4.113323E-2,-3.6619752E-4,-5.5224326E-2,3.0316312E-2,-2.9140074E-2,-7.522374E-2,4.0462043E-2,-3.2938372E-2,-2.0862823E-2,2.9330922E-2,-3.5275754E-2,2.6486216E-2,-3.1849127E-2,-9.117134E-2],"split_indices":[7,10,52,21,4,0,0,35,0,56,6,56,33,34,33,33,56,7,56,6,42,38,34,0,0,4,0,39,52,0,0,0,0,0,0,0,0,0,0,0,0,0,0,0,0,0,0],"split_type":[0,0,0,0,0,0,0,0,0,0,0,0,0,0,0,0,0,0,0,0,0,0,0,0,0,0,0,0,0,0,0,0,0,0,0,0,0,0,0,0,0,0,0,0,0,0,0],"sum_hessian":[7.73E2,7.6E2,1.3E1,6.55E2,1.05E2,7E0,6E0,6.43E2,1.2E1,5.5E1,5E1,2.1E1,6.22E2,4.4E1,1.1E1,2.8E1,2.2E1,1E1,1.1E1,4.76E2,1.46E2,1.8E1,2.6E1,8E0,3E0,2.4E1,4E0,8E0,1.4E1,3E0,7E0,4E0,7E0,9.8E1,3.78E2,1.7E1,1.29E2,5E0,1.3E1,4E0,2.2E1,1.6E1,8E0,3E0,5E0,4E0,1E1],"tree_param":{"num_deleted":"0","num_feature":"64","num_nodes":"47","size_leaf_vector":"1"}},{"base_weights":[1.4261046E-2,-4.4253067E-4,9.3425304E-1,1.5226708E-1,-8.930268E-2,1.10935606E-1,4.4723745E-2,9.928965E-1,7.0883125E-2,-4.070949E-1,8.2498E-2,1.6385241E-1,3.128637E-1,4.63086E-2,1.5517828E-1,-4.6422172E-1,4.3098527E-1,4.0310746E-1,-1.2770014E-1,4.38505E-2,-5.4455376E-3,-5.436709E-1,9.2513464E-2,-5.526593E-1,-1.7514275E-2,-5.2953523E-1,2.26928E-1,1.7836483E-1,7.558167E-1,-3.4618822E-1,2.216586E-1,-2.6485438E-2,-9.296892E-2,-2.441105E-2,1.6913949E-2,-4.7056284E-2,-1.00224555E-1,7.367414E-2,-2.2696974E-2,5.5349804E-3,-9.1153614E-2,3.531131E-2,-1.8824624E-2,5.351755E-2,1.6168378E-1,-2.3616673E-2,-1.0059357E-1,2.8684318E-2,-2.5539367E-2],"categories":[],"categories_nodes":[],"categories_segments":[],"categories_sizes":[],"default_left":[0,0,0,0,0,0,0,0,0,0,0,0,0,0,0,0,0,0,0,0,0,0,0,0,0,0,0,0,0,0,0,0,0,0,0,0,0,0,0,0,0,0,0,0,0,0,0,0,0],"id":13,"left_children":[1,3,5,7,9,-1,-1,11,13,15,17,-1,19,21,-1,23,25,27,29,-1,-1,31,33,35,37,39,-1,41,43,45,47,-1,-1,-1,-1,-1,-1,-1,-1,-1,-1,-1,-1,-1,-1,-1,-1,-1,-1],"loss_changes":[1.0320337E1,1.0116801E1,3.7152958E-1,1.856861E1,2.583579E1,0E0,0E0,9.829374E0,8.9028225E0,8.150957E0,2.0768211E1,0E0,6.6223955E-1,6.7656417E0,0E0,6.0961914E0,2.0798553E1,9.442562E0,1.4286702E1,0E0,0E0,1.5716224E0,5.9922414E0,4.179329E0,4.3817816E0,1.9234848E0,0E0,4.951873E0,7.8484135E0,7.9856567E0,2.3153467E0,0E0,0E0,0E0,0E0,0E0,0E0,0E0,0E0,0E0,0E0,0E0,0E0,0E0,0E0,0E0,0E0,0E0,0E0],"parents":[2147483647,0,0,1,1,2,2,3,3,4,4,7,7,8,8,9,9,10,10,12,12,13,13,15,15,16,16,17,17,18,18,21,21,22,22,23,23,24,24,25,25,27,27,28,28,29,29,30,30],"right_children":[2,4,6,8,10,-1,-1,12,14,16,18,-1,20,22,-1,24,26,28,30,-1,-1,32,34,36,38,40,-1,42,44,46,48,-1,-1,-1,-1,-1,-1,-1,-1,-1,-1,-1,-1,-1,-1,-1,-1,-1,-1],"split_conditions":[3.3941273E-2,4.4327E2,3.880008E1,2.78E0,4.529E2,1.10935606E-1,4.4723745E-2,4.3409E2,4.4303E2,1.642417E6,4.5815E2,1.6385241E-1,2.1017481E-1,1.2E1,1.5517828E-1,2.6189554E1,3.1922826E-1,6.71046E5,4.7093E2,4.38505E-2,-5.4455376E-3,3.763177E1,2.4E1,9.59181E5,2.09E0,5.75E-1,2.26928E-1,1.104289E-2,9.449472E-1,4.6011367E-1,3.39E0,-2.6485438E-2,-9.296892E-2,-2.441105E-2,1.6913949E-2,-4.7056284E-2,-1.00224555E-1,7.367414E-2,-2.2696974E-2,5.5349804E-3,-9.1153614E-2,3.531131E-2,-1.8824624E-2,5.351755E-2,1.6168378E-1,-2.3616673E-2,-1.0059357E-1,2.8684318E-2,-2.5539367E-2],"split_indices":[8,52,1,10,55,0,0,52,53,56,54,0,40,25,0,2,45,56,52,0,0,1,12,56,10,0,0,8,33,40,4,0,0,0,0,0,0,0,0,0,0,0,0,0,0,0,0,0,0],"split_type":[0,0,0,0,0,0,0,0,0,0,0,0,0,0,0,0,0,0,0,0,0,0,0,0,0,0,0,0,0,0,0,0,0,0,0,0,0,0,0,0,0,0,0,0,0,0,0,0,0],"sum_hessian":[7.55E2,7.44E2,1.1E1,2.73E2,4.71E2,7E0,4E0,2.3E1,2.5E2,1.65E2,3.06E2,1.1E1,1.2E1,2.47E2,3E0,1.55E2,1E1,1.21E2,1.85E2,9E0,3E0,1.7E1,2.3E2,1.29E2,2.6E1,7E0,3E0,7.5E1,4.6E1,1.14E2,7.1E1,1.1E1,6E0,4.2E1,1.88E2,1.11E2,1.8E1,5E0,2.1E1,3E0,4E0,5.1E1,2.4E1,3.8E1,8E0,9.9E1,1.5E1,6.3E1,8E0],"tree_param":{"num_deleted":"0","num_feature":"64","num_nodes":"49","size_leaf_vector":"1"}},{"base_weights":[2.0276295E-2,3.796785E-1,-1.2470606E-2,-5.6158997E-2,6.901632E-1,-2.8153822E-2,7.9753006E-1,5.127013E-1,-4.2682394E-1,1.0803186E0,-3.211422E-1,-1.4416304E-1,1.1097464E-1,5.0522495E-2,1.03768185E-1,7.088964E-2,1.15487985E-2,5.520882E-2,-6.8316853E-1,1.3858038E0,1.690658E-1,4.2725682E-2,-6.676989E-2,5.5506453E-2,-3.7998307E-1,3.5361573E-1,-4.9540564E-2,-2.1334121E-2,-7.828177E-1,5.1429212E-2,1.6353549E-1,-6.316969E-2,7.958628E-2,-1.0382967E0,9.499936E-2,-5.001697E-1,-6.2005214E-2,1.3053228E-1,6.8581253E-1,3.1777192E-2,-8.6568636E-1,-8.9550905E-2,-3.3673067E-2,-1.6610138E-1,-1.3100545E-2,7.039991E-2,2.8524806E-3,-3.3394624E-2,-7.88754E-2,-2.1544557E-2,1.6547E-1,1.1163422E-1,7.2563225E-3,9.377119E-2,1.0141301E-2,1.3326316E-2,-3.75145E-2,4.169373E-2,-1.3001041E-1],"categories":[],"categories_nodes":[],"categories_segments":[],"categories_sizes":[],"default_left":[0,0,0,0,0,0,0,0,0,0,0,0,0,0,0,0,0,0,0,0,0,0,0,0,0,0,0,0,0,0,0,0,0,0,0,0,0,0,0,0,0,0,0,0,0,0,0,0,0,0,0,0,0,0,0,0,0,0,0],"id":14,"left_children":[1,3,5,7,9,11,13,15,17,19,21,23,25,-1,-1,-1,-1,-1,27,29,31,-1,-1,33,35,37,39,-1,41,-1,-1,-1,-1,43,45,47,49,51,53,55,57,-1,-1,-1,-1,-1,-1,-1,-1,-1,-1,-1,-1,-1,-1,-1,-1,-1,-1],"loss_changes":[8.880206E0,8.627374E0,8.698169E0,5.903373E0,1.5021807E1,1.0946222E1,2.3401546E-1,6.929364E-1,4.6562376E0,7.126322E0,3.162313E0,1.7475384E1,1.2043781E1,0E0,0E0,0E0,0E0,0E0,3.8882685E-1,3.2937202E0,4.534486E0,0E0,0E0,8.686997E0,6.409607E0,8.944079E0,1.2455189E1,0E0,1.2820292E-1,0E0,0E0,0E0,0E0,3.5580964E0,7.8008475E0,5.5245743E0,1.2856341E1,4.0860896E0,7.0142746E0,7.046276E0,1.0102685E1,0E0,0E0,0E0,0E0,0E0,0E0,0E0,0E0,0E0,0E0,0E0,0E0,0E0,0E0,0E0,0E0,0E0,0E0],"parents":[2147483647,0,0,1,1,2,2,3,3,4,4,5,5,6,6,7,7,8,8,9,9,10,10,11,11,12,12,18,18,19,19,20,20,23,23,24,24,25,25,26,26,28,28,33,33,34,34,35,35,36,36,37,37,38,38,39,39,40,40],"right_children":[2,4,6,8,10,12,14,16,18,20,22,24,26,-1,-1,-1,-1,-1,28,30,32,-1,-1,34,36,38,40,-1,42,-1,-1,-1,-1,44,46,48,50,52,54,56,58,-1,-1,-1,-1,-1,-1,-1,-1,-1,-1,-1,-1,-1,-1,-1,-1,-1,-1],"split_conditions":[4.3316E2,-7.3182635E-2,3.2310877E-2,4.3099E2,2.834623E-1,4.5292E2,6.35E0,1.75E-1,1.145E4,3.3471436E1,2.0851074E1,4.4327E2,4.5815E2,5.0522495E-2,1.03768185E-1,7.088964E-2,1.15487985E-2,5.520882E-2,3.8113773E1,2.9E1,1E0,4.2725682E-2,-6.676989E-2,1.53E0,8.721461E-1,6.71046E5,4.6011367E-1,-2.1334121E-2,2.5E1,5.1429212E-2,1.6353549E-1,-6.316969E-2,7.958628E-2,1.960338E1,2.3696E0,6.50333E5,7.913E-1,-7.116802E-2,3.7E1,3.94E0,4.026457E1,-8.9550905E-2,-3.3673067E-2,-1.6610138E-1,-1.3100545E-2,7.039991E-2,2.8524806E-3,-3.3394624E-2,-7.88754E-2,-2.1544557E-2,1.6547E-1,1.1163422E-1,7.2563225E-3,9.377119E-2,1.0141301E-2,1.3326316E-2,-3.75145E-2,4.169373E-2,-1.3001041E-1],"split_indices":[52,39,8,52,38,53,23,57,43,3,3,52,54,0,0,0,0,0,36,25,46,0,0,13,33,43,40,0,9,0,0,0,0,3,7,43,0,61,9,32,1,0,0,0,0,0,0,0,0,0,0,0,0,0,0,0,0,0,0],"split_type":[0,0,0,0,0,0,0,0,0,0,0,0,0,0,0,0,0,0,0,0,0,0,0,0,0,0,0,0,0,0,0,0,0,0,0,0,0,0,0,0,0,0,0,0,0,0,0,0,0,0,0,0,0,0,0,0,0,0,0],"sum_hessian":[7.5E2,6.2E1,6.88E2,2.6E1,3.6E1,6.76E2,1.2E1,1E1,1.6E1,2.6E1,1E1,3.69E2,3.07E2,7E0,5E0,6E0,4E0,3E0,1.3E1,1.9E1,7E0,3E0,7E0,2E2,1.69E2,1.22E2,1.85E2,3E0,1E1,5E0,1.4E1,3E0,4E0,6E0,1.94E2,1.22E2,4.7E1,7.4E1,4.8E1,1.69E2,1.6E1,7E0,3E0,3E0,3E0,1.8E1,1.76E2,7.9E1,4.3E1,4.4E1,3E0,3E0,7.1E1,3.3E1,1.5E1,1.36E2,3.3E1,4E0,1.2E1],"tree_param":{"num_deleted":"0","num_feature":"64","num_nodes":"59","size_leaf_vector":"1"}},{"base_weights":[-5.901444E-3,-5.04797E-2,3.079907E-1,2.4382035E-1,-9.72233E-2,1.893872E-1,1.0247213E0,-1.99827E-1,4.669228E-1,-4.7911796E-1,-4.216636E-2,1.145045E-1,8.552392E-1,3.0385206E-2,1.20059684E-1,9.084364E-2,-3.5458508E-1,1.3200653E-1,6.1290854E-1,-6.953388E-1,-2.5308913E-1,-8.048544E-2,3.6730486E-1,-2.5235334E-1,2.734333E-1,1.2667437E-1,3.349878E-2,-5.489381E-1,1.874147E-1,2.554881E-1,-7.0238495E-3,8.902695E-1,3.1574997E-1,-1.18722476E-1,-4.5664322E-1,2.8941482E-1,-3.7065166E-1,-1.24150515E-1,2.6342157E-1,-5.423843E-3,4.53556E-1,3.8142517E-2,-3.7149137E-1,3.311887E-1,-3.4614222E-3,-3.3653998E-3,-6.273936E-2,3.839235E-2,-8.007496E-3,3.7512295E-2,1.6901735E-3,1.105974E-2,-1.6676458E-2,2.2939134E-2,1.0263944E-1,4.8079073E-2,-1.878239E-2,-1.7855689E-2,-5.444352E-2,-2.8636325E-2,8.178392E-2,-4.7831424E-2,-8.672887E-3,-4.7353003E-3,-4.4405714E-2,-5.658939E-4,1.4041257E-1,5.2623548E-2,6.2993034E-3,-4.487905E-2,-2.9835922E-3,3.8129225E-2,-1.2589796E-2],"categories":[],"categories_nodes":[],"categories_segments":[],"categories_sizes":[],"default_left":[0,0,0,0,0,0,0,0,0,0,0,0,0,0,0,0,0,0,0,0,0,0,0,0,0,0,0,0,0,0,0,0,0,0,0,0,0,0,0,0,0,0,0,0,0,0,0,0,0,0,0,0,0,0,0,0,0,0,0,0,0,0,0,0,0,0,0,0,0,0,0,0,0],"id":15,"left_children":[1,3,5,7,9,11,13,15,17,19,21,23,25,-1,-1,-1,27,29,31,33,35,37,39,41,43,-1,-1,45,47,49,51,53,55,-1,57,59,61,63,65,-1,67,-1,69,71,-1,-1,-1,-1,-1,-1,-1,-1,-1,-1,-1,-1,-1,-1,-1,-1,-1,-1,-1,-1,-1,-1,-1,-1,-1,-1,-1,-1,-1],"loss_changes":[1.0582318E1,9.143456E0,7.6751537E0,9.127085E0,1.1996564E1,3.893682E0,1.1329336E0,5.5836277E0,2.827074E0,3.2479706E0,7.8932323E0,4.44393E0,1.1281695E0,0E0,0E0,0E0,3.0885317E0,3.6999476E-1,3.0599442E0,3.5202694E0,2.475187E0,6.9414864E0,1.6279511E0,1.8773668E0,9.84066E-1,0E0,0E0,7.617445E-1,4.8164007E-1,2.6843292E-1,2.1194947E-1,1.5281754E0,1.9480252E0,0E0,4.652462E-1,2.4171329E0,8.496156E-1,1.0002724E1,1.6108736E1,0E0,9.29821E-1,0E0,4.669404E-1,1.1041179E0,0E0,0E0,0E0,0E0,0E0,0E0,0E0,0E0,0E0,0E0,0E0,0E0,0E0,0E0,0E0,0E0,0E0,0E0,0E0,0E0,0E0,0E0,0E0,0E0,0E0,0E0,0E0,0E0,0E0],"parents":[2147483647,0,0,1,1,2,2,3,3,4,4,5,5,6,6,7,7,8,8,9,9,10,10,11,11,12,12,16,16,17,17,18,18,19,19,20,20,21,21,22,22,23,23,24,24,27,27,28,28,29,29,30,30,31,31,32,32,34,34,35,35,36,36,37,37,38,38,40,40,42,42,43,43],"right_children":[2,4,6,8,10,12,14,16,18,20,22,24,26,-1,-1,-1,28,30,32,34,36,38,40,42,44,-1,-1,46,48,50,52,54,56,-1,58,60,62,64,66,-1,68,-1,70,72,-1,-1,-1,-1,-1,-1,-1,-1,-1,-1,-1,-1,-1,-1,-1,-1,-1,-1,-1,-1,-1,-1,-1,-1,-1,-1,-1,-1,-1],"split_conditions":[3E0,2.39E0,7.083936E-1,1.5172E4,1.1E1,4.9860217E-3,2.6872965E1,4.4113E2,1.3770697E1,7.3852696E-2,3E1,4.5075E2,3.65E0,3.0385206E-2,1.20059684E-1,9.084364E-2,2.4484731E-1,8.87574E0,4.5034E2,3.1E0,4.9998184E1,1.5777078E0,4.0781283E-4,6E0,2.3E1,1.2667437E-1,3.349878E-2,3.45437E1,6.5E-2,4.5716376E-3,7.23E-2,8E0,8.475015E1,-1.18722476E-1,4.04E-2,1.01259E5,6.191567E-1,3.2E1,7.58378E5,-5.423843E-3,7.3E1,3.8142517E-2,1.2E1,9.028202E1,-3.4614222E-3,-3.3653998E-3,-6.273936E-2,3.839235E-2,-8.007496E-3,3.7512295E-2,1.6901735E-3,1.105974E-2,-1.6676458E-2,2.2939134E-2,1.0263944E-1,4.8079073E-2,-1.878239E-2,-1.7855689E-2,-5.444352E-2,-2.8636325E-2,8.178392E-2,-4.7831424E-2,-8.672887E-3,-4.7353003E-3,-4.4405714E-2,-5.658939E-4,1.4041257E-1,5.2623548E-2,6.2993034E-3,-4.487905E-2,-2.9835922E-3,3.8129225E-2,-1.2589796E-2],"split_indices":[37,10,60,43,9,31,3,52,2,38,22,52,4,0,0,0,39,2,53,7,34,33,5,6,9,0,0,3,63,8,0,9,36,0,63,43,38,12,43,0,9,0,9,36,0,0,0,0,0,0,0,0,0,0,0,0,0,0,0,0,0,0,0,0,0,0,0,0,0,0,0,0,0],"split_type":[0,0,0,0,0,0,0,0,0,0,0,0,0,0,0,0,0,0,0,0,0,0,0,0,0,0,0,0,0,0,0,0,0,0,0,0,0,0,0,0,0,0,0,0,0,0,0,0,0,0,0,0,0,0,0,0,0,0,0,0,0,0,0,0,0,0,0,0,0,0,0,0,0],"sum_hessian":[7.56E2,6.63E2,9.3E1,9E1,5.73E2,8.1E1,1.2E1,3E1,6E1,7.1E1,5.02E2,7.4E1,7E0,3E0,9E0,3E0,2.7E1,1.9E1,4.1E1,3.5E1,3.6E1,4.6E2,4.2E1,2.2E1,5.2E1,3E0,4E0,2E1,7E0,1E1,9E0,2E1,2.1E1,1E1,2.5E1,6E0,3E1,4.09E2,5.1E1,7E0,3.5E1,3E0,1.9E1,4.4E1,8E0,3E0,1.7E1,4E0,3E0,6E0,4E0,5E0,4E0,4E0,1.6E1,1.6E1,5E0,7E0,1.8E1,3E0,3E0,2.1E1,9E0,3.31E2,7.8E1,4.2E1,9E0,2.9E1,6E0,1.5E1,4E0,4E1,4E0],"tree_param":{"num_deleted":"0","num_feature":"64","num_nodes":"73","size_leaf_vector":"1"}},{"base_weights":[2.068578E-2,-3.7363847E-3,4.6607572E-1,2.6178864E-1,-4.2498123E-2,6.771734E-2,6.8244773E-1,1.3214149E-1,1.1156769E-1,-8.866668E-2,2.5141668E-1,1.1965603E-2,-8.002804E-3,1.5611283E-2,9.150692E-1,-3.5467485E-1,3.4447473E-1,-4.2168385E-1,-3.586728E-2,9.259665E-1,1.3571784E-1,1.0247904E-1,2.7727798E-2,-5.9962142E-2,-3.706923E-2,-3.137653E-2,4.2256448E-1,5.106188E-2,-4.8457992E-1,7.652297E-1,-5.1819045E-2,8.676044E-3,1.3222246E-1,2.784877E-1,-2.7944323E-1,3.4243874E-2,-3.2956656E-2,2.8589258E-2,-2.2247652E-2,7.57102E-2,1.8884163E-2,-5.275018E-2,1.5032053E-2,1.05803326E-1,1.09716905E-2,-3.2795355E-2,3.13644E-4,-1.8614708E-3,4.654808E-2,-3.9454564E-2,2.258273E-2],"categories":[],"categories_nodes":[],"categories_segments":[],"categories_sizes":[],"default_left":[0,0,0,0,0,0,0,0,0,0,0,0,0,0,0,0,0,0,0,0,0,0,0,0,0,0,0,0,0,0,0,0,0,0,0,0,0,0,0,0,0,0,0,0,0,0,0,0,0,0,0],"id":16,"left_children":[1,3,5,7,9,11,13,-1,15,17,19,-1,-1,-1,21,23,25,27,29,31,33,-1,-1,-1,35,37,39,-1,41,43,45,-1,-1,47,49,-1,-1,-1,-1,-1,-1,-1,-1,-1,-1,-1,-1,-1,-1,-1,-1],"loss_changes":[8.162505E0,7.2760825E0,3.2403202E0,1.4035298E1,8.405613E0,1.2864414E-1,2.8109484E0,0E0,8.808452E0,9.363665E0,6.3239098E0,0E0,0E0,0E0,7.752886E-1,2.0146065E0,1.6372843E0,4.5254183E0,5.897728E0,3.73489E0,4.404618E0,0E0,0E0,0E0,1.5546352E0,6.63564E-1,3.280941E0,0E0,1.9973412E0,1.4945688E0,6.9533577E0,0E0,0E0,3.1089368E0,1.2109706E0,0E0,0E0,0E0,0E0,0E0,0E0,0E0,0E0,0E0,0E0,0E0,0E0,0E0,0E0,0E0,0E0],"parents":[2147483647,0,0,1,1,2,2,3,3,4,4,5,5,6,6,8,8,9,9,10,10,14,14,15,15,16,16,17,17,18,18,19,19,20,20,24,24,25,25,26,26,28,28,29,29,30,30,33,33,34,34],"right_children":[2,4,6,8,10,12,14,-1,16,18,20,-1,-1,-1,22,24,26,28,30,32,34,-1,-1,-1,36,38,40,-1,42,44,46,-1,-1,48,50,-1,-1,-1,-1,-1,-1,-1,-1,-1,-1,-1,-1,-1,-1,-1,-1],"split_conditions":[4.4E1,2.35E0,5.2906748E-2,4.3409E2,3E0,7.3E1,9.098851E-2,1.3214149E-1,1.2676E4,1.1E1,4.32885E2,1.1965603E-2,-8.002804E-3,1.5611283E-2,4.57883E2,3.8126362E-3,1.4173229E-1,1.6249695E1,-1.5700826E-1,8E0,5.13E0,1.0247904E-1,2.7727798E-2,-5.9962142E-2,6.606668E1,4.4176E2,6.4585274E-1,5.106188E-2,2.919066E6,7.8E0,3.2677165E-1,8.676044E-3,1.3222246E-1,2.2E0,5.711828E-1,3.4243874E-2,-3.2956656E-2,2.8589258E-2,-2.2247652E-2,7.57102E-2,1.8884163E-2,-5.275018E-2,1.5032053E-2,1.05803326E-1,1.09716905E-2,-3.2795355E-2,3.13644E-4,-1.8614708E-3,4.654808E-2,-3.9454564E-2,2.258273E-2],"split_indices":[25,10,39,52,37,9,40,0,43,9,53,0,0,0,53,8,33,1,61,6,7,0,0,0,42,52,33,0,43,7,33,0,0,7,40,0,0,0,0,0,0,0,0,0,0,0,0,0,0,0,0],"split_type":[0,0,0,0,0,0,0,0,0,0,0,0,0,0,0,0,0,0,0,0,0,0,0,0,0,0,0,0,0,0,0,0,0,0,0,0,0,0,0,0,0,0,0,0,0,0,0,0,0,0,0],"sum_hessian":[7.45E2,7.07E2,3.8E1,8.9E1,6.18E2,1.4E1,2.4E1,1E1,7.9E1,5.35E2,8.3E1,1.1E1,3E0,8E0,1.6E1,2.6E1,5.3E1,7.2E1,4.63E2,1.1E1,7.2E1,1.3E1,3E0,1.4E1,1.2E1,9E0,4.4E1,4E0,6.8E1,8E0,4.55E2,4E0,7E0,5.4E1,1.8E1,5E0,7E0,3E0,6E0,1.7E1,2.7E1,6.4E1,4E0,5E0,3E0,7.5E1,3.8E2,2.1E1,3.3E1,1.5E1,3E0],"tree_param":{"num_deleted":"0","num_feature":"64","num_nodes":"51","size_leaf_vector":"1"}},{"base_weights":[1.1568965E-2,4.530664E-1,-2.1923754E-2,6.214957E-1,-4.283099E-1,-5.6846566E-2,3.4090957E-1,9.702006E-1,2.0829518E-1,-1.7875625E-2,-6.705629E-2,4.6037656E-1,-7.804547E-2,-2.261306E-2,8.6928666E-1,4.5387656E-3,1.1478938E0,4.1479322E-1,-5.567568E-2,-1.7492298E-2,5.595048E-1,1.4192526E-1,-1.272644E-1,-6.597703E-1,2.0217928E-1,-9.641037E-2,1.3352859E0,4.5715015E-2,1.2857579E-1,-2.2103254E-2,7.039185E-1,3.949558E-2,7.074681E-2,8.526385E-2,1.1120661E-1,-4.626959E-1,-7.32874E-2,-2.6438488E-2,-9.822788E-2,7.357822E-1,-1.2958801E-1,-3.8303193E-2,1.8949326E-2,4.1156236E-2,1.4966865E0,4.3231305E-2,-4.0121567E-2,1.5350416E-2,8.7863594E-2,-3.523112E-2,1.8488018E-2,-5.4336954E-2,4.582724E-2,-5.6851655E-3,-8.301656E-2,1.1251104E-1,3.3829313E-2,-4.1969623E-2,2.7300928E-2,7.677808E-2,1.8052141E-1],"categories":[],"categories_nodes":[],"categories_segments":[],"categories_sizes":[],"default_left":[0,0,0,0,0,0,0,0,0,0,0,0,0,0,0,0,0,0,0,0,0,0,0,0,0,0,0,0,0,0,0,0,0,0,0,0,0,0,0,0,0,0,0,0,0,0,0,0,0,0,0,0,0,0,0,0,0,0,0,0,0],"id":17,"left_children":[1,3,5,7,9,11,13,15,17,-1,-1,19,21,23,25,-1,27,29,-1,-1,31,33,35,37,39,41,43,-1,-1,45,47,-1,-1,49,-1,51,53,-1,-1,55,57,-1,-1,-1,59,-1,-1,-1,-1,-1,-1,-1,-1,-1,-1,-1,-1,-1,-1,-1,-1],"loss_changes":[1.1113686E1,8.153342E0,8.8101015E0,6.163889E0,3.392967E-1,6.9711604E0,1.1821025E1,3.772564E0,3.692341E0,0E0,0E0,1.7107315E0,6.6425495E0,5.4785895E0,1.1502977E1,0E0,1.142498E0,2.3574615E0,0E0,0E0,1.459775E-1,5.9420376E0,8.983389E0,8.907857E-1,5.1128635E0,8.294511E-1,1.7277145E0,0E0,0E0,1.5485398E0,8.197484E-1,0E0,0E0,4.7124815E0,0E0,5.384075E0,5.250559E0,0E0,0E0,1.175333E0,2.2315915E0,0E0,0E0,0E0,1.5051174E0,0E0,0E0,0E0,0E0,0E0,0E0,0E0,0E0,0E0,0E0,0E0,0E0,0E0,0E0,0E0,0E0],"parents":[2147483647,0,0,1,1,2,2,3,3,4,4,5,5,6,6,7,7,8,8,11,11,12,12,13,13,14,14,16,16,17,17,20,20,21,21,22,22,23,23,24,24,25,25,26,26,29,29,30,30,33,33,35,35,36,36,39,39,40,40,44,44],"right_children":[2,4,6,8,10,12,14,16,18,-1,-1,20,22,24,26,-1,28,30,-1,-1,32,34,36,38,40,42,44,-1,-1,46,48,-1,-1,50,-1,52,54,-1,-1,56,58,-1,-1,-1,60,-1,-1,-1,-1,-1,-1,-1,-1,-1,-1,-1,-1,-1,-1,-1,-1],"split_conditions":[4.335E2,2.64E-1,3.5227084E-1,7.4960865E-2,4.3214E2,2.85E0,4.4303E2,-5.434057E-1,7.060325E1,-1.7875625E-2,-6.705629E-2,1.8032786E-1,2.83E0,-1.5764895E-1,1.4742E5,4.5387656E-3,2.4684246E1,1.1666E5,-5.567568E-2,-1.7492298E-2,1.9E1,7.485657E1,1.0467614E-2,5.2746372E1,8.303073E1,4.5083E2,-3.5035834E-1,4.5715015E-2,1.2857579E-1,1.001E-1,2.2110132E1,3.949558E-2,7.074681E-2,1.4173229E-1,1.1120661E-1,7.409923E1,5.5E1,-2.6438488E-2,-9.822788E-2,5.36E0,6.56E0,-3.8303193E-2,1.8949326E-2,4.1156236E-2,3.2183907E1,4.3231305E-2,-4.0121567E-2,1.5350416E-2,8.7863594E-2,-3.523112E-2,1.8488018E-2,-5.4336954E-2,4.582724E-2,-5.6851655E-3,-8.301656E-2,1.1251104E-1,3.3829313E-2,-4.1969623E-2,2.7300928E-2,7.677808E-2,1.8052141E-1],"split_indices":[53,57,45,61,53,23,53,38,62,0,0,27,10,39,43,0,1,43,0,0,25,62,11,34,35,53,38,0,0,63,1,0,0,33,0,62,18,0,0,4,4,0,0,0,3,0,0,0,0,0,0,0,0,0,0,0,0,0,0,0,0],"split_type":[0,0,0,0,0,0,0,0,0,0,0,0,0,0,0,0,0,0,0,0,0,0,0,0,0,0,0,0,0,0,0,0,0,0,0,0,0,0,0,0,0,0,0,0,0,0,0,0,0,0,0,0,0,0,0,0,0,0,0,0,0],"sum_hessian":[7.47E2,5.2E1,6.95E2,4.4E1,8E0,6.35E2,6E1,2.3E1,2.1E1,5E0,3E0,2.4E1,6.11E2,3.6E1,2.4E1,4E0,1.9E1,1.7E1,4E0,3E0,2.1E1,1.11E2,5E2,9E0,2.7E1,8E0,1.6E1,4E0,1.5E1,7E0,1E1,1.2E1,9E0,1.06E2,5E0,6.8E1,4.32E2,5E0,4E0,1E1,1.7E1,4E0,4E0,3E0,1.3E1,3E0,4E0,3E0,7E0,1.9E1,8.7E1,6.3E1,5E0,4.24E2,8E0,4E0,6E0,1E1,7E0,5E0,8E0],"tree_param":{"num_deleted":"0","num_feature":"64","num_nodes":"61","size_leaf_vector":"1"}},{"base_weights":[7.331941E-3,3.0940875E-1,-2.3174897E-2,4.2979205E-1,-5.5654194E-2,8.245047E-3,-2.9452488E-1,1.9891253E-1,1.0369418E0,-5.108871E-2,1.7028815E-1,-4.4331968E-1,-5.0032135E-2,-1.556009E-2,8.3408767E-1,1.3713339E-1,1.7866744E-2,-3.5857964E-2,-8.9464366E-1,3.1451464E-2,3.9601314E-1,6.9622765E-3,-4.9749997E-1,-3.3736914E-2,5.2182782E-2,6.590082E-2,-1.7577401E-1,1.2235878E-2,1.0466241E-1,-1.9861564E-2,-7.325123E-2,-2.037785E-3,-1.3951276E-1,1.8549731E-1,-2.972779E-1,2.2409369E-1,7.861332E-1,-6.25804E-2,-3.2649064E-1,-6.651657E-3,1.3190502E-1,-3.542054E-2,4.468156E-2,-2.7009888E-2,2.0437585E-3,2.4183078E-2,-3.6590822E-2,-5.0599705E-2,-7.808327E-3,3.1663213E-2,-5.780479E-2,-8.720294E-3,1.0315031E-1,-4.8420556E-2,-1.9662833E-2,-0E0,2.3210144E-2],"categories":[],"categories_nodes":[],"categories_segments":[],"categories_sizes":[],"default_left":[0,0,0,0,0,0,0,0,0,0,0,0,0,0,0,0,0,0,0,0,0,0,0,0,0,0,0,0,0,0,0,0,0,0,0,0,0,0,0,0,0,0,0,0,0,0,0,0,0,0,0,0,0,0,0,0,0],"id":18,"left_children":[1,3,5,7,-1,9,11,13,15,17,19,21,23,25,27,-1,-1,29,31,33,35,-1,37,-1,39,-1,41,-1,-1,43,-1,-1,-1,45,47,49,51,-1,53,-1,55,-1,-1,-1,-1,-1,-1,-1,-1,-1,-1,-1,-1,-1,-1,-1,-1],"loss_changes":[7.131658E0,7.627988E0,5.9991174E0,8.501396E0,0E0,6.058605E0,2.5841699E0,6.4975324E0,4.4789867E0,5.784937E0,5.2410736E0,1.3280363E0,8.9785725E-1,3.9582214E0,1.5702581E0,0E0,0E0,4.958428E0,3.3304682E0,5.4117417E0,4.0152407E0,0E0,6.0004044E-1,0E0,2.2349823E-1,0E0,3.4816895E0,0E0,0E0,4.507938E0,0E0,0E0,0E0,2.3436482E0,1.457586E0,3.571417E0,4.2558966E0,0E0,2.4633265E-1,0E0,1.8738356E-1,0E0,0E0,0E0,0E0,0E0,0E0,0E0,0E0,0E0,0E0,0E0,0E0,0E0,0E0,0E0,0E0],"parents":[2147483647,0,0,1,1,2,2,3,3,5,5,6,6,7,7,8,8,9,9,10,10,11,11,12,12,13,13,14,14,17,17,18,18,19,19,20,20,22,22,24,24,26,26,29,29,33,33,34,34,35,35,36,36,38,38,40,40],"right_children":[2,4,6,8,-1,10,12,14,16,18,20,22,24,26,28,-1,-1,30,32,34,36,-1,38,-1,40,-1,42,-1,-1,44,-1,-1,-1,46,48,50,52,-1,54,-1,56,-1,-1,-1,-1,-1,-1,-1,-1,-1,-1,-1,-1,-1,-1,-1,-1],"split_conditions":[4.3316E2,7.060325E1,3.7E1,5.2816904E-1,-5.5654194E-2,1.9E1,4.7558655E1,4.4598057E1,3.3471436E1,5.9E1,4.5309E2,2.631579E0,5.85E0,7E-2,-6.4046466E-1,1.3713339E-1,1.7866744E-2,6.0814003E1,-4.3943487E-3,4.4701E2,9.162E5,6.9622765E-3,1.3732313E1,-3.3736914E-2,8.393679E-2,6.590082E-2,6.35E0,1.2235878E-2,1.0466241E-1,9.167049E-3,-7.325123E-2,-2.037785E-3,-1.3951276E-1,1.1215916E0,3.7859104E1,1.1065262E-1,3.2677165E-1,-6.25804E-2,-4.6773157E-3,-6.651657E-3,7.2652145E1,-3.542054E-2,4.468156E-2,-2.7009888E-2,2.0437585E-3,2.4183078E-2,-3.6590822E-2,-5.0599705E-2,-7.808327E-3,3.1663213E-2,-5.780479E-2,-8.720294E-3,1.0315031E-1,-4.8420556E-2,-1.9662833E-2,-0E0,2.3210144E-2],"split_indices":[52,42,12,33,0,6,1,1,3,18,52,2,4,0,38,0,0,1,61,52,43,0,2,0,40,0,23,0,0,17,0,0,0,40,1,61,33,0,40,0,42,0,0,0,0,0,0,0,0,0,0,0,0,0,0,0,0],"split_type":[0,0,0,0,0,0,0,0,0,0,0,0,0,0,0,0,0,0,0,0,0,0,0,0,0,0,0,0,0,0,0,0,0,0,0,0,0,0,0,0,0,0,0,0,0,0,0,0,0,0,0,0,0,0,0,0,0],"sum_hessian":[7.69E2,7E1,6.99E2,6.2E1,8E0,6.27E2,7.2E1,4.6E1,1.6E1,4.59E2,1.68E2,4.4E1,2.8E1,3.5E1,1.1E1,1.1E1,5E0,4.52E2,7E0,1.05E2,6.3E1,4E0,4E1,7E0,2.1E1,6E0,2.9E1,3E0,8E0,4.43E2,9E0,3E0,4E0,7.2E1,3.3E1,4.5E1,1.8E1,2.1E1,1.9E1,8E0,1.3E1,2.3E1,6E0,6.1E1,3.82E2,6.6E1,6E0,1.6E1,1.7E1,4.1E1,4E0,4E0,1.4E1,7E0,1.2E1,6E0,7E0],"tree_param":{"num_deleted":"0","num_feature":"64","num_nodes":"57","size_leaf_vector":"1"}},{"base_weights":[2.271663E-3,3.9788816E-2,-2.2544864E-1,-1.300793E-1,9.806361E-2,-4.3104732E-1,9.572668E-2,-1.834945E-1,1.08750574E-1,8.0508344E-2,6.3258365E-2,-3.2570618E-1,-8.1966525E-1,5.3951067E-1,-7.592283E-2,1.924896E-1,-3.0812675E-1,1.1376073E-1,-2.8562078E-1,-4.9603246E-2,-1.9530356E-1,-1.0641716E-1,-4.437783E-2,-4.8070154E-3,9.8036416E-2,2.1544846E-2,-2.6418632E-2,5.593993E-1,-1.185418E-3,1.6790116E-1,-4.4920903E-1,1.3218355E-1,-8.6206603E-1,-4.9061036E-1,2.7168086E-1,-3.200315E-1,-4.4323657E-2,-1.8949626E-2,7.280149E-2,4.6745734E-3,7.497861E-2,-3.743379E-2,2.006318E-2,-9.140429E-3,4.4087835E-2,-6.198287E-2,-2.2488927E-2,5.2466262E-2,9.737209E-3,-1.148205E-1,-2.6387576E-2,3.4683928E-2,-6.4247586E-2,3.4027554E-3,3.4404743E-2,-4.3972805E-2,3.5185856E-3,-3.1624082E-2,3.5060365E-3,-3.08375E-3,1.6879644E-2],"categories":[],"categories_nodes":[],"categories_segments":[],"categories_sizes":[],"default_left":[0,0,0,0,0,0,0,0,0,0,0,0,0,0,0,0,0,0,0,0,0,0,0,0,0,0,0,0,0,0,0,0,0,0,0,0,0,0,0,0,0,0,0,0,0,0,0,0,0,0,0,0,0,0,0,0,0,0,0,0,0],"id":19,"left_children":[1,3,5,7,9,11,13,15,-1,17,-1,19,21,23,25,27,29,31,33,-1,35,-1,-1,-1,-1,37,-1,39,41,43,45,47,49,51,53,55,57,-1,59,-1,-1,-1,-1,-1,-1,-1,-1,-1,-1,-1,-1,-1,-1,-1,-1,-1,-1,-1,-1,-1,-1],"loss_changes":[6.4065104E0,6.4043274E0,7.0743175E0,1.0840343E1,4.400677E0,2.2794275E0,3.2866826E0,7.521574E0,0E0,5.7130513E0,0E0,1.0111718E0,5.7173634E-1,3.2488005E0,5.9879375E-1,2.8989341E0,8.162648E0,7.7712803E0,4.6105824E0,0E0,5.5198467E-1,0E0,0E0,0E0,0E0,2.292886E-1,0E0,1.2517323E0,2.1258066E0,2.0572104E0,3.335556E0,5.6660624E0,9.251332E-1,3.940611E0,1.3966513E-1,7.787374E-1,3.8457963E-1,0E0,1.9807991E-1,0E0,0E0,0E0,0E0,0E0,0E0,0E0,0E0,0E0,0E0,0E0,0E0,0E0,0E0,0E0,0E0,0E0,0E0,0E0,0E0,0E0,0E0],"parents":[2147483647,0,0,1,1,2,2,3,3,4,4,5,5,6,6,7,7,9,9,11,11,12,12,13,13,14,14,15,15,16,16,17,17,18,18,20,20,25,25,27,27,28,28,29,29,30,30,31,31,32,32,33,33,34,34,35,35,36,36,38,38],"right_children":[2,4,6,8,10,12,14,16,-1,18,-1,20,22,24,26,28,30,32,34,-1,36,-1,-1,-1,-1,38,-1,40,42,44,46,48,50,52,54,56,58,-1,60,-1,-1,-1,-1,-1,-1,-1,-1,-1,-1,-1,-1,-1,-1,-1,-1,-1,-1,-1,-1,-1,-1],"split_conditions":[3.2E1,1.2E1,4.548547E1,7.288006E-1,3.2310877E-2,1.268902E6,3.2900303E1,2.39E0,1.08750574E-1,6.92526E-1,6.3258365E-2,4.4529047E-2,2E0,1.1402723E0,1.5534543E0,4.4818E2,-3.3475253E-1,5.5E1,1.026E1,-4.9603246E-2,4.5485E2,-1.0641716E-1,-4.437783E-2,-4.8070154E-3,9.8036416E-2,8.358307E1,-2.6418632E-2,1.0075788E-3,1.63E0,9.95943E1,1.7336161E-1,4.335E2,7.8809106E-1,1.6395E4,7.49E0,9.449472E-1,8.6837166E1,-1.8949626E-2,7.243316E1,4.6745734E-3,7.497861E-2,-3.743379E-2,2.006318E-2,-9.140429E-3,4.4087835E-2,-6.198287E-2,-2.2488927E-2,5.2466262E-2,9.737209E-3,-1.148205E-1,-2.6387576E-2,3.4683928E-2,-6.4247586E-2,3.4027554E-3,3.4404743E-2,-4.3972805E-2,3.5185856E-3,-3.1624082E-2,3.5060365E-3,-3.08375E-3,1.6879644E-2],"split_indices":[12,9,1,45,8,43,3,10,0,38,0,40,44,33,33,52,38,18,7,0,52,0,0,0,0,49,0,33,7,35,38,53,33,43,32,33,35,0,42,0,0,0,0,0,0,0,0,0,0,0,0,0,0,0,0,0,0,0,0,0,0],"split_type":[0,0,0,0,0,0,0,0,0,0,0,0,0,0,0,0,0,0,0,0,0,0,0,0,0,0,0,0,0,0,0,0,0,0,0,0,0,0,0,0,0,0,0,0,0,0,0,0,0,0,0,0,0,0,0,0,0,0,0,0,0],"sum_hessian":[7.5E2,6.45E2,1.05E2,1.64E2,4.81E2,6.4E1,4.1E1,1.58E2,6E0,4.67E2,1.4E1,5.2E1,1.2E1,1.1E1,3E1,3.9E1,1.19E2,4.29E2,3.8E1,2.1E1,3.1E1,6E0,6E0,5E0,6E0,2E1,1E1,1.3E1,2.6E1,2.7E1,9.2E1,4.22E2,7E0,2.8E1,1E1,1.6E1,1.5E1,3E0,1.7E1,4E0,9E0,9E0,1.7E1,1.4E1,1.3E1,5.1E1,4.1E1,3.3E1,3.89E2,4E0,3E0,4E0,2.4E1,3E0,7E0,1.2E1,4E0,3E0,1.2E1,8E0,9E0],"tree_param":{"num_deleted":"0","num_feature":"64","num_nodes":"61","size_leaf_vector":"1"}},{"base_weights":[1.5782962E-3,3.8265076E-2,-1.6881901E-1,1.8277694E-2,5.244241E-1,-3.3822447E-1,5.2555073E-2,4.840285E-3,8.2075685E-1,8.893019E-2,2.5734895E-1,-4.858486E-1,-3.7680753E-2,1.817806E-1,-3.0792642E-1,6.521331E-1,-8.054428E-3,2.525641E-2,1.1407913E-1,1.2646282E-2,5.0000586E-2,-3.3002508E-1,-7.813662E-1,2.587277E-1,-3.3854058E-1,8.30363E-2,1.1481506E-1,-3.9657556E-2,3.216485E-3,4.1774814E-3,9.395904E-1,-4.2732313E-1,9.376522E-3,-2.119475E-1,-5.4018456E-2,-1.0032157E-1,-1.907729E-2,2.8920755E-2,6.46596E-2,-9.807534E-3,-4.50124E-2,-1.3862155E-1,1.796535E-1,1.2790461E-1,4.6010777E-2,-5.1598437E-2,1.19979065E-2,2.3719814E-2,-2.4751986E-3,-2.6636157E-2,-0E0,-1.0273734E-2,1.50482375E-2,-2.674543E-2,-1.2169289E-3,3.398634E-2,-2.057664E-3],"categories":[],"categories_nodes":[],"categories_segments":[],"categories_sizes":[],"default_left":[0,0,0,0,0,0,0,0,0,0,0,0,0,0,0,0,0,0,0,0,0,0,0,0,0,0,0,0,0,0,0,0,0,0,0,0,0,0,0,0,0,0,0,0,0,0,0,0,0,0,0,0,0,0,0,0,0],"id":20,"left_children":[1,3,5,7,9,11,13,15,17,-1,19,21,23,25,27,29,31,-1,-1,-1,-1,33,35,37,39,41,-1,-1,-1,-1,43,45,47,49,-1,-1,-1,51,-1,-1,-1,53,55,-1,-1,-1,-1,-1,-1,-1,-1,-1,-1,-1,-1,-1,-1],"loss_changes":[4.838184E0,6.1453376E0,5.184113E0,6.54516E0,2.092719E0,3.390006E0,2.8383653E0,5.1277337E0,1.3909545E0,0E0,3.8228774E-1,2.0255175E0,2.5033607E0,4.075602E0,5.3157747E-1,1.9680357E0,4.394211E0,0E0,0E0,0E0,0E0,7.036407E-1,1.9166021E0,1.1616361E0,2.7668118E-1,9.284773E-1,0E0,0E0,0E0,0E0,5.3969E-1,1.2660956E0,4.474537E0,2.9592586E-1,0E0,0E0,0E0,1.8028037E-1,0E0,0E0,0E0,1.8056843E-1,1.0012875E0,0E0,0E0,0E0,0E0,0E0,0E0,0E0,0E0,0E0,0E0,0E0,0E0,0E0,0E0],"parents":[2147483647,0,0,1,1,2,2,3,3,4,4,5,5,6,6,7,7,8,8,10,10,11,11,12,12,13,13,14,14,15,15,16,16,21,21,22,22,23,23,24,24,25,25,30,30,31,31,32,32,33,33,37,37,41,41,42,42],"right_children":[2,4,6,8,10,12,14,16,18,-1,20,22,24,26,28,30,32,-1,-1,-1,-1,34,36,38,40,42,-1,-1,-1,-1,44,46,48,50,-1,-1,-1,52,-1,-1,-1,54,56,-1,-1,-1,-1,-1,-1,-1,-1,-1,-1,-1,-1,-1,-1],"split_conditions":[5.03E0,6.85E0,4.6109516E1,7.712677E1,9.99E0,3.6605316E1,4.5815E2,3.359287E1,9.601006E1,8.893019E-2,4.3753E2,1.279882E6,3.5591995E1,4.5689E2,1.48E2,3.1082E4,1.24E-1,2.525641E-2,1.1407913E-1,1.2646282E-2,5.0000586E-2,1.4461402E0,7.246915E-1,2.4E-1,5.9509263E0,7.01E0,1.1481506E-1,-3.9657556E-2,3.216485E-3,4.1774814E-3,3.37E0,4.5713E2,1.6968174E0,9.9809885E-1,-5.4018456E-2,-1.0032157E-1,-1.907729E-2,1.8203501E-1,6.46596E-2,-9.807534E-3,-4.50124E-2,5E0,1.497E-1,1.2790461E-1,4.6010777E-2,-5.1598437E-2,1.19979065E-2,2.3719814E-2,-2.4751986E-3,-2.6636157E-2,-0E0,-1.0273734E-2,1.50482375E-2,-2.674543E-2,-1.2169289E-3,3.398634E-2,-2.057664E-3],"split_indices":[10,4,1,42,7,3,54,51,35,0,54,43,1,54,9,43,27,0,0,0,0,33,38,57,2,4,0,0,0,0,10,54,26,33,0,0,0,38,0,0,0,6,57,0,0,0,0,0,0,0,0,0,0,0,0,0,0],"split_type":[0,0,0,0,0,0,0,0,0,0,0,0,0,0,0,0,0,0,0,0,0,0,0,0,0,0,0,0,0,0,0,0,0,0,0,0,0,0,0,0,0,0,0,0,0,0,0,0,0,0,0,0,0,0,0,0,0],"sum_hessian":[7.74E2,6.38E2,1.36E2,6.14E2,2.4E1,7.7E1,5.9E1,6.05E2,9E0,9E0,1.5E1,5.1E1,2.6E1,4.4E1,1.5E1,1.1E1,5.94E2,4E0,5E0,1.1E1,4E0,3.5E1,1.6E1,1.3E1,1.3E1,4.1E1,3E0,1.2E1,3E0,4E0,7E0,2.3E1,5.71E2,2.4E1,1.1E1,1.1E1,5E0,9E0,4E0,5E0,8E0,1.2E1,2.9E1,3E0,4E0,2E1,3E0,7.4E1,4.97E2,1.9E1,5E0,4E0,5E0,5E0,7E0,1.6E1,1.3E1],"tree_param":{"num_deleted":"0","num_feature":"64","num_nodes":"57","size_leaf_vector":"1"}}]},"name":"gbtree"},"learner_model_param":{"base_score":"1.6900046E0","boost_from_average":"1","num_class":"0","num_feature":"64","num_target":"1"},"objective":{"name":"reg:squarederror","reg_loss_param":{"scale_pos_weight":"1"}}},"version":[3,0,2]}