{"learner":{"attributes":{"scikit_learn":"{\"_estimator_type\": \"regressor\"}"},"feature_names":["body_size","dmi_adx","dmi_minus","dmi_plus","feat_bi_amp","feat_bi_amp_rate","feat_bi_klu_cnt","feat_break_bi_amp","feat_break_bi_amp_rate","feat_break_bi_klu_cnt","feat_bsp1_bi_amp","feat_bsp1_bi_amp_rate","feat_bsp1_bi_klu_cnt","feat_bsp2_bi_amp","feat_bsp2_bi_amp_rate","feat_bsp2_bi_klu_cnt","feat_bsp2_break_bi_amp","feat_bsp2_break_bi_amp_rate","feat_bsp2_break_bi_bi_klu_cnt","feat_bsp2_retrace_rate","feat_bsp2s_bi_amp","feat_bsp2s_bi_amp_rate","feat_bsp2s_bi_klu_cnt","feat_bsp2s_break_bi_amp","feat_bsp2s_break_bi_amp_rate","feat_bsp2s_break_bi_klu_cnt","feat_bsp2s_lv","feat_bsp2s_retrace_rate","feat_bsp3_bi_amp","feat_bsp3_bi_amp_rate","feat_bsp3_bi_klu_cnt","feat_bsp3_zs_height","feat_bsp_bi_amp","feat_divergence_rate","feat_kdj_d","feat_kdj_j","feat_kdj_k","feat_level","feat_macd_dea","feat_macd_diff","feat_macd_value","feat_ppo","feat_rsi","feat_volume","feat_zs_cnt","high_low_spread_pct","is_bullish_candle","is_buy","is_segbsp","kdj_d","kdj_j","kdj_k","klu_close","klu_high","klu_low","klu_open","klu_volume","lower_shadow","macd_dea","macd_dif","macd_value","price_change_pct","rsi","upper_shadow"],"feature_types":["float","float","float","float","float","float","float","float","float","float","float","float","float","float","float","float","float","float","float","float","float","float","float","float","float","float","float","float","float","float","float","float","float","float","float","float","float","float","float","float","float","float","float","float","float","float","int","int","i","float","float","float","float","float","float","float","float","float","float","float","float","float","float","float"],"gradient_booster":{"model":{"gbtree_model_param":{"num_parallel_tree":"1","num_trees":"300"},"iteration_indptr":[0,1,2,3,4,5,6,7,8,9,10,11,12,13,14,15,16,17,18,19,20,21,22,23,24,25,26,27,28,29,30,31,32,33,34,35,36,37,38,39,40,41,42,43,44,45,46,47,48,49,50,51,52,53,54,55,56,57,58,59,60,61,62,63,64,65,66,67,68,69,70,71,72,73,74,75,76,77,78,79,80,81,82,83,84,85,86,87,88,89,90,91,92,93,94,95,96,97,98,99,100,101,102,103,104,105,106,107,108,109,110,111,112,113,114,115,116,117,118,119,120,121,122,123,124,125,126,127,128,129,130,131,132,133,134,135,136,137,138,139,140,141,142,143,144,145,146,147,148,149,150,151,152,153,154,155,156,157,158,159,160,161,162,163,164,165,166,167,168,169,170,171,172,173,174,175,176,177,178,179,180,181,182,183,184,185,186,187,188,189,190,191,192,193,194,195,196,197,198,199,200,201,202,203,204,205,206,207,208,209,210,211,212,213,214,215,216,217,218,219,220,221,222,223,224,225,226,227,228,229,230,231,232,233,234,235,236,237,238,239,240,241,242,243,244,245,246,247,248,249,250,251,252,253,254,255,256,257,258,259,260,261,262,263,264,265,266,267,268,269,270,271,272,273,274,275,276,277,278,279,280,281,282,283,284,285,286,287,288,289,290,291,292,293,294,295,296,297,298,299,300],"tree_info":[0,0,0,0,0,0,0,0,0,0,0,0,0,0,0,0,0,0,0,0,0,0,0,0,0,0,0,0,0,0,0,0,0,0,0,0,0,0,0,0,0,0,0,0,0,0,0,0,0,0,0,0,0,0,0,0,0,0,0,0,0,0,0,0,0,0,0,0,0,0,0,0,0,0,0,0,0,0,0,0,0,0,0,0,0,0,0,0,0,0,0,0,0,0,0,0,0,0,0,0,0,0,0,0,0,0,0,0,0,0,0,0,0,0,0,0,0,0,0,0,0,0,0,0,0,0,0,0,0,0,0,0,0,0,0,0,0,0,0,0,0,0,0,0,0,0,0,0,0,0,0,0,0,0,0,0,0,0,0,0,0,0,0,0,0,0,0,0,0,0,0,0,0,0,0,0,0,0,0,0,0,0,0,0,0,0,0,0,0,0,0,0,0,0,0,0,0,0,0,0,0,0,0,0,0,0,0,0,0,0,0,0,0,0,0,0,0,0,0,0,0,0,0,0,0,0,0,0,0,0,0,0,0,0,0,0,0,0,0,0,0,0,0,0,0,0,0,0,0,0,0,0,0,0,0,0,0,0,0,0,0,0,0,0,0,0,0,0,0,0,0,0,0,0,0,0,0,0,0,0,0,0,0,0,0,0,0,0,0,0,0,0,0,0,0,0,0,0,0,0],"trees":[{"base_weights":[-3.8612065E-8,-1.8821669E-1,4.162001E0,-3.0413386E-1,1.5211909E0,-1.6233249E-2,4.7485147E0,-3.1531864E-1,3.4755745E0,6.8029195E-1,2.977552E0,1.0113262E0,-3.939534E-1,3.8807614E0,6.8912835E0,-3.8433734E-1,1.439199E-1,2.3736258E-1,5.0860655E-1,5.6136954E-1,7.31139E-1,3.6378028E0,1.5465812E-1,1.63253E-1,1.372909E-2,-4.8294958E-1,6.0398884E-2,2.7109299E0,5.2528615E0,1.0299811E0,5.8406024E0,-6.674453E-1,-3.0430052E-1,-6.437725E-2,8.664446E-1,2.8786826E-1,3.2271087E0,4.742783E0,1.6012439E0,-3.5421398E-1,3.156338E-1,-5.9846497E-1,-2.1593039E-1,3.2256851E0,-2.3091426E0,6.3563437E0,2.7694314E0,2.3519242E0,6.665038E0,-7.152374E-2,1.7889571E-1,4.5867202E-1,-3.2215066E-2,-2.4592081E-2,8.6868785E-2,6.2041607E-2,3.777189E-1,3.8684812E-1,1.6974533E-2,5.086582E-1,1.21567644E-1,4.8104182E-2,5.506713E-1,5.803005E-1,7.316267E-2,4.0248502E-2,-9.9982165E-2,-6.474363E-2,-2.9890002E-3,-2.611821E-2,-6.8534054E-3,9.569973E-2,3.9147127E-1,2.8604032E-3,-2.703534E-1,6.608828E-1,1.2077522E-1,1.2838873E-1,3.529008E-1,5.4496814E-2,3.1645742E-1,4.7114244E-1,7.370977E-1],"categories":[],"categories_nodes":[],"categories_segments":[],"categories_sizes":[],"default_left":[0,0,0,0,0,0,0,0,0,0,0,0,0,0,0,0,0,0,0,0,0,0,0,0,0,0,0,0,0,0,0,0,0,0,0,0,0,0,0,0,0,0,0,0,0,0,0,0,0,0,0,0,0,0,0,0,0,0,0,0,0,0,0,0,0,0,0,0,0,0,0,0,0,0,0,0,0,0,0,0,0,0,0],"id":0,"left_children":[1,3,5,7,9,11,13,15,17,19,21,23,25,27,29,31,33,-1,-1,35,-1,37,39,-1,-1,41,-1,43,45,-1,47,49,51,53,55,57,59,61,63,65,-1,67,69,71,73,75,77,79,81,-1,-1,-1,-1,-1,-1,-1,-1,-1,-1,-1,-1,-1,-1,-1,-1,-1,-1,-1,-1,-1,-1,-1,-1,-1,-1,-1,-1,-1,-1,-1,-1,-1,-1],"loss_changes":[3.530594E3,8.5488403E2,4.7794263E2,1.7184573E2,3.335291E2,1.0101664E1,2.9121313E2,1.2772696E2,9.22374E0,1.3389825E2,1.8581921E2,3.5765471E0,1.9791439E0,1.8479541E2,1.1174414E2,7.9148926E1,7.93692E1,0E0,0E0,1.2520239E2,0E0,1.7468457E2,3.1667446E1,0E0,0E0,4.2598057E-1,0E0,1.8575201E2,1.3586023E2,0E0,9.649573E1,9.179227E1,2.399958E2,6.966432E1,8.215948E1,6.616984E1,5.3659622E1,1.6664587E2,1.0537208E2,9.195966E0,0E0,3.147745E-1,2.87897E-2,9.47345E1,6.531246E0,4.141577E1,1.6908463E1,1.1491215E1,8.025391E0,0E0,0E0,0E0,0E0,0E0,0E0,0E0,0E0,0E0,0E0,0E0,0E0,0E0,0E0,0E0,0E0,0E0,0E0,0E0,0E0,0E0,0E0,0E0,0E0,0E0,0E0,0E0,0E0,0E0,0E0,0E0,0E0,0E0,0E0],"parents":[2147483647,0,0,1,1,2,2,3,3,4,4,5,5,6,6,7,7,8,8,9,9,10,10,11,11,12,12,13,13,14,14,15,15,16,16,19,19,21,21,22,22,25,25,27,27,28,28,30,30,31,31,32,32,33,33,34,34,35,35,36,36,37,37,38,38,39,39,41,41,42,42,43,43,44,44,45,45,46,46,47,47,48,48],"right_children":[2,4,6,8,10,12,14,16,18,20,22,24,26,28,30,32,34,-1,-1,36,-1,38,40,-1,-1,42,-1,44,46,-1,48,50,52,54,56,58,60,62,64,66,-1,68,70,72,74,76,78,80,82,-1,-1,-1,-1,-1,-1,-1,-1,-1,-1,-1,-1,-1,-1,-1,-1,-1,-1,-1,-1,-1,-1,-1,-1,-1,-1,-1,-1,-1,-1,-1,-1,-1,-1],"split_conditions":[1.112E1,4.252526E-1,2.3581E2,6.878089E-3,2.745586E6,1.7E1,5.2E1,3.72E0,6.113954E-1,1.3154008E0,8.27551E1,3.15379E6,2.24E0,6.985186E-1,4.1581705E-2,1.25E0,1.421413E6,2.3736258E-1,5.0860655E-1,7E0,7.31139E-1,2.3E1,8.8771194E1,1.63253E-1,1.372909E-2,4.3641113E1,6.0398884E-2,2.0391045E0,2.9E1,1.0299811E0,1.800164E-1,4.123826E-3,3.5069657E-3,3.4069E2,9.3E1,-6.507858E-1,1.8E1,7.036548E1,4.7E-1,4.0477486E1,3.156338E-1,1.2878922E0,1.29E-1,2E1,2.5804455E1,2.8875E2,5.15537E-2,5.7E-1,3.1728044E-1,-7.152374E-2,1.7889571E-1,4.5867202E-1,-3.2215066E-2,-2.4592081E-2,8.6868785E-2,6.2041607E-2,3.777189E-1,3.8684812E-1,1.6974533E-2,5.086582E-1,1.21567644E-1,4.8104182E-2,5.506713E-1,5.803005E-1,7.316267E-2,4.0248502E-2,-9.9982165E-2,-6.474363E-2,-2.9890002E-3,-2.611821E-2,-6.8534054E-3,9.569973E-2,3.9147127E-1,2.8604032E-3,-2.703534E-1,6.608828E-1,1.2077522E-1,1.2838873E-1,3.529008E-1,5.4496814E-2,3.1645742E-1,4.7114244E-1,7.370977E-1],"split_indices":[7,45,52,31,43,9,25,4,40,38,34,43,0,38,8,7,43,0,0,20,0,9,34,0,0,1,0,33,6,0,33,31,8,54,12,39,9,35,33,1,0,40,0,9,1,52,5,0,27,0,0,0,0,0,0,0,0,0,0,0,0,0,0,0,0,0,0,0,0,0,0,0,0,0,0,0,0,0,0,0,0,0,0],"split_type":[0,0,0,0,0,0,0,0,0,0,0,0,0,0,0,0,0,0,0,0,0,0,0,0,0,0,0,0,0,0,0,0,0,0,0,0,0,0,0,0,0,0,0,0,0,0,0,0,0,0,0,0,0,0,0,0,0,0,0,0,0,0,0,0,0,0,0,0,0,0,0,0,0,0,0,0,0,0,0,0,0,0,0],"sum_hessian":[4.505E3,4.311E3,1.94E2,4.038E3,2.73E2,2.4E1,1.7E2,4.027E3,1.1E1,1.74E2,9.9E1,6E0,1.8E1,1.23E2,4.7E1,3.501E3,5.26E2,8E0,3E0,1.72E2,2E0,8E1,1.9E1,3E0,3E0,1.7E1,1E0,6.8E1,5.5E1,9E0,3.8E1,7.7E2,2.731E3,4.09E2,1.17E2,1.57E2,1.5E1,5.1E1,2.9E1,1.7E1,2E0,1.1E1,6E0,6.2E1,6E0,3.7E1,1.8E1,8E0,3E1,7.56E2,1.4E1,9E0,2.722E3,3.43E2,6.6E1,1.09E2,8E0,4E0,1.53E2,7E0,8E0,8E0,4.3E1,4E0,2.5E1,8E0,9E0,1E1,1E0,4E0,2E0,1.5E1,4.7E1,1E0,5E0,3.5E1,2E0,7E0,1.1E1,3E0,5E0,1E1,2E1],"tree_param":{"num_deleted":"0","num_feature":"64","num_nodes":"83","size_leaf_vector":"1"}},{"base_weights":[2.0602767E-3,-1.593653E-1,3.9744017E0,-2.6856804E-1,1.4036074E0,-9.142862E-3,4.6034427E0,-2.7878013E-1,3.1901808E0,6.204285E-1,2.6669025E0,9.354767E-1,-3.566794E-1,4.9655566E0,-3.501754E-2,-3.6515528E-1,6.536014E-2,2.1626365E0,4.7046104E-1,5.099053E-1,6.8239635E-1,3.2106836E0,2.6120606E-1,2.806639E-1,1.715006E-1,-4.402493E-1,5.7378937E-2,4.4586077E0,7.139455E0,1.1970183E0,-1.9992714E-1,-3.9167044E-1,3.3699593E-1,1.8944417E0,9.569122E-3,2.3771481E-1,9.412306E-2,2.6177946E-1,2.9437869E0,4.119979E0,1.4058504E0,-3.2211113E-1,2.820832E-1,4.0049557E-2,6.7277635E-3,-2.8898624E-1,-6.366646E-2,4.6054187E0,-8.401575E-1,8.072601E0,2.222842E-1,1.4868183E-1,2.1841212E-1,-6.1876442E-2,-2.9603139E-2,4.173915E-1,-1.8106695E-3,1.14036895E-1,5.379714E-1,-1.7415976E-2,4.5882065E-2,3.5590026E-1,1.5372852E-2,4.6415052E-1,1.1076164E-1,4.7987238E-1,-1.0859839E-2,5.338764E-1,6.254645E-2,3.783154E-2,-9.2028394E-2,-3.576832E-2,-6.217155E-3,3.5349062E-1,5.4775876E-1,-2.4365406E-1,5.0415035E-2,3.294966E-1,8.6535454E-1,2.5292763E-2,6.5176967E-3,5.7078423E-3,2.7053976E-2],"categories":[],"categories_nodes":[],"categories_segments":[],"categories_sizes":[],"default_left":[0,0,0,0,0,0,0,0,0,0,0,0,0,0,0,0,0,0,0,0,0,0,0,0,0,0,0,0,0,0,0,0,0,0,0,0,0,0,0,0,0,0,0,0,0,0,0,0,0,0,0,0,0,0,0,0,0,0,0,0,0,0,0,0,0,0,0,0,0,0,0,0,0,0,0,0,0,0,0,0,0,0,0],"id":1,"left_children":[1,3,5,7,9,11,13,15,17,19,21,23,25,27,29,31,33,35,-1,37,-1,39,41,43,-1,45,-1,47,49,51,-1,53,55,57,59,-1,-1,61,63,65,67,69,-1,-1,-1,71,-1,73,75,77,79,-1,81,-1,-1,-1,-1,-1,-1,-1,-1,-1,-1,-1,-1,-1,-1,-1,-1,-1,-1,-1,-1,-1,-1,-1,-1,-1,-1,-1,-1,-1,-1],"loss_changes":[2.8900496E3,7.39596E2,4.410652E2,1.439043E2,2.7834167E2,8.540912E0,2.5548071E2,1.2005408E2,8.499359E0,1.17192085E2,1.4044391E2,3.0917788E0,1.7300346E0,1.2355786E2,3.1433538E1,6.0229797E1,8.274144E1,1.20601654E-1,0E0,1.0430953E2,0E0,1.3862714E2,3.2263172E1,1.0090774E-1,0E0,3.5079956E-1,0E0,9.48855E1,1.5957397E2,1.9440603E0,0E0,6.7384735E1,1.6085059E2,5.6940712E1,6.5121796E1,0E0,0E0,5.6099503E1,4.473581E1,1.6698828E2,9.180571E1,7.8897276E0,0E0,0E0,0E0,1.6473997E-1,0E0,8.707544E1,9.812504E0,3.254883E1,2.7721524E-3,0E0,9.787843E-3,0E0,0E0,0E0,0E0,0E0,0E0,0E0,0E0,0E0,0E0,0E0,0E0,0E0,0E0,0E0,0E0,0E0,0E0,0E0,0E0,0E0,0E0,0E0,0E0,0E0,0E0,0E0,0E0,0E0,0E0],"parents":[2147483647,0,0,1,1,2,2,3,3,4,4,5,5,6,6,7,7,8,8,9,9,10,10,11,11,12,12,13,13,14,14,15,15,16,16,17,17,19,19,21,21,22,22,23,23,25,25,27,27,28,28,29,29,31,31,32,32,33,33,34,34,37,37,38,38,39,39,40,40,41,41,45,45,47,47,48,48,49,49,50,50,52,52],"right_children":[2,4,6,8,10,12,14,16,18,20,22,24,26,28,30,32,34,36,-1,38,-1,40,42,44,-1,46,-1,48,50,52,-1,54,56,58,60,-1,-1,62,64,66,68,70,-1,-1,-1,72,-1,74,76,78,80,-1,82,-1,-1,-1,-1,-1,-1,-1,-1,-1,-1,-1,-1,-1,-1,-1,-1,-1,-1,-1,-1,-1,-1,-1,-1,-1,-1,-1,-1,-1,-1],"split_conditions":[1.172E1,4.252526E-1,2.3581E2,6.878089E-3,2.745586E6,1.7E1,5.9E1,4.229E0,6.113954E-1,1.3154008E0,8.27551E1,3.694433E1,2.24E0,8.7E1,5.6475494E-2,3.5663E2,2.519E2,8.275714E-3,4.7046104E-1,7E0,6.8239635E-1,2.3E1,8.8771194E1,1.33E0,1.715006E-1,1.0763889E1,5.7378937E-2,8.916058E1,4.41E2,2.501E-1,-1.9992714E-1,4.255555E-3,1.29E0,8.808309E-3,5.7E1,2.3771481E-1,9.412306E-2,-6.507858E-1,1.8E1,2.99105E2,4.7E-1,6.258744E-1,2.820832E-1,4.0049557E-2,6.7277635E-3,7.387453E-2,-6.366646E-2,9.514804E-1,4.2E-1,-5.6881297E-1,3.816729E1,1.4868183E-1,3.501E-1,-6.1876442E-2,-2.9603139E-2,4.173915E-1,-1.8106695E-3,1.14036895E-1,5.379714E-1,-1.7415976E-2,4.5882065E-2,3.5590026E-1,1.5372852E-2,4.6415052E-1,1.1076164E-1,4.7987238E-1,-1.0859839E-2,5.338764E-1,6.254645E-2,3.783154E-2,-9.2028394E-2,-3.576832E-2,-6.217155E-3,3.5349062E-1,5.4775876E-1,-2.4365406E-1,5.0415035E-2,3.294966E-1,8.6535454E-1,2.5292763E-2,6.5176967E-3,5.7078423E-3,2.7053976E-2],"split_indices":[7,45,52,31,43,9,12,7,40,38,34,1,0,9,8,54,52,5,0,20,0,9,34,0,0,2,0,42,9,0,0,8,16,21,9,0,0,39,9,52,33,45,0,0,0,8,0,39,0,39,1,0,0,0,0,0,0,0,0,0,0,0,0,0,0,0,0,0,0,0,0,0,0,0,0,0,0,0,0,0,0,0,0],"split_type":[0,0,0,0,0,0,0,0,0,0,0,0,0,0,0,0,0,0,0,0,0,0,0,0,0,0,0,0,0,0,0,0,0,0,0,0,0,0,0,0,0,0,0,0,0,0,0,0,0,0,0,0,0,0,0,0,0,0,0,0,0,0,0,0,0,0,0,0,0,0,0,0,0,0,0,0,0,0,0,0,0,0,0],"sum_hessian":[4.505E3,4.33E3,1.75E2,4.048E3,2.82E2,2.4E1,1.51E2,4.037E3,1.1E1,1.75E2,1.07E2,6E0,1.8E1,1.4E2,1.1E1,3.227E3,8.1E2,8E0,3E0,1.73E2,2E0,8.7E1,2E1,4E0,2E0,1.7E1,1E0,1.16E2,2.4E1,7E0,4E0,3.11E3,1.17E2,2.3E1,7.87E2,6E0,2E0,1.58E2,1.5E1,5.7E1,3E1,1.7E1,3E0,2E0,2E0,1.1E1,6E0,1.13E2,3E0,2.1E1,3E0,5E0,2E0,9.2E2,2.19E3,9E0,1.08E2,2E1,3E0,5.59E2,2.28E2,4E0,1.54E2,7E0,8E0,4.9E1,8E0,4E0,2.6E1,8E0,9E0,8E0,3E0,5.3E1,6E1,1E0,2E0,3E0,1.8E1,2E0,1E0,1E0,1E0],"tree_param":{"num_deleted":"0","num_feature":"64","num_nodes":"83","size_leaf_vector":"1"}},{"base_weights":[3.366655E-3,-1.5083316E-1,3.4131422E0,-2.4591921E-1,1.2513689E0,2.6418295E0,5.657425E0,-2.553436E-1,2.938021E0,5.6934613E-1,2.432395E0,3.1394095E0,-1.7727284E-1,8.594009E-1,4.781843E0,-3.7497568E-1,-5.4754518E-2,1.9832437E0,4.3517646E-1,4.654825E-1,6.369032E-1,2.9659052E0,1.5005915E-1,5.4054785E-1,3.6001437E0,1.0999969E0,-8.0482817E-1,1.3965403E0,5.457618E0,-3.980025E-1,5.304851E-1,1.7126732E0,-8.4532484E-2,5.9170283E-2,2.0832236E-1,2.377407E-1,2.6853404E0,3.847124E0,1.3395959E0,-2.9291096E-1,2.75786E0,1.6437166E0,-1.799058E-1,3.1120617E0,5.9723344E0,1.3629167E-1,2.0749152E-1,-3.0671683E-1,-1.8393297E-1,5.405012E-1,2.1174541E-1,3.853006E-1,6.1910635E-1,-4.9633306E-2,-2.2448573E-2,3.7982628E-1,-8.448269E-3,1.0414495E-1,4.976235E-1,-2.2509558E-1,-6.828575E-3,3.2742825E-1,1.376079E-2,4.235374E-1,1.0091616E-1,2.0449086E-1,5.5706894E-1,4.9116632E-1,6.0113706E-2,-8.139204E-2,4.60091E-2,3.3911428E-1,7.456472E-2,2.061127E-2,2.0885658E-1,-1.0487097E-1,7.339576E-3,1.4591019E-1,3.7253678E-1,6.364302E-1,-1.4957148E-2,5.422449E-3,2.5701279E-2,-3.6787674E-2,-9.242785E-3,8.89073E-3,6.311728E-2],"categories":[],"categories_nodes":[],"categories_segments":[],"categories_sizes":[],"default_left":[0,0,0,0,0,0,0,0,0,0,0,0,0,0,0,0,0,0,0,0,0,0,0,0,0,0,0,0,0,0,0,0,0,0,0,0,0,0,0,0,0,0,0,0,0,0,0,0,0,0,0,0,0,0,0,0,0,0,0,0,0,0,0,0,0,0,0,0,0,0,0,0,0,0,0,0,0,0,0,0,0,0,0,0,0,0,0],"id":2,"left_children":[1,3,5,7,9,11,13,15,17,19,21,23,25,-1,27,29,31,33,-1,35,-1,37,39,41,43,45,47,49,51,53,55,57,59,-1,-1,61,63,65,67,69,71,73,75,77,79,-1,81,83,-1,85,-1,-1,-1,-1,-1,-1,-1,-1,-1,-1,-1,-1,-1,-1,-1,-1,-1,-1,-1,-1,-1,-1,-1,-1,-1,-1,-1,-1,-1,-1,-1,-1,-1,-1,-1,-1,-1],"loss_changes":[2.36971E3,5.75226E2,3.226079E2,1.2194701E2,2.1931851E2,2.0675757E2,8.489465E1,9.663895E1,7.567116E0,1.0245119E2,1.21319885E2,1.4772717E2,1.9321129E1,0E0,8.388641E1,5.28154E1,7.940615E1,1.9485474E-2,0E0,8.68225E1,0E0,1.109303E2,2.3911362E1,1.6191353E1,1.04142944E2,1.5944653E0,7.6805973E0,3.7925568E0,1.4983276E1,4.1878143E1,1.269243E2,4.9582E1,5.200869E1,0E0,0E0,4.75905E1,3.729595E1,1.5013269E2,7.618217E1,7.4362583E0,1.2943039E0,4.6856537E0,2.9378724E0,8.580371E1,4.1744873E1,0E0,8.833557E-3,1.23268604E-1,0E0,1.4861798E-1,0E0,0E0,0E0,0E0,0E0,0E0,0E0,0E0,0E0,0E0,0E0,0E0,0E0,0E0,0E0,0E0,0E0,0E0,0E0,0E0,0E0,0E0,0E0,0E0,0E0,0E0,0E0,0E0,0E0,0E0,0E0,0E0,0E0,0E0,0E0,0E0,0E0],"parents":[2147483647,0,0,1,1,2,2,3,3,4,4,5,5,6,6,7,7,8,8,9,9,10,10,11,11,12,12,14,14,15,15,16,16,17,17,19,19,21,21,22,22,23,23,24,24,25,25,26,26,27,27,28,28,29,29,30,30,31,31,32,32,35,35,36,36,37,37,38,38,39,39,40,40,41,41,42,42,43,43,44,44,46,46,47,47,49,49],"right_children":[2,4,6,8,10,12,14,16,18,20,22,24,26,-1,28,30,32,34,-1,36,-1,38,40,42,44,46,48,50,52,54,56,58,60,-1,-1,62,64,66,68,70,72,74,76,78,80,-1,82,84,-1,86,-1,-1,-1,-1,-1,-1,-1,-1,-1,-1,-1,-1,-1,-1,-1,-1,-1,-1,-1,-1,-1,-1,-1,-1,-1,-1,-1,-1,-1,-1,-1,-1,-1,-1,-1,-1,-1],"split_conditions":[1.112E1,4.252526E-1,5.2E1,6.878089E-3,2.745586E6,5.9E1,4.1581705E-2,2.19E0,6.113954E-1,1.3154008E0,8.27551E1,-6.112165E-1,5.6475494E-2,8.594009E-1,1.651318E-1,3.5762E2,2.5085E2,3.6238388E1,4.3517646E-1,7E0,6.369032E-1,2.3E1,8.8771194E1,2.460327E6,1.738E1,2.501E-1,1.1560694E1,1.4715173E1,3.1728044E-1,9.074676E-2,1.29E0,8.808309E-3,2.5491E2,5.9170283E-2,2.0832236E-1,-6.507858E-1,1.8E1,1.6170213E-2,4.7E-1,5.925E0,1.4E-1,2.68E0,1E0,3.9271575E-1,6.484375E1,1.3629167E-1,3.501E-1,8.516396E1,-1.8393297E-1,2.21E0,2.1174541E-1,3.853006E-1,6.1910635E-1,-4.9633306E-2,-2.2448573E-2,3.7982628E-1,-8.448269E-3,1.0414495E-1,4.976235E-1,-2.2509558E-1,-6.828575E-3,3.2742825E-1,1.376079E-2,4.235374E-1,1.0091616E-1,2.0449086E-1,5.5706894E-1,4.9116632E-1,6.0113706E-2,-8.139204E-2,4.60091E-2,3.3911428E-1,7.456472E-2,2.061127E-2,2.0885658E-1,-1.0487097E-1,7.339576E-3,1.4591019E-1,3.7253678E-1,6.364302E-1,-1.4957148E-2,5.422449E-3,2.5701279E-2,-3.6787674E-2,-9.242785E-3,8.89073E-3,6.311728E-2],"split_indices":[7,45,25,31,43,12,8,4,40,38,34,38,8,0,33,52,52,1,0,20,0,9,34,43,10,0,2,2,27,45,16,21,52,0,0,39,9,5,33,10,0,4,46,45,3,0,0,34,0,4,0,0,0,0,0,0,0,0,0,0,0,0,0,0,0,0,0,0,0,0,0,0,0,0,0,0,0,0,0,0,0,0,0,0,0,0,0],"split_type":[0,0,0,0,0,0,0,0,0,0,0,0,0,0,0,0,0,0,0,0,0,0,0,0,0,0,0,0,0,0,0,0,0,0,0,0,0,0,0,0,0,0,0,0,0,0,0,0,0,0,0,0,0,0,0,0,0,0,0,0,0,0,0,0,0,0,0,0,0,0,0,0,0,0,0,0,0,0,0,0,0,0,0,0,0,0,0],"sum_hessian":[4.505E3,4.311E3,1.94E2,4.038E3,2.73E2,1.46E2,4.8E1,4.027E3,1.1E1,1.74E2,9.9E1,1.24E2,2.2E1,9E0,3.9E1,2.522E3,1.505E3,8E0,3E0,1.72E2,2E0,8E1,1.9E1,1.9E1,1.05E2,7E0,1.5E1,7E0,3.2E1,2.46E3,6.2E1,2.4E1,1.481E3,1E0,7E0,1.57E2,1.5E1,5.1E1,2.9E1,1.7E1,2E0,7E0,1.2E1,8.9E1,1.6E1,5E0,2E0,1.1E1,4E0,4E0,3E0,1.2E1,2E1,1.569E3,8.91E2,9E0,5.3E1,2.1E1,3E0,1E1,1.471E3,4E0,1.53E2,7E0,8E0,2.6E1,2.5E1,4E0,2.5E1,1E1,7E0,1E0,1E0,2E0,5E0,2E0,1E1,2.5E1,6.4E1,1.5E1,1E0,1E0,1E0,8E0,3E0,1E0,3E0],"tree_param":{"num_deleted":"0","num_feature":"64","num_nodes":"87","size_leaf_vector":"1"}},{"base_weights":[4.7881403E-3,-1.3469109E-1,3.0890427E0,-2.2098768E-1,1.1378878E0,-7.423158E-2,3.5334451E0,-2.351771E-1,1.683032E0,5.2099746E-1,2.2060668E0,-3.8606426E-1,6.366709E-1,2.8516629E0,5.2211027E0,-4.1063407E-1,-1.3445006E-1,4.2065325E0,7.321174E-1,4.2393798E-1,5.944431E-1,4.214729E0,1.6828656E0,-2.2121659E-1,-6.788902E-2,1.8683433E-3,1.2710063E-1,1.967415E0,3.8902602E0,7.820549E-1,4.4207034E0,-4.3445528E-1,1.524494E0,-1.0054625E-1,-7.7492344E-1,1.171608E-1,5.0229067E-1,-4.8862374E-1,1.1917098E0,2.1612605E-1,2.4495845E0,5.1541033E0,-8.312953E-2,2.727775E0,6.960206E-1,-2.7988106E-1,2.4137849E-2,-1.1724695E-1,1.2036085E-2,2.3693979E0,-1.9314914E0,6.0245304E0,2.885939E0,1.7481158E0,5.054013E0,-4.634958E-2,1.0517563E-1,1.9233398E-1,-3.5230123E-2,-1.4345205E-2,3.9572567E-2,6.215424E-2,-9.3818955E-2,-9.1775864E-2,6.2667103E-3,3.611743E-2,1.7369673E-1,3.0123398E-1,1.2393648E-2,3.8647786E-1,9.1945834E-2,5.734543E-1,5.3386945E-2,3.0200819E-2,3.669969E-1,2.161516E-2,3.1330398E-1,-3.3517662E-2,-8.549578E-3,-2.8956712E-3,-1.4691371E-2,5.7134308E-2,2.9193872E-1,-1.4209288E-2,-2.2060423E-1,6.649114E-1,3.1957075E-1,1.2820758E-1,3.9017615E-1,5.4383196E-2,2.6027766E-1,3.5494718E-1,5.601438E-1],"categories":[],"categories_nodes":[],"categories_segments":[],"categories_sizes":[],"default_left":[0,0,0,0,0,0,0,0,0,0,0,0,0,0,0,0,0,0,0,0,0,0,0,0,0,0,0,0,0,0,0,0,0,0,0,0,0,0,0,0,0,0,0,0,0,0,0,0,0,0,0,0,0,0,0,0,0,0,0,0,0,0,0,0,0,0,0,0,0,0,0,0,0,0,0,0,0,0,0,0,0,0,0,0,0,0,0,0,0,0,0,0,0],"id":3,"left_children":[1,3,5,7,9,11,13,15,17,19,21,23,25,27,29,31,33,35,37,39,-1,41,43,45,-1,47,-1,49,51,-1,53,55,57,59,61,-1,-1,63,65,67,69,71,-1,73,75,77,-1,79,-1,81,83,85,87,89,91,-1,-1,-1,-1,-1,-1,-1,-1,-1,-1,-1,-1,-1,-1,-1,-1,-1,-1,-1,-1,-1,-1,-1,-1,-1,-1,-1,-1,-1,-1,-1,-1,-1,-1,-1,-1,-1,-1],"loss_changes":[1.9388497E3,4.7379196E2,2.7438672E2,1.095173E2,1.7940277E2,5.787862E0,1.8186621E2,7.081456E1,6.890933E1,8.95992E1,9.800064E1,7.187083E-1,3.2190475E0,1.062251E2,6.5296265E1,6.8056305E1,5.5272316E1,1.3936188E1,1.3486297E1,7.229554E1,0E0,9.908676E1,8.162564E1,4.2034996E-1,0E0,8.468329E-2,0E0,1.1271976E2,1.0264911E2,0E0,5.7175354E1,6.2854218E1,1.4151527E1,5.162828E1,2.9766548E1,0E0,0E0,1.7135602E0,7.0711975E0,4.0356174E1,3.1093307E1,4.2528534E1,0E0,8.802783E1,4.960914E1,1.0032755E-1,0E0,3.6037154E-3,0E0,6.0633423E1,3.1255035E0,8.787659E0,6.0167236E1,7.8478127E0,5.6502075E0,0E0,0E0,0E0,0E0,0E0,0E0,0E0,0E0,0E0,0E0,0E0,0E0,0E0,0E0,0E0,0E0,0E0,0E0,0E0,0E0,0E0,0E0,0E0,0E0,0E0,0E0,0E0,0E0,0E0,0E0,0E0,0E0,0E0,0E0,0E0,0E0,0E0,0E0],"parents":[2147483647,0,0,1,1,2,2,3,3,4,4,5,5,6,6,7,7,8,8,9,9,10,10,11,11,12,12,13,13,14,14,15,15,16,16,17,17,18,18,19,19,21,21,22,22,23,23,25,25,27,27,28,28,30,30,31,31,32,32,33,33,34,34,37,37,38,38,39,39,40,40,41,41,43,43,44,44,45,45,47,47,49,49,50,50,51,51,52,52,53,53,54,54],"right_children":[2,4,6,8,10,12,14,16,18,20,22,24,26,28,30,32,34,36,38,40,-1,42,44,46,-1,48,-1,50,52,-1,54,56,58,60,62,-1,-1,64,66,68,70,72,-1,74,76,78,-1,80,-1,82,84,86,88,90,92,-1,-1,-1,-1,-1,-1,-1,-1,-1,-1,-1,-1,-1,-1,-1,-1,-1,-1,-1,-1,-1,-1,-1,-1,-1,-1,-1,-1,-1,-1,-1,-1,-1,-1,-1,-1,-1,-1],"split_conditions":[1.112E1,4.252526E-1,2.3581E2,8.2910836E-1,2.745586E6,5.1E-1,5.2E1,1.39E0,6.438671E-1,1.3154008E0,2.78953E-1,8.779213E-2,3.694433E1,6.985186E-1,4.1581705E-2,4.123826E-3,6E1,1.6E1,5.9030045E-2,7E0,5.944431E-1,8.9239E0,1.8E1,8.2E-1,-6.788902E-2,1.5193333E1,1.2710063E-1,2.0391045E0,2.9E1,7.820549E-1,1.800164E-1,3.5805E2,9.01E-2,5.7376146E-1,3.8235295E-1,1.171608E-1,5.0229067E-1,7.1929825E1,1.5122589E0,-6.507858E-1,1.8E1,8.603078E-1,-8.312953E-2,5.43E0,7.4328494E-1,8.516396E1,2.4137849E-2,1.685E0,1.2036085E-2,2E1,2.5804455E1,3.5855263E1,1.466E1,5.9E0,3.1728044E-1,-4.634958E-2,1.0517563E-1,1.9233398E-1,-3.5230123E-2,-1.4345205E-2,3.9572567E-2,6.215424E-2,-9.3818955E-2,-9.1775864E-2,6.2667103E-3,3.611743E-2,1.7369673E-1,3.0123398E-1,1.2393648E-2,3.8647786E-1,9.1945834E-2,5.734543E-1,5.3386945E-2,3.0200819E-2,3.669969E-1,2.161516E-2,3.1330398E-1,-3.3517662E-2,-8.549578E-3,-2.8956712E-3,-1.4691371E-2,5.7134308E-2,2.9193872E-1,-1.4209288E-2,-2.2060423E-1,6.649114E-1,3.1957075E-1,1.2820758E-1,3.9017615E-1,5.4383196E-2,2.6027766E-1,3.5494718E-1,5.601438E-1],"split_indices":[7,45,52,40,43,63,25,4,33,38,33,40,1,38,8,31,6,2,45,20,0,4,9,0,0,2,0,33,9,0,33,54,63,38,33,0,0,3,33,39,9,38,0,7,38,34,0,0,0,9,1,3,4,4,27,0,0,0,0,0,0,0,0,0,0,0,0,0,0,0,0,0,0,0,0,0,0,0,0,0,0,0,0,0,0,0,0,0,0,0,0,0,0],"split_type":[0,0,0,0,0,0,0,0,0,0,0,0,0,0,0,0,0,0,0,0,0,0,0,0,0,0,0,0,0,0,0,0,0,0,0,0,0,0,0,0,0,0,0,0,0,0,0,0,0,0,0,0,0,0,0,0,0,0,0,0,0,0,0,0,0,0,0,0,0,0,0,0,0,0,0,0,0,0,0,0,0,0,0,0,0,0,0,0,0,0,0,0,0],"sum_hessian":[4.505E3,4.311E3,1.94E2,4.038E3,2.73E2,2.4E1,1.7E2,4.009E3,2.9E1,1.74E2,9.9E1,1.7E1,7E0,1.23E2,4.7E1,1.461E3,2.548E3,7E0,2.2E1,1.72E2,2E0,1.9E1,8E1,1.2E1,5E0,4E0,3E0,6.8E1,5.5E1,9E0,3.8E1,1.444E3,1.7E1,2.421E3,1.27E2,2E0,5E0,6E0,1.6E1,1.57E2,1.5E1,1.6E1,3E0,3.8E1,4.2E1,1.1E1,1E0,2E0,2E0,6.2E1,6E0,1.6E1,3.9E1,8E0,3E1,1.417E3,2.7E1,1.4E1,3E0,2.229E3,1.92E2,1.3E1,1.14E2,3E0,3E0,7E0,9E0,4E0,1.53E2,7E0,8E0,1.4E1,2E0,1.1E1,2.7E1,3.6E1,6E0,8E0,3E0,1E0,1E0,1.5E1,4.7E1,1E0,5E0,1.2E1,4E0,1.6E1,2.3E1,4E0,4E0,1E1,2E1],"tree_param":{"num_deleted":"0","num_feature":"64","num_nodes":"93","size_leaf_vector":"1"}},{"base_weights":[5.9249657E-3,-1.2601516E-1,2.6922228E0,-2.0191088E-1,1.0480887E0,2.0834086E0,4.662519E0,-2.1012343E-1,2.5695422E0,4.7180298E-1,2.1194818E0,1.7252945E0,4.5576606E0,7.116699E-1,3.9324107E0,-2.2330712E-1,1.1430434E0,1.6862659E-1,3.4688756E-1,3.7889883E-1,5.5481356E-1,2.7091255E0,1.4700285E-1,2.1388664E0,-1.4606754E-1,-1.1511985E-2,5.083254E-1,1.1842068E0,4.479478E0,-4.3004224E-1,-1.6088985E-1,2.2674117E0,4.9365112E-1,2.0202078E-1,2.4858954E0,4.7825247E-1,3.415665E0,1.0293245E0,-8.288938E-1,3.432707E0,1.678708E0,8.452087E-1,-6.886617E-1,2.0240152E-1,5.669348E-1,3.2529697E-1,5.11406E-1,-4.6421524E-2,9.288322E-2,-1.3352369E-2,-7.18953E-2,2.5056228E-1,-4.1466508E-2,1.1923515E-1,1.7347988E-2,1.2871558E-2,3.922116E-1,3.5266104E-1,6.839597E-2,-6.5427087E-3,2.3974876E-1,4.1480252E-1,2.4228856E-2,-3.0781073E-2,2.0283942E-1,-2.9205913E-2,-9.936994E-2,4.5037863E-1,4.3310177E-2,9.750593E-2,2.3761883E-1,4.0975735E-2,1.3959464E-1,-2.9823294E-2,-1.4198138E-1,5.727035E-3,6.574137E-2],"categories":[],"categories_nodes":[],"categories_segments":[],"categories_sizes":[],"default_left":[0,0,0,0,0,0,0,0,0,0,0,0,0,0,0,0,0,0,0,0,0,0,0,0,0,0,0,0,0,0,0,0,0,0,0,0,0,0,0,0,0,0,0,0,0,0,0,0,0,0,0,0,0,0,0,0,0,0,0,0,0,0,0,0,0,0,0,0,0,0,0,0,0,0,0,0,0],"id":4,"left_children":[1,3,5,7,9,11,13,15,17,19,21,23,25,-1,27,29,31,-1,-1,33,-1,35,37,39,41,-1,-1,43,45,47,49,51,53,55,57,59,61,63,65,67,69,71,73,-1,75,-1,-1,-1,-1,-1,-1,-1,-1,-1,-1,-1,-1,-1,-1,-1,-1,-1,-1,-1,-1,-1,-1,-1,-1,-1,-1,-1,-1,-1,-1,-1,-1],"loss_changes":[1.5974031E3,3.8302582E2,2.433899E2,9.2402145E1,1.6014893E2,1.3656525E2,5.9813354E1,7.206018E1,3.682869E0,7.85435E1,1.05440186E2,1.1176013E2,4.9704834E1,0E0,5.4833496E1,5.1378433E1,2.7356773E1,0E0,0E0,6.248096E1,0E0,1.0870044E2,1.9796406E1,6.449133E1,1.5104301E1,0E0,0E0,2.9996367E0,9.048645E0,4.3338837E1,4.6697548E1,9.983597E0,5.6094484E0,4.230942E1,2.1966866E1,1.8938942E1,1.221698E2,1.6655056E1,6.8298817E-1,9.443387E1,4.1362595E1,1.8261952E0,4.7148952E0,0E0,2.3903275E-1,0E0,0E0,0E0,0E0,0E0,0E0,0E0,0E0,0E0,0E0,0E0,0E0,0E0,0E0,0E0,0E0,0E0,0E0,0E0,0E0,0E0,0E0,0E0,0E0,0E0,0E0,0E0,0E0,0E0,0E0,0E0,0E0],"parents":[2147483647,0,0,1,1,2,2,3,3,4,4,5,5,6,6,7,7,8,8,9,9,10,10,11,11,12,12,14,14,15,15,16,16,19,19,21,21,22,22,23,23,24,24,27,27,28,28,29,29,30,30,31,31,32,32,33,33,34,34,35,35,36,36,37,37,38,38,39,39,40,40,41,41,42,42,44,44],"right_children":[2,4,6,8,10,12,14,16,18,20,22,24,26,-1,28,30,32,-1,-1,34,-1,36,38,40,42,-1,-1,44,46,48,50,52,54,56,58,60,62,64,66,68,70,72,74,-1,76,-1,-1,-1,-1,-1,-1,-1,-1,-1,-1,-1,-1,-1,-1,-1,-1,-1,-1,-1,-1,-1,-1,-1,-1,-1,-1,-1,-1,-1,-1,-1,-1],"split_conditions":[1.074E1,4.252526E-1,5.2E1,6.878089E-3,2.745586E6,1.765E1,4.1581705E-2,1.0947458E0,5.9056956E-1,1.3154008E0,8.201723E1,5.5E1,-1.3602244E-2,7.116699E-1,1.651318E-1,1.05E0,8.7666523E-1,1.6862659E-1,3.4688756E-1,7E0,5.5481356E-1,7.7287476E1,4.0477486E1,1.373202E-2,5.6475494E-2,-1.1511985E-2,5.083254E-1,4.564126E1,3.2818064E-1,3.5611E2,5.9E1,1.9497625E1,4.6032705E0,3.1177542E0,1.8E1,2.55E0,2.7E1,7.6E0,2.997262E6,4.2741745E1,1.918731E-3,1.8019061E0,1.1560694E1,2.0240152E-1,2.21E0,3.2529697E-1,5.11406E-1,-4.6421524E-2,9.288322E-2,-1.3352369E-2,-7.18953E-2,2.5056228E-1,-4.1466508E-2,1.1923515E-1,1.7347988E-2,1.2871558E-2,3.922116E-1,3.5266104E-1,6.839597E-2,-6.5427087E-3,2.3974876E-1,4.1480252E-1,2.4228856E-2,-3.0781073E-2,2.0283942E-1,-2.9205913E-2,-9.936994E-2,4.5037863E-1,4.3310177E-2,9.750593E-2,2.3761883E-1,4.0975735E-2,1.3959464E-1,-2.9823294E-2,-1.4198138E-1,5.727035E-3,6.574137E-2],"split_indices":[7,45,25,31,43,4,8,39,40,38,34,12,38,0,33,4,33,0,0,20,0,35,1,5,8,0,0,36,27,52,6,2,2,45,9,0,9,4,43,1,41,33,2,0,4,0,0,0,0,0,0,0,0,0,0,0,0,0,0,0,0,0,0,0,0,0,0,0,0,0,0,0,0,0,0,0,0],"split_type":[0,0,0,0,0,0,0,0,0,0,0,0,0,0,0,0,0,0,0,0,0,0,0,0,0,0,0,0,0,0,0,0,0,0,0,0,0,0,0,0,0,0,0,0,0,0,0,0,0,0,0,0,0,0,0,0,0,0,0,0,0,0,0,0,0,0,0,0,0,0,0,0,0,0,0,0,0],"sum_hessian":[4.505E3,4.295E3,2.1E2,4.035E3,2.6E2,1.62E2,4.8E1,4.024E3,1.1E1,1.7E2,9E1,1.43E2,1.9E1,9E0,3.9E1,3.986E3,3.8E1,7E0,4E0,1.68E2,2E0,6.9E1,2.1E1,1.17E2,2.6E1,2E0,1.7E1,7E0,3.2E1,9.23E2,3.063E3,1.3E1,2.5E1,1.56E2,1.2E1,1.7E1,5.2E1,1.1E1,1E1,2.9E1,8.8E1,9E0,1.7E1,2E0,5E0,1.3E1,1.9E1,9.01E2,2.2E1,2.921E3,1.42E2,1.2E1,1E0,7E0,1.8E1,1.54E2,2E0,7E0,5E0,1.4E1,3E0,4.2E1,1E1,5E0,6E0,3E0,7E0,2.1E1,8E0,4.5E1,4.3E1,6E0,3E0,1.2E1,5E0,1E0,4E0],"tree_param":{"num_deleted":"0","num_feature":"64","num_nodes":"77","size_leaf_vector":"1"}},{"base_weights":[6.6808485E-3,-1.1273414E-1,2.4379609E0,-1.81516E-1,9.513131E-1,1.8832542E0,4.2334557E0,-1.9347852E-1,1.4780465E0,4.3269846E-1,1.9153987E0,1.5585815E0,4.126735E0,6.4761966E-1,3.566934E0,-2.6023507E-1,1.5584157E-2,3.7069147E0,6.003651E-1,3.458974E-1,5.1782596E-1,2.415507E0,1.9238845E-2,1.9730581E0,-1.5899504E-2,-1.0744516E-1,4.6031687E-1,1.405029E0,4.1492605E0,4.6652666E-1,-2.820729E-1,-7.1014106E-2,5.344386E-1,1.10240236E-1,4.3913516E-1,-4.4930357E-1,1.0220723E0,1.8439889E-1,2.2696948E0,1.3918468E0,3.6515872E0,-3.5196954E-1,2.2400763E0,3.2908332E0,1.5463196E0,-5.6077737E-1,2.347888E0,-3.1935514E-3,-1.2923223E-2,4.0221238E-1,2.0065382E0,2.9310682E-1,4.589777E-1,1.2834753E-1,7.7528605E-4,-3.0463258E-2,3.5081547E-2,-1.64606E-2,3.894837E-2,1.1444747E-1,-8.541181E-2,-8.389124E-2,5.26312E-3,3.3357985E-2,1.5205021E-1,1.9776139E-1,4.8958333E-3,3.2180318E-1,6.269631E-2,-2.4390465E-2,2.4484837E-1,4.2060968E-2,4.38102E-1,1.8676158E-2,-8.016306E-2,2.9366678E-1,4.2344667E-2,4.035151E-1,1.0186847E-1,8.519879E-2,2.221288E-1,-1.415045E-2,-1.9347696E-1,2.9741085E-1,1.2912504E-1,5.440682E-3,4.7556207E-2,5.6092728E-2,2.183475E-1],"categories":[],"categories_nodes":[],"categories_segments":[],"categories_sizes":[],"default_left":[0,0,0,0,0,0,0,0,0,0,0,0,0,0,0,0,0,0,0,0,0,0,0,0,0,0,0,0,0,0,0,0,0,0,0,0,0,0,0,0,0,0,0,0,0,0,0,0,0,0,0,0,0,0,0,0,0,0,0,0,0,0,0,0,0,0,0,0,0,0,0,0,0,0,0,0,0,0,0,0,0,0,0,0,0,0,0,0,0],"id":5,"left_children":[1,3,5,7,9,11,13,15,17,19,21,23,25,-1,27,29,31,33,35,37,-1,39,41,43,45,47,-1,49,51,53,55,57,59,-1,-1,61,63,65,67,69,71,73,75,77,79,81,83,-1,-1,85,87,-1,-1,-1,-1,-1,-1,-1,-1,-1,-1,-1,-1,-1,-1,-1,-1,-1,-1,-1,-1,-1,-1,-1,-1,-1,-1,-1,-1,-1,-1,-1,-1,-1,-1,-1,-1,-1,-1],"loss_changes":[1.3085076E3,3.145847E2,2.0217761E2,8.041089E1,1.2966832E2,1.12296875E2,5.014673E1,5.5940918E1,5.450534E1,6.864713E1,8.624753E1,9.400366E1,4.08407E1,0E0,4.4527557E1,4.8347366E1,4.3666817E1,9.419968E0,1.0197586E1,5.2088146E1,0E0,8.602103E1,1.7276308E1,5.9018707E1,4.1243885E1,8.083023E-4,0E0,5.2249794E0,3.1826782E0,3.334677E1,4.2226227E1,3.5965458E1,1.1872021E2,0E0,0E0,1.4130607E0,4.983433E0,3.8034405E1,1.8234634E1,7.146142E1,7.357425E1,4.510149E0,2.552823E0,4.155188E1,3.9348877E1,1.470424E1,1.2981033E-1,0E0,0E0,1.0168332E-1,3.0991936E-1,0E0,0E0,0E0,0E0,0E0,0E0,0E0,0E0,0E0,0E0,0E0,0E0,0E0,0E0,0E0,0E0,0E0,0E0,0E0,0E0,0E0,0E0,0E0,0E0,0E0,0E0,0E0,0E0,0E0,0E0,0E0,0E0,0E0,0E0,0E0,0E0,0E0,0E0],"parents":[2147483647,0,0,1,1,2,2,3,3,4,4,5,5,6,6,7,7,8,8,9,9,10,10,11,11,12,12,14,14,15,15,16,16,17,17,18,18,19,19,21,21,22,22,23,23,24,24,25,25,27,27,28,28,29,29,30,30,31,31,32,32,35,35,36,36,37,37,38,38,39,39,40,40,41,41,42,42,43,43,44,44,45,45,46,46,49,49,50,50],"right_children":[2,4,6,8,10,12,14,16,18,20,22,24,26,-1,28,30,32,34,36,38,-1,40,42,44,46,48,-1,50,52,54,56,58,60,-1,-1,62,64,66,68,70,72,74,76,78,80,82,84,-1,-1,86,88,-1,-1,-1,-1,-1,-1,-1,-1,-1,-1,-1,-1,-1,-1,-1,-1,-1,-1,-1,-1,-1,-1,-1,-1,-1,-1,-1,-1,-1,-1,-1,-1,-1,-1,-1,-1,-1,-1],"split_conditions":[1.074E1,4.252526E-1,5.2E1,8.2910836E-1,2.745586E6,1.765E1,4.1581705E-2,1.0166441E-3,6.438671E-1,1.3154008E0,8.27551E1,5.2E1,-1.3602244E-2,6.4761966E-1,1.800164E-1,4.635023E1,5.7E1,1.6E1,5.9030045E-2,7E0,5.1782596E-1,1.8072288E-2,8.8771194E1,1.373202E-2,8.950711E1,2.789E-1,4.6031687E-1,1.4715173E1,3.1728044E-1,3.924688E1,3.5663E2,3.4167E2,9.8712444E-1,1.10240236E-1,4.3913516E-1,7.1929825E1,1.5122589E0,9E0,1.8E1,2.8425932E-1,7.036548E1,4.0477486E1,1.4E-1,4.2741745E1,1.7E1,1.8019061E0,4.1357357E1,-3.1935514E-3,-1.2923223E-2,2.21E0,2.0015396E1,2.9310682E-1,4.589777E-1,1.2834753E-1,7.7528605E-4,-3.0463258E-2,3.5081547E-2,-1.64606E-2,3.894837E-2,1.1444747E-1,-8.541181E-2,-8.389124E-2,5.26312E-3,3.3357985E-2,1.5205021E-1,1.9776139E-1,4.8958333E-3,3.2180318E-1,6.269631E-2,-2.4390465E-2,2.4484837E-1,4.2060968E-2,4.38102E-1,1.8676158E-2,-8.016306E-2,2.9366678E-1,4.2344667E-2,4.035151E-1,1.0186847E-1,8.519879E-2,2.221288E-1,-1.415045E-2,-1.9347696E-1,2.9741085E-1,1.2912504E-1,5.440682E-3,4.7556207E-2,5.6092728E-2,2.183475E-1],"split_indices":[7,45,25,40,43,4,8,41,33,38,34,12,38,0,33,42,9,2,45,20,0,5,34,5,34,0,0,2,27,1,54,53,33,0,0,3,33,15,9,39,35,1,0,1,6,33,1,0,0,4,3,0,0,0,0,0,0,0,0,0,0,0,0,0,0,0,0,0,0,0,0,0,0,0,0,0,0,0,0,0,0,0,0,0,0,0,0,0,0],"split_type":[0,0,0,0,0,0,0,0,0,0,0,0,0,0,0,0,0,0,0,0,0,0,0,0,0,0,0,0,0,0,0,0,0,0,0,0,0,0,0,0,0,0,0,0,0,0,0,0,0,0,0,0,0,0,0,0,0,0,0,0,0,0,0,0,0,0,0,0,0,0,0,0,0,0,0,0,0,0,0,0,0,0,0,0,0,0,0,0,0],"sum_hessian":[4.505E3,4.295E3,2.1E2,4.035E3,2.6E2,1.62E2,4.8E1,4.007E3,2.8E1,1.7E2,9E1,1.43E2,1.9E1,9E0,3.9E1,3.037E3,9.7E2,7E0,2.1E1,1.68E2,2E0,7.1E1,1.9E1,1.13E2,3E1,2E0,1.7E1,9E0,3E1,8.8E1,2.949E3,8.32E2,1.38E2,2E0,5E0,6E0,1.5E1,1.56E2,1.2E1,4E1,3.1E1,1.7E1,2E0,2.6E1,8.7E1,2.5E1,5E0,1E0,1E0,4E0,5E0,1E1,2E1,3.1E1,5.7E1,2.848E3,1.01E2,6.92E2,1.4E2,9.6E1,4.2E1,3E0,3E0,7E0,8E0,1E1,1.46E2,7E0,5E0,1.6E1,2.4E1,6E0,2.5E1,8E0,9E0,1E0,1E0,1.9E1,7E0,4.4E1,4.3E1,2E1,5E0,2E0,3E0,1E0,3E0,1E0,4E0],"tree_param":{"num_deleted":"0","num_feature":"64","num_nodes":"89","size_leaf_vector":"1"}},{"base_weights":[7.3719383E-3,-9.654137E-2,2.3051505E0,1.0511149E0,-1.5261684E-1,4.5606208E-1,2.764499E0,1.505953E0,-5.1422983E-1,-1.6378506E-1,2.7166812E0,-4.002892E-2,1.6169435E0,2.0921197E0,3.9278173E0,3.014824E0,1.1949866E0,-2.2884667E0,3.3351332E-1,-2.1966983E-1,1.4997472E-1,1.513593E0,4.0472814E-1,1.3893393E0,-4.7331366E-1,1.5018952E-1,2.0891738E-1,1.0350207E0,2.9574203E0,5.9161955E-1,3.3669484E0,-5.6889075E-1,3.8951793E0,2.8355522E0,7.418056E-1,-2.865559E-3,-2.447835E-1,-1.7104755E-1,6.0595226E-1,-2.3842315E-1,5.408916E-1,-2.4281332E-2,7.9437804E-1,1.7451952E-1,3.9145622E-2,-9.4663305E-3,1.950755E-1,-1.9338283E-1,-6.737695E-2,-2.3092037E-2,3.5419963E-2,3.5452676E-1,3.8688254E0,4.889998E0,2.1782475E0,1.3199528E0,3.700513E0,-7.468195E-2,-1.4202221E-2,8.1092715E-2,4.0088454E-1,3.7179455E-1,1.5314105E-1,-6.3625686E-2,1.3912748E-1,-4.9224593E-2,1.2870069E-2,1.5510869E-2,6.452458E-2,-2.5928361E-2,3.186069E-2,1.2405379E-1,2.2340521E-2,-1.9333532E-2,6.976403E-2,5.9001673E-2,3.2285845E-1,3.2006742E-3,-4.620624E-3,-2.4284977E-2,-4.610324E-3,8.57284E-2,-1.4165844E-1,4.394165E-1,-1.6694618E-2,5.350291E-1,2.2866182E-1,1.6202728E-1,3.7459412E-1,4.2840604E-2,2.1043983E-1,3.9447448E-1,1.2507878E-1],"categories":[],"categories_nodes":[],"categories_segments":[],"categories_sizes":[],"default_left":[0,0,0,0,0,0,0,0,0,0,0,0,0,0,0,0,0,0,0,0,0,0,0,0,0,0,0,0,0,0,0,0,0,0,0,0,0,0,0,0,0,0,0,0,0,0,0,0,0,0,0,0,0,0,0,0,0,0,0,0,0,0,0,0,0,0,0,0,0,0,0,0,0,0,0,0,0,0,0,0,0,0,0,0,0,0,0,0,0,0,0,0,0],"id":6,"left_children":[1,3,5,7,9,11,13,15,17,19,21,23,25,27,29,31,33,35,37,39,41,43,-1,45,47,49,-1,51,53,-1,55,57,59,61,63,-1,-1,65,67,69,71,73,75,-1,-1,77,-1,79,-1,-1,-1,81,83,85,87,89,91,-1,-1,-1,-1,-1,-1,-1,-1,-1,-1,-1,-1,-1,-1,-1,-1,-1,-1,-1,-1,-1,-1,-1,-1,-1,-1,-1,-1,-1,-1,-1,-1,-1,-1,-1,-1],"loss_changes":[1.0761191E3,2.7766083E2,1.6436743E2,1.4388206E2,1.3221365E2,2.3100834E1,1.1380444E2,6.959378E1,6.99517E1,7.187136E1,1.948732E1,1.8617975E1,7.9979763E0,8.9324554E1,4.2532776E1,8.424446E1,9.529155E1,5.3319855E0,4.502431E0,4.973584E1,6.9639824E1,1.9157238E0,0E0,5.515645E0,1.1603212E0,3.9279297E-1,0E0,8.926257E1,7.216803E1,0E0,2.6524536E1,3.4964812E-1,4.111206E0,2.6527756E1,9.396617E1,0E0,0E0,1.2186961E0,2.7193785E-1,3.9532166E1,1.838162E1,5.981426E1,6.375949E1,0E0,0E0,6.050061E-3,0E0,6.894401E-2,0E0,0E0,0E0,3.5941536E1,1.9814957E1,5.7407227E0,2.9794617E1,4.6934214E0,1.8399658E1,0E0,0E0,0E0,0E0,0E0,0E0,0E0,0E0,0E0,0E0,0E0,0E0,0E0,0E0,0E0,0E0,0E0,0E0,0E0,0E0,0E0,0E0,0E0,0E0,0E0,0E0,0E0,0E0,0E0,0E0,0E0,0E0,0E0,0E0,0E0,0E0],"parents":[2147483647,0,0,1,1,2,2,3,3,4,4,5,5,6,6,7,7,8,8,9,9,10,10,11,11,12,12,13,13,14,14,15,15,16,16,17,17,18,18,19,19,20,20,21,21,23,23,24,24,25,25,27,27,28,28,30,30,31,31,32,32,33,33,34,34,37,37,38,38,39,39,40,40,41,41,42,42,45,45,47,47,51,51,52,52,53,53,54,54,55,55,56,56],"right_children":[2,4,6,8,10,12,14,16,18,20,22,24,26,28,30,32,34,36,38,40,42,44,-1,46,48,50,-1,52,54,-1,56,58,60,62,64,-1,-1,66,68,70,72,74,76,-1,-1,78,-1,80,-1,-1,-1,82,84,86,88,90,92,-1,-1,-1,-1,-1,-1,-1,-1,-1,-1,-1,-1,-1,-1,-1,-1,-1,-1,-1,-1,-1,-1,-1,-1,-1,-1,-1,-1,-1,-1,-1,-1,-1,-1,-1,-1],"split_conditions":[1.112E1,2.6381E2,2.40715E2,4.6E1,6.878089E-3,2E0,4.0652256E-2,2.1E1,3.09928E5,3.58E0,1.484803E6,1.7E1,2.3581E2,2.9338116E-3,1.263E1,9E0,7.2286E4,8.656205E0,7.768595E-1,5.0001E0,1.484803E6,8.0349E4,4.0472814E-1,5.78E0,6.663792E0,2.8206953E1,2.0891738E-1,5.7E1,2.9E1,5.9161955E-1,1.800164E-1,7.0128426E1,3.982301E-2,4.886565E-1,1.392E-1,-2.865559E-3,-2.447835E-1,6.949944E1,1.1988243E-1,5.7E1,3.29385E1,3.4029E2,9.3E1,1.7451952E-1,3.9145622E-2,4.301E-1,1.950755E-1,8.516396E1,-6.737695E-2,-2.3092037E-2,3.5419963E-2,1.4262953E-3,4.6991295E1,3.5855263E1,1.765E1,5.9E0,3.1E1,-7.468195E-2,-1.4202221E-2,8.1092715E-2,4.0088454E-1,3.7179455E-1,1.5314105E-1,-6.3625686E-2,1.3912748E-1,-4.9224593E-2,1.2870069E-2,1.5510869E-2,6.452458E-2,-2.5928361E-2,3.186069E-2,1.2405379E-1,2.2340521E-2,-1.9333532E-2,6.976403E-2,5.9001673E-2,3.2285845E-1,3.2006742E-3,-4.620624E-3,-2.4284977E-2,-4.610324E-3,8.57284E-2,-1.4165844E-1,4.394165E-1,-1.6694618E-2,5.350291E-1,2.2866182E-1,1.6202728E-1,3.7459412E-1,4.2840604E-2,2.1043983E-1,3.9447448E-1,1.2507878E-1],"split_indices":[7,55,54,9,31,26,24,25,43,4,43,9,52,41,23,9,43,2,33,16,43,43,0,4,2,1,0,18,9,0,33,1,27,40,63,0,0,34,40,25,1,54,12,0,0,0,0,34,0,0,0,41,1,3,4,4,6,0,0,0,0,0,0,0,0,0,0,0,0,0,0,0,0,0,0,0,0,0,0,0,0,0,0,0,0,0,0,0,0,0,0,0,0],"split_type":[0,0,0,0,0,0,0,0,0,0,0,0,0,0,0,0,0,0,0,0,0,0,0,0,0,0,0,0,0,0,0,0,0,0,0,0,0,0,0,0,0,0,0,0,0,0,0,0,0,0,0,0,0,0,0,0,0,0,0,0,0,0,0,0,0,0,0,0,0,0,0,0,0,0,0,0,0,0,0,0,0,0,0,0,0,0,0,0,0,0,0,0,0],"sum_hessian":[4.505E3,4.311E3,1.94E2,2E2,4.111E3,3.9E1,1.55E2,1.55E2,4.5E1,4.096E3,1.5E1,2.8E1,1.1E1,1E2,5.5E1,2.5E1,1.3E2,1.4E1,3.1E1,3.477E3,6.19E2,9E0,6E0,6E0,2.2E1,3E0,8E0,4.6E1,5.4E1,1E1,4.5E1,5E0,2E1,2.7E1,1.03E2,1E0,1.3E1,1.1E1,2E1,3.394E3,8.3E1,4.88E2,1.31E2,7E0,2E0,2E0,4E0,1E1,1.2E1,1E0,2E0,3.8E1,8E0,1.4E1,4E1,7E0,3.8E1,3E0,2E0,1E0,1.9E1,1.5E1,1.2E1,3.3E1,7E1,5E0,6E0,2E0,1.8E1,3.272E3,1.22E2,2.5E1,5.8E1,3.96E2,9.2E1,1.22E2,9E0,1E0,1E0,7E0,3E0,3E1,8E0,7E0,1E0,1.1E1,3E0,3.1E1,9E0,4E0,3E0,3.4E1,4E0],"tree_param":{"num_deleted":"0","num_feature":"64","num_nodes":"93","size_leaf_vector":"1"}},{"base_weights":[7.820449E-3,-8.6425126E-2,2.0918157E0,-1.22108705E-1,1.4333429E0,4.1842157E-1,2.5074823E0,1.223141E0,-1.4611894E-1,3.377879E0,9.595216E-1,4.3586694E-2,1.7046764E0,1.8994137E0,3.5594008E0,3.6778312E0,9.117878E-1,-1.9573182E-1,1.3594995E-1,4.24895E0,1.2776209E0,2.8186288E-1,1.7987654E0,-3.0423102E-1,1.601502E-1,6.534601E-1,2.4149576E-1,9.393227E-1,2.6853201E0,2.3372755E0,4.281444E0,1.2235912E-1,4.8425952E-1,7.2821915E-1,4.5851788E-1,-2.451852E-1,4.600003E-2,-7.453567E-2,6.9355625E-1,7.813484E-2,4.4728047E-1,1.693158E-1,-6.0780056E-2,8.6181545E-1,-3.89986E-1,3.1744063E0,7.790663E-1,-4.0971053E-1,4.0470377E-1,-4.38959E-3,8.38773E-2,3.1763995E-1,3.528912E0,4.451911E0,1.973511E0,9.1458696E-1,2.5049496E0,4.5391197E0,1.0575882E-1,4.9497362E-2,-3.1143492E-2,1.6658595E-2,1.5124962E-1,-9.4540276E-2,-2.218487E-2,4.4277277E-2,-1.2280834E-2,-7.894874E-2,6.112503E-3,5.294168E-2,3.2668456E-1,1.604243E-1,2.5991414E-2,-7.2833106E-2,6.336559E-2,3.8489997E-1,1.0554196E-1,1.5340301E-1,-1.1535472E-2,-1.766714E-2,-5.635477E-2,9.085347E-2,-6.6084745E-3,7.7432096E-2,-1.2906657E-1,4.009676E-1,-1.585989E-2,4.859848E-1,2.115122E-1,5.5803455E-2,2.4739178E-1,1.2121141E-2,1.13864176E-1,1.3611712E-1,2.7058208E-1,2.0027974E-1,4.7324356E-1,3.0266165E-3,1.2837208E-2],"categories":[],"categories_nodes":[],"categories_segments":[],"categories_sizes":[],"default_left":[0,0,0,0,0,0,0,0,0,0,0,0,0,0,0,0,0,0,0,0,0,0,0,0,0,0,0,0,0,0,0,0,0,0,0,0,0,0,0,0,0,0,0,0,0,0,0,0,0,0,0,0,0,0,0,0,0,0,0,0,0,0,0,0,0,0,0,0,0,0,0,0,0,0,0,0,0,0,0,0,0,0,0,0,0,0,0,0,0,0,0,0,0,0,0,0,0,0,0],"id":7,"left_children":[1,3,5,7,9,11,13,15,17,19,21,23,25,27,29,31,33,35,37,39,41,43,45,47,-1,49,-1,51,53,55,57,59,-1,61,-1,63,65,67,69,-1,-1,-1,-1,71,73,75,77,79,81,-1,-1,83,85,87,89,91,93,95,97,-1,-1,-1,-1,-1,-1,-1,-1,-1,-1,-1,-1,-1,-1,-1,-1,-1,-1,-1,-1,-1,-1,-1,-1,-1,-1,-1,-1,-1,-1,-1,-1,-1,-1,-1,-1,-1,-1,-1,-1],"loss_changes":[8.851923E2,2.3401807E2,1.3458765E2,1.362899E2,8.797374E1,1.9211025E1,9.302283E1,5.3202988E1,5.79768E1,2.9331467E1,4.5559387E1,1.7827084E1,5.1418514E0,7.368634E1,3.9408997E1,3.253775E1,4.1840385E1,4.211487E1,7.2819916E1,6.5962677E0,6.513339E0,1.8259558E1,4.802555E1,2.1848195E0,0E0,6.829643E-1,0E0,7.454452E1,6.0375275E1,3.1956024E0,3.6102966E1,6.3906586E-1,0E0,2.8378979E1,0E0,4.757025E1,4.0174538E1,4.379113E1,7.007478E1,0E0,0E0,0E0,0E0,1.0754738E1,8.081081E0,1.7379501E1,1.5032577E1,7.6083946E-1,1.0088315E0,0E0,0E0,2.9644218E1,1.6591324E1,4.0197754E0,2.7660355E1,5.730219E-1,9.119644E-1,6.211914E0,1.2360737E-3,0E0,0E0,0E0,0E0,0E0,0E0,0E0,0E0,0E0,0E0,0E0,0E0,0E0,0E0,0E0,0E0,0E0,0E0,0E0,0E0,0E0,0E0,0E0,0E0,0E0,0E0,0E0,0E0,0E0,0E0,0E0,0E0,0E0,0E0,0E0,0E0,0E0,0E0,0E0,0E0],"parents":[2147483647,0,0,1,1,2,2,3,3,4,4,5,5,6,6,7,7,8,8,9,9,10,10,11,11,12,12,13,13,14,14,15,15,16,16,17,17,18,18,19,19,20,20,21,21,22,22,23,23,25,25,27,27,28,28,29,29,30,30,31,31,33,33,35,35,36,36,37,37,38,38,43,43,44,44,45,45,46,46,47,47,48,48,51,51,52,52,53,53,54,54,55,55,56,56,57,57,58,58],"right_children":[2,4,6,8,10,12,14,16,18,20,22,24,26,28,30,32,34,36,38,40,42,44,46,48,-1,50,-1,52,54,56,58,60,-1,62,-1,64,66,68,70,-1,-1,-1,-1,72,74,76,78,80,82,-1,-1,84,86,88,90,92,94,96,98,-1,-1,-1,-1,-1,-1,-1,-1,-1,-1,-1,-1,-1,-1,-1,-1,-1,-1,-1,-1,-1,-1,-1,-1,-1,-1,-1,-1,-1,-1,-1,-1,-1,-1,-1,-1,-1,-1,-1,-1],"split_conditions":[1.112E1,7.076E-1,2.40715E2,2.5296E2,3.2818064E-1,2.24E0,4.0652256E-2,9E0,3.58E0,4.1923676E1,8.18E0,2.404767E1,1.1195E1,2.9338116E-3,2.493E2,2.56E0,1.3154008E0,9.3370163E-1,1.421413E6,5.494034E-3,6.000329E1,1.7E1,4.5572933E1,2E0,1.601502E-1,3.694433E1,2.4149576E-1,5.7E1,2.9E1,2.4209E2,4.41E2,1.01E-2,4.8425952E-1,2.6724049E1,4.5851788E-1,2.7827E2,3.2252E2,2.8936E2,7.542077E-1,7.813484E-2,4.4728047E-1,1.693158E-1,-6.0780056E-2,4.7710145E-1,8.8507996E1,9.981111E1,8.271299E-4,6.663792E0,4.701E-1,-4.38959E-3,8.38773E-2,1.4262953E-3,4.6991295E1,3.5855263E1,1.424E1,1.5E0,5.1E1,2.5016327E1,7.51E-2,4.9497362E-2,-3.1143492E-2,1.6658595E-2,1.5124962E-1,-9.4540276E-2,-2.218487E-2,4.4277277E-2,-1.2280834E-2,-7.894874E-2,6.112503E-3,5.294168E-2,3.2668456E-1,1.604243E-1,2.5991414E-2,-7.2833106E-2,6.336559E-2,3.8489997E-1,1.0554196E-1,1.5340301E-1,-1.1535472E-2,-1.766714E-2,-5.635477E-2,9.085347E-2,-6.6084745E-3,7.7432096E-2,-1.2906657E-1,4.009676E-1,-1.585989E-2,4.859848E-1,2.115122E-1,5.5803455E-2,2.4739178E-1,1.2121141E-2,1.13864176E-1,1.3611712E-1,2.7058208E-1,2.0027974E-1,4.7324356E-1,3.0266165E-3,1.2837208E-2],"split_indices":[7,40,54,53,33,0,24,15,4,1,4,2,4,41,54,4,38,33,43,33,1,9,1,26,0,1,0,18,9,54,9,0,0,3,0,53,54,54,19,0,0,0,0,39,34,35,5,2,0,0,0,41,1,3,7,0,9,1,0,0,0,0,0,0,0,0,0,0,0,0,0,0,0,0,0,0,0,0,0,0,0,0,0,0,0,0,0,0,0,0,0,0,0,0,0,0,0,0,0],"split_type":[0,0,0,0,0,0,0,0,0,0,0,0,0,0,0,0,0,0,0,0,0,0,0,0,0,0,0,0,0,0,0,0,0,0,0,0,0,0,0,0,0,0,0,0,0,0,0,0,0,0,0,0,0,0,0,0,0,0,0,0,0,0,0,0,0,0,0,0,0,0,0,0,0,0,0,0,0,0,0,0,0,0,0,0,0,0,0,0,0,0,0,0,0,0,0,0,0,0,0],"sum_hessian":[4.505E3,4.311E3,1.94E2,4.213E3,9.8E1,3.9E1,1.55E2,7.3E1,4.14E3,1.8E1,8E1,3.1E1,8E0,1E2,5.5E1,7E0,6.6E1,3.521E3,6.19E2,1.2E1,6E0,4.5E1,3.5E1,2.6E1,5E0,4E0,4E0,4.6E1,5.4E1,2.2E1,3.3E1,2E0,5E0,6.4E1,2E0,2.923E3,5.98E2,4.5E2,1.69E2,1E0,1.1E1,5E0,1E0,2.4E1,2.1E1,1.4E1,2.1E1,2.3E1,3E0,1E0,3E0,3.8E1,8E0,1.4E1,4E1,3E0,1.9E1,3.1E1,2E0,1E0,1E0,3.8E1,2.6E1,9.3E1,2.83E3,1.78E2,4.2E2,7.1E1,3.79E2,1.6E2,9E0,1E1,1.4E1,1.6E1,5E0,1E1,4E0,1.1E1,1E1,1E1,1.3E1,1E0,2E0,3E1,8E0,7E0,1E0,1.1E1,3E0,1.1E1,2.9E1,1E0,2E0,4E0,1.5E1,3E0,2.8E1,1E0,1E0],"tree_param":{"num_deleted":"0","num_feature":"64","num_nodes":"99","size_leaf_vector":"1"}},{"base_weights":[8.334864E-3,-7.7134594E-2,1.898263E0,-1.0957722E-1,1.3045864E0,-1.0690464E-1,2.180315E0,1.1426039E0,-1.3100466E-1,3.0734568E0,8.7356025E-1,-2.9743043E-1,3.3514148E-1,1.839319E-1,2.3852067E0,3.7203639E0,8.474204E-1,2.373294E-3,-2.2564676E-1,3.8644717E0,1.1653639E0,2.5752327E-1,1.636453E0,-1.4228757E-1,-5.840016E-2,-1.02473095E-1,7.9837434E-2,4.2329344E-1,-1.0741865E-1,5.2800786E-1,2.149146E0,-2.9586315E-2,4.4390455E-1,6.7053694E-1,4.2795005E-1,-2.937592E-2,9.4687E-1,-1.9545291E-1,-8.1933683E-1,7.42281E-2,4.0627977E-1,1.5520613E0,-5.7741053E-2,7.830905E-1,-3.5141778E-1,2.8896618E0,7.076082E-1,5.8932304E-2,-2.0854676E-1,5.85838E-3,-1.5738326E-1,-3.01598E-1,7.143083E-1,2.3396213E0,-1.5692165E-1,3.3622738E-2,2.2203434E-1,-5.856911E-3,8.601936E-2,2.0412599E-1,-5.9736878E-2,-3.2026075E-2,-3.1016304E-3,-8.765132E-2,1.0150238E-1,1.6845779E-1,4.4473946E-2,1.1264886E-1,-2.6086006E-2,-6.597823E-2,5.808512E-2,3.4990907E-1,9.70986E-2,1.3934106E-1,-1.0486789E-2,-3.791253E-4,1.2355149E-2,-2.633067E-2,-1.0112546E-2,-2.1607012E-2,-6.5797605E-3,-7.073063E-3,-3.416322E-2,7.983779E-2,-6.319368E-3,2.429569E-1,-1.1910744E-1,4.6307396E-2,-1.1175304E-1],"categories":[],"categories_nodes":[],"categories_segments":[],"categories_sizes":[],"default_left":[0,0,0,0,0,0,0,0,0,0,0,0,0,0,0,0,0,0,0,0,0,0,0,0,0,0,0,0,0,0,0,0,0,0,0,0,0,0,0,0,0,0,0,0,0,0,0,0,0,0,0,0,0,0,0,0,0,0,0,0,0,0,0,0,0,0,0,0,0,0,0,0,0,0,0,0,0,0,0,0,0,0,0,0,0,0,0,0,0],"id":8,"left_children":[1,3,5,7,9,11,13,15,17,19,21,23,25,27,29,31,33,35,37,39,41,43,45,47,-1,49,-1,51,-1,-1,53,-1,-1,55,-1,57,59,61,63,-1,-1,65,-1,67,69,71,73,75,77,-1,79,81,83,85,87,-1,-1,-1,-1,-1,-1,-1,-1,-1,-1,-1,-1,-1,-1,-1,-1,-1,-1,-1,-1,-1,-1,-1,-1,-1,-1,-1,-1,-1,-1,-1,-1,-1,-1],"loss_changes":[7.280057E2,1.9343555E2,1.105177E2,1.1321564E2,7.279567E1,2.2052112E0,6.950745E1,5.0872047E1,5.231096E1,2.4173737E1,3.7646152E1,7.171743E-1,1.7035514E0,5.574164E0,9.4573975E1,2.1518074E1,3.659053E1,5.163549E1,4.329197E1,5.034012E0,5.613662E0,1.4997006E1,3.9860573E1,1.856148E-1,0E0,5.343841E-2,0E0,3.379747E0,0E0,0E0,6.405817E1,0E0,0E0,3.1894714E1,0E0,4.3315357E1,9.5859344E1,4.7357086E1,1.3160889E1,0E0,0E0,1.3123226E-1,0E0,9.25612E0,6.7077665E0,1.4141876E1,1.2404482E1,1.6680995E-2,3.219682E-2,0E0,7.2826073E-3,2.204907E-2,7.694597E-1,4.544928E1,7.6643777E0,0E0,0E0,0E0,0E0,0E0,0E0,0E0,0E0,0E0,0E0,0E0,0E0,0E0,0E0,0E0,0E0,0E0,0E0,0E0,0E0,0E0,0E0,0E0,0E0,0E0,0E0,0E0,0E0,0E0,0E0,0E0,0E0,0E0,0E0],"parents":[2147483647,0,0,1,1,2,2,3,3,4,4,5,5,6,6,7,7,8,8,9,9,10,10,11,11,12,12,13,13,14,14,15,15,16,16,17,17,18,18,19,19,20,20,21,21,22,22,23,23,25,25,27,27,30,30,33,33,35,35,36,36,37,37,38,38,41,41,43,43,44,44,45,45,46,46,47,47,48,48,50,50,51,51,52,52,53,53,54,54],"right_children":[2,4,6,8,10,12,14,16,18,20,22,24,26,28,30,32,34,36,38,40,42,44,46,48,-1,50,-1,52,-1,-1,54,-1,-1,56,-1,58,60,62,64,-1,-1,66,-1,68,70,72,74,76,78,-1,80,82,84,86,88,-1,-1,-1,-1,-1,-1,-1,-1,-1,-1,-1,-1,-1,-1,-1,-1,-1,-1,-1,-1,-1,-1,-1,-1,-1,-1,-1,-1,-1,-1,-1,-1,-1,-1],"split_conditions":[1.112E1,7.076E-1,2.3581E2,2.5085E2,3.2818064E-1,5.1E-1,4.0680956E-2,9E0,3.2266E2,4.1923676E1,8.18E0,8.779213E-2,3.694433E1,3.842242E1,4.1581705E-2,1.2560387E1,1.3154008E0,7.3E1,5.1E1,5.494034E-3,6.000329E1,1.7E1,4.5572933E1,1.1552373E0,-5.840016E-2,4.301E-1,7.9837434E-2,1.9E1,-1.0741865E-1,5.2800786E-1,5.9E1,-2.9586315E-2,4.4390455E-1,3.15379E6,4.2795005E-1,2.0693908E0,9.8712444E-1,3.3842E2,5.29E0,7.42281E-2,4.0627977E-1,4.482174E1,-5.7741053E-2,3.8291082E-1,8.8507996E1,9.981111E1,8.271299E-4,4.401E-1,4.3641113E1,5.85838E-3,2.8206953E1,4.8E-1,4.4591682E1,8.916058E1,5.6475494E-2,3.3622738E-2,2.2203434E-1,-5.856911E-3,8.601936E-2,2.0412599E-1,-5.9736878E-2,-3.2026075E-2,-3.1016304E-3,-8.765132E-2,1.0150238E-1,1.6845779E-1,4.4473946E-2,1.1264886E-1,-2.6086006E-2,-6.597823E-2,5.808512E-2,3.4990907E-1,9.70986E-2,1.3934106E-1,-1.0486789E-2,-3.791253E-4,1.2355149E-2,-2.633067E-2,-1.0112546E-2,-2.1607012E-2,-6.5797605E-3,-7.073063E-3,-3.416322E-2,7.983779E-2,-6.319368E-3,2.429569E-1,-1.1910744E-1,4.6307396E-2,-1.1175304E-1],"split_indices":[7,40,52,52,33,63,8,15,52,1,4,40,1,3,8,2,38,12,6,33,1,9,1,39,0,0,0,25,0,0,12,0,0,43,0,33,33,53,23,0,0,1,0,38,34,35,5,0,1,0,1,0,1,42,8,0,0,0,0,0,0,0,0,0,0,0,0,0,0,0,0,0,0,0,0,0,0,0,0,0,0,0,0,0,0,0,0,0,0],"split_type":[0,0,0,0,0,0,0,0,0,0,0,0,0,0,0,0,0,0,0,0,0,0,0,0,0,0,0,0,0,0,0,0,0,0,0,0,0,0,0,0,0,0,0,0,0,0,0,0,0,0,0,0,0,0,0,0,0,0,0,0,0,0,0,0,0,0,0,0,0,0,0,0,0,0,0,0,0,0,0,0,0,0,0,0,0,0,0,0,0],"sum_hessian":[4.505E3,4.311E3,1.94E2,4.213E3,9.8E1,2.4E1,1.7E2,7E1,4.143E3,1.8E1,8E1,1.7E1,7E0,1.6E1,1.54E2,6E0,6.4E1,1.72E3,2.423E3,1.2E1,6E0,4.5E1,3.5E1,1.2E1,5E0,4E0,3E0,1.4E1,2E0,1E1,1.44E2,1E0,5E0,6.2E1,2E0,1.665E3,5.5E1,2.307E3,1.16E2,1E0,1.1E1,5E0,1E0,2.4E1,2.1E1,1.4E1,2.1E1,3E0,9E0,1E0,3E0,4E0,1E1,1.33E2,1.1E1,5.2E1,1E1,1.613E3,5.2E1,3.2E1,2.3E1,1.311E3,9.96E2,1.13E2,3E0,4E0,1E0,1.8E1,6E0,1.6E1,5E0,1E1,4E0,1.1E1,1E1,2E0,1E0,5E0,4E0,1E0,2E0,1E0,3E0,9E0,1E0,1.3E2,3E0,7E0,4E0],"tree_param":{"num_deleted":"0","num_feature":"64","num_nodes":"89","size_leaf_vector":"1"}},{"base_weights":[8.184292E-3,-6.502527E-2,1.8096755E0,8.346596E-1,-1.0992834E-1,4.2848283E-1,2.239389E0,1.1210824E0,-8.184075E-1,-1.19133085E-1,2.2619863E0,2.8830526E-2,1.3485396E0,8.2776374E-1,2.621383E0,2.4568803E0,8.731649E-1,-2.0850785E-1,3.473851E-1,-1.2988381E-1,9.512414E-1,1.379759E0,3.1991705E-1,-2.7082738E-1,1.322543E0,1.751467E-1,1.683043E-1,-4.9406996E-1,1.8676406E0,-9.342574E-1,2.7351198E0,-5.0443125E-1,3.1528344E0,2.3842263E0,5.220846E-1,5.2615505E-1,-1.8689384E-1,-3.72531E-1,-9.274923E-2,1.5963103E0,-4.0684223E-1,1.6927688E-1,4.8705216E-2,-3.6299935E-1,3.268684E-1,1.4695416E-1,2.9377485E-2,1.149559E-2,3.3305E-2,2.4676286E-1,-1.2701546E0,-2.407223E-3,2.268537E0,-2.281893E-2,-1.5262309E-1,2.127023E0,3.4014668E0,-6.682425E-2,-1.1787252E-2,2.3820035E-1,4.0015897E-1,3.226051E-1,1.1647322E-1,9.021523E-3,1.60535E-1,2.2020178E-2,6.376675E-2,-2.8117284E-2,-3.0316869E-3,-4.132292E-2,9.861622E-2,7.739679E-4,-2.102791E-2,9.617441E-2,3.0625078E-1,-7.436039E-2,3.614865E-3,-1.4897192E-2,-5.8294095E-2,7.416295E-2,-5.8595105E-3,5.5654584E-3,-3.84112E-3,4.267276E-2,-3.9883764E-3,-3.09538E-2,-1.5924937E-1,3.196672E-2,-4.8431523E-2,2.8405514E-1,6.708013E-2,8.7641835E-2,2.4481785E-1,3.905657E-1,1.145398E-1],"categories":[],"categories_nodes":[],"categories_segments":[],"categories_sizes":[],"default_left":[0,0,0,0,0,0,0,0,0,0,0,0,0,0,0,0,0,0,0,0,0,0,0,0,0,0,0,0,0,0,0,0,0,0,0,0,0,0,0,0,0,0,0,0,0,0,0,0,0,0,0,0,0,0,0,0,0,0,0,0,0,0,0,0,0,0,0,0,0,0,0,0,0,0,0,0,0,0,0,0,0,0,0,0,0,0,0,0,0,0,0,0,0,0,0],"id":9,"left_children":[1,3,5,7,9,11,13,15,17,19,21,23,25,27,29,31,33,-1,35,37,39,41,-1,43,45,47,-1,49,51,53,55,57,59,61,63,65,67,69,71,73,75,-1,-1,77,79,-1,-1,81,-1,83,85,87,89,-1,-1,91,93,-1,-1,-1,-1,-1,-1,-1,-1,-1,-1,-1,-1,-1,-1,-1,-1,-1,-1,-1,-1,-1,-1,-1,-1,-1,-1,-1,-1,-1,-1,-1,-1,-1,-1,-1,-1,-1,-1],"loss_changes":[5.9439764E2,1.7505814E2,1.0349951E2,9.845361E1,9.03519E1,1.5772341E1,7.008728E1,5.614026E1,4.6501274E1,4.7430088E1,8.814865E0,1.2375986E1,4.807768E0,4.215908E1,4.5018127E1,5.7235672E1,7.833081E1,0E0,1.7220566E0,3.6647606E1,3.6567806E1,1.9697914E0,0E0,1.5510138E0,4.756508E-1,9.953561E-2,0E0,8.362713E0,1.2750286E1,1.3236244E0,3.4095703E1,3.0116856E-1,4.861618E0,2.4987335E1,5.7398148E1,3.0311298E-1,6.5285325E-2,3.0267563E1,4.1716125E1,2.3105835E1,2.115434E0,0E0,0E0,9.9584985E-1,6.8295693E-1,0E0,0E0,8.7492615E-3,0E0,4.297097E-1,1.674573E0,7.756606E-1,1.0889534E1,0E0,0E0,2.0346115E1,4.8988403E1,0E0,0E0,0E0,0E0,0E0,0E0,0E0,0E0,0E0,0E0,0E0,0E0,0E0,0E0,0E0,0E0,0E0,0E0,0E0,0E0,0E0,0E0,0E0,0E0,0E0,0E0,0E0,0E0,0E0,0E0,0E0,0E0,0E0,0E0,0E0,0E0,0E0,0E0],"parents":[2147483647,0,0,1,1,2,2,3,3,4,4,5,5,6,6,7,7,8,8,9,9,10,10,11,11,12,12,13,13,14,14,15,15,16,16,18,18,19,19,20,20,21,21,23,23,24,24,25,25,27,27,28,28,29,29,30,30,31,31,32,32,33,33,34,34,35,35,36,36,37,37,38,38,39,39,40,40,43,43,44,44,47,47,49,49,50,50,51,51,52,52,55,55,56,56],"right_children":[2,4,6,8,10,12,14,16,18,20,22,24,26,28,30,32,34,-1,36,38,40,42,-1,44,46,48,-1,50,52,54,56,58,60,62,64,66,68,70,72,74,76,-1,-1,78,80,-1,-1,82,-1,84,86,88,90,-1,-1,92,94,-1,-1,-1,-1,-1,-1,-1,-1,-1,-1,-1,-1,-1,-1,-1,-1,-1,-1,-1,-1,-1,-1,-1,-1,-1,-1,-1,-1,-1,-1,-1,-1,-1,-1,-1,-1,-1,-1],"split_conditions":[1.172E1,2.6381E2,2.4209E2,5.6E1,6.878089E-3,1.87862E1,3.7191135E-1,2.1E1,5.58E0,8.55E0,1.484803E6,2.24E0,1.7801204E-1,8.573577E1,1.4E1,9E0,7.2286E4,-2.0850785E-1,1.4258159E1,8.1E-1,3.1294E2,2.57E0,3.1991705E-1,2E0,4.8368828E1,3.694433E1,1.683043E-1,1.4262953E-3,8.5E-2,5.3E-1,2.5977E2,7.0128426E1,2.8748017E-2,4.886565E-1,3.274727E6,7.42E0,2.6933739E1,3.517E2,1.3E1,2.040587E6,5.357143E0,1.6927688E-1,4.8705216E-2,3.4055722E-1,4.701E-1,1.4695416E-1,2.9377485E-2,4.301E-1,3.3305E-2,8.538012E0,3.23082E1,9.18E-2,1.1969419E0,-2.281893E-2,-1.5262309E-1,1.731E1,4.496405E1,-6.682425E-2,-1.1787252E-2,2.3820035E-1,4.0015897E-1,3.226051E-1,1.1647322E-1,9.021523E-3,1.60535E-1,2.2020178E-2,6.376675E-2,-2.8117284E-2,-3.0316869E-3,-4.132292E-2,9.861622E-2,7.739679E-4,-2.102791E-2,9.617441E-2,3.0625078E-1,-7.436039E-2,3.614865E-3,-1.4897192E-2,-5.8294095E-2,7.416295E-2,-5.8595105E-3,5.5654584E-3,-3.84112E-3,4.267276E-2,-3.9883764E-3,-3.09538E-2,-1.5924937E-1,3.196672E-2,-4.8431523E-2,2.8405514E-1,6.708013E-2,8.7641835E-2,2.4481785E-1,3.905657E-1,1.145398E-1],"split_indices":[7,55,54,9,31,2,45,25,4,4,43,0,27,36,9,9,43,0,2,4,52,4,0,26,1,1,0,41,57,0,52,1,8,40,43,4,1,52,6,43,2,0,0,40,0,0,0,0,0,2,3,0,38,0,0,7,1,0,0,0,0,0,0,0,0,0,0,0,0,0,0,0,0,0,0,0,0,0,0,0,0,0,0,0,0,0,0,0,0,0,0,0,0,0,0],"split_type":[0,0,0,0,0,0,0,0,0,0,0,0,0,0,0,0,0,0,0,0,0,0,0,0,0,0,0,0,0,0,0,0,0,0,0,0,0,0,0,0,0,0,0,0,0,0,0,0,0,0,0,0,0,0,0,0,0,0,0,0,0,0,0,0,0,0,0,0,0,0,0,0,0,0,0,0,0,0,0,0,0,0,0,0,0,0,0,0,0,0,0,0,0,0,0],"sum_hessian":[4.505E3,4.33E3,1.75E2,2.05E2,4.125E3,4.2E1,1.33E2,1.75E2,3E1,4.11E3,1.5E1,3E1,1.2E1,2.9E1,1.04E2,2.6E1,1.49E2,1.4E1,1.6E1,4.07E3,4E1,9E0,6E0,2.5E1,5E0,3E0,9E0,1.3E1,1.6E1,3E0,1.01E2,5E0,2.1E1,2.7E1,1.22E2,1.2E1,4E0,5.39E2,3.531E3,2.7E1,1.3E1,6E0,3E0,2.2E1,3E0,4E0,1E0,2E0,1E0,7E0,6E0,3E0,1.3E1,2E0,1E0,5.5E1,4.6E1,3E0,2E0,1.3E1,8E0,1.5E1,1.2E1,8.8E1,3.4E1,4E0,8E0,2E0,2E0,5.24E2,1.5E1,1.904E3,1.627E3,2E1,7E0,7E0,6E0,1.2E1,1E1,1E0,2E0,1E0,1E0,4E0,3E0,2E0,4E0,2E0,1E0,9E0,4E0,1.2E1,4.3E1,3.7E1,9E0],"tree_param":{"num_deleted":"0","num_feature":"64","num_nodes":"95","size_leaf_vector":"1"}},{"base_weights":[8.06296E-3,-5.8079183E-2,1.63564E0,-1.0635717E-1,6.328596E-1,3.9435032E-1,2.021758E0,-1.2017816E-1,8.303535E-1,9.942172E-1,8.8441476E-2,-1.17078826E-1,9.8834777E-1,2.2195737E0,-1.7433293E-1,-1.6423962E-1,1.3612472E-1,5.671996E-1,2.0630877E-1,1.3998273E-1,1.5216959E0,1.108718E0,-2.7269664E-1,2.7426764E-1,-2.6276475E-1,-4.0494466E-1,1.36198E0,2.3123698E0,-1.1192013E0,5.8994836E-1,-8.045265E-1,-1.5158576E-1,-1.0463248E0,2.082173E0,-4.5325086E-2,1.9375896E-1,1.733615E0,-3.96553E-2,2.9342863E-1,2.0514593E0,4.92632E-1,2.1198123E0,2.1083367E-1,-7.536636E-1,9.811637E-1,-2.6260734E-2,6.837258E-2,-4.8675638E-2,-1.391713E-1,1.1209249E-4,-5.067413E-2,2.6037273E-1,1.7074846E-1,2.484573E0,1.696776E-1,-1.9277422E-1,-2.071069E-2,7.052311E-2,2.3958858E-2,-2.567781E-2,-9.722703E-2,-1.6312925E-2,1.2275052E-1,-1.2564659E-1,1.6143907E-2,3.0358684E-1,1.399719E-1,-1.656613E-1,4.1498785E-4,-5.687889E-2,6.9405094E-2,4.7872044E-2,1.936722E-1,4.253262E-2,-1.0606319E-1,8.758362E-2,2.6995215E-1,-1.6431384E-2,8.145386E-2,2.3741229E-1,-5.93114E-2,-4.5566395E-2,8.539053E-2,-9.249079E-2,1.3835035E-1,1.4951646E-1,-4.807193E-2,1.15450425E-2,-1.5921831E-2,-2.10182E-2,-4.827901E-3,-4.1639473E-2,5.336633E-2,4.4797873E-1,2.2426727E-1,-4.7796413E-2,5.1551897E-2],"categories":[],"categories_nodes":[],"categories_segments":[],"categories_sizes":[],"default_left":[0,0,0,0,0,0,0,0,0,0,0,0,0,0,0,0,0,0,0,0,0,0,0,0,0,0,0,0,0,0,0,0,0,0,0,0,0,0,0,0,0,0,0,0,0,0,0,0,0,0,0,0,0,0,0,0,0,0,0,0,0,0,0,0,0,0,0,0,0,0,0,0,0,0,0,0,0,0,0,0,0,0,0,0,0,0,0,0,0,0,0,0,0,0,0,0,0],"id":10,"left_children":[1,3,5,7,9,11,13,15,17,19,21,23,25,27,29,31,33,35,-1,37,39,41,43,45,47,49,51,53,55,57,59,61,63,65,67,69,71,73,-1,75,77,79,81,83,85,87,-1,-1,89,-1,-1,91,-1,93,95,-1,-1,-1,-1,-1,-1,-1,-1,-1,-1,-1,-1,-1,-1,-1,-1,-1,-1,-1,-1,-1,-1,-1,-1,-1,-1,-1,-1,-1,-1,-1,-1,-1,-1,-1,-1,-1,-1,-1,-1,-1,-1],"loss_changes":[4.8517233E2,1.4453706E2,8.355679E1,5.2519234E1,5.5586563E1,1.3178581E1,5.8599365E1,4.5093033E1,1.7969345E1,7.638736E1,4.2306873E1,1.440396E0,1.0963104E1,4.0696472E1,6.254371E0,3.785843E1,2.0701689E2,2.1443443E1,0E0,3.324593E1,5.62312E1,2.678844E1,5.2000023E1,8.793317E-1,4.3056774E-1,2.0724857E-1,5.6451836E0,4.3855896E1,2.5506139E0,7.337737E-2,3.9351177E-1,5.3673996E1,1.2385288E1,2.8293304E1,4.2815666E1,1.5273134E1,2.131382E0,3.0359434E1,0E0,5.02052E1,7.9584236E0,1.1067097E1,7.6753907E0,2.3970238E1,1.8752575E1,1.1258969E-1,0E0,0E0,7.375884E-2,0E0,0E0,1.1469852E0,0E0,4.352661E1,2.4862123E0,0E0,0E0,0E0,0E0,0E0,0E0,0E0,0E0,0E0,0E0,0E0,0E0,0E0,0E0,0E0,0E0,0E0,0E0,0E0,0E0,0E0,0E0,0E0,0E0,0E0,0E0,0E0,0E0,0E0,0E0,0E0,0E0,0E0,0E0,0E0,0E0,0E0,0E0,0E0,0E0,0E0,0E0],"parents":[2147483647,0,0,1,1,2,2,3,3,4,4,5,5,6,6,7,7,8,8,9,9,10,10,11,11,12,12,13,13,14,14,15,15,16,16,17,17,19,19,20,20,21,21,22,22,23,23,24,24,25,25,26,26,27,27,28,28,29,29,30,30,31,31,32,32,33,33,34,34,35,35,36,36,37,37,39,39,40,40,41,41,42,42,43,43,44,44,45,45,48,48,51,51,53,53,54,54],"right_children":[2,4,6,8,10,12,14,16,18,20,22,24,26,28,30,32,34,36,-1,38,40,42,44,46,48,50,52,54,56,58,60,62,64,66,68,70,72,74,-1,76,78,80,82,84,86,88,-1,-1,90,-1,-1,92,-1,94,96,-1,-1,-1,-1,-1,-1,-1,-1,-1,-1,-1,-1,-1,-1,-1,-1,-1,-1,-1,-1,-1,-1,-1,-1,-1,-1,-1,-1,-1,-1,-1,-1,-1,-1,-1,-1,-1,-1,-1,-1,-1,-1],"split_conditions":[1.172E1,4.252526E-1,2.4209E2,4.4070925E-3,3.8762386E1,2.3671E2,5.9E1,5.0001E0,2.9836065E1,1.7482574E-1,-3.9322826E-1,1.7E1,1.9514256E0,8.2275795E1,4.22363E5,1.4643308E-2,5.08E0,6.878089E-3,2.0630877E-1,1.2842797E-2,2.9E1,2.7184E2,1.039041E0,3.694433E1,6.6852295E1,3.0110115E1,4.3140385E-1,3.1313E2,4.2E-1,5.646191E1,3.5106224E1,4.27E0,4.8177483E1,5.11E0,5.122229E0,3.0217E2,2.5085E2,2.2E1,2.9342863E-1,1.05E-1,5.58E0,8.55E0,4.5572933E1,7.75E0,7.5482895E1,1.33E0,6.837258E-2,-4.8675638E-2,1.573E1,1.1209249E-4,-5.067413E-2,1.29E0,1.7074846E-1,4.1581705E-2,5.29E0,-1.9277422E-1,-2.071069E-2,7.052311E-2,2.3958858E-2,-2.567781E-2,-9.722703E-2,-1.6312925E-2,1.2275052E-1,-1.2564659E-1,1.6143907E-2,3.0358684E-1,1.399719E-1,-1.656613E-1,4.1498785E-4,-5.687889E-2,6.9405094E-2,4.7872044E-2,1.936722E-1,4.253262E-2,-1.0606319E-1,8.758362E-2,2.6995215E-1,-1.6431384E-2,8.145386E-2,2.3741229E-1,-5.93114E-2,-4.5566395E-2,8.539053E-2,-9.249079E-2,1.3835035E-1,1.4951646E-1,-4.807193E-2,1.15450425E-2,-1.5921831E-2,-2.10182E-2,-4.827901E-3,-4.1639473E-2,5.336633E-2,4.4797873E-1,2.2426727E-1,-4.7796413E-2,5.1551897E-2],"split_indices":[7,45,54,31,1,53,12,7,2,39,38,9,26,42,43,17,7,31,0,29,9,52,39,1,34,1,33,53,0,1,3,16,1,23,23,52,52,9,0,57,4,4,1,20,42,0,0,0,7,0,0,0,0,8,23,0,0,0,0,0,0,0,0,0,0,0,0,0,0,0,0,0,0,0,0,0,0,0,0,0,0,0,0,0,0,0,0,0,0,0,0,0,0,0,0,0,0],"split_type":[0,0,0,0,0,0,0,0,0,0,0,0,0,0,0,0,0,0,0,0,0,0,0,0,0,0,0,0,0,0,0,0,0,0,0,0,0,0,0,0,0,0,0,0,0,0,0,0,0,0,0,0,0,0,0,0,0,0,0,0,0,0,0,0,0,0,0,0,0,0,0,0,0,0,0,0,0,0,0,0,0,0,0,0,0,0,0,0,0,0,0,0,0,0,0,0,0],"sum_hessian":[4.505E3,4.33E3,1.75E2,4.048E3,2.82E2,4.2E1,1.33E2,3.99E3,5.8E1,1.69E2,1.13E2,2.3E1,1.9E1,1.22E2,1.1E1,3.405E3,5.85E2,4.9E1,9E0,6.5E1,1.04E2,2.9E1,8.4E1,6E0,1.7E1,4E0,1.5E1,1.19E2,3E0,5E0,6E0,3.358E3,4.7E1,4.9E1,5.36E2,3.8E1,1.1E1,6.2E1,3E0,6.8E1,3.6E1,1.3E1,1.6E1,6.1E1,2.3E1,4E0,2E0,5E0,1.2E1,1E0,3E0,4E0,1.1E1,1.1E2,9E0,1E0,2E0,3E0,2E0,2E0,4E0,3.331E3,2.7E1,4E1,7E0,1.9E1,3E1,1.5E1,5.21E2,1.5E1,2.3E1,2E0,9E0,4.3E1,1.9E1,2.5E1,4.3E1,1.2E1,2.4E1,1.2E1,1E0,8E0,8E0,5.7E1,4E0,1.7E1,6E0,2E0,2E0,6E0,6E0,1E0,3E0,1E1,1E2,3E0,6E0],"tree_param":{"num_deleted":"0","num_feature":"64","num_nodes":"97","size_leaf_vector":"1"}},{"base_weights":[7.7690557E-3,-5.518889E-2,1.399907E0,-8.048963E-2,1.0223111E0,2.6014924E-1,1.6923597E0,9.181496E-1,-9.75801E-2,2.4074621E0,6.8477803E-1,6.9565244E-2,1.618441E-1,1.256885E0,2.4397721E0,3.1645358E0,6.621057E-1,-2.0547621E-1,-1.2579712E-2,3.0897267E0,7.9647607E-1,1.1486762E0,4.2263966E-2,-2.4638216E-1,8.387484E-1,5.9117687E-1,1.9107697E0,1.4985089E0,2.9617157E0,-2.3933535E-2,3.771737E-1,1.5681194E0,1.6209586E-1,4.435411E-2,-2.9334724E-1,-2.9181896E-2,1.2994266E0,6.700774E-2,3.2355243E-1,1.0929193E0,-4.910919E-2,1.6562465E0,2.3891039E-1,-4.1733423E-1,5.534464E-1,3.903143E-1,-3.7408218E-1,8.6279124E-2,1.1101395E-1,-1.2777574E-1,1.7119422E0,3.3519046E0,1.313833E0,1.7052587E0,1.4182037E-1,3.2745917E0,4.2954117E-1,9.6589826E-2,4.187196E-1,-8.726515E-2,6.3957475E-2,-4.1211825E-3,1.5896122E-1,-3.2163866E-2,4.813473E-2,-4.0545682E-3,1.4080642E-1,2.2039361E-1,1.6650507E-3,1.279808E-1,4.7942813E-2,2.1182905E-1,6.65599E-2,1.0254939E-1,-4.929057E-2,-6.1604947E-2,1.1589031E-2,1.1863084E-1,2.6746517E-2,1.2379766E-3,6.381441E-2,-5.8283567E-2,-1.3415515E-2,-1.9437594E-2,2.4462279E-2,-6.6559635E-2,7.094695E-2,2.551048E-1,6.1773147E-2,3.6681882E-1,9.694689E-2,8.794603E-2,2.7785015E-1,9.102659E-2,1.9241658E-1,2.8488351E-2,-8.2850456E-5,1.0820543E-1,3.4708616E-1,-3.39871E-2,1.0557729E-1],"categories":[],"categories_nodes":[],"categories_segments":[],"categories_sizes":[],"default_left":[0,0,0,0,0,0,0,0,0,0,0,0,0,0,0,0,0,0,0,0,0,0,0,0,0,0,0,0,0,0,0,0,0,0,0,0,0,0,0,0,0,0,0,0,0,0,0,0,0,0,0,0,0,0,0,0,0,0,0,0,0,0,0,0,0,0,0,0,0,0,0,0,0,0,0,0,0,0,0,0,0,0,0,0,0,0,0,0,0,0,0,0,0,0,0,0,0,0,0,0,0],"id":11,"left_children":[1,3,5,7,9,11,13,15,17,19,21,23,-1,25,27,29,31,33,35,37,39,41,43,45,47,49,51,53,55,-1,-1,57,59,61,63,65,67,-1,-1,69,-1,71,73,75,77,79,81,83,-1,85,87,89,91,93,95,97,99,-1,-1,-1,-1,-1,-1,-1,-1,-1,-1,-1,-1,-1,-1,-1,-1,-1,-1,-1,-1,-1,-1,-1,-1,-1,-1,-1,-1,-1,-1,-1,-1,-1,-1,-1,-1,-1,-1,-1,-1,-1,-1,-1,-1],"loss_changes":[3.950108E2,1.1763406E2,6.455817E1,7.201082E1,4.4637314E1,1.0501028E1,4.738275E1,3.8742058E1,3.800292E1,1.8422363E1,2.4094402E1,9.198445E0,0E0,4.2400024E1,2.3073853E1,1.5370552E1,2.9191843E1,4.0098907E1,5.0550766E1,2.4180832E0,3.2085605E0,2.1307495E1,8.453821E0,2.3412757E0,2.1505666E0,4.1313377E1,3.860948E1,5.9290504E0,2.6322388E1,0E0,0E0,3.223266E1,2.1803137E1,6.3002922E1,2.9764954E1,3.7474976E1,3.3611507E1,0E0,0E0,7.4350834E-2,0E0,1.2321754E1,1.0866892E1,2.0846307E0,2.7594771E0,4.604171E-1,1.0737789E0,2.2530858E-1,0E0,1.4881426E1,1.6787308E1,6.993149E0,2.1096264E1,1.5550613E0,8.18672E-2,9.584595E0,2.7679784E0,0E0,0E0,0E0,0E0,0E0,0E0,0E0,0E0,0E0,0E0,0E0,0E0,0E0,0E0,0E0,0E0,0E0,0E0,0E0,0E0,0E0,0E0,0E0,0E0,0E0,0E0,0E0,0E0,0E0,0E0,0E0,0E0,0E0,0E0,0E0,0E0,0E0,0E0,0E0,0E0,0E0,0E0,0E0,0E0],"parents":[2147483647,0,0,1,1,2,2,3,3,4,4,5,5,6,6,7,7,8,8,9,9,10,10,11,11,13,13,14,14,15,15,16,16,17,17,18,18,19,19,20,20,21,21,22,22,23,23,24,24,25,25,26,26,27,27,28,28,31,31,32,32,33,33,34,34,35,35,36,36,39,39,41,41,42,42,43,43,44,44,45,45,46,46,47,47,49,49,50,50,51,51,52,52,53,53,54,54,55,55,56,56],"right_children":[2,4,6,8,10,12,14,16,18,20,22,24,-1,26,28,30,32,34,36,38,40,42,44,46,48,50,52,54,56,-1,-1,58,60,62,64,66,68,-1,-1,70,-1,72,74,76,78,80,82,84,-1,86,88,90,92,94,96,98,100,-1,-1,-1,-1,-1,-1,-1,-1,-1,-1,-1,-1,-1,-1,-1,-1,-1,-1,-1,-1,-1,-1,-1,-1,-1,-1,-1,-1,-1,-1,-1,-1,-1,-1,-1,-1,-1,-1,-1,-1,-1,-1,-1,-1],"split_conditions":[1.112E1,7.076E-1,2.4216E2,2.5085E2,3.2818064E-1,7.35363E-1,4.0652256E-2,9E0,8.529118E-2,4.1923676E1,1.8E1,2E0,1.618441E-1,6.985186E-1,2.5085E2,1.2560387E1,4.7E-1,3.1505E2,8.1E1,5.494034E-3,6.000329E1,8.732717E1,1.039041E0,1.7E1,2.3581E2,4.0680956E-2,2.9E1,2.8E1,1.1E2,-2.3933535E-2,3.771737E-1,2.843392E-1,2.4174E2,3.1337E2,3.5663E2,2.828859E-2,8.271299E-4,6.700774E-2,3.2355243E-1,8.399695E0,-4.910919E-2,4.4117645E1,3.016E-1,2.8E-1,7.5482895E1,3.694433E1,1.466E1,2.8206953E1,1.1101395E-1,3.0258E2,4.3849953E1,3.5855263E1,7.095242E-2,9E0,1.05E0,2.5016327E1,3.1922043E1,9.6589826E-2,4.187196E-1,-8.726515E-2,6.3957475E-2,-4.1211825E-3,1.5896122E-1,-3.2163866E-2,4.813473E-2,-4.0545682E-3,1.4080642E-1,2.2039361E-1,1.6650507E-3,1.279808E-1,4.7942813E-2,2.1182905E-1,6.65599E-2,1.0254939E-1,-4.929057E-2,-6.1604947E-2,1.1589031E-2,1.1863084E-1,2.6746517E-2,1.2379766E-3,6.381441E-2,-5.8283567E-2,-1.3415515E-2,-1.9437594E-2,2.4462279E-2,-6.6559635E-2,7.094695E-2,2.551048E-1,6.1773147E-2,3.6681882E-1,9.694689E-2,8.794603E-2,2.7785015E-1,9.102659E-2,1.9241658E-1,2.8488351E-2,-8.2850456E-5,1.0820543E-1,3.4708616E-1,-3.39871E-2,1.0557729E-1],"split_indices":[7,40,52,52,33,33,24,15,40,1,9,26,0,38,52,2,33,54,12,33,1,36,39,9,52,17,9,6,9,0,0,33,55,55,54,11,5,0,0,2,0,3,0,63,42,1,4,1,0,54,1,3,11,6,0,1,3,0,0,0,0,0,0,0,0,0,0,0,0,0,0,0,0,0,0,0,0,0,0,0,0,0,0,0,0,0,0,0,0,0,0,0,0,0,0,0,0,0,0,0,0],"split_type":[0,0,0,0,0,0,0,0,0,0,0,0,0,0,0,0,0,0,0,0,0,0,0,0,0,0,0,0,0,0,0,0,0,0,0,0,0,0,0,0,0,0,0,0,0,0,0,0,0,0,0,0,0,0,0,0,0,0,0,0,0,0,0,0,0,0,0,0,0,0,0,0,0,0,0,0,0,0,0,0,0,0,0,0,0,0,0,0,0,0,0,0,0,0,0,0,0,0,0,0,0],"sum_hessian":[4.505E3,4.311E3,1.94E2,4.213E3,9.8E1,4E1,1.54E2,7E1,4.143E3,1.8E1,8E1,3.6E1,4E0,9.9E1,5.5E1,6E0,6.4E1,1.825E3,2.318E3,1.2E1,6E0,4.6E1,3.4E1,2.6E1,1E1,5E1,4.9E1,2.1E1,3.4E1,1E0,5E0,2.2E1,4.2E1,4.75E2,1.35E3,2.29E3,2.8E1,1E0,1.1E1,5E0,1E0,2.9E1,1.7E1,1.8E1,1.6E1,4E0,2.2E1,3E0,7E0,3.1E1,1.9E1,1.3E1,3.6E1,1.8E1,3E0,3E1,4E0,1.9E1,3E0,1.3E1,2.9E1,4.51E2,2.4E1,1.303E3,4.7E1,2.273E3,1.7E1,1.6E1,1.2E1,3E0,2E0,1.9E1,1E1,8E0,9E0,1.3E1,5E0,4E0,1.2E1,2E0,2E0,1.1E1,1.1E1,1E0,2E0,1.9E1,1.2E1,1E1,9E0,1.1E1,2E0,2.9E1,7E0,5E0,1.3E1,1E0,2E0,3E0,2.7E1,2E0,2E0],"tree_param":{"num_deleted":"0","num_feature":"64","num_nodes":"101","size_leaf_vector":"1"}},{"base_weights":[8.008569E-3,-4.9132157E-2,1.2715101E0,-8.585774E-2,5.688802E-1,2.4074982E-1,1.5359596E0,-9.477815E-2,1.0430272E0,2.3631828E0,4.6498972E-1,6.556526E-2,1.4889656E-1,1.1427048E0,2.2107723E0,-4.4239378E-1,-7.182941E-2,2.4391077E0,3.9068654E-1,3.806428E-1,5.823401E-1,8.05944E-1,-5.5201985E-2,-2.2199014E-1,7.654226E-1,5.3835845E-1,1.7362839E0,1.4805106E0,2.7943156E0,-3.9044458E-1,-1.1777481E-1,-7.518173E-2,2.4815848E-1,9.872924E-2,2.6786503E-1,-3.6355636E-1,6.782756E-1,1.1552794E0,-5.6667216E-2,-8.739592E-3,1.2781895E0,-7.0912385E-1,3.9760223E-1,3.6429337E-1,-3.3979133E-1,7.89074E-2,1.0130024E-1,-1.1486109E-1,1.5565917E0,3.0498402E0,1.1923361E0,1.6431178E0,1.3473982E-1,3.147113E0,4.0090498E-1,-1.2684134E-2,-5.1321585E-2,-5.760803E-3,-5.5015624E-2,-6.5026656E-2,1.4042885E-3,-2.3420429E-2,8.155532E-2,2.0646662E-2,1.340866E-1,-2.2440696E-2,2.6353705E-1,1.5784802E-1,2.2699467E-3,5.4966565E-2,-8.7338336E-2,1.549062E-1,1.3864137E-2,1.155444E-3,5.9560116E-2,-5.2940905E-2,-1.2185764E-2,-1.8465716E-2,2.2831464E-2,-6.0236465E-2,6.439799E-2,7.214554E-2,2.4971524E-1,3.3319375E-1,9.048378E-2,2.1120878E-2,1.7149797E-1,7.5075366E-2,1.7840528E-1,2.7063942E-2,-7.731915E-5,1.0009002E-1,3.3835366E-1,-3.1721298E-2,9.85388E-2],"categories":[],"categories_nodes":[],"categories_segments":[],"categories_sizes":[],"default_left":[0,0,0,0,0,0,0,0,0,0,0,0,0,0,0,0,0,0,0,0,0,0,0,0,0,0,0,0,0,0,0,0,0,0,0,0,0,0,0,0,0,0,0,0,0,0,0,0,0,0,0,0,0,0,0,0,0,0,0,0,0,0,0,0,0,0,0,0,0,0,0,0,0,0,0,0,0,0,0,0,0,0,0,0,0,0,0,0,0,0,0,0,0,0,0],"id":12,"left_children":[1,3,5,7,9,11,13,15,17,19,21,23,-1,25,27,29,31,33,35,-1,37,39,41,43,45,47,49,51,53,55,-1,57,-1,-1,-1,59,61,63,-1,65,67,69,71,73,75,77,-1,79,81,83,85,87,89,91,93,-1,-1,-1,-1,-1,-1,-1,-1,-1,-1,-1,-1,-1,-1,-1,-1,-1,-1,-1,-1,-1,-1,-1,-1,-1,-1,-1,-1,-1,-1,-1,-1,-1,-1,-1,-1,-1,-1,-1,-1],"loss_changes":[3.2538394E2,9.7917725E1,5.278409E1,4.10943E1,4.401261E1,8.867769E0,3.8606598E1,3.2196682E1,2.819012E1,3.1195862E1,4.0837654E1,7.616083E0,0E0,3.4938004E1,1.9726807E1,9.090427E0,3.263702E1,8.3309937E-1,5.235568E0,0E0,5.262865E0,5.348873E1,2.7523018E1,1.9885359E0,1.7897058E0,3.4100418E1,3.2088867E1,5.687065E0,2.4069992E1,7.540184E0,0E0,3.157863E1,0E0,0E0,0E0,7.6696235E-1,2.3204765E0,6.0359097E-1,0E0,3.0244305E1,3.3141205E1,8.337257E0,1.61853E1,4.0107447E-1,8.8594174E-1,1.9967373E-1,0E0,1.2225918E1,1.3908348E1,5.4565277E0,1.8610638E1,1.6789856E0,7.387391E-2,9.806183E0,2.4112167E0,0E0,0E0,0E0,0E0,0E0,0E0,0E0,0E0,0E0,0E0,0E0,0E0,0E0,0E0,0E0,0E0,0E0,0E0,0E0,0E0,0E0,0E0,0E0,0E0,0E0,0E0,0E0,0E0,0E0,0E0,0E0,0E0,0E0,0E0,0E0,0E0,0E0,0E0,0E0,0E0],"parents":[2147483647,0,0,1,1,2,2,3,3,4,4,5,5,6,6,7,7,8,8,9,9,10,10,11,11,13,13,14,14,15,15,16,16,17,17,18,18,20,20,21,21,22,22,23,23,24,24,25,25,26,26,27,27,28,28,29,29,31,31,35,35,36,36,37,37,39,39,40,40,41,41,42,42,43,43,44,44,45,45,47,47,48,48,49,49,50,50,51,51,52,52,53,53,54,54],"right_children":[2,4,6,8,10,12,14,16,18,20,22,24,-1,26,28,30,32,34,36,-1,38,40,42,44,46,48,50,52,54,56,-1,58,-1,-1,-1,60,62,64,-1,66,68,70,72,74,76,78,-1,80,82,84,86,88,90,92,94,-1,-1,-1,-1,-1,-1,-1,-1,-1,-1,-1,-1,-1,-1,-1,-1,-1,-1,-1,-1,-1,-1,-1,-1,-1,-1,-1,-1,-1,-1,-1,-1,-1,-1,-1,-1,-1,-1,-1,-1],"split_conditions":[1.112E1,4.5399147E-1,2.4216E2,8.2910836E-1,9E0,7.35363E-1,4.0652256E-2,1.81E0,6.438671E-1,1.7039587E1,3.8762386E1,2E0,1.4889656E-1,6.985186E-1,2.5296E2,3.422699E2,7.022134E6,1.7831197E-1,6.1461716E1,3.806428E-1,7.3E-1,1.7482574E-1,6.83504E5,1.7E1,2.3581E2,4.0680956E-2,2.9E1,2.8E1,1.1E2,1.167E0,-1.1777481E-1,6E1,2.4815848E-1,9.872924E-2,2.6786503E-1,5.4E0,5.035545E-2,5E-3,-5.6667216E-2,1.62E0,2.2E1,1.2E1,-3.9322826E-1,3.694433E1,1.466E1,2.8206953E1,1.0130024E-1,3.0258E2,2.7972E2,3.5855263E1,4.3E1,8E0,1.05E0,2.5016327E1,3.1922043E1,-1.2684134E-2,-5.1321585E-2,-5.760803E-3,-5.5015624E-2,-6.5026656E-2,1.4042885E-3,-2.3420429E-2,8.155532E-2,2.0646662E-2,1.340866E-1,-2.2440696E-2,2.6353705E-1,1.5784802E-1,2.2699467E-3,5.4966565E-2,-8.7338336E-2,1.549062E-1,1.3864137E-2,1.155444E-3,5.9560116E-2,-5.2940905E-2,-1.2185764E-2,-1.8465716E-2,2.2831464E-2,-6.0236465E-2,6.439799E-2,7.214554E-2,2.4971524E-1,3.3319375E-1,9.048378E-2,2.1120878E-2,1.7149797E-1,7.5075366E-2,1.7840528E-1,2.7063942E-2,-7.731915E-5,1.0009002E-1,3.3835366E-1,-3.1721298E-2,9.85388E-2],"split_indices":[7,45,52,40,15,33,24,23,33,3,1,26,0,38,53,52,43,45,34,0,0,39,43,9,52,17,9,6,9,7,0,6,0,0,0,4,45,0,0,28,22,30,38,1,4,1,0,54,52,3,9,6,0,1,3,0,0,0,0,0,0,0,0,0,0,0,0,0,0,0,0,0,0,0,0,0,0,0,0,0,0,0,0,0,0,0,0,0,0,0,0,0,0,0,0],"split_type":[0,0,0,0,0,0,0,0,0,0,0,0,0,0,0,0,0,0,0,0,0,0,0,0,0,0,0,0,0,0,0,0,0,0,0,0,0,0,0,0,0,0,0,0,0,0,0,0,0,0,0,0,0,0,0,0,0,0,0,0,0,0,0,0,0,0,0,0,0,0,0,0,0,0,0,0,0,0,0,0,0,0,0,0,0,0,0,0,0,0,0,0,0,0,0],"sum_hessian":[4.505E3,4.311E3,1.94E2,4.07E3,2.41E2,4E1,1.54E2,4.039E3,3.1E1,1.2E1,2.29E2,3.6E1,4E0,9.9E1,5.5E1,2.49E2,3.79E3,9E0,2.2E1,6E0,6E0,1.38E2,9.1E1,2.6E1,1E1,5E1,4.9E1,2.6E1,2.9E1,2.34E2,1.5E1,3.786E3,4E0,2E0,7E0,6E0,1.6E1,4E0,2E0,5.1E1,8.7E1,3.7E1,5.4E1,4E0,2.2E1,3E0,7E0,3.1E1,1.9E1,1.3E1,3.6E1,2.3E1,3E0,2.5E1,4E0,7.5E1,1.59E2,3.652E3,1.34E2,3E0,3E0,2E0,1.4E1,1E0,3E0,4.8E1,3E0,7E1,1.7E1,4E0,3.3E1,9E0,4.5E1,2E0,2E0,1.1E1,1.1E1,1E0,2E0,1.9E1,1.2E1,1.1E1,8E0,1.1E1,2E0,1.3E1,2.3E1,4E0,1.9E1,1E0,2E0,3E0,2.2E1,2E0,2E0],"tree_param":{"num_deleted":"0","num_feature":"64","num_nodes":"95","size_leaf_vector":"1"}},{"base_weights":[7.953646E-3,-7.0544586E-2,7.678051E-1,-8.635678E-2,8.376317E-1,5.5211854E-1,1.5573143E0,-1.06075734E-1,5.775223E-1,2.1314332E0,5.8647424E-1,1.8389869E0,3.850472E-1,6.9028974E-1,1.93774E0,-1.2591273E-2,-2.0482653E-1,1.1120315E0,-5.937819E-1,2.471932E-1,3.9945945E-2,-9.3184096E-1,7.414455E-1,-1.1691435E-1,2.2844133E0,1.1358707E0,1.7302749E-1,-2.5723907E-1,8.9840984E-1,5.0679386E-1,2.110646E0,-2.0579547E-1,1.1425425E-1,-3.4533325E-1,1.3868064E-2,8.0493385E-1,2.2901132E0,-2.3801616E-1,-1.161253E-1,-2.8055465E-2,-1.0059873E-1,1.6967106E-1,1.0385022E0,-1.0873618E0,6.828265E-2,2.6939182E0,-3.837954E-1,4.586826E-1,2.2736218E0,-3.235435E-1,6.638754E-1,-7.2169304E-4,-3.853173E-2,-2.240284E-1,1.1340989E0,5.888723E-1,-3.387761E-3,-1.8726952E-2,2.2008932E0,-8.681676E-3,-3.4153715E-2,9.215407E-3,1.5738852E-1,-2.7988318E-2,-7.2032146E-2,1.8786366E-1,-4.831015E-3,1.141875E-1,9.446369E-3,1.5944733E-1,2.9567257E-1,-6.0724944E-2,1.8182121E-2,-2.9128939E-2,8.9752294E-2,1.3474575E-1,1.0047303E-2,-2.0130528E-2,-1.3156122E-1,3.7884226E-1,1.9361982E-1,9.748483E-3,-1.15445815E-1,2.215309E-1,2.6675472E-2,3.5266277E-1,9.421071E-2,-5.8849078E-2,4.219085E-2,3.6146056E-2,1.6122134E-1,1.1450052E-4,-2.2275448E-4,3.346777E-3,-2.9676938E-2,3.8721103E-2,1.2431256E-1,6.640814E-2,6.8808794E-3,-3.1794738E-2,2.2554468E-1],"categories":[],"categories_nodes":[],"categories_segments":[],"categories_sizes":[],"default_left":[0,0,0,0,0,0,0,0,0,0,0,0,0,0,0,0,0,0,0,0,0,0,0,0,0,0,0,0,0,0,0,0,0,0,0,0,0,0,0,0,0,0,0,0,0,0,0,0,0,0,0,0,0,0,0,0,0,0,0,0,0,0,0,0,0,0,0,0,0,0,0,0,0,0,0,0,0,0,0,0,0,0,0,0,0,0,0,0,0,0,0,0,0,0,0,0,0,0,0,0,0],"id":13,"left_children":[1,3,5,7,9,11,13,15,17,19,21,23,25,27,29,31,33,35,37,-1,-1,39,41,43,45,47,49,51,53,55,57,59,61,63,65,67,69,71,-1,-1,-1,73,75,77,-1,79,81,83,85,87,89,91,-1,93,95,97,-1,-1,99,-1,-1,-1,-1,-1,-1,-1,-1,-1,-1,-1,-1,-1,-1,-1,-1,-1,-1,-1,-1,-1,-1,-1,-1,-1,-1,-1,-1,-1,-1,-1,-1,-1,-1,-1,-1,-1,-1,-1,-1,-1,-1],"loss_changes":[2.6882352E2,5.873402E1,7.10011E1,5.2634705E1,2.1496323E1,7.088651E1,2.8347855E1,3.6010143E1,7.3284744E1,5.499645E0,1.480862E1,3.3373062E1,4.6923515E1,5.9499025E0,1.4270309E1,4.9160225E1,5.8295914E1,2.7099487E1,7.193412E0,0E0,0E0,7.5087547E-3,9.165514E0,6.95133E0,3.4905884E1,4.903778E1,5.6762665E1,1.968477E-1,6.6031837E0,3.7496948E-1,1.1818115E1,1.2809895E1,3.8919525E1,2.8145584E1,8.6240105E1,1.5452267E1,2.7051392E0,3.830841E0,0E0,0E0,0E0,6.971657E0,1.0297741E1,5.4413176E-1,0E0,1.5056702E1,1.967066E0,1.3569172E1,3.6719063E1,2.3158928E1,3.2971855E1,1.0983463E-5,0E0,1.03584826E-1,1.1472607E0,2.2809982E-1,0E0,0E0,7.999939E0,0E0,0E0,0E0,0E0,0E0,0E0,0E0,0E0,0E0,0E0,0E0,0E0,0E0,0E0,0E0,0E0,0E0,0E0,0E0,0E0,0E0,0E0,0E0,0E0,0E0,0E0,0E0,0E0,0E0,0E0,0E0,0E0,0E0,0E0,0E0,0E0,0E0,0E0,0E0,0E0,0E0,0E0],"parents":[2147483647,0,0,1,1,2,2,3,3,4,4,5,5,6,6,7,7,8,8,9,9,10,10,11,11,12,12,13,13,14,14,15,15,16,16,17,17,18,18,21,21,22,22,23,23,24,24,25,25,26,26,27,27,28,28,29,29,30,30,31,31,32,32,33,33,34,34,35,35,36,36,37,37,41,41,42,42,43,43,45,45,46,46,47,47,48,48,49,49,50,50,51,51,53,53,54,54,55,55,58,58],"right_children":[2,4,6,8,10,12,14,16,18,20,22,24,26,28,30,32,34,36,38,-1,-1,40,42,44,46,48,50,52,54,56,58,60,62,64,66,68,70,72,-1,-1,-1,74,76,78,-1,80,82,84,86,88,90,92,-1,94,96,98,-1,-1,100,-1,-1,-1,-1,-1,-1,-1,-1,-1,-1,-1,-1,-1,-1,-1,-1,-1,-1,-1,-1,-1,-1,-1,-1,-1,-1,-1,-1,-1,-1,-1,-1,-1,-1,-1,-1,-1,-1,-1,-1,-1,-1],"split_conditions":[2.8096722E-2,4.4070925E-3,1.731E1,1.6987497E-2,2.836129E1,7.76E0,2.447304E2,1.1E1,3.1992E2,2.99105E2,2.1484375E0,7.28E0,3.2553956E-1,1.9514256E0,4.7863248E-1,5.4265987E-3,7.35363E-1,3.1303284E-1,3.1E1,2.471932E-1,3.9945945E-2,5.218976E1,2.8521E2,6.255E0,9.838244E-1,5.7E1,8.18E0,3.1135946E1,1.1E1,1.96E0,1.3E1,1.7E1,1.1552373E0,2.7636585E-1,7.3965937E-1,4.2987206E1,4.39E0,3.2577E2,-1.161253E-1,-2.8055465E-2,-1.0059873E-1,8.153537E-3,3.3772E2,3.910276E1,6.828265E-2,2.4768E2,1.01E0,8.68E0,1.1E2,8.021457E1,3.677765E6,1.5E0,-3.853173E-2,3.586255E1,1.651318E-1,4.6991295E1,-3.387761E-3,-1.8726952E-2,1.3539822E-1,-8.681676E-3,-3.4153715E-2,9.215407E-3,1.5738852E-1,-2.7988318E-2,-7.2032146E-2,1.8786366E-1,-4.831015E-3,1.141875E-1,9.446369E-3,1.5944733E-1,2.9567257E-1,-6.0724944E-2,1.8182121E-2,-2.9128939E-2,8.9752294E-2,1.3474575E-1,1.0047303E-2,-2.0130528E-2,-1.3156122E-1,3.7884226E-1,1.9361982E-1,9.748483E-3,-1.15445815E-1,2.215309E-1,2.6675472E-2,3.5266277E-1,9.421071E-2,-5.8849078E-2,4.219085E-2,3.6146056E-2,1.6122134E-1,1.1450052E-4,-2.2275448E-4,3.346777E-3,-2.9676938E-2,3.8721103E-2,1.2431256E-1,6.640814E-2,6.8808794E-3,-3.1794738E-2,2.2554468E-1],"split_indices":[8,31,7,17,1,7,55,6,52,52,2,7,33,26,19,8,33,38,6,0,0,1,52,4,33,9,4,1,15,0,9,9,39,38,33,1,4,52,0,0,0,31,53,1,0,52,0,7,9,34,43,0,0,1,33,1,0,0,27,0,0,0,0,0,0,0,0,0,0,0,0,0,0,0,0,0,0,0,0,0,0,0,0,0,0,0,0,0,0,0,0,0,0,0,0,0,0,0,0,0,0],"split_type":[0,0,0,0,0,0,0,0,0,0,0,0,0,0,0,0,0,0,0,0,0,0,0,0,0,0,0,0,0,0,0,0,0,0,0,0,0,0,0,0,0,0,0,0,0,0,0,0,0,0,0,0,0,0,0,0,0,0,0,0,0,0,0,0,0,0,0,0,0,0,0,0,0,0,0,0,0,0,0,0,0,0,0,0,0,0,0,0,0,0,0,0,0,0,0,0,0,0,0,0,0],"sum_hessian":[4.505E3,4.084E3,4.21E2,4.015E3,6.9E1,3.32E2,8.9E1,3.9E3,1.15E2,1E1,5.9E1,3.7E1,2.95E2,2.8E1,6.1E1,2.004E3,1.896E3,7.9E1,3.6E1,8E0,2E0,5E0,5.4E1,7E0,3E1,6.4E1,2.31E2,5E0,2.3E1,7E0,5.4E1,7.94E2,1.21E3,1.154E3,7.42E2,6.4E1,1.5E1,2.3E1,1.3E1,1E0,4E0,1.9E1,3.5E1,3E0,4E0,2.6E1,4E0,4.1E1,2.3E1,1.15E2,1.16E2,2E0,3E0,4E0,1.9E1,6E0,1E0,2E0,5.2E1,4.24E2,3.7E2,1.193E3,1.7E1,9.84E2,1.7E2,2.3E1,7.19E2,4.3E1,2.1E1,9E0,6E0,1.2E1,1.1E1,1.2E1,7E0,2.6E1,9E0,1E0,2E0,9E0,1.7E1,3E0,1E0,3E0,3.8E1,1.1E1,1.2E1,8.5E1,3E1,8.9E1,2.7E1,1E0,1E0,1E0,3E0,3E0,1.6E1,5E0,1E0,1E0,5.1E1],"tree_param":{"num_deleted":"0","num_feature":"64","num_nodes":"101","size_leaf_vector":"1"}},{"base_weights":[7.733716E-3,-6.3613996E-2,6.965666E-1,-6.9070354E-2,1.9630067E0,4.118187E-1,1.3351767E0,-7.953052E-2,6.565776E-1,-3.275305E-2,2.7155108E0,6.081662E-1,-2.6249558E-1,4.8040122E-1,1.670083E0,-2.7524558E-1,-3.72121E-2,4.2385545E-1,1.7312582E-1,4.7280263E-2,-3.5887253E-2,2.9641193E-1,4.876261E-2,-4.837726E-1,7.390011E-1,-6.8901414E-1,4.365919E-1,8.320635E-1,4.3439552E-2,-2.6094928E-1,1.8062571E0,-1.03311315E-1,-4.130531E-1,3.3203107E-1,-4.7390558E-2,1.3463226E-1,1.3044076E0,1.6320013E-1,-7.387095E-1,1.3965106E0,3.53984E-1,-4.4150397E-1,-1.8634929E-1,1.1782962E0,1.5516578E-1,9.863454E-1,-7.022075E-2,-2.5559565E-1,5.4986566E-1,-1.4232542E-1,4.8862344E-1,2.413692E0,1.3084815E0,5.9120983E-2,-1.8551555E-2,8.658438E-2,-4.4842828E-2,-1.2836044E-2,6.9801495E-3,-5.1902663E-2,5.375594E-2,3.264183E-2,1.4673637E-1,1.99536E-2,-1.0104187E-1,1.765535E-1,1.2984829E-2,2.521016E-3,9.744411E-2,4.7312655E-2,-6.0428716E-2,1.3526633E-1,6.6047194E-3,-3.1608436E-2,3.797076E-2,3.179437E-3,1.0406252E-1,-3.095583E-2,3.2389592E-2,-4.3271568E-2,-6.726481E-3,3.8043768E-3,9.242212E-2,-3.9973217E-3,8.543456E-2,2.6785505E-1,1.2991587E-2,1.6092648E-1,3.2861646E-2],"categories":[],"categories_nodes":[],"categories_segments":[],"categories_sizes":[],"default_left":[0,0,0,0,0,0,0,0,0,0,0,0,0,0,0,0,0,0,0,0,0,0,0,0,0,0,0,0,0,0,0,0,0,0,0,0,0,0,0,0,0,0,0,0,0,0,0,0,0,0,0,0,0,0,0,0,0,0,0,0,0,0,0,0,0,0,0,0,0,0,0,0,0,0,0,0,0,0,0,0,0,0,0,0,0,0,0,0,0],"id":14,"left_children":[1,3,5,7,9,11,13,15,17,19,21,23,25,27,29,31,33,35,-1,-1,-1,-1,-1,37,39,41,43,45,47,49,51,53,55,-1,57,59,61,-1,63,65,67,69,-1,71,73,75,77,79,81,-1,83,85,87,-1,-1,-1,-1,-1,-1,-1,-1,-1,-1,-1,-1,-1,-1,-1,-1,-1,-1,-1,-1,-1,-1,-1,-1,-1,-1,-1,-1,-1,-1,-1,-1,-1,-1,-1,-1],"loss_changes":[2.2149911E2,4.529635E1,7.636969E1,3.0975513E1,1.6608932E1,3.9085224E1,3.641275E1,3.3259968E1,1.3772108E1,8.29162E-1,2.985588E0,3.2930412E1,2.027846E1,5.803048E0,2.49263E1,1.6874725E1,1.1306956E2,1.23035145E1,0E0,0E0,0E0,0E0,0E0,1.4690296E1,5.114875E1,1.1386471E1,5.2442775E0,2.992589E0,2.8664496E0,6.794059E0,2.3147614E1,1.8322206E1,1.830378E1,0E0,3.1275305E1,1.028733E1,1.4334564E0,0E0,6.0650005E0,3.4827957E1,2.6494139E1,5.645817E0,0E0,1.2682371E0,2.2363267E0,8.995476E-1,4.7757232E-1,3.7117934E-1,1.3060625E0,0E0,1.0007486E0,2.263736E1,1.4207527E1,0E0,0E0,0E0,0E0,0E0,0E0,0E0,0E0,0E0,0E0,0E0,0E0,0E0,0E0,0E0,0E0,0E0,0E0,0E0,0E0,0E0,0E0,0E0,0E0,0E0,0E0,0E0,0E0,0E0,0E0,0E0,0E0,0E0,0E0,0E0,0E0],"parents":[2147483647,0,0,1,1,2,2,3,3,4,4,5,5,6,6,7,7,8,8,9,9,10,10,11,11,12,12,13,13,14,14,15,15,16,16,17,17,23,23,24,24,25,25,26,26,27,27,28,28,29,29,30,30,31,31,32,32,34,34,35,35,36,36,38,38,39,39,40,40,41,41,43,43,44,44,45,45,46,46,47,47,48,48,50,50,51,51,52,52],"right_children":[2,4,6,8,10,12,14,16,18,20,22,24,26,28,30,32,34,36,-1,-1,-1,-1,-1,38,40,42,44,46,48,50,52,54,56,-1,58,60,62,-1,64,66,68,70,-1,72,74,76,78,80,82,-1,84,86,88,-1,-1,-1,-1,-1,-1,-1,-1,-1,-1,-1,-1,-1,-1,-1,-1,-1,-1,-1,-1,-1,-1,-1,-1,-1,-1,-1,-1,-1,-1,-1,-1,-1,-1,-1,-1],"split_conditions":[4.1413584E-1,4.095835E-2,1.172E1,4.4070925E-3,9.6080765E1,3.1E1,2.4349E2,1.23E0,2.9836065E1,2.5016327E1,1.775701E1,2.4216E2,5.67E0,2.4E-1,-6.112165E-1,5.1135E4,3.5069657E-3,6.878089E-3,1.7312582E-1,4.7280263E-2,-3.5887253E-2,2.9641193E-1,4.876261E-2,-1.1528109E0,2.651E2,4.0680956E-2,1.7325671E-3,8.1787964E1,2E0,1.299E1,1.3E1,1.1E1,1.5741483E-3,3.3203107E-1,7.253521E-1,7.329922E1,2.5085E2,1.6320013E-1,4.305E0,9.838244E-1,7.7704315E1,-4.1174847E-1,-1.8634929E-1,4.525801E1,2.2871748E-2,3.7980768E-1,1.29E0,1.2379591E1,5.9E0,-1.4232542E-1,1.3973799E1,4.6927996E0,1.1738149E1,5.9120983E-2,-1.8551555E-2,8.658438E-2,-4.4842828E-2,-1.2836044E-2,6.9801495E-3,-5.1902663E-2,5.375594E-2,3.264183E-2,1.4673637E-1,1.99536E-2,-1.0104187E-1,1.765535E-1,1.2984829E-2,2.521016E-3,9.744411E-2,4.7312655E-2,-6.0428716E-2,1.3526633E-1,6.6047194E-3,-3.1608436E-2,3.797076E-2,3.179437E-3,1.0406252E-1,-3.095583E-2,3.2389592E-2,-4.3271568E-2,-6.726481E-3,3.8043768E-3,9.242212E-2,-3.9973217E-3,8.543456E-2,2.6785505E-1,1.2991587E-2,1.6092648E-1,3.2861646E-2],"split_indices":[45,24,7,31,35,9,54,7,2,1,2,52,4,57,38,43,8,31,0,0,0,0,0,38,53,8,41,36,26,7,6,18,31,0,33,36,52,0,4,33,36,38,0,1,11,19,0,2,4,0,2,33,2,0,0,0,0,0,0,0,0,0,0,0,0,0,0,0,0,0,0,0,0,0,0,0,0,0,0,0,0,0,0,0,0,0,0,0,0],"split_type":[0,0,0,0,0,0,0,0,0,0,0,0,0,0,0,0,0,0,0,0,0,0,0,0,0,0,0,0,0,0,0,0,0,0,0,0,0,0,0,0,0,0,0,0,0,0,0,0,0,0,0,0,0,0,0,0,0,0,0,0,0,0,0,0,0,0,0,0,0,0,0,0,0,0,0,0,0,0,0,0,0,0,0,0,0,0,0,0,0],"sum_hessian":[4.505E3,4.083E3,4.22E2,4.073E3,1E1,2.93E2,1.29E2,4.016E3,5.7E1,3E0,7E0,2.27E2,6.6E1,3.7E1,9.2E1,7.13E2,3.303E3,4.8E1,9E0,1E0,2E0,6E0,1E0,2.4E1,2.03E2,4.1E1,2.5E1,2E1,1.7E1,6E0,8.6E1,3.18E2,3.95E2,9E0,3.294E3,3.7E1,1.1E1,2E0,2.2E1,7.4E1,1.29E2,3.5E1,6E0,6E0,1.9E1,1.7E1,3E0,1.1E1,6E0,2E0,4E0,3.7E1,4.9E1,3.3E1,2.85E2,1E1,3.85E2,1.948E3,1.346E3,1.4E1,2.3E1,2E0,9E0,5E0,1.7E1,5.7E1,1.7E1,8.5E1,4.4E1,5E0,3E1,5E0,1E0,6E0,1.3E1,1E0,1.6E1,2E0,1E0,5E0,6E0,3E0,3E0,2E0,2E0,3.3E1,4E0,3.7E1,1.2E1],"tree_param":{"num_deleted":"0","num_feature":"64","num_nodes":"89","size_leaf_vector":"1"}},{"base_weights":[7.40608E-3,-5.7583414E-2,6.3649297E-1,-6.515229E-2,1.3432114E0,4.5934245E-1,1.2848779E0,-8.25135E-2,5.264389E-1,8.855826E-1,2.0333639E-1,1.5506262E0,3.1769338E-1,1.9055245E0,8.358259E-1,1.1170435E-3,-1.8124525E-1,1.0081913E0,-5.294163E-1,1.21768355E-1,4.427839E-1,-1.3864571E-1,1.936547E0,5.419536E-1,-2.1853489E-1,7.481962E-1,2.3663867E0,1.737001E-1,1.2202028E0,-2.875834E-2,6.442122E-1,-3.0969152E-1,1.5623927E-2,7.353285E-1,2.053685E0,-2.069886E-1,-1.0443341E-1,1.9431248E-1,6.426772E-2,-1.0101659E0,5.8629967E-2,2.2960234E0,-3.9193478E-1,1.3829479E0,3.1577474E-1,1.2807007E-1,-9.281129E-1,-3.1848084E-2,8.7411964E-1,2.5145273E0,3.924664E-2,-2.2429177E-1,6.339203E-1,7.422421E-1,1.5584749E0,-3.4706913E-2,9.217869E-4,1.6259785E-1,9.543372E-3,-2.53994E-2,-6.0742706E-2,-5.0799996E-3,1.7125456E-1,1.09801345E-1,1.4906988E-2,1.5924734E-1,3.0392012E-1,1.8820597E-2,-5.558614E-2,2.454229E-2,-5.0646067E-4,-2.7951676E-2,-1.1605435E-1,3.3075052E-1,1.6065322E-1,6.16954E-3,-1.1032277E-1,1.7641816E-1,7.886687E-3,9.7726565E-3,1.1594404E-1,-2.0940597E-3,1.7713755E-1,1.7570709E-1,-1.3055216E-1,1.0808046E-1,-3.7308335E-3,1.8650018E-1,3.1126028E-1,-3.3542258E-3,-4.0945094E-2,1.8047882E-2,8.024698E-2,3.0518783E-2,8.196248E-2,3.9882924E-2,1.6007425E-1],"categories":[],"categories_nodes":[],"categories_segments":[],"categories_sizes":[],"default_left":[0,0,0,0,0,0,0,0,0,0,0,0,0,0,0,0,0,0,0,0,0,0,0,0,0,0,0,0,0,0,0,0,0,0,0,0,0,0,0,0,0,0,0,0,0,0,0,0,0,0,0,0,0,0,0,0,0,0,0,0,0,0,0,0,0,0,0,0,0,0,0,0,0,0,0,0,0,0,0,0,0,0,0,0,0,0,0,0,0,0,0,0,0,0,0,0,0],"id":15,"left_children":[1,3,5,7,9,11,13,15,17,19,-1,21,23,25,27,29,31,33,35,-1,37,39,41,43,45,47,49,51,53,55,57,59,61,63,65,67,-1,69,-1,71,-1,73,75,77,79,81,83,-1,85,87,-1,89,91,93,95,-1,-1,-1,-1,-1,-1,-1,-1,-1,-1,-1,-1,-1,-1,-1,-1,-1,-1,-1,-1,-1,-1,-1,-1,-1,-1,-1,-1,-1,-1,-1,-1,-1,-1,-1,-1,-1,-1,-1,-1,-1,-1],"loss_changes":[1.8426015E2,4.339848E1,4.7881454E1,4.1783722E1,5.147629E0,5.0982277E1,2.3490555E1,3.260706E1,5.953842E1,1.6666355E0,0E0,2.5041656E1,3.571383E1,1.7964127E1,1.3531368E1,4.1114517E1,4.579979E1,2.1311974E1,5.926713E0,0E0,2.72462E-1,5.646697E0,2.6847954E1,3.9318268E1,2.1761871E1,1.8902259E0,6.6159973E0,3.9886253E0,4.3403816E0,2.4723642E1,5.10282E1,1.8020836E1,8.0791794E1,1.3657082E1,2.432663E0,3.4135597E0,0E0,5.2194208E-2,0E0,1.1510134E-1,0E0,1.3516388E1,1.6813837E0,2.1735886E1,3.0424013E1,1.4729295E1,3.1682825E1,0E0,2.112486E0,3.5181732E0,0E0,4.100942E-1,6.194444E-1,2.90987E-1,2.9287338E-1,0E0,0E0,0E0,0E0,0E0,0E0,0E0,0E0,0E0,0E0,0E0,0E0,0E0,0E0,0E0,0E0,0E0,0E0,0E0,0E0,0E0,0E0,0E0,0E0,0E0,0E0,0E0,0E0,0E0,0E0,0E0,0E0,0E0,0E0,0E0,0E0,0E0,0E0,0E0,0E0,0E0,0E0],"parents":[2147483647,0,0,1,1,2,2,3,3,4,4,5,5,6,6,7,7,8,8,9,9,11,11,12,12,13,13,14,14,15,15,16,16,17,17,18,18,20,20,21,21,22,22,23,23,24,24,25,25,26,26,27,27,28,28,29,29,30,30,31,31,32,32,33,33,34,34,35,35,37,37,39,39,41,41,42,42,43,43,44,44,45,45,46,46,48,48,49,49,51,51,52,52,53,53,54,54],"right_children":[2,4,6,8,10,12,14,16,18,20,-1,22,24,26,28,30,32,34,36,-1,38,40,42,44,46,48,50,52,54,56,58,60,62,64,66,68,-1,70,-1,72,-1,74,76,78,80,82,84,-1,86,88,-1,90,92,94,96,-1,-1,-1,-1,-1,-1,-1,-1,-1,-1,-1,-1,-1,-1,-1,-1,-1,-1,-1,-1,-1,-1,-1,-1,-1,-1,-1,-1,-1,-1,-1,-1,-1,-1,-1,-1,-1,-1,-1,-1,-1,-1],"split_conditions":[2.8096722E-2,6.878089E-3,1.731E1,1.6987497E-2,5.3862976E1,7.76E0,8.193421E-2,1.2E1,3.1992E2,8.600866E-3,2.0333639E-1,7.28E0,1.775701E1,6.0256626E1,2E0,7.3374027E-1,7.311591E-1,3.1303284E-1,3.1E1,1.21768355E-1,1.0782E5,6.255E0,9.838244E-1,3.306689E-1,5.5E1,5.24E-2,5.516554E1,3.32E1,-1.6793674E-1,2.8626E2,7.2038233E-1,2.7636585E-1,5.7E1,3.88286E-1,4.51E0,4.345301E1,-1.0443341E-1,7.601E-1,6.426772E-2,3.910276E1,5.8629967E-2,2.4768E2,1.01E0,1.263E1,3.677765E6,5.1E1,2.2193877E-1,-3.1848084E-2,3.7378498E1,2.651E2,3.924664E-2,1.4379115E0,6.673098E1,1.651318E-1,7.220124E1,-3.4706913E-2,9.217869E-4,1.6259785E-1,9.543372E-3,-2.53994E-2,-6.0742706E-2,-5.0799996E-3,1.7125456E-1,1.09801345E-1,1.4906988E-2,1.5924734E-1,3.0392012E-1,1.8820597E-2,-5.558614E-2,2.454229E-2,-5.0646067E-4,-2.7951676E-2,-1.1605435E-1,3.3075052E-1,1.6065322E-1,6.16954E-3,-1.1032277E-1,1.7641816E-1,7.886687E-3,9.7726565E-3,1.1594404E-1,-2.0940597E-3,1.7713755E-1,1.7570709E-1,-1.3055216E-1,1.0808046E-1,-3.7308335E-3,1.8650018E-1,3.1126028E-1,-3.3542258E-3,-4.0945094E-2,1.8047882E-2,8.024698E-2,3.0518783E-2,8.196248E-2,3.9882924E-2,1.6007425E-1],"split_indices":[8,31,7,17,42,7,8,6,52,5,0,7,2,42,26,39,33,38,6,0,43,4,33,33,9,0,1,7,38,55,33,38,25,40,4,1,0,0,0,1,0,52,0,23,43,9,27,0,3,52,0,40,42,33,35,0,0,0,0,0,0,0,0,0,0,0,0,0,0,0,0,0,0,0,0,0,0,0,0,0,0,0,0,0,0,0,0,0,0,0,0,0,0,0,0,0,0],"split_type":[0,0,0,0,0,0,0,0,0,0,0,0,0,0,0,0,0,0,0,0,0,0,0,0,0,0,0,0,0,0,0,0,0,0,0,0,0,0,0,0,0,0,0,0,0,0,0,0,0,0,0,0,0,0,0,0,0,0,0,0,0,0,0,0,0,0,0,0,0,0,0,0,0,0,0,0,0,0,0,0,0,0,0,0,0,0,0,0,0,0,0,0,0,0,0,0,0],"sum_hessian":[4.505E3,4.084E3,4.21E2,4.063E3,2.1E1,3.32E2,8.9E1,3.948E3,1.15E2,1.4E1,7E0,3.7E1,2.95E2,3.6E1,5.3E1,2.138E3,1.81E3,7.9E1,3.6E1,7E0,7E0,7E0,3E1,2.08E2,8.7E1,1.1E1,2.5E1,2E1,3.3E1,2.044E3,9.4E1,1.095E3,7.15E2,6.4E1,1.5E1,2.3E1,1.3E1,4E0,3E0,3E0,4E0,2.6E1,4E0,4.3E1,1.65E2,5.9E1,2.8E1,1E0,1E1,2.3E1,2E0,1.1E1,9E0,1.5E1,1.8E1,2.17E2,1.827E3,3.3E1,6.1E1,9.24E2,1.71E2,6.89E2,2.6E1,3.9E1,2.5E1,1.2E1,3E0,1.1E1,1.2E1,3E0,1E0,1E0,2E0,9E0,1.7E1,3E0,1E0,3.3E1,1E1,1.32E2,3.3E1,5.5E1,4E0,3E0,2.5E1,8E0,2E0,1.3E1,1E1,6E0,5E0,3E0,6E0,3E0,1.2E1,1E0,1.7E1],"tree_param":{"num_deleted":"0","num_feature":"64","num_nodes":"97","size_leaf_vector":"1"}},{"base_weights":[7.3060542E-3,-5.1561076E-2,5.771282E-1,-6.430282E-2,6.801871E-1,2.5780174E-1,8.747648E-1,-8.040169E-2,4.7764567E-1,2.2771764E-1,5.223083E-1,-3.207505E-2,7.2054285E-1,4.855556E-2,1.0325177E0,2.6896184E-2,-1.57996E-1,9.147207E-1,-4.802909E-1,-8.0320024E-1,6.4615405E-1,3.7976915E-1,-7.4116665E-1,-1.7105296E-1,1.112713E0,1.8860452E-1,-2.4006957E-1,1.2524091E0,2.1509539E-1,2.2132657E0,-1.2931715E-4,-1.7680012E-1,1.4674052E0,2.064083E0,7.015748E-1,-1.8782169E-1,-9.473602E-2,-2.2322213E-2,-8.7455146E-2,1.2743783E-1,8.834265E-1,2.957668E-1,2.7706704E-1,-1.5708187E0,-2.622876E-1,-6.51569E-1,1.49820605E-2,9.564535E-1,2.484017E0,-7.5970095E-1,2.6311702E-1,1.4424185E0,1.3315652E-1,-6.744748E-1,1.1383892E0,1.0663984E-1,3.253493E-1,3.2448017E-3,-9.448696E-2,-6.4665645E-2,-1.2708343E-2,2.7463183E-1,6.287854E-2,2.1817599E-1,3.848188E-2,1.0409161E-1,-3.1772073E-2,1.709537E-2,-5.0455112E-2,-2.7815947E-2,6.540745E-2,1.1113248E-1,6.5809353E-3,-2.6452213E-3,8.3085045E-2,-8.995836E-2,-1.7755346E-1,1.970888E-2,-9.135079E-2,-8.420101E-3,-8.61676E-2,-9.259477E-3,4.4154387E-2,1.4748663E-1,5.444023E-2,3.165753E-1,-1.2146408E-2,-3.6357906E-2,-1.1103755E-1,6.860319E-2,-1.8903306E-2,2.2629404E-1,1.1652048E-1,-1.1947E-1,4.9460795E-2,-1.5327287E-1,-3.8237218E-2,1.8627954E-1,2.277036E-2],"categories":[],"categories_nodes":[],"categories_segments":[],"categories_sizes":[],"default_left":[0,0,0,0,0,0,0,0,0,0,0,0,0,0,0,0,0,0,0,0,0,0,0,0,0,0,0,0,0,0,0,0,0,0,0,0,0,0,0,0,0,0,0,0,0,0,0,0,0,0,0,0,0,0,0,0,0,0,0,0,0,0,0,0,0,0,0,0,0,0,0,0,0,0,0,0,0,0,0,0,0,0,0,0,0,0,0,0,0,0,0,0,0,0,0,0,0,0,0],"id":16,"left_children":[1,3,5,7,9,11,13,15,17,-1,19,21,23,25,27,29,31,33,35,37,39,41,43,45,47,-1,49,51,53,55,57,59,61,63,65,67,-1,-1,-1,69,71,-1,73,75,77,79,81,83,85,87,89,91,93,95,97,-1,-1,-1,-1,-1,-1,-1,-1,-1,-1,-1,-1,-1,-1,-1,-1,-1,-1,-1,-1,-1,-1,-1,-1,-1,-1,-1,-1,-1,-1,-1,-1,-1,-1,-1,-1,-1,-1,-1,-1,-1,-1,-1,-1],"loss_changes":[1.5117809E2,3.8131226E1,3.988272E1,3.5077045E1,1.6459763E1,2.7521381E1,2.8363281E1,3.2482826E1,4.900739E1,0E0,1.1189297E1,3.7369953E1,2.7813248E1,1.9545227E1,3.262381E1,9.6785995E1,6.945688E1,1.8150436E1,4.8763905E0,5.3073645E-2,7.272043E0,2.0625732E1,1.826123E1,2.2445824E0,9.409515E0,0E0,8.56698E0,3.043219E1,3.3621204E1,2.0390533E1,4.985881E1,5.2220207E1,2.615871E1,1.5317459E0,2.4197063E1,2.8134885E0,0E0,0E0,0E0,4.4539847E0,7.566538E0,0E0,1.3300608E1,7.3876953E-1,9.453855E0,7.619016E-1,9.127599E-1,1.0091316E1,9.265778E0,1.8188486E0,3.3804395E0,2.534076E1,1.1149932E1,4.67859E0,1.276996E1,0E0,0E0,0E0,0E0,0E0,0E0,0E0,0E0,0E0,0E0,0E0,0E0,0E0,0E0,0E0,0E0,0E0,0E0,0E0,0E0,0E0,0E0,0E0,0E0,0E0,0E0,0E0,0E0,0E0,0E0,0E0,0E0,0E0,0E0,0E0,0E0,0E0,0E0,0E0,0E0,0E0,0E0,0E0,0E0],"parents":[2147483647,0,0,1,1,2,2,3,3,4,4,5,5,6,6,7,7,8,8,10,10,11,11,12,12,13,13,14,14,15,15,16,16,17,17,18,18,19,19,20,20,21,21,22,22,23,23,24,24,26,26,27,27,28,28,29,29,30,30,31,31,32,32,33,33,34,34,35,35,39,39,40,40,42,42,43,43,44,44,45,45,46,46,47,47,48,48,49,49,50,50,51,51,52,52,53,53,54,54],"right_children":[2,4,6,8,10,12,14,16,18,-1,20,22,24,26,28,30,32,34,36,38,40,42,44,46,48,-1,50,52,54,56,58,60,62,64,66,68,-1,-1,-1,70,72,-1,74,76,78,80,82,84,86,88,90,92,94,96,98,-1,-1,-1,-1,-1,-1,-1,-1,-1,-1,-1,-1,-1,-1,-1,-1,-1,-1,-1,-1,-1,-1,-1,-1,-1,-1,-1,-1,-1,-1,-1,-1,-1,-1,-1,-1,-1,-1,-1,-1,-1,-1,-1,-1],"split_conditions":[2.8096722E-2,4.4070925E-3,3.9611036E-1,1.6987497E-2,2.6405184E1,1.112E1,2.4326E2,1.40697E5,3.1992E2,2.2771764E-1,2.1484375E0,5.5E1,1.73595E5,3.004418E1,2.8896E2,2.6379E2,4.27E0,1.8E1,3.1E1,5.218976E1,2.8521E2,1.2490514E1,3.09928E5,3.7392025E1,4.2962963E1,1.8860452E-1,1.573E1,3.2E1,7.607473E1,6.500312E1,4.58E0,2.8699E2,1.3939394E-2,2.591093E1,4.4225892E-1,4.345301E1,-9.473602E-2,-2.2322213E-2,-8.7455146E-2,6.878089E-3,3.3772E2,2.957668E-1,1.4024445E-1,1.8958506E-1,1.071E1,2.6325542E1,2.53E0,2.0903955E1,8.35E-2,5.9619606E-1,2.997262E6,1.8072288E-2,7.3374027E-1,2.515079E1,8.9318016E1,1.0663984E-1,3.253493E-1,3.2448017E-3,-9.448696E-2,-6.4665645E-2,-1.2708343E-2,2.7463183E-1,6.287854E-2,2.1817599E-1,3.848188E-2,1.0409161E-1,-3.1772073E-2,1.709537E-2,-5.0455112E-2,-2.7815947E-2,6.540745E-2,1.1113248E-1,6.5809353E-3,-2.6452213E-3,8.3085045E-2,-8.995836E-2,-1.7755346E-1,1.970888E-2,-9.135079E-2,-8.420101E-3,-8.61676E-2,-9.259477E-3,4.4154387E-2,1.4748663E-1,5.444023E-2,3.165753E-1,-1.2146408E-2,-3.6357906E-2,-1.1103755E-1,6.860319E-2,-1.8903306E-2,2.2629404E-1,1.1652048E-1,-1.1947E-1,4.9460795E-2,-1.5327287E-1,-3.8237218E-2,1.8627954E-1,2.277036E-2],"split_indices":[8,31,40,17,1,7,53,43,52,0,2,9,43,1,53,54,16,9,6,1,52,3,43,1,3,0,7,12,34,42,16,52,8,2,40,1,0,0,0,31,53,0,38,45,7,3,20,3,0,45,43,5,39,1,36,0,0,0,0,0,0,0,0,0,0,0,0,0,0,0,0,0,0,0,0,0,0,0,0,0,0,0,0,0,0,0,0,0,0,0,0,0,0,0,0,0,0,0,0],"split_type":[0,0,0,0,0,0,0,0,0,0,0,0,0,0,0,0,0,0,0,0,0,0,0,0,0,0,0,0,0,0,0,0,0,0,0,0,0,0,0,0,0,0,0,0,0,0,0,0,0,0,0,0,0,0,0,0,0,0,0,0,0,0,0,0,0,0,0,0,0,0,0,0,0,0,0,0,0,0,0,0,0,0,0,0,0,0,0,0,0,0,0,0,0,0,0,0,0,0,0],"sum_hessian":[4.505E3,4.084E3,4.21E2,4.015E3,6.9E1,2.04E2,2.17E2,3.9E3,1.15E2,5E0,6.4E1,1.26E2,7.8E1,3.5E1,1.82E2,1.637E3,2.263E3,7.9E1,3.6E1,5E0,5.9E1,8E1,4.6E1,2.4E1,5.4E1,4E0,3.1E1,1.43E2,3.9E1,1.9E1,1.618E3,2.238E3,2.5E1,1.1E1,6.8E1,2.3E1,1.3E1,1E0,4E0,1.9E1,4E1,2E0,7.8E1,1.6E1,3E1,6E0,1.8E1,5E1,4E0,1.5E1,1.6E1,1.22E2,2.1E1,2E1,1.9E1,1E1,9E0,1.565E3,5.3E1,2.13E2,2.025E3,9E0,1.6E1,1E1,1E0,5.1E1,1.7E1,1.1E1,1.2E1,1.1E1,8E0,3.1E1,9E0,5.1E1,2.7E1,5E0,1.1E1,1.8E1,1.2E1,2E0,4E0,1.5E1,3E0,2.1E1,2.9E1,3E0,1E0,8E0,7E0,8E0,8E0,2.9E1,9.3E1,4E0,1.7E1,4E0,1.6E1,1E1,9E0],"tree_param":{"num_deleted":"0","num_feature":"64","num_nodes":"99","size_leaf_vector":"1"}},{"base_weights":[7.005983E-3,-4.671375E-2,5.256452E-1,5.2599203E-2,-1.1748327E-1,3.1167114E-1,1.0055122E0,4.0702425E-2,2.0590845E-1,-1.436471E-1,3.5670808E-1,5.6264883E-1,-8.387363E-2,6.748766E-1,1.5946106E0,-1.9693719E-1,1.13762595E-1,-1.16313525E-1,-5.633057E-1,3.0300617E-1,1.2317149E-1,-2.6431212E-1,8.0847406E-1,6.634534E-1,-3.096484E-1,3.7530226E-1,1.0185975E0,-5.211948E-1,1.8653476E0,1.2723608E-1,-4.5980117E-1,8.275317E-2,1.5128762E0,-2.3007922E-1,-3.8225227E-3,-7.0282125E-1,-1.1588097E-1,-1.2327325E-1,1.1250252E0,-4.452763E-1,1.1638782E-1,2.35328E0,6.704792E-1,1.6901677E0,3.532834E-1,-5.9932894E-1,4.9987498E-1,1.8621118E-1,1.056318E0,5.0749296E-1,1.3904741E0,-1.2693237E-1,1.7020062E-1,2.3358948E0,1.0636401E0,4.363526E-2,-3.4911513E-2,-6.606839E-2,5.5161007E-2,3.4186263E-3,9.003846E-2,2.6263162E-1,6.379258E-2,5.8423657E-2,-2.4476316E-2,-1.7330902E-2,1.8795466E-2,-7.2711796E-2,3.656393E-2,-4.227538E-2,6.6288926E-2,-3.42194E-2,3.7921093E-2,2.0743613E-1,6.679441E-2,-3.0730865E-3,-1.0788639E-1,2.6548493E-1,-3.312058E-2,1.9261558E-1,4.6268757E-2,-3.7515163E-3,2.0432074E-1,-6.451239E-3,1.0924901E-1,7.220296E-2,-7.194736E-2,1.1732774E-1,-1.601792E-2,-2.3734288E-3,6.430709E-2,3.601624E-2,1.1853367E-1,-4.6750964E-3,6.2145848E-2,4.193109E-2,1.4666249E-1,4.4481993E-2,-6.9612465E-3,7.418024E-2,2.697328E-1,1.5466341E-1,-4.0487237E-2],"categories":[],"categories_nodes":[],"categories_segments":[],"categories_sizes":[],"default_left":[0,0,0,0,0,0,0,0,0,0,0,0,0,0,0,0,0,0,0,0,0,0,0,0,0,0,0,0,0,0,0,0,0,0,0,0,0,0,0,0,0,0,0,0,0,0,0,0,0,0,0,0,0,0,0,0,0,0,0,0,0,0,0,0,0,0,0,0,0,0,0,0,0,0,0,0,0,0,0,0,0,0,0,0,0,0,0,0,0,0,0,0,0,0,0,0,0,0,0,0,0,0,0],"id":17,"left_children":[1,3,5,7,9,11,13,15,-1,17,19,21,23,25,27,29,31,33,35,-1,37,39,41,43,45,47,49,51,53,55,57,59,61,63,65,67,69,71,73,75,-1,77,79,81,83,85,87,89,91,93,95,-1,97,99,101,-1,-1,-1,-1,-1,-1,-1,-1,-1,-1,-1,-1,-1,-1,-1,-1,-1,-1,-1,-1,-1,-1,-1,-1,-1,-1,-1,-1,-1,-1,-1,-1,-1,-1,-1,-1,-1,-1,-1,-1,-1,-1,-1,-1,-1,-1,-1,-1],"loss_changes":[1.2556694E2,2.8709879E1,4.3119865E1,4.0496403E1,2.9641136E1,2.9233423E1,2.4244843E1,2.9381533E1,0E0,2.58699E1,7.766752E1,3.680551E1,1.960911E1,8.370163E0,2.7322258E1,3.3973465E1,5.6015915E1,2.718126E1,8.53289E0,0E0,2.8779268E1,1.1373202E1,2.8053543E1,8.001203E0,2.1170368E1,5.8556795E0,6.7069893E0,3.3195567E0,1.2982346E1,2.6509735E1,4.5062935E1,5.028157E1,2.5602333E1,1.2769966E1,3.4778973E1,2.9916725E0,8.405675E0,1.0470159E1,8.59469E0,9.947577E0,0E0,9.784443E0,3.276735E1,3.7362938E0,6.8649025E0,1.0997253E1,1.0855505E1,3.660057E0,4.7125626E-1,1.166018E0,1.0120354E0,0E0,2.9439422E-1,1.2403061E1,1.2683996E1,0E0,0E0,0E0,0E0,0E0,0E0,0E0,0E0,0E0,0E0,0E0,0E0,0E0,0E0,0E0,0E0,0E0,0E0,0E0,0E0,0E0,0E0,0E0,0E0,0E0,0E0,0E0,0E0,0E0,0E0,0E0,0E0,0E0,0E0,0E0,0E0,0E0,0E0,0E0,0E0,0E0,0E0,0E0,0E0,0E0,0E0,0E0,0E0],"parents":[2147483647,0,0,1,1,2,2,3,3,4,4,5,5,6,6,7,7,9,9,10,10,11,11,12,12,13,13,14,14,15,15,16,16,17,17,18,18,20,20,21,21,22,22,23,23,24,24,25,25,26,26,27,27,28,28,29,29,30,30,31,31,32,32,33,33,34,34,35,35,36,36,37,37,38,38,39,39,41,41,42,42,43,43,44,44,45,45,46,46,47,47,48,48,49,49,50,50,52,52,53,53,54,54],"right_children":[2,4,6,8,10,12,14,16,-1,18,20,22,24,26,28,30,32,34,36,-1,38,40,42,44,46,48,50,52,54,56,58,60,62,64,66,68,70,72,74,76,-1,78,80,82,84,86,88,90,92,94,96,-1,98,100,102,-1,-1,-1,-1,-1,-1,-1,-1,-1,-1,-1,-1,-1,-1,-1,-1,-1,-1,-1,-1,-1,-1,-1,-1,-1,-1,-1,-1,-1,-1,-1,-1,-1,-1,-1,-1,-1,-1,-1,-1,-1,-1,-1,-1,-1,-1,-1,-1],"split_conditions":[4.1413584E-1,3.2266E2,1.172E1,6.018237E1,3.5663E2,3.8762386E1,2.5977E2,2.8655E2,2.0590845E-1,4.7E1,1.29E0,2.98E0,-2.4626446E-1,2E0,-6.112165E-1,2.22297E5,9.2E1,1.48E0,4.935065E1,3.0300617E-1,3.5E1,7.185356E-3,1.4E1,2.40715E2,1.039041E0,1.765E1,-1.6793674E-1,1.299E1,2.8896E2,4E1,7E0,5.6E1,8.271299E-4,6E0,3.3902E2,6.4133024E-1,1.10402685E-2,3E0,7.3965937E-1,2.62E0,1.1638782E-1,4.1410226E-2,1.73595E5,1.431563E-2,5.2109165E1,1.8E1,8.515497E1,4.3641113E1,8.2E-1,2.3581E2,7.609398E1,-1.2693237E-1,1.015E-1,8.320515E1,9.992426E-1,4.363526E-2,-3.4911513E-2,-6.606839E-2,5.5161007E-2,3.4186263E-3,9.003846E-2,2.6263162E-1,6.379258E-2,5.8423657E-2,-2.4476316E-2,-1.7330902E-2,1.8795466E-2,-7.2711796E-2,3.656393E-2,-4.227538E-2,6.6288926E-2,-3.42194E-2,3.7921093E-2,2.0743613E-1,6.679441E-2,-3.0730865E-3,-1.0788639E-1,2.6548493E-1,-3.312058E-2,1.9261558E-1,4.6268757E-2,-3.7515163E-3,2.0432074E-1,-6.451239E-3,1.0924901E-1,7.220296E-2,-7.194736E-2,1.1732774E-1,-1.601792E-2,-2.3734288E-3,6.430709E-2,3.601624E-2,1.1853367E-1,-4.6750964E-3,6.2145848E-2,4.193109E-2,1.4666249E-1,4.4481993E-2,-6.9612465E-3,7.418024E-2,2.697328E-1,1.5466341E-1,-4.0487237E-2],"split_indices":[45,52,7,2,54,1,52,53,0,6,16,4,39,26,38,43,12,4,3,0,12,14,18,54,39,4,38,7,53,9,7,25,5,22,52,39,8,26,33,7,0,5,43,5,42,25,36,1,0,52,35,0,0,35,33,0,0,0,0,0,0,0,0,0,0,0,0,0,0,0,0,0,0,0,0,0,0,0,0,0,0,0,0,0,0,0,0,0,0,0,0,0,0,0,0,0,0,0,0,0,0,0,0],"split_type":[0,0,0,0,0,0,0,0,0,0,0,0,0,0,0,0,0,0,0,0,0,0,0,0,0,0,0,0,0,0,0,0,0,0,0,0,0,0,0,0,0,0,0,0,0,0,0,0,0,0,0,0,0,0,0,0,0,0,0,0,0,0,0,0,0,0,0,0,0,0,0,0,0,0,0,0,0,0,0,0,0,0,0,0,0,0,0,0,0,0,0,0,0,0,0,0,0,0,0,0,0,0,0],"sum_hessian":[4.505E3,4.083E3,4.22E2,1.699E3,2.384E3,2.93E2,1.29E2,1.69E3,9E0,2.26E3,1.24E2,1.79E2,1.14E2,8.4E1,4.5E1,3.97E2,1.293E3,2.123E3,1.37E2,9E0,1.15E2,4.1E1,1.38E2,2.6E1,8.8E1,4.6E1,3.8E1,5E0,4E1,1.78E2,2.19E2,1.266E3,2.7E1,1.055E3,1.068E3,1.04E2,3.3E1,9.3E1,2.2E1,3.7E1,4E0,1E1,1.28E2,5E0,2.1E1,6.5E1,2.3E1,3.7E1,9E0,1.7E1,2.1E1,2E0,3E0,2.4E1,1.6E1,1.08E2,7E1,1.83E2,3.6E1,1.196E3,7E1,1.1E1,1.6E1,1.8E1,1.037E3,5.67E2,5.01E2,1.02E2,2E0,2.4E1,9E0,6.5E1,2.8E1,6E0,1.6E1,2.3E1,1.4E1,9E0,1E0,1.7E1,1.11E2,1E0,4E0,1.4E1,7E0,5E0,6E1,1.1E1,1.2E1,2.6E1,1.1E1,2E0,7E0,3E0,1.4E1,2E0,1.9E1,1E0,2E0,5E0,1.9E1,1.2E1,4E0],"tree_param":{"num_deleted":"0","num_feature":"64","num_nodes":"103","size_leaf_vector":"1"}},{"base_weights":[6.957971E-3,-5.7218943E-2,3.6441135E-1,-1.4125198E-1,1.2373798E-2,2.2430019E-1,8.51045E-1,-1.6835187E-1,3.1203854E-1,-4.3607838E-4,8.924268E-1,9.917364E-4,4.87709E-1,1.896493E0,6.976039E-1,1.2959525E-2,-2.2811109E-1,-3.4290734E-1,5.6593215E-1,-2.0704728E-2,4.2891526E-1,1.7251394E0,-3.2920802E-1,3.175195E-1,-2.4757601E-1,6.1416596E-1,-4.7535548E-1,2.1499934E0,4.083681E-1,1.5261112E-1,9.684046E-1,-6.7731574E-2,1.4955218E0,-2.4719661E-1,1.7280792E0,4.095806E-1,-7.2090584E-1,8.109303E-1,-4.8948395E-1,-1.2083579E-1,1.0044114E-1,-2.8302528E-2,7.31511E-1,2.3860796E-1,3.456506E-1,5.570236E-2,-5.4097956E-1,1.990022E-1,2.3377465E-1,-6.9816405E-1,-1.7943732E-2,3.570119E-1,1.0415232E0,-6.5108263E-1,7.8570986E-1,1.0107018E-1,2.4455321E-1,-7.0801736E-3,5.91692E-2,-2.8805664E-1,8.540975E-1,1.475699E0,6.0288054E-1,-1.6598582E-2,6.805058E-2,2.2697465E-1,4.168999E-2,-9.348882E-2,-2.2001758E-2,3.898277E-1,5.7153817E-2,7.51297E-2,-2.9081827E-2,2.3027075E-2,-8.463543E-2,4.9275033E-2,1.6901962E-1,-3.0861795E-2,-6.792023E-2,4.8818853E-2,-1.7340647E-2,7.0536355E-3,1.2798336E-1,7.491215E-2,-3.7277613E-2,4.1488305E-2,1.0333218E-1,-1.2246987E-2,5.573928E-2,1.1063039E-2,-6.98074E-2,-1.1449726E-2,7.017034E-2,-1.0201889E-1,-1.2821014E-2,4.142789E-2,-3.0582031E-2,-7.2392635E-2,5.7009514E-2,1.4801624E-1,2.4649775E-2,2.0161072E-2,-9.758439E-2,-1.3730896E-2,1.1391526E-1,-4.35515E-2,1.920389E-1,1.7944993E-1,2.3435496E-2,5.571356E-2,1.8428938E-1,8.996159E-3,9.0195164E-2],"categories":[],"categories_nodes":[],"categories_segments":[],"categories_sizes":[],"default_left":[0,0,0,0,0,0,0,0,0,0,0,0,0,0,0,0,0,0,0,0,0,0,0,0,0,0,0,0,0,0,0,0,0,0,0,0,0,0,0,0,0,0,0,0,0,0,0,0,0,0,0,0,0,0,0,0,0,0,0,0,0,0,0,0,0,0,0,0,0,0,0,0,0,0,0,0,0,0,0,0,0,0,0,0,0,0,0,0,0,0,0,0,0,0,0,0,0,0,0,0,0,0,0,0,0,0,0,0,0,0,0,0,0],"id":18,"left_children":[1,3,5,7,9,11,13,15,17,19,21,23,25,27,29,31,33,35,37,39,41,43,45,47,49,51,53,55,57,59,61,63,65,67,69,71,73,75,77,79,81,83,85,-1,87,-1,89,91,-1,93,95,97,99,101,103,-1,-1,-1,-1,105,107,109,111,-1,-1,-1,-1,-1,-1,-1,-1,-1,-1,-1,-1,-1,-1,-1,-1,-1,-1,-1,-1,-1,-1,-1,-1,-1,-1,-1,-1,-1,-1,-1,-1,-1,-1,-1,-1,-1,-1,-1,-1,-1,-1,-1,-1,-1,-1,-1,-1,-1,-1],"loss_changes":[1.0338964E2,2.2347298E1,4.658252E1,2.1316349E1,2.3573006E1,3.1410152E1,2.3220451E1,1.7707386E1,1.6490147E1,1.795317E1,3.108605E1,2.2895401E1,3.0129566E1,6.2895813E0,