{"learner":{"attributes":{"scikit_learn":"{\"_estimator_type\": \"regressor\"}"},"feature_names":["body_size","dmi_adx","dmi_minus","dmi_plus","feat_bi_amp","feat_bi_amp_rate","feat_bi_klu_cnt","feat_break_bi_amp","feat_break_bi_amp_rate","feat_break_bi_klu_cnt","feat_bsp1_bi_amp","feat_bsp1_bi_amp_rate","feat_bsp1_bi_klu_cnt","feat_bsp2_bi_amp","feat_bsp2_bi_amp_rate","feat_bsp2_bi_klu_cnt","feat_bsp2_break_bi_amp","feat_bsp2_break_bi_amp_rate","feat_bsp2_break_bi_bi_klu_cnt","feat_bsp2_retrace_rate","feat_bsp2s_bi_amp","feat_bsp2s_bi_amp_rate","feat_bsp2s_bi_klu_cnt","feat_bsp2s_break_bi_amp","feat_bsp2s_break_bi_amp_rate","feat_bsp2s_break_bi_klu_cnt","feat_bsp2s_lv","feat_bsp2s_retrace_rate","feat_bsp3_bi_amp","feat_bsp3_bi_amp_rate","feat_bsp3_bi_klu_cnt","feat_bsp3_zs_height","feat_bsp_bi_amp","feat_divergence_rate","feat_kdj_d","feat_kdj_j","feat_kdj_k","feat_level","feat_macd_dea","feat_macd_diff","feat_macd_value","feat_ppo","feat_rsi","feat_volume","feat_zs_cnt","high_low_spread_pct","is_bullish_candle","is_buy","is_segbsp","kdj_d","kdj_j","kdj_k","klu_close","klu_high","klu_low","klu_open","klu_volume","lower_shadow","macd_dea","macd_dif","macd_value","price_change_pct","rsi","upper_shadow"],"feature_types":["float","float","float","float","float","float","float","float","float","float","float","float","float","float","float","float","float","float","float","float","float","float","float","float","float","float","float","float","float","float","float","float","float","float","float","float","float","float","float","float","float","float","float","float","float","float","int","int","i","float","float","float","float","float","float","float","float","float","float","float","float","float","float","float"],"gradient_booster":{"model":{"gbtree_model_param":{"num_parallel_tree":"1","num_trees":"100"},"iteration_indptr":[0,1,2,3,4,5,6,7,8,9,10,11,12,13,14,15,16,17,18,19,20,21,22,23,24,25,26,27,28,29,30,31,32,33,34,35,36,37,38,39,40,41,42,43,44,45,46,47,48,49,50,51,52,53,54,55,56,57,58,59,60,61,62,63,64,65,66,67,68,69,70,71,72,73,74,75,76,77,78,79,80,81,82,83,84,85,86,87,88,89,90,91,92,93,94,95,96,97,98,99,100],"tree_info":[0,0,0,0,0,0,0,0,0,0,0,0,0,0,0,0,0,0,0,0,0,0,0,0,0,0,0,0,0,0,0,0,0,0,0,0,0,0,0,0,0,0,0,0,0,0,0,0,0,0,0,0,0,0,0,0,0,0,0,0,0,0,0,0,0,0,0,0,0,0,0,0,0,0,0,0,0,0,0,0,0,0,0,0,0,0,0,0,0,0,0,0,0,0,0,0,0,0,0,0],"trees":[{"base_weights":[3.570493E-2,-6.893859E-2,8.021056E-1,3.1627047E-1,-2.3877512E-1,5.9865266E-1,1.8373278E0,-9.361362E-1,4.4625673E-1,1.8918853E-1,-3.8552785E-1,1.4338664E0,3.8714215E-1,2.7136922E-2,6.836798E-3,-1.26656825E-2,-5.38891E-4,1.4511109E-2,2.686378E-3,1.0534432E-2,-5.215784E-4,-7.7766115E-3,-1.771222E-4,5.4232143E-3,1.8390711E-2,7.1149226E-3,-6.661445E-4],"categories":[],"categories_nodes":[],"categories_segments":[],"categories_sizes":[],"default_left":[0,0,0,0,0,0,0,0,0,0,0,0,0,0,0,0,0,0,0,0,0,0,0,0,0,0,0],"id":0,"left_children":[1,3,5,7,9,11,13,15,17,19,21,23,25,-1,-1,-1,-1,-1,-1,-1,-1,-1,-1,-1,-1,-1,-1],"loss_changes":[5.440391E1,3.9056915E1,1.5028374E1,3.0238865E1,2.6181276E1,1.125741E1,9.175282E0,4.735176E0,2.8788425E1,2.2496948E1,4.4460304E1,2.9046593E0,8.809868E0,0E0,0E0,0E0,0E0,0E0,0E0,0E0,0E0,0E0,0E0,0E0,0E0,0E0,0E0],"parents":[2147483647,0,0,1,1,2,2,3,3,4,4,5,5,6,6,7,7,8,8,9,9,10,10,11,11,12,12],"right_children":[2,4,6,8,10,12,14,16,18,20,22,24,26,-1,-1,-1,-1,-1,-1,-1,-1,-1,-1,-1,-1,-1,-1],"split_conditions":[6.84E0,5.5663604E-3,4.397597E2,1.5E1,4.3956E2,4.3316E2,3.869746E1,2.4789915E1,4.4327E2,8.044954E1,4.5391E2,6.125471E1,3.8E1,2.7136922E-2,6.836798E-3,-1.26656825E-2,-5.38891E-4,1.4511109E-2,2.686378E-3,1.0534432E-2,-5.215784E-4,-7.7766115E-3,-1.771222E-4,5.4232143E-3,1.8390711E-2,7.1149226E-3,-6.661445E-4],"split_indices":[23,8,52,18,52,52,1,2,52,50,52,42,25,0,0,0,0,0,0,0,0,0,0,0,0,0,0],"split_type":[0,0,0,0,0,0,0,0,0,0,0,0,0,0,0,0,0,0,0,0,0,0,0,0,0,0,0],"sum_hessian":[6.74E2,5.94E2,8E1,1.81E2,4.13E2,6.9E1,1.1E1,1.6E1,1.65E2,1.05E2,3.08E2,1.2E1,5.7E1,5E0,6E0,1.1E1,5E0,2.3E1,1.42E2,2.2E1,8.3E1,1.48E2,1.6E2,5E0,7E0,3.3E1,2.4E1],"tree_param":{"num_deleted":"0","num_feature":"64","num_nodes":"27","size_leaf_vector":"1"}},{"base_weights":[2.2107765E-2,-1.6827878E-2,2.709835E-2,3.378955E-1,-2.3376696E-1,2.42432E-2,2.4307664E-1,-8.776173E-1,8.1058174E-2,4.122609E-3,-2.967623E-3,-1.4322163E-3,-1.0774512E-2,2.4537123E-3,-1.0252676E-2],"categories":[],"categories_nodes":[],"categories_segments":[],"categories_sizes":[],"default_left":[0,0,0,0,0,0,0,0,0,0,0,0,0,0,0],"id":1,"left_children":[1,3,-1,5,7,-1,9,11,13,-1,-1,-1,-1,-1,-1],"loss_changes":[6.9622604E1,5.0232777E1,0E0,4.754609E1,8.2460976E1,0E0,2.1989357E1,1.911647E1,4.993924E1,0E0,0E0,0E0,0E0,0E0,0E0],"parents":[2147483647,0,0,1,1,3,3,4,4,6,6,7,7,8,8],"right_children":[2,4,-1,6,8,-1,10,12,14,-1,-1,-1,-1,-1,-1],"split_conditions":[1.558E1,4.4327E2,2.709835E-2,1.955E0,4.5206E2,2.42432E-2,5.03E0,2.78E0,5.3E1,4.122609E-3,-2.967623E-3,-1.4322163E-3,-1.0774512E-2,2.4537123E-3,-1.0252676E-2],"split_indices":[7,52,0,10,55,0,10,10,9,0,0,0,0,0,0],"split_type":[0,0,0,0,0,0,0,0,0,0,0,0,0,0,0],"sum_hessian":[6.58E2,6.5E2,8E0,2.46E2,4.04E2,9E0,2.37E2,1.32E2,2.72E2,1.81E2,5.6E1,2.9E1,1.03E2,2.38E2,3.4E1],"tree_param":{"num_deleted":"0","num_feature":"64","num_nodes":"15","size_leaf_vector":"1"}},{"base_weights":[-1.5415502E-2,-1.0840326E-1,9.6556145E-1,-1.2997495E-2,-4.5075104E-2,6.9732636E-1,2.878484E-2,-1.5346223E-1,7.254264E-1,3.7698928E-1,1.00648785E-2,9.971851E-3,-2.039397E-3,1.8604599E-2,4.696238E-3,9.161724E-3,1.2821993E-3],"categories":[],"categories_nodes":[],"categories_segments":[],"categories_sizes":[],"default_left":[0,0,0,0,0,0,0,0,0,0,0,0,0,0,0,0,0],"id":2,"left_children":[1,3,5,-1,7,9,-1,11,13,15,-1,-1,-1,-1,-1,-1,-1],"loss_changes":[6.0600494E1,4.5551895E1,2.5777962E1,0E0,4.8448063E1,4.3535385E0,0E0,2.973906E1,1.8983047E1,3.4376826E0,0E0,0E0,0E0,0E0,0E0,0E0,0E0],"parents":[2147483647,0,0,1,1,2,2,4,4,5,5,7,7,8,8,9,9],"right_children":[2,4,6,-1,8,10,-1,12,14,16,-1,-1,-1,-1,-1,-1,-1],"split_conditions":[1.6936637E-2,1.2E1,1.558E1,-1.2997495E-2,3E0,7.237133E1,2.878484E-2,2.85E0,4.321796E2,9.64E0,1.00648785E-2,9.971851E-3,-2.039397E-3,1.8604599E-2,4.696238E-3,9.161724E-3,1.2821993E-3],"split_indices":[24,25,23,0,37,49,0,23,52,23,0,0,0,0,0,0,0],"split_type":[0,0,0,0,0,0,0,0,0,0,0,0,0,0,0,0,0],"sum_hessian":[6.63E2,6.07E2,5.6E1,2.9E1,5.78E2,5.1E1,5E0,5.08E2,7E1,2.7E1,2.4E1,2E1,4.88E2,1.1E1,5.9E1,7E0,2E1],"tree_param":{"num_deleted":"0","num_feature":"64","num_nodes":"17","size_leaf_vector":"1"}},{"base_weights":[3.7812497E-2,-5.197586E-2,8.9267534E-1,-1.2263202E-2,7.085089E-3,6.4406574E-1,2.2092465E-2,6.645717E-1,-8.1019364E-2,1.2586293E-2,2.7700838E-1,1.6556393E-2,5.106368E-3,2.732416E-3,-2.6751142E-3,-0E0,4.57539E-3],"categories":[],"categories_nodes":[],"categories_segments":[],"categories_sizes":[],"default_left":[0,0,0,0,0,0,0,0,0,0,0,0,0,0,0,0,0],"id":3,"left_children":[1,3,5,-1,7,9,-1,11,13,-1,15,-1,-1,-1,-1,-1,-1],"loss_changes":[5.2086906E1,4.2738594E1,1.8406624E1,0E0,3.4056095E1,1.1915169E1,0E0,8.90151E0,3.423203E1,0E0,1.8326821E0,0E0,0E0,0E0,0E0,0E0,0E0],"parents":[2147483647,0,0,1,1,2,2,4,4,5,5,7,7,8,8,10,10],"right_children":[2,4,6,-1,8,10,-1,12,14,-1,16,-1,-1,-1,-1,-1,-1],"split_conditions":[1.6936637E-2,1.2E1,4.3911E2,-1.2263202E-2,1.0622864E-2,9.99E0,2.2092465E-2,5.394843E-3,4.4409E2,1.2586293E-2,2.0236392E-1,1.6556393E-2,5.106368E-3,2.732416E-3,-2.6751142E-3,-0E0,4.57539E-3],"split_indices":[24,25,54,0,24,7,0,24,54,0,39,0,0,0,0,0,0],"split_type":[0,0,0,0,0,0,0,0,0,0,0,0,0,0,0,0,0],"sum_hessian":[6.74E2,6.11E2,6.3E1,2.8E1,5.83E2,5.5E1,8E0,6.8E1,5.15E2,1.9E1,3.6E1,7E0,6.1E1,1.77E2,3.38E2,1.5E1,2.1E1],"tree_param":{"num_deleted":"0","num_feature":"64","num_nodes":"17","size_leaf_vector":"1"}},{"base_weights":[-7.636155E-3,-8.1802204E-2,8.6011744E-1,5.03021E-1,-2.0092535E-1,5.445508E-1,1.7198092E0,2.7813962E-2,1.948093E-1,-4.4532025E-1,1.2160561E-1,1.18339606E-1,7.971731E-1,9.90472E-3,2.2459097E-2,-5.1259985E-3,3.9503556E-3,-1.0474103E-3,-9.596421E-3,7.628045E-3,-1.7723251E-3,3.4117403E-3,-1.0212739E-3,1.068674E-2,4.6686125E-3],"categories":[],"categories_nodes":[],"categories_segments":[],"categories_sizes":[],"default_left":[0,0,0,0,0,0,0,0,0,0,0,0,0,0,0,0,0,0,0,0,0,0,0,0,0],"id":4,"left_children":[1,3,5,7,9,11,13,-1,15,17,19,21,23,-1,-1,-1,-1,-1,-1,-1,-1,-1,-1,-1,-1],"loss_changes":[4.3745396E1,4.387626E1,1.2656357E1,7.337863E1,4.141082E1,4.143717E0,1.1959724E0,0E0,1.3807032E1,5.192381E1,4.3720634E1,9.5980775E-1,1.23135E0,0E0,0E0,0E0,0E0,0E0,0E0,0E0,0E0,0E0,0E0,0E0,0E0],"parents":[2147483647,0,0,1,1,2,2,3,3,4,4,5,5,6,6,8,8,9,9,10,10,11,11,12,12],"right_children":[2,4,6,8,10,12,14,-1,16,18,20,22,24,-1,-1,-1,-1,-1,-1,-1,-1,-1,-1,-1,-1],"split_conditions":[7.386E0,2.83E0,1.180419E6,4.3425E2,4.5442E2,1.8E1,4.4128E2,2.7813962E-2,1.4173229E-1,4.4423E2,4.5815E2,1.6968174E0,9.99E0,9.90472E-3,2.2459097E-2,-5.1259985E-3,3.9503556E-3,-1.0474103E-3,-9.596421E-3,7.628045E-3,-1.7723251E-3,3.4117403E-3,-1.0212739E-3,1.068674E-2,4.6686125E-3],"split_indices":[23,10,43,53,53,6,53,0,33,53,54,26,7,0,0,0,0,0,0,0,0,0,0,0,0],"split_type":[0,0,0,0,0,0,0,0,0,0,0,0,0,0,0,0,0,0,0,0,0,0,0,0,0],"sum_hessian":[6.79E2,6.27E2,5.2E1,1.05E2,5.22E2,4E1,1.2E1,1.1E1,9.4E1,2.97E2,2.25E2,1.6E1,2.4E1,7E0,5E0,2E1,7.4E1,1.8E2,1.17E2,7.1E1,1.54E2,8E0,8E0,1.1E1,1.3E1],"tree_param":{"num_deleted":"0","num_feature":"64","num_nodes":"25","size_leaf_vector":"1"}},{"base_weights":[1.4999728E-2,-2.3326008E-2,2.4975268E-2,9.781003E-1,-1.1301896E-1,2.7020354E-2,5.0573975E-1,-2.1267889E-2,-8.268195E-1,1.9371896E-3,2.302391E-2,-2.6652382E-3,3.1216997E-3,4.650038E-3,-1.0304604E-2],"categories":[],"categories_nodes":[],"categories_segments":[],"categories_sizes":[],"default_left":[0,0,0,0,0,0,0,0,0,0,0,0,0,0,0],"id":5,"left_children":[1,3,-1,5,7,-1,9,11,13,-1,-1,-1,-1,-1,-1],"loss_changes":[6.5708755E1,6.0666805E1,0E0,4.2503345E1,4.0507263E1,0E0,2.4338713E1,4.5297806E1,1.937814E1,0E0,0E0,0E0,0E0,0E0,0E0],"parents":[2147483647,0,0,1,1,3,3,4,4,6,6,7,7,8,8],"right_children":[2,4,-1,6,8,-1,10,12,14,-1,-1,-1,-1,-1,-1],"split_conditions":[3.3962592E-2,4.335E2,2.4975268E-2,7E-2,3.7E1,2.7020354E-2,8.9802915E-1,4.5215E2,4.41395E2,1.9371896E-3,2.302391E-2,-2.6652382E-3,3.1216997E-3,4.650038E-3,-1.0304604E-2],"split_indices":[8,53,0,0,12,0,60,53,52,0,0,0,0,0,0],"split_type":[0,0,0,0,0,0,0,0,0,0,0,0,0,0,0],"sum_hessian":[6.83E2,6.74E2,9E0,5.4E1,6.2E2,1E1,4.4E1,5.51E2,6.9E1,3.9E1,5E0,3.18E2,2.33E2,9E0,6E1],"tree_param":{"num_deleted":"0","num_feature":"64","num_nodes":"15","size_leaf_vector":"1"}},{"base_weights":[-3.463919E-2,-1.265254E-1,9.0076077E-1,5.178601E-1,-2.3121941E-1,6.76187E-1,2.579638E-2,2.937395E-2,1.7744839E-1,2.7223388E-2,-5.040353E-1,1.1685683E-2,3.8776788E-1,-5.505198E-3,4.4849436E-3,-1.297483E-2,1.1751944E-3,-6.693549E-3,-4.3759536E-4,-0E0,6.41557E-3],"categories":[],"categories_nodes":[],"categories_segments":[],"categories_sizes":[],"default_left":[0,0,0,0,0,0,0,0,0,0,0,0,0,0,0,0,0,0,0,0,0],"id":6,"left_children":[1,3,5,7,9,11,-1,-1,13,15,17,-1,19,-1,-1,-1,-1,-1,-1,-1,-1],"loss_changes":[5.8161522E1,4.178087E1,1.9542782E1,6.983986E1,3.7661087E1,6.890709E0,0E0,0E0,1.56417E1,3.2827255E1,1.9559471E1,0E0,3.6222491E0,0E0,0E0,0E0,0E0,0E0,0E0,0E0,0E0],"parents":[2147483647,0,0,1,1,2,2,3,3,4,4,5,5,8,8,9,9,10,10,12,12],"right_children":[2,4,6,8,10,12,-1,-1,14,16,18,-1,20,-1,-1,-1,-1,-1,-1,-1,-1],"split_conditions":[1.6936637E-2,2.39E0,4.408799E2,4.3409E2,1.2737247E-1,2.3924315E-2,2.579638E-2,2.937395E-2,1.2676E4,1.2E1,4.5368393E1,1.1685683E-2,2.686859E-1,-5.505198E-3,4.4849436E-3,-1.297483E-2,1.1751944E-3,-6.693549E-3,-4.3759536E-4,-0E0,6.41557E-3],"split_indices":[24,10,52,52,58,24,0,0,43,18,1,0,39,0,0,0,0,0,0,0,0],"split_type":[0,0,0,0,0,0,0,0,0,0,0,0,0,0,0,0,0,0,0,0,0],"sum_hessian":[6.75E2,6.16E2,5.9E1,8.5E1,5.31E2,5.4E1,5E0,9E0,7.6E1,2.73E2,2.58E2,1.8E1,3.6E1,2E1,5.6E1,1.6E1,2.57E2,1.89E2,6.9E1,1.5E1,2.1E1],"tree_param":{"num_deleted":"0","num_feature":"64","num_nodes":"21","size_leaf_vector":"1"}},{"base_weights":[2.1783043E-2,-2.277898E-2,2.6151177E-2,7.14606E-1,-1.1159318E-1,2.7243113E-2,4.3004155E-1,-5.8855927E-1,6.4588063E-3,1.66991E-3,2.110082E-2,5.0306E-3,-7.4393973E-3,1.2789075E-3,-8.016615E-3],"categories":[],"categories_nodes":[],"categories_segments":[],"categories_sizes":[],"default_left":[0,0,0,0,0,0,0,0,0,0,0,0,0,0,0],"id":7,"left_children":[1,3,-1,5,7,-1,9,11,13,-1,-1,-1,-1,-1,-1],"loss_changes":[7.867147E1,4.358278E1,0E0,3.8501957E1,3.365282E1,0E0,2.7520882E1,2.070908E1,4.6975014E1,0E0,0E0,0E0,0E0,0E0,0E0],"parents":[2147483647,0,0,1,1,3,3,4,4,6,6,7,7,8,8],"right_children":[2,4,-1,6,8,-1,10,12,14,-1,-1,-1,-1,-1,-1],"split_conditions":[1.558E1,4.3315E2,2.6151177E-2,1.955E0,1.2E1,2.7243113E-2,8.9802915E-1,-3.463979E-1,3.7E1,1.66991E-3,2.110082E-2,5.0306E-3,-7.4393973E-3,1.2789075E-3,-8.016615E-3],"split_indices":[7,55,0,10,9,0,40,38,12,0,0,0,0,0,0],"split_type":[0,0,0,0,0,0,0,0,0,0,0,0,0,0,0],"sum_hessian":[6.74E2,6.64E2,1E1,7E1,5.94E2,7E0,6.3E1,1.17E2,4.77E2,5.6E1,7E0,1.4E1,1.03E2,4.16E2,6.1E1],"tree_param":{"num_deleted":"0","num_feature":"64","num_nodes":"15","size_leaf_vector":"1"}},{"base_weights":[-2.7221989E-2,-1.0561726E-1,1.3355019E0,6.417663E-1,-1.9558626E-1,8.774616E-1,2.904432E-2,2.9013848E-2,2.2346976E-1,-3.5382345E-1,2.853766E-1,1.9520584E-2,2.0067833E-1,-5.4568574E-3,6.09457E-3,-7.3237326E-3,1.5845132E-4,1.333634E-2,1.8015605E-3,-1.2559526E-3,3.3098548E-3],"categories":[],"categories_nodes":[],"categories_segments":[],"categories_sizes":[],"default_left":[0,0,0,0,0,0,0,0,0,0,0,0,0,0,0,0,0,0,0,0,0],"id":8,"left_children":[1,3,5,7,9,11,-1,-1,13,15,17,-1,19,-1,-1,-1,-1,-1,-1,-1,-1],"loss_changes":[7.170268E1,4.2898167E1,2.1650948E1,6.3148026E1,4.3507637E1,2.116356E1,0E0,0E0,1.8176224E1,6.0264076E1,1.4944048E1,0E0,9.7500694E-1,0E0,0E0,0E0,0E0,0E0,0E0,0E0,0E0],"parents":[2147483647,0,0,1,1,2,2,3,3,4,4,5,5,8,8,9,9,10,10,12,12],"right_children":[2,4,6,8,10,12,-1,-1,14,16,18,-1,20,-1,-1,-1,-1,-1,-1,-1,-1],"split_conditions":[4.4E1,4.95875E-3,2.4621788E-2,4.3411E2,1.5337979E-2,4.6E1,2.904432E-2,2.9013848E-2,1.5172E4,4.5215E2,1.5702171E-2,1.9520584E-2,-2.5735617E-1,-5.4568574E-3,6.09457E-3,-7.3237326E-3,1.5845132E-4,1.333634E-2,1.8015605E-3,-1.2559526E-3,3.3098548E-3],"split_indices":[25,11,8,53,8,9,0,0,43,53,8,0,38,0,0,0,0,0,0,0,0],"split_type":[0,0,0,0,0,0,0,0,0,0,0,0,0,0,0,0,0,0,0,0,0],"sum_hessian":[6.7E2,6.35E2,3.5E1,6.7E1,5.68E2,2.9E1,6E0,9E0,5.8E1,4.28E2,1.4E2,1E1,1.9E1,1.9E1,3.9E1,2.11E2,2.17E2,1.1E1,1.29E2,5E0,1.4E1],"tree_param":{"num_deleted":"0","num_feature":"64","num_nodes":"21","size_leaf_vector":"1"}},{"base_weights":[4.7017775E-2,1.5490048E-2,2.487336E-2,4.5270348E-1,-1.3517529E-1,2.9676765E-2,2.6817563E-1,-4.610262E-1,1.09365776E-1,-2.9545273E-3,5.817641E-3,8.4471656E-4,-8.76767E-3,2.7744581E-3,-9.386286E-3],"categories":[],"categories_nodes":[],"categories_segments":[],"categories_sizes":[],"default_left":[0,0,0,0,0,0,0,0,0,0,0,0,0,0,0],"id":9,"left_children":[1,3,-1,5,7,-1,9,11,13,-1,-1,-1,-1,-1,-1],"loss_changes":[5.1259174E1,4.4059593E1,0E0,7.774921E1,3.970903E1,0E0,2.885979E1,4.8688305E1,5.03722E1,0E0,0E0,0E0,0E0,0E0,0E0],"parents":[2147483647,0,0,1,1,3,3,4,4,6,6,7,7,8,8],"right_children":[2,4,-1,6,8,-1,10,12,14,-1,-1,-1,-1,-1,-1],"split_conditions":[1.558E1,4.3781E2,2.487336E-2,2.74E0,4.5215E2,2.9676765E-2,2.8E1,4.4476E2,5.3E1,-2.9545273E-3,5.817641E-3,8.4471656E-4,-8.76767E-3,2.7744581E-3,-9.386286E-3],"split_indices":[7,52,0,10,53,0,9,52,9,0,0,0,0,0,0],"split_type":[0,0,0,0,0,0,0,0,0,0,0,0,0,0,0],"sum_hessian":[6.72E2,6.65E2,7E0,1.7E2,4.95E2,1E1,1.6E2,2.12E2,2.83E2,5.7E1,1.03E2,9.2E1,1.2E2,2.45E2,3.8E1],"tree_param":{"num_deleted":"0","num_feature":"64","num_nodes":"15","size_leaf_vector":"1"}},{"base_weights":[1.0942635E-2,-7.763104E-2,9.205478E-1,-1.2176124E-2,-2.3181384E-2,6.8658096E-1,2.711056E-2,-1.2509416E-1,5.846178E-1,1.2395618E-2,3.514881E-1,2.9494683E-3,-3.0317013E-3,4.6456927E-3,1.9241607E-2,9.4386446E-4,6.943692E-3],"categories":[],"categories_nodes":[],"categories_segments":[],"categories_sizes":[],"default_left":[0,0,0,0,0,0,0,0,0,0,0,0,0,0,0,0,0],"id":10,"left_children":[1,3,5,-1,7,9,-1,11,13,-1,15,-1,-1,-1,-1,-1,-1],"loss_changes":[5.5826775E1,3.878357E1,2.2291988E1,0E0,3.733815E1,9.497698E0,0E0,3.8844368E1,1.2091475E1,0E0,3.0497637E0,0E0,0E0,0E0,0E0,0E0,0E0],"parents":[2147483647,0,0,1,1,2,2,4,4,5,5,7,7,8,8,10,10],"right_children":[2,4,6,-1,8,10,-1,12,14,-1,16,-1,-1,-1,-1,-1,-1],"split_conditions":[1.6936637E-2,1.2E1,1.435E1,-1.2176124E-2,3E0,9.99E0,2.711056E-2,6.148041E-3,2.763242E-1,1.2395618E-2,3.2E1,2.9494683E-3,-3.0317013E-3,4.6456927E-3,1.9241607E-2,9.4386446E-4,6.943692E-3],"split_indices":[24,25,7,0,37,7,0,8,39,0,6,0,0,0,0,0,0],"split_type":[0,0,0,0,0,0,0,0,0,0,0,0,0,0,0,0,0],"sum_hessian":[6.88E2,6.28E2,6E1,2.7E1,6.01E2,5.5E1,5E0,5.16E2,8.5E1,1.9E1,3.6E1,1.53E2,3.63E2,8E1,5E0,2.2E1,1.4E1],"tree_param":{"num_deleted":"0","num_feature":"64","num_nodes":"17","size_leaf_vector":"1"}},{"base_weights":[2.5168613E-2,-6.8435125E-2,1.0159816E0,-1.1673252E-2,-1.0969023E-2,7.779841E-1,2.709657E-2,6.131585E-1,-1.099402E-1,1.2561961E-2,4.0485337E-1,1.0990317E-2,3.3339923E-3,2.5418252E-3,-2.972302E-3,8.1433286E-4,7.841231E-3],"categories":[],"categories_nodes":[],"categories_segments":[],"categories_sizes":[],"default_left":[0,0,0,0,0,0,0,0,0,0,0,0,0,0,0,0,0],"id":11,"left_children":[1,3,5,-1,7,9,-1,11,13,-1,15,-1,-1,-1,-1,-1,-1],"loss_changes":[6.2849487E1,3.87396E1,1.9721157E1,0E0,3.6352493E1,8.451237E0,0E0,1.0106058E1,3.4868076E1,0E0,3.717671E0,0E0,0E0,0E0,0E0,0E0,0E0],"parents":[2147483647,0,0,1,1,2,2,4,4,5,5,7,7,8,8,10,10],"right_children":[2,4,6,-1,8,10,-1,12,14,-1,16,-1,-1,-1,-1,-1,-1],"split_conditions":[1.6936637E-2,1.2E1,1.435E1,-1.1673252E-2,5E0,9.99E0,2.709657E-2,2.56E0,4.4188E2,1.2561961E-2,2.9E1,1.0990317E-2,3.3339923E-3,2.5418252E-3,-2.972302E-3,8.1433286E-4,7.841231E-3],"split_indices":[24,25,7,0,23,7,0,7,54,0,6,0,0,0,0,0,0],"split_type":[0,0,0,0,0,0,0,0,0,0,0,0,0,0,0,0,0],"sum_hessian":[6.73E2,6.16E2,5.7E1,2.9E1,5.87E2,5.2E1,5E0,7.9E1,5.08E2,2.1E1,3.1E1,2.7E1,5.2E1,1.72E2,3.36E2,1.8E1,1.3E1],"tree_param":{"num_deleted":"0","num_feature":"64","num_nodes":"17","size_leaf_vector":"1"}},{"base_weights":[-1.1594308E-2,-4.85867E-2,2.9067297E-2,3.7983354E-2,-7.6113296E-1,-4.4426867E-1,1.9377613E-1,4.9072957E-1,-9.730183E-1,6.7188567E-3,-6.7095314E-3,-7.595097E-4,3.9001543E-3,7.091697E-4,7.6652765E-3,-1.2393995E-2,-3.9609694E-3],"categories":[],"categories_nodes":[],"categories_segments":[],"categories_sizes":[],"default_left":[0,0,0,0,0,0,0,0,0,0,0,0,0,0,0,0,0],"id":12,"left_children":[1,3,-1,5,7,9,11,13,15,-1,-1,-1,-1,-1,-1,-1,-1],"loss_changes":[7.332004E1,4.1856327E1,0E0,4.542083E1,2.0308662E1,3.7995712E1,2.4323202E1,1.0824819E0,8.695267E0,0E0,0E0,0E0,0E0,0E0,0E0,0E0,0E0],"parents":[2147483647,0,0,1,1,3,3,4,4,5,5,6,6,7,7,8,8],"right_children":[2,4,-1,6,8,10,12,14,16,-1,-1,-1,-1,-1,-1,-1,-1],"split_conditions":[1.558E1,3.5E1,2.9067297E-2,1.2E1,4.41395E2,-3.463979E-1,1.1E1,1.839E-1,4.7558655E1,6.7188567E-3,-6.7095314E-3,-7.595097E-4,3.9001543E-3,7.091697E-4,7.6652765E-3,-1.2393995E-2,-3.9609694E-3],"split_indices":[7,12,0,9,52,38,6,0,1,0,0,0,0,0,0,0,0],"split_type":[0,0,0,0,0,0,0,0,0,0,0,0,0,0,0,0,0],"sum_hessian":[6.81E2,6.74E2,7E0,6.02E2,7.2E1,1.46E2,4.56E2,1E1,6.2E1,2.4E1,1.22E2,1.92E2,2.64E2,5E0,5E0,4.1E1,2.1E1],"tree_param":{"num_deleted":"0","num_feature":"64","num_nodes":"17","size_leaf_vector":"1"}},{"base_weights":[9.816668E-3,-1.183794E0,6.739401E-2,-5.851023E-3,-1.2864265E0,8.350772E-3,1.1220658E0,-1.4872102E-2,-7.872088E-3,3.7833878E-1,-2.0032945E-1,2.7245037E-2,6.9052386E-1,1.8280743E-2,2.1744801E-3,-7.2129397E-3,7.6476147E-4,3.5545798E-3,1.711795E-2],"categories":[],"categories_nodes":[],"categories_segments":[],"categories_sizes":[],"default_left":[0,0,0,0,0,0,0,0,0,0,0,0,0,0,0,0,0,0,0],"id":13,"left_children":[1,3,5,-1,7,9,11,-1,-1,13,15,-1,17,-1,-1,-1,-1,-1,-1],"loss_changes":[4.5564106E1,3.7073898E-1,3.9333233E1,0E0,2.4475098E-1,4.6745037E1,1.9660885E1,0E0,0E0,4.995954E1,5.5947285E1,0E0,8.426347E0,0E0,0E0,0E0,0E0,0E0,0E0],"parents":[2147483647,0,0,1,1,2,2,4,4,5,5,6,6,9,9,10,10,12,12],"right_children":[2,4,6,-1,8,10,12,-1,-1,14,16,-1,18,-1,-1,-1,-1,-1,-1],"split_conditions":[1.2E1,2.3738552E1,4.4E1,-5.851023E-3,6.016598E-1,4.4327E2,2.9801324E-1,-1.4872102E-2,-7.872088E-3,2.74E0,4.5292E2,2.7245037E-2,7.1773605E1,1.8280743E-2,2.1744801E-3,-7.2129397E-3,7.6476147E-4,3.5545798E-3,1.711795E-2],"split_indices":[25,1,25,0,27,52,27,0,0,10,53,0,34,0,0,0,0,0,0],"split_type":[0,0,0,0,0,0,0,0,0,0,0,0,0,0,0,0,0,0,0],"sum_hessian":[6.63E2,2.9E1,6.34E2,6E0,2.3E1,6.02E2,3.2E1,1.4E1,9E0,2.17E2,3.85E2,5E0,2.7E1,2E1,1.97E2,1.33E2,2.52E2,2.2E1,5E0],"tree_param":{"num_deleted":"0","num_feature":"64","num_nodes":"19","size_leaf_vector":"1"}},{"base_weights":[1.0199319E-2,-1.6580885E-2,2.7434155E-2,3.908148E-1,-1.7930527E-1,2.0088956E0,2.417285E-1,-5.770215E-1,1.2500098E-1,2.8114364E-2,5.6389826E-3,-2.3092171E-3,5.5904184E-3,-1.1632716E-3,-8.76145E-3,2.630988E-3,-7.829806E-3],"categories":[],"categories_nodes":[],"categories_segments":[],"categories_sizes":[],"default_left":[0,0,0,0,0,0,0,0,0,0,0,0,0,0,0,0,0],"id":14,"left_children":[1,3,-1,5,7,9,11,13,15,-1,-1,-1,-1,-1,-1,-1,-1],"loss_changes":[4.9032814E1,4.3584305E1,0E0,4.4052788E1,5.7142044E1,1.4921761E1,2.6280489E1,2.782965E1,3.374693E1,0E0,0E0,0E0,0E0,0E0,0E0,0E0,0E0],"parents":[2147483647,0,0,1,1,3,3,4,4,5,5,6,6,7,7,8,8],"right_children":[2,4,-1,6,8,10,12,14,16,-1,-1,-1,-1,-1,-1,-1,-1],"split_conditions":[1.558E1,4.3944E2,2.7434155E-2,6.443473E-3,4.5292E2,4.3409E2,2.8E1,4.4524E2,5.3E1,2.8114364E-2,5.6389826E-3,-2.3092171E-3,5.5904184E-3,-1.1632716E-3,-8.76145E-3,2.630988E-3,-7.829806E-3],"split_indices":[23,52,0,11,53,52,9,54,9,0,0,0,0,0,0,0,0],"split_type":[0,0,0,0,0,0,0,0,0,0,0,0,0,0,0,0,0],"sum_hessian":[6.6E2,6.55E2,5E0,1.86E2,4.69E2,1.4E1,1.72E2,2.03E2,2.66E2,8E0,6E0,6.9E1,1.03E2,8.1E1,1.22E2,2.32E2,3.4E1],"tree_param":{"num_deleted":"0","num_feature":"64","num_nodes":"17","size_leaf_vector":"1"}},{"base_weights":[-3.2693584E-2,-1.18671164E-1,9.375581E-1,-5.7214744E-2,-8.8701344E-1,7.096423E-1,2.3910321E-2,-2.5950742E-1,2.6453343E-1,-1.488737E0,-4.6383157E-1,1.2351045E-2,4.130873E-1,1.1195593E-3,-7.075995E-3,7.310466E-3,-4.738063E-4,-1.717986E-2,-6.7354958E-3,-6.3302964E-3,2.2463221E-4,1.0490855E-3,6.436451E-3],"categories":[],"categories_nodes":[],"categories_segments":[],"categories_sizes":[],"default_left":[0,0,0,0,0,0,0,0,0,0,0,0,0,0,0,0,0,0,0,0,0,0,0],"id":15,"left_children":[1,3,5,7,9,11,-1,13,15,17,19,-1,21,-1,-1,-1,-1,-1,-1,-1,-1,-1,-1],"loss_changes":[5.4851692E1,2.8326475E1,1.4557632E1,3.6713573E1,9.905109E0,6.4627323E0,0E0,5.7912807E1,3.1837551E1,1.0563889E0,2.4884267E0,0E0,2.1292796E0,0E0,0E0,0E0,0E0,0E0,0E0,0E0,0E0,0E0,0E0],"parents":[2147483647,0,0,1,1,2,2,3,3,4,4,5,5,7,7,8,8,9,9,10,10,12,12],"right_children":[2,4,6,8,10,12,-1,14,16,18,20,-1,22,-1,-1,-1,-1,-1,-1,-1,-1,-1,-1],"split_conditions":[1.6936637E-2,5.5E1,4.408799E2,4.532594E2,6.4E1,9.99E0,2.3910321E-2,4.4327E2,4.5815E2,1.3732313E1,1.7330863E-2,1.2351045E-2,6.405289E1,1.1195593E-3,-7.075995E-3,7.310466E-3,-4.738063E-4,-1.717986E-2,-6.7354958E-3,-6.3302964E-3,2.2463221E-4,1.0490855E-3,6.436451E-3],"split_indices":[24,9,52,54,9,7,0,52,54,2,5,0,42,0,0,0,0,0,0,0,0,0,0],"split_type":[0,0,0,0,0,0,0,0,0,0,0,0,0,0,0,0,0,0,0,0,0,0,0],"sum_hessian":[6.56E2,6.04E2,5.2E1,5.61E2,4.3E1,4.7E1,5E0,3.45E2,2.16E2,1.6E1,2.7E1,1.5E1,3.2E1,1.89E2,1.56E2,8.6E1,1.3E2,1.1E1,5E0,2E1,7E0,1.5E1,1.7E1],"tree_param":{"num_deleted":"0","num_feature":"64","num_nodes":"23","size_leaf_vector":"1"}},{"base_weights":[3.9157595E-2,-4.16057E-3,2.4527742E-2,8.008907E-1,-7.9556726E-2,2.4237303E-2,3.9559063E-1,1.0381162E0,-1.2226821E-1,-8.324808E-3,9.313953E-3,2.530887E-3,1.2408739E-2,-5.262849E-4,-6.7715133E-3],"categories":[],"categories_nodes":[],"categories_segments":[],"categories_sizes":[],"default_left":[0,0,0,0,0,0,0,0,0,0,0,0,0,0,0],"id":16,"left_children":[1,3,-1,5,7,-1,9,11,13,-1,-1,-1,-1,-1,-1],"loss_changes":[6.8203384E1,3.8646133E1,0E0,3.3844597E1,2.7909773E1,0E0,3.1122131E1,2.6522942E0,2.1613943E1,0E0,0E0,0E0,0E0,0E0,0E0],"parents":[2147483647,0,0,1,1,3,3,4,4,6,6,7,7,8,8],"right_children":[2,4,-1,6,8,-1,10,12,14,-1,-1,-1,-1,-1,-1],"split_conditions":[1.558E1,4.335E2,2.4527742E-2,7E-2,6.385839E-3,2.4237303E-2,1E1,3.5681817E-1,5.5E1,-8.324808E-3,9.313953E-3,2.530887E-3,1.2408739E-2,-5.262849E-4,-6.7715133E-3],"split_indices":[7,53,0,0,24,0,9,27,9,0,0,0,0,0,0],"split_type":[0,0,0,0,0,0,0,0,0,0,0,0,0,0,0],"sum_hessian":[6.46E2,6.36E2,1E1,5.3E1,5.83E2,9E0,4.4E1,2E1,5.63E2,1.3E1,3.1E1,5E0,1.5E1,5.02E2,6.1E1],"tree_param":{"num_deleted":"0","num_feature":"64","num_nodes":"15","size_leaf_vector":"1"}},{"base_weights":[-2.3606114E-2,-1.0951057E-1,9.088656E-1,8.239927E-1,-1.7775695E-1,6.377072E-1,2.0715568E-2,1.2525483E0,-9.869016E-3,-4.1821375E-1,1.1576075E-1,1.1414617E-2,3.3711952E-1,1.9178737E-2,3.8058814E-3,-5.5940924E-3,1.1926272E-3,6.928218E-3,-2.7324483E-3,2.1801979E-4,4.9496293E-3],"categories":[],"categories_nodes":[],"categories_segments":[],"categories_sizes":[],"default_left":[0,0,0,0,0,0,0,0,0,0,0,0,0,0,0,0,0,0,0,0,0],"id":17,"left_children":[1,3,5,7,9,11,-1,13,-1,15,17,-1,19,-1,-1,-1,-1,-1,-1,-1,-1],"loss_changes":[5.177632E1,3.7901287E1,1.4658985E1,3.3338135E1,3.926879E1,6.168211E0,0E0,1.7880028E1,0E0,2.3372269E1,5.660011E1,0E0,1.4482405E0,0E0,0E0,0E0,0E0,0E0,0E0,0E0,0E0],"parents":[2147483647,0,0,1,1,2,2,3,3,4,4,5,5,7,7,9,9,10,10,12,12],"right_children":[2,4,6,8,10,12,-1,14,-1,16,18,-1,20,-1,-1,-1,-1,-1,-1,-1,-1],"split_conditions":[7.386E0,4.335E2,4.4E2,2.64E-1,4.5407E2,1.052E1,2.0715568E-2,7.4960865E-2,-9.869016E-3,3.75E-1,4.6042E2,1.1414617E-2,6.159307E-4,1.9178737E-2,3.8058814E-3,-5.5940924E-3,1.1926272E-3,6.928218E-3,-2.7324483E-3,2.1801979E-4,4.9496293E-3],"split_indices":[23,53,53,57,53,23,0,61,0,63,53,0,41,0,0,0,0,0,0,0,0],"split_type":[0,0,0,0,0,0,0,0,0,0,0,0,0,0,0,0,0,0,0,0,0],"sum_hessian":[6.45E2,5.92E2,5.3E1,3.9E1,5.53E2,4.5E1,8E0,3.2E1,7E0,3.04E2,2.49E2,1.5E1,3E1,1.7E1,1.5E1,2.41E2,6.3E1,1E2,1.49E2,1.1E1,1.9E1],"tree_param":{"num_deleted":"0","num_feature":"64","num_nodes":"21","size_leaf_vector":"1"}},{"base_weights":[1.2327642E-2,-8.7315924E-2,9.6846896E-1,4.261871E-1,-1.9504899E-1,7.1427065E-1,2.6969625E-2,2.6276227E-2,1.2611061E-1,-3.6639345E-1,2.2087118E-1,1.2164987E0,3.9242238E-1,-5.100746E-3,2.6807333E-3,-1.7524955E-3,-8.785767E-3,-3.2157794E-4,1.2414019E-2,8.335157E-3,1.5476063E-2,1.3068418E-3,6.6892165E-3],"categories":[],"categories_nodes":[],"categories_segments":[],"categories_sizes":[],"default_left":[0,0,0,0,0,0,0,0,0,0,0,0,0,0,0,0,0,0,0,0,0,0,0],"id":18,"left_children":[1,3,5,7,9,11,-1,-1,13,15,17,19,21,-1,-1,-1,-1,-1,-1,-1,-1,-1,-1],"loss_changes":[6.408857E1,3.3686123E1,2.4328857E1,6.86454E1,3.6032738E1,8.2565155E0,0E0,0E0,8.691435E0,3.4557774E1,3.8389744E1,3.152256E-1,2.422844E0,0E0,0E0,0E0,0E0,0E0,0E0,0E0,0E0,0E0,0E0],"parents":[2147483647,0,0,1,1,2,2,3,3,4,4,5,5,8,8,9,9,10,10,11,11,12,12],"right_children":[2,4,6,8,10,12,-1,-1,14,16,18,20,22,-1,-1,-1,-1,-1,-1,-1,-1,-1,-1],"split_conditions":[1.6936637E-2,2.83E0,3.2310877E-2,4.3409E2,4.1454784E1,2.3017427E-2,2.6969625E-2,2.6276227E-2,9.914E3,4.2880666E-1,1.084906E6,4.1520467E-1,3.2E1,-5.100746E-3,2.6807333E-3,-1.7524955E-3,-8.785767E-3,-3.2157794E-4,1.2414019E-2,8.335157E-3,1.5476063E-2,1.3068418E-3,6.6892165E-3],"split_indices":[24,10,8,52,1,8,0,0,56,59,56,27,6,0,0,0,0,0,0,0,0,0,0],"split_type":[0,0,0,0,0,0,0,0,0,0,0,0,0,0,0,0,0,0,0,0,0,0,0],"sum_hessian":[6.68E2,6.06E2,6.2E1,1.04E2,5.02E2,5.6E1,6E0,1.1E1,9.3E1,3.56E2,1.46E2,2E1,3.6E1,1.6E1,7.7E1,2.61E2,9.5E1,1.18E2,2.8E1,1.2E1,8E0,2E1,1.6E1],"tree_param":{"num_deleted":"0","num_feature":"64","num_nodes":"23","size_leaf_vector":"1"}},{"base_weights":[9.921113E-3,-8.9539774E-2,1.0116998E0,-1.1068215E-2,-7.8269213E-1,7.0186156E-1,2.759793E-2,-4.1632137E-1,1.3189216E-1,5.758122E-3,-9.4872355E-1,1.2062569E0,3.4074843E-1,4.4214935E-3,-6.9076177E-3,9.374331E-3,6.3257327E-4,-1.1857228E-2,-4.4757435E-3,8.1761265E-3,1.5470263E-2,-0E0,4.8371456E-3],"categories":[],"categories_nodes":[],"categories_segments":[],"categories_sizes":[],"default_left":[0,0,0,0,0,0,0,0,0,0,0,0,0,0,0,0,0,0,0,0,0,0,0],"id":19,"left_children":[1,3,5,7,9,11,-1,13,15,-1,17,19,21,-1,-1,-1,-1,-1,-1,-1,-1,-1,-1],"loss_changes":[6.6728905E1,3.2871845E1,2.9170559E1,3.1858742E1,1.476561E1,8.818745E0,0E0,3.431632E1,2.2130264E1,0E0,5.4691353E0,4.771862E-1,1.6088562E0,0E0,0E0,0E0,0E0,0E0,0E0,0E0,0E0,0E0,0E0],"parents":[2147483647,0,0,1,1,2,2,3,3,4,4,5,5,7,7,8,8,10,10,11,11,12,12],"right_children":[2,4,6,8,10,12,-1,14,16,-1,18,20,22,-1,-1,-1,-1,-1,-1,-1,-1,-1,-1],"split_conditions":[1.6936637E-2,4.1E1,1.435E1,1.2E1,4.41395E2,9.99E0,2.759793E-2,2.39E0,4.3398E2,5.758122E-3,4.7558655E1,4.1258907E-1,2.686859E-1,4.4214935E-3,-6.9076177E-3,9.374331E-3,6.3257327E-4,-1.1857228E-2,-4.4757435E-3,8.1761265E-3,1.5470263E-2,-0E0,4.8371456E-3],"split_indices":[24,12,7,9,52,7,0,10,53,0,1,33,39,0,0,0,0,0,0,0,0,0,0],"split_type":[0,0,0,0,0,0,0,0,0,0,0,0,0,0,0,0,0,0,0,0,0,0,0],"sum_hessian":[6.65E2,6.06E2,5.9E1,5.46E2,6E1,5.2E1,7E0,1.42E2,4.04E2,6E0,5.4E1,2E1,3.2E1,3.4E1,1.08E2,3E1,3.74E2,3.5E1,1.9E1,1.2E1,8E0,1E1,2.2E1],"tree_param":{"num_deleted":"0","num_feature":"64","num_nodes":"23","size_leaf_vector":"1"}},{"base_weights":[-3.0483112E-2,-5.945845E-2,2.2608716E-2,-1.1748842E-2,-6.5522483E-3,3.241538E-1,-1.9996095E-1,1.7711295E-2,2.0075927E-3,-7.406117E-3,5.3855515E-4],"categories":[],"categories_nodes":[],"categories_segments":[],"categories_sizes":[],"default_left":[0,0,0,0,0,0,0,0,0,0,0],"id":20,"left_children":[1,3,-1,-1,5,7,9,-1,-1,-1,-1],"loss_changes":[4.520722E1,3.973343E1,0E0,0E0,4.1551376E1,4.1834724E1,5.652848E1,0E0,0E0,0E0,0E0],"parents":[2147483647,0,0,1,1,4,4,5,5,6,6],"right_children":[2,4,-1,-1,6,8,10,-1,-1,-1,-1],"split_conditions":[1.558E1,1.2E1,2.2608716E-2,-1.1748842E-2,4.4188E2,2.31E0,4.5206E2,1.7711295E-2,2.0075927E-3,-7.406117E-3,5.3855515E-4],"split_indices":[7,25,0,0,54,10,55,0,0,0,0],"split_type":[0,0,0,0,0,0,0,0,0,0,0],"sum_hessian":[6.83E2,6.76E2,7E0,2.9E1,6.47E2,2.38E2,4.09E2,1.7E1,2.21E2,1.3E2,2.79E2],"tree_param":{"num_deleted":"0","num_feature":"64","num_nodes":"11","size_leaf_vector":"1"}},{"base_weights":[2.5246104E-3,-8.677597E-2,8.8795376E-1,4.0405542E-1,-1.889094E-1,6.2988997E-1,2.6277771E-2,2.4401579E-2,1.7651534E-1,4.8470117E-2,-4.250433E-1,1.361216E-2,4.0381497E-1,-4.824218E-3,3.477693E-3,-1.4961617E-4,1.4191846E-2,-7.688254E-3,-1.1038488E-3,-0E0,6.7238933E-3],"categories":[],"categories_nodes":[],"categories_segments":[],"categories_sizes":[],"default_left":[0,0,0,0,0,0,0,0,0,0,0,0,0,0,0,0,0,0,0,0,0],"id":21,"left_children":[1,3,5,7,9,11,-1,-1,13,15,17,-1,19,-1,-1,-1,-1,-1,-1,-1,-1],"loss_changes":[5.3924362E1,3.102692E1,2.4927246E1,4.8171486E1,2.8833559E1,8.1638775E0,0E0,0E0,1.1227175E1,2.261455E1,2.7551651E1,0E0,5.0134273E0,0E0,0E0,0E0,0E0,0E0,0E0,0E0,0E0],"parents":[2147483647,0,0,1,1,2,2,3,3,4,4,5,5,8,8,9,9,10,10,12,12],"right_children":[2,4,6,8,10,12,-1,-1,14,16,18,-1,20,-1,-1,-1,-1,-1,-1,-1,-1],"split_conditions":[7.386E0,2.78E0,3.2310877E-2,4.3398E2,1.2737247E-1,4.3322E2,2.6277771E-2,2.4401579E-2,1.4173229E-1,1.36492755E-2,8.431987E-1,1.361216E-2,1.8E1,-4.824218E-3,3.477693E-3,-1.4961617E-4,1.4191846E-2,-7.688254E-3,-1.1038488E-3,-0E0,6.7238933E-3],"split_indices":[23,10,8,53,38,53,0,0,33,5,33,0,22,0,0,0,0,0,0,0,0],"split_type":[0,0,0,0,0,0,0,0,0,0,0,0,0,0,0,0,0,0,0,0,0],"sum_hessian":[6.77E2,6.16E2,6.1E1,1.05E2,5.11E2,5.5E1,6E0,9E0,9.6E1,2.55E2,2.56E2,1.1E1,4.4E1,1.9E1,7.7E1,2.45E2,1E1,1.21E2,1.35E2,1.8E1,2.6E1],"tree_param":{"num_deleted":"0","num_feature":"64","num_nodes":"21","size_leaf_vector":"1"}},{"base_weights":[-3.1386614E-2,4.5196956E-1,-1.5661599E-1,2.349535E-2,3.1752482E-1,-2.0300116E-1,1.1719956E0,4.5078564E-1,-5.9974E-1,-5.188686E-1,5.2915063E-2,7.1678017E-3,1.6089268E-2,2.712926E-3,1.3802376E-2,-8.674311E-3,-2.4447846E-3,-1.2633391E-3,-8.36735E-3,3.079764E-3,-6.329705E-3],"categories":[],"categories_nodes":[],"categories_segments":[],"categories_sizes":[],"default_left":[0,0,0,0,0,0,0,0,0,0,0,0,0,0,0,0,0,0,0,0,0],"id":22,"left_children":[1,3,5,-1,7,9,11,13,15,17,19,-1,-1,-1,-1,-1,-1,-1,-1,-1,-1],"loss_changes":[3.9301064E1,3.2405746E1,3.1993877E1,0E0,1.5838527E1,4.0592598E1,1.2856998E0,1.7709583E1,1.0286722E0,2.7660496E1,4.877407E1,0E0,0E0,0E0,0E0,0E0,0E0,0E0,0E0,0E0,0E0],"parents":[2147483647,0,0,1,1,2,2,4,4,5,5,6,6,7,7,8,8,9,9,10,10],"right_children":[2,4,6,-1,8,10,12,14,16,18,20,-1,-1,-1,-1,-1,-1,-1,-1,-1,-1],"split_conditions":[4.3719E2,2.74E0,1.326E1,2.349535E-2,4.444107E1,4.5215E2,4.4024E2,4.36841E1,4.3339E2,4.4409E2,4.06E0,7.1678017E-3,1.6089268E-2,2.712926E-3,1.3802376E-2,-8.674311E-3,-2.4447846E-3,-1.2633391E-3,-8.36735E-3,3.079764E-3,-6.329705E-3],"split_indices":[53,10,7,0,3,53,52,1,52,54,4,0,0,0,0,0,0,0,0,0,0],"split_type":[0,0,0,0,0,0,0,0,0,0,0,0,0,0,0,0,0,0,0,0,0],"sum_hessian":[6.47E2,1.32E2,5.15E2,7E0,1.25E2,4.99E2,1.6E1,1.1E2,1.5E1,2.23E2,2.76E2,1E1,6E0,9.4E1,1.6E1,7E0,8E0,1.01E2,1.22E2,2.02E2,7.4E1],"tree_param":{"num_deleted":"0","num_feature":"64","num_nodes":"21","size_leaf_vector":"1"}},{"base_weights":[1.8857324E-2,-6.0275674E-2,8.909304E-1,3.1733015E-1,-2.2801551E-1,6.888854E-1,2.2864636E-2,-9.5756984E-1,4.566194E-1,-7.876806E-1,-1.3218349E-1,1.16912E0,3.332432E-1,-1.2473459E-2,-5.939935E-4,1.7472604E-2,3.3674648E-3,-1.0671858E-2,-1.1355873E-3,-1.3127043E-4,-7.888672E-3,7.89772E-3,1.50254285E-2,2.5404748E-4,6.173224E-3],"categories":[],"categories_nodes":[],"categories_segments":[],"categories_sizes":[],"default_left":[0,0,0,0,0,0,0,0,0,0,0,0,0,0,0,0,0,0,0,0,0,0,0,0,0],"id":23,"left_children":[1,3,5,7,9,11,-1,13,15,17,19,21,23,-1,-1,-1,-1,-1,-1,-1,-1,-1,-1,-1,-1],"loss_changes":[4.769089E1,4.0089592E1,1.3254993E1,3.5094963E1,2.3178286E1,8.08169E0,0E0,4.7027454E0,2.6007462E1,1.1546772E1,2.9259752E1,4.8093033E-1,2.6900718E0,0E0,0E0,0E0,0E0,0E0,0E0,0E0,0E0,0E0,0E0,0E0,0E0],"parents":[2147483647,0,0,1,1,2,2,3,3,4,4,5,5,7,7,8,8,9,9,10,10,11,11,12,12],"right_children":[2,4,6,8,10,12,-1,14,16,18,20,22,24,-1,-1,-1,-1,-1,-1,-1,-1,-1,-1,-1,-1],"split_conditions":[1.6936637E-2,6.148041E-3,4.4017E2,1.5E1,1.1E1,2.3017427E-2,2.2864636E-2,2.4789915E1,4.341E2,1.084906E6,4.1E1,4.26E-1,4.3604E2,-1.2473459E-2,-5.939935E-4,1.7472604E-2,3.3674648E-3,-1.0671858E-2,-1.1355873E-3,-1.3127043E-4,-7.888672E-3,7.89772E-3,1.50254285E-2,2.5404748E-4,6.173224E-3],"split_indices":[24,8,54,18,9,8,0,2,54,43,12,27,54,0,0,0,0,0,0,0,0,0,0,0,0],"split_type":[0,0,0,0,0,0,0,0,0,0,0,0,0,0,0,0,0,0,0,0,0,0,0,0,0],"sum_hessian":[6.86E2,6.3E2,5.6E1,1.93E2,4.37E2,5.1E1,5E0,1.8E1,1.75E2,6.2E1,3.75E2,2E1,3.1E1,1.3E1,5E0,1.3E1,1.62E2,4.3E1,1.9E1,3.19E2,5.6E1,1.2E1,8E0,1.6E1,1.5E1],"tree_param":{"num_deleted":"0","num_feature":"64","num_nodes":"25","size_leaf_vector":"1"}},{"base_weights":[3.882549E-2,1.17755786E-1,-6.867166E-1,-1.1034547E0,1.7098783E-1,4.624237E-3,-8.6846E-1,-5.33061E-3,-1.2344154E-2,-5.226529E-1,2.6676565E-1,-1.0469462E0,-4.4815654E-1,-8.661124E-3,2.938364E-4,-2.0752228E-3,4.4943993E-3,-1.1460736E-2,-4.8296833E-3,-5.5579077E-3,-7.3859387E-4],"categories":[],"categories_nodes":[],"categories_segments":[],"categories_sizes":[],"default_left":[0,0,0,0,0,0,0,0,0,0,0,0,0,0,0,0,0,0,0,0,0],"id":24,"left_children":[1,3,5,7,9,-1,11,-1,-1,13,15,17,19,-1,-1,-1,-1,-1,-1,-1,-1],"loss_changes":[3.708805E1,3.8158432E1,1.3945494E1,4.8960686E-1,3.7527874E1,0E0,3.1607018E0,0E0,0E0,1.3193268E1,4.3118507E1,9.403801E-1,5.980947E-1,0E0,0E0,0E0,0E0,0E0,0E0,0E0,0E0],"parents":[2147483647,0,0,1,1,2,2,3,3,4,4,6,6,9,9,10,10,11,11,12,12],"right_children":[2,4,6,8,10,-1,12,-1,-1,14,16,18,20,-1,-1,-1,-1,-1,-1,-1,-1],"split_conditions":[3.7E1,1.2E1,4.4164E2,1.001E-1,9.167049E-3,4.624237E-3,5.064273E1,-5.33061E-3,-1.2344154E-2,4.50979E2,5E0,9.199337E1,6.52E0,-8.661124E-3,2.938364E-4,-2.0752228E-3,4.4943993E-3,-1.1460736E-2,-4.8296833E-3,-5.5579077E-3,-7.3859387E-4],"split_indices":[12,25,53,0,17,0,1,0,0,53,6,36,4,0,0,0,0,0,0,0,0],"split_type":[0,0,0,0,0,0,0,0,0,0,0,0,0,0,0,0,0,0,0,0,0],"sum_hessian":[6.46E2,5.84E2,6.2E1,2.3E1,5.61E2,8E0,5.4E1,6E0,1.7E1,6.7E1,4.94E2,3.6E1,1.8E1,4.1E1,2.6E1,1.37E2,3.57E2,2.9E1,7E0,1.3E1,5E0],"tree_param":{"num_deleted":"0","num_feature":"64","num_nodes":"21","size_leaf_vector":"1"}},{"base_weights":[2.046369E-2,-1.8512437E-2,2.317831E-2,-1.0499013E-2,3.0029263E-2,1.5070017E-1,-4.7924677E-1,-6.0452735E-3,2.7385924E-3,-8.325028E-3,5.2168075E-4],"categories":[],"categories_nodes":[],"categories_segments":[],"categories_sizes":[],"default_left":[0,0,0,0,0,0,0,0,0,0,0],"id":25,"left_children":[1,3,-1,-1,5,7,9,-1,-1,-1,-1],"loss_changes":[6.172651E1,3.3970287E1,0E0,0E0,3.965024E1,4.8781563E1,2.3405313E1,0E0,0E0,0E0,0E0],"parents":[2147483647,0,0,1,1,4,4,5,5,6,6],"right_children":[2,4,-1,-1,6,8,10,-1,-1,-1,-1],"split_conditions":[1.558E1,1.2E1,2.317831E-2,-1.0499013E-2,1.128351E-2,4.17E0,7.246915E-1,-6.0452735E-3,2.7385924E-3,-8.325028E-3,5.2168075E-4],"split_indices":[7,25,0,0,11,16,38,0,0,0,0],"split_type":[0,0,0,0,0,0,0,0,0,0,0],"sum_hessian":[6.82E2,6.72E2,1E1,2.9E1,6.43E2,5.21E2,1.22E2,7.2E1,4.49E2,7.3E1,4.9E1],"tree_param":{"num_deleted":"0","num_feature":"64","num_nodes":"11","size_leaf_vector":"1"}},{"base_weights":[-2.452966E-2,6.099179E-1,-1.1984207E-1,2.7118277E-2,3.1075746E-1,-1.7693311E-1,8.718122E-1,-3.000503E-1,5.6459254E-1,-9.806731E-2,-8.30237E-1,1.9505996E-1,1.4571877E0,-7.2533465E-3,3.1106388E-3,-3.224343E-4,7.0122383E-3,-3.21394E-3,2.491194E-3,3.5531584E-3,-9.547367E-3,-1.1317834E-3,3.612303E-3,1.7000966E-2,6.6038244E-3],"categories":[],"categories_nodes":[],"categories_segments":[],"categories_sizes":[],"default_left":[0,0,0,0,0,0,0,0,0,0,0,0,0,0,0,0,0,0,0,0,0,0,0,0,0],"id":26,"left_children":[1,3,5,-1,7,9,11,13,15,17,19,21,23,-1,-1,-1,-1,-1,-1,-1,-1,-1,-1,-1,-1],"loss_changes":[4.007348E1,5.252331E1,3.2787327E1,0E0,1.2322961E1,2.790123E1,1.1722052E1,6.528878E0,4.6935387E0,3.816599E1,9.263397E0,9.5606667E-1,1.037426E0,0E0,0E0,0E0,0E0,0E0,0E0,0E0,0E0,0E0,0E0,0E0,0E0],"parents":[2147483647,0,0,1,1,2,2,4,4,5,5,6,6,7,7,8,8,9,9,10,10,11,11,12,12],"right_children":[2,4,6,-1,8,10,12,14,16,18,20,22,24,-1,-1,-1,-1,-1,-1,-1,-1,-1,-1,-1,-1],"split_conditions":[2.39E0,4.3425E2,6.34E0,2.7118277E-2,1.5172E4,3.7E1,9.90236E5,1.0391718E-1,1.4173229E-1,4.5172E2,4.4164E2,8.47E0,8.5569423E-1,-7.2533465E-3,3.1106388E-3,-3.224343E-4,7.0122383E-3,-3.21394E-3,2.491194E-3,3.5531584E-3,-9.547367E-3,-1.1317834E-3,3.612303E-3,1.7000966E-2,6.6038244E-3],"split_indices":[10,53,20,0,56,12,56,38,33,55,53,7,33,0,0,0,0,0,0,0,0,0,0,0,0],"split_type":[0,0,0,0,0,0,0,0,0,0,0,0,0,0,0,0,0,0,0,0,0,0,0,0,0],"sum_hessian":[6.61E2,8.5E1,5.76E2,9E0,7.6E1,5.46E2,3E1,2.2E1,5.4E1,4.89E2,5.7E1,1.5E1,1.5E1,1.3E1,9E0,1E1,4.4E1,2.98E2,1.91E2,5E0,5.2E1,5E0,1E1,1E1,5E0],"tree_param":{"num_deleted":"0","num_feature":"64","num_nodes":"25","size_leaf_vector":"1"}},{"base_weights":[4.2060623E-3,-1.1123179E-1,7.641326E-1,5.743718E-2,-4.0803903E-1,5.895253E-1,2.5286011E-2,-7.7595574E-1,1.636645E-1,-6.3970304E-1,1.2701169E-1,1.461202E0,3.474715E-1,-9.235795E-3,7.100443E-4,-7.934353E-3,2.6950699E-3,-1.9686453E-3,-9.478251E-3,5.0358865E-3,-1.0249672E-2,3.3960145E-3,1.8530902E-2,-5.171007E-4,7.373427E-3],"categories":[],"categories_nodes":[],"categories_segments":[],"categories_sizes":[],"default_left":[0,0,0,0,0,0,0,0,0,0,0,0,0,0,0,0,0,0,0,0,0,0,0,0,0],"id":27,"left_children":[1,3,5,7,9,11,-1,13,15,17,19,21,23,-1,-1,-1,-1,-1,-1,-1,-1,-1,-1,-1,-1],"loss_changes":[5.9515827E1,2.9516802E1,2.4714336E1,3.3310715E1,2.668816E1,1.6494564E1,0E0,5.582716E0,3.4101425E1,1.9890198E1,2.908444E1,6.309475E0,1.0699305E1,0E0,0E0,0E0,0E0,0E0,0E0,0E0,0E0,0E0,0E0,0E0,0E0],"parents":[2147483647,0,0,1,1,2,2,3,3,4,4,5,5,7,7,8,8,9,9,10,10,11,11,12,12],"right_children":[2,4,6,8,10,12,-1,14,16,18,20,22,24,-1,-1,-1,-1,-1,-1,-1,-1,-1,-1,-1,-1],"split_conditions":[6.84E0,3.65E0,1.435E1,1.5E1,4.6109516E1,4.335E2,2.5286011E-2,4.7006E2,1.4E1,4.4156E2,4.5877E2,-5.5099085E-2,2E1,-9.235795E-3,7.100443E-4,-7.934353E-3,2.6950699E-3,-1.9686453E-3,-9.478251E-3,5.0358865E-3,-1.0249672E-2,3.3960145E-3,1.8530902E-2,-5.171007E-4,7.373427E-3],"split_indices":[23,32,7,18,1,53,0,52,25,55,52,39,6,0,0,0,0,0,0,0,0,0,0,0,0],"split_type":[0,0,0,0,0,0,0,0,0,0,0,0,0,0,0,0,0,0,0,0,0,0,0,0,0],"sum_hessian":[6.74E2,5.86E2,8.8E1,3.74E2,2.12E2,8.2E1,6E0,4.1E1,3.33E2,1.48E2,6.4E1,1.6E1,6.6E1,3.5E1,6E0,3.2E1,3.01E2,6.2E1,8.6E1,4.9E1,1.5E1,5E0,1.1E1,3.3E1,3.3E1],"tree_param":{"num_deleted":"0","num_feature":"64","num_nodes":"25","size_leaf_vector":"1"}},{"base_weights":[1.6757412E-2,-2.2426981E-2,2.2791028E-2,4.8186213E-2,-6.66954E-1,-3.764277E-1,1.8159701E-1,5.409203E-1,-9.0281206E-1,4.9959314E-3,-6.7047533E-3,-2.1895028E-4,4.699881E-3,1.9446185E-3,7.317818E-3,-6.028306E-3,-1.2643082E-2],"categories":[],"categories_nodes":[],"categories_segments":[],"categories_sizes":[],"default_left":[0,0,0,0,0,0,0,0,0,0,0,0,0,0,0,0,0],"id":28,"left_children":[1,3,-1,5,7,9,11,13,15,-1,-1,-1,-1,-1,-1,-1,-1],"loss_changes":[5.9878258E1,3.0187197E1,0E0,3.3797504E1,1.9464996E1,3.7243465E1,2.6777523E1,3.617401E-1,4.5018654E0,0E0,0E0,0E0,0E0,0E0,0E0,0E0,0E0],"parents":[2147483647,0,0,1,1,3,3,4,4,5,5,6,6,7,7,8,8],"right_children":[2,4,-1,6,8,10,12,14,16,-1,-1,-1,-1,-1,-1,-1,-1],"split_conditions":[1.558E1,3.7E1,2.2791028E-2,1.2E1,4.41395E2,4.95875E-3,4.525278E2,4.2E1,2.6116E4,4.9959314E-3,-6.7047533E-3,-2.1895028E-4,4.699881E-3,1.9446185E-3,7.317818E-3,-6.028306E-3,-1.2643082E-2],"split_indices":[7,12,0,9,52,11,52,9,43,0,0,0,0,0,0,0,0],"split_type":[0,0,0,0,0,0,0,0,0,0,0,0,0,0,0,0,0],"sum_hessian":[6.68E2,6.58E2,1E1,5.94E2,6.4E1,1.41E2,4.53E2,1E1,5.4E1,3.5E1,1.06E2,2.66E2,1.87E2,5E0,5E0,3.2E1,2.2E1],"tree_param":{"num_deleted":"0","num_feature":"64","num_nodes":"17","size_leaf_vector":"1"}},{"base_weights":[1.1677235E-2,-6.5734655E-2,8.099247E-1,-1.0314572E0,-1.7230162E-2,5.9501976E-1,1.6306043E-2,-1.3605752E-2,-7.477626E-1,5.651188E-1,-9.710047E-2,1.1732109E0,2.1448874E-1,-3.417843E-3,-9.180963E-3,2.3382201E-3,8.347826E-3,2.4737213E-3,-2.6437459E-3,7.3675034E-3,1.4952613E-2,-1.5224218E-7,3.3353835E-3],"categories":[],"categories_nodes":[],"categories_segments":[],"categories_sizes":[],"default_left":[0,0,0,0,0,0,0,0,0,0,0,0,0,0,0,0,0,0,0,0,0,0,0],"id":29,"left_children":[1,3,5,7,9,11,-1,-1,13,15,17,19,21,-1,-1,-1,-1,-1,-1,-1,-1,-1,-1],"loss_changes":[4.2279408E1,2.887583E1,8.769787E0,8.066368E-1,2.7593807E1,1.0455992E1,0E0,0E0,6.257963E-1,5.881216E0,3.0266275E1,6.421108E-1,8.9665234E-1,0E0,0E0,0E0,0E0,0E0,0E0,0E0,0E0,0E0,0E0],"parents":[2147483647,0,0,1,1,2,2,3,3,4,4,5,5,8,8,9,9,10,10,11,11,12,12],"right_children":[2,4,6,8,10,12,-1,-1,14,16,18,20,22,-1,-1,-1,-1,-1,-1,-1,-1,-1,-1],"split_conditions":[7.386E0,1.2E1,4.397597E2,4.038961E-1,5E0,9.99E0,1.6306043E-2,-1.3605752E-2,3.33E0,5.9860703E1,4.418E2,4.26E-1,5.812476E1,-3.417843E-3,-9.180963E-3,2.3382201E-3,8.347826E-3,2.4737213E-3,-2.6437459E-3,7.3675034E-3,1.4952613E-2,-1.5224218E-7,3.3353835E-3],"split_indices":[23,25,52,27,23,7,0,0,7,42,53,27,42,0,0,0,0,0,0,0,0,0,0],"split_type":[0,0,0,0,0,0,0,0,0,0,0,0,0,0,0,0,0,0,0,0,0,0,0],"sum_hessian":[6.79E2,6.2E2,5.9E1,2.8E1,5.92E2,4.9E1,1E1,1E1,1.8E1,7E1,5.22E2,1.8E1,3.1E1,7E0,1.1E1,3.3E1,3.7E1,1.7E2,3.52E2,1E1,8E0,1.1E1,2E1],"tree_param":{"num_deleted":"0","num_feature":"64","num_nodes":"23","size_leaf_vector":"1"}},{"base_weights":[1.3330383E-2,1.3794884E-1,-5.647461E-1,4.7137138E-1,-7.0028536E-2,-7.83741E-1,1.5336479E-1,1.6166127E0,3.5064793E-1,-6.9561726E-1,2.1221837E-1,-1.463125E-2,-6.3888067E-1,-3.061679E-1,5.8131167E-3,2.6369162E-2,5.4549957E-3,-3.7137358E-3,5.2157342E-3,-8.110504E-3,1.2189138E-2,2.7143226E-3,-1.379579E-2,-2.139582E-3,-8.086472E-3,-5.389126E-3,-0E0],"categories":[],"categories_nodes":[],"categories_segments":[],"categories_sizes":[],"default_left":[0,0,0,0,0,0,0,0,0,0,0,0,0,0,0,0,0,0,0,0,0,0,0,0,0,0,0],"id":30,"left_children":[1,3,5,7,9,11,13,15,17,19,21,-1,23,25,-1,-1,-1,-1,-1,-1,-1,-1,-1,-1,-1,-1,-1],"loss_changes":[4.7757336E1,3.8026466E1,1.8784733E1,2.7859451E1,5.9910652E1,7.084091E0,5.9266815E0,1.851664E1,2.407737E1,2.4716854E1,2.2348969E1,0E0,5.1266193E0,1.1094153E0,0E0,0E0,0E0,0E0,0E0,0E0,0E0,0E0,0E0,0E0,0E0,0E0,0E0],"parents":[2147483647,0,0,1,1,2,2,3,3,4,4,5,5,6,6,7,7,8,8,9,9,10,10,12,12,13,13],"right_children":[2,4,6,8,10,12,14,16,18,20,22,-1,24,26,-1,-1,-1,-1,-1,-1,-1,-1,-1,-1,-1,-1,-1],"split_conditions":[5.03E0,4.45E2,9.311861E-1,2.31E0,4.5092E2,6.753247E-1,4.3738E2,4.3409E2,1.1E1,5.16E0,5.3E1,-1.463125E-2,5.99473E0,6.653455E-1,5.8131167E-3,2.6369162E-2,5.4549957E-3,-3.7137358E-3,5.2157342E-3,-8.110504E-3,1.2189138E-2,2.7143226E-3,-1.379579E-2,-2.139582E-3,-8.086472E-3,-5.389126E-3,-0E0],"split_indices":[10,54,58,10,52,33,52,52,9,7,9,0,2,40,0,0,0,0,0,0,0,0,0,0,0,0,0],"split_type":[0,0,0,0,0,0,0,0,0,0,0,0,0,0,0,0,0,0,0,0,0,0,0,0,0,0,0],"sum_hessian":[6.61E2,5.45E2,1.16E2,2.09E2,3.36E2,8.9E1,2.7E1,1.8E1,1.91E2,1.04E2,2.32E2,1.3E1,7.6E1,1.3E1,1.4E1,8E0,1E1,3.6E1,1.55E2,9.9E1,5E0,2.25E2,7E0,2.3E1,5.3E1,7E0,6E0],"tree_param":{"num_deleted":"0","num_feature":"64","num_nodes":"27","size_leaf_vector":"1"}},{"base_weights":[-2.4043035E-2,-1.1389859E-1,8.799715E-1,1.1527774E-1,-3.4847453E-1,6.3132465E-1,2.484144E-2,5.9862256E-2,1.6657002E-2,-4.2599857E-1,9.3914527E-1,1.15449475E-2,3.4264114E-1,-6.294788E-3,1.6704587E-3,1.5444444E-3,-5.752212E-3,9.7401225E-4,1.6115505E-2,5.390952E-4,5.683764E-3],"categories":[],"categories_nodes":[],"categories_segments":[],"categories_sizes":[],"default_left":[0,0,0,0,0,0,0,0,0,0,0,0,0,0,0,0,0,0,0,0,0],"id":31,"left_children":[1,3,5,7,9,11,-1,13,-1,15,17,-1,19,-1,-1,-1,-1,-1,-1,-1,-1],"loss_changes":[5.43811E1,3.292692E1,2.1156242E1,2.609676E1,3.0693474E1,7.3383713E0,0E0,2.2268005E1,0E0,2.5032677E1,9.327639E0,0E0,2.2737155E0,0E0,0E0,0E0,0E0,0E0,0E0,0E0,0E0],"parents":[2147483647,0,0,1,1,2,2,3,3,4,4,5,5,7,7,9,9,10,10,12,12],"right_children":[2,4,6,8,10,12,-1,14,-1,16,18,-1,20,-1,-1,-1,-1,-1,-1,-1,-1],"split_conditions":[1.6936637E-2,2.81E0,1.435E1,7.321118E1,1.3474249E-2,9.99E0,2.484144E-2,2.92E0,1.6657002E-2,-8.2408525E-2,2E0,1.15449475E-2,6.3190445E1,-6.294788E-3,1.6704587E-3,1.5444444E-3,-5.752212E-3,9.7401225E-4,1.6115505E-2,5.390952E-4,5.683764E-3],"split_indices":[24,32,7,62,21,7,0,16,0,58,37,0,62,0,0,0,0,0,0,0,0],"split_type":[0,0,0,0,0,0,0,0,0,0,0,0,0,0,0,0,0,0,0,0,0],"sum_hessian":[6.68E2,6.09E2,5.9E1,3.08E2,3.01E2,5.3E1,6E0,2.99E2,9E0,2.85E2,1.6E1,1.7E1,3.6E1,3.9E1,2.6E2,5.8E1,2.27E2,8E0,8E0,1.7E1,1.9E1],"tree_param":{"num_deleted":"0","num_feature":"64","num_nodes":"21","size_leaf_vector":"1"}},{"base_weights":[3.5137232E-2,-5.4283734E-2,8.943491E-1,2.6965547E-1,-2.0620853E-1,6.6068226E-1,2.4802582E-2,-6.111842E-1,4.4349527E-1,-3.0545968E-1,5.328645E-1,1.3422992E-2,4.322679E-1,-7.837579E-3,2.292086E-3,1.5355201E-2,2.9968843E-3,-3.841178E-3,3.764806E-3,7.7175675E-3,-9.3261665E-3,1.0419509E-4,6.763308E-3],"categories":[],"categories_nodes":[],"categories_segments":[],"categories_sizes":[],"default_left":[0,0,0,0,0,0,0,0,0,0,0,0,0,0,0,0,0,0,0,0,0,0,0],"id":32,"left_children":[1,3,5,7,9,11,-1,13,15,17,19,-1,21,-1,-1,-1,-1,-1,-1,-1,-1,-1,-1],"loss_changes":[5.1756393E1,3.001768E1,2.0445293E1,3.0155857E1,3.0677198E1,7.7269764E0,0E0,5.0938406E0,2.461884E1,1.9931202E1,1.8377018E1,0E0,4.536648E0,0E0,0E0,0E0,0E0,0E0,0E0,0E0,0E0,0E0,0E0],"parents":[2147483647,0,0,1,1,2,2,3,3,4,4,5,5,7,7,8,8,9,9,10,10,12,12],"right_children":[2,4,6,8,10,12,-1,14,16,18,20,-1,22,-1,-1,-1,-1,-1,-1,-1,-1,-1,-1],"split_conditions":[7.386E0,2.77E0,1.435E1,4.7283275E-3,3E0,4.3286E2,2.4802582E-2,3.15E-1,4.341E2,1.7085946E0,6.97594E1,1.3422992E-2,1.9E1,-7.837579E-3,2.292086E-3,1.5355201E-2,2.9968843E-3,-3.841178E-3,3.764806E-3,7.7175675E-3,-9.3261665E-3,1.0419509E-4,6.763308E-3],"split_indices":[23,7,7,60,37,54,0,63,54,33,42,0,6,0,0,0,0,0,0,0,0,0,0],"split_type":[0,0,0,0,0,0,0,0,0,0,0,0,0,0,0,0,0,0,0,0,0,0,0],"sum_hessian":[6.69E2,6.07E2,6.2E1,1.93E2,4.14E2,5.6E1,6E0,3.1E1,1.62E2,3.66E2,4.8E1,1.2E1,4.4E1,2.6E1,5E0,1.7E1,1.45E2,3.29E2,3.7E1,4.2E1,6E0,1.7E1,2.7E1],"tree_param":{"num_deleted":"0","num_feature":"64","num_nodes":"23","size_leaf_vector":"1"}},{"base_weights":[-2.1829337E-2,-5.4396145E-2,2.2042463E-2,5.6453273E-2,-5.239103E-1,-6.788582E-1,1.8020003E-1,-1.0126342E0,-1.9903673E-1,-1.0305005E-2,-9.12746E-4,9.621466E-3,8.621054E-4,-1.1196375E-2,-1.5618771E-4,1.3001596E-3,-1.0744774E-2],"categories":[],"categories_nodes":[],"categories_segments":[],"categories_sizes":[],"default_left":[0,0,0,0,0,0,0,0,0,0,0,0,0,0,0,0,0],"id":33,"left_children":[1,3,-1,5,7,9,11,13,15,-1,-1,-1,-1,-1,-1,-1,-1],"loss_changes":[4.7778603E1,3.420155E1,0E0,4.835524E1,1.9381409E1,1.5440933E1,3.314277E1,5.0275726E0,2.2723566E1,0E0,0E0,0E0,0E0,0E0,0E0,0E0,0E0],"parents":[2147483647,0,0,1,1,3,3,4,4,5,5,6,6,7,7,8,8],"right_children":[2,4,-1,6,8,10,12,14,16,-1,-1,-1,-1,-1,-1,-1,-1],"split_conditions":[1.558E1,5.03E0,2.2042463E-2,9.167049E-3,8.721461E-1,4.5092E2,4.3346E2,1.989555E6,4.5877E2,-1.0305005E-2,-9.12746E-4,9.621466E-3,8.621054E-4,-1.1196375E-2,-1.5618771E-4,1.3001596E-3,-1.0744774E-2],"split_indices":[7,10,0,17,33,52,52,43,52,0,0,0,0,0,0,0,0],"split_type":[0,0,0,0,0,0,0,0,0,0,0,0,0,0,0,0,0],"sum_hessian":[6.61E2,6.53E2,8E0,5.29E2,1.24E2,7.5E1,4.54E2,4.8E1,7.6E1,4.6E1,2.9E1,4.7E1,4.07E2,4.3E1,5E0,5.6E1,2E1],"tree_param":{"num_deleted":"0","num_feature":"64","num_nodes":"17","size_leaf_vector":"1"}},{"base_weights":[-3.236438E-2,-1.458473E-1,4.869933E-1,-3.9164224E-1,1.0841413E-1,2.198305E-2,7.2709054E-1,7.01663E-2,-8.608158E-1,5.9758574E-1,-1.8545413E-1,-5.8725635E-3,2.7714756E-1,4.406209E-1,1.1793575E0,1.4258491E-2,-1.227292E-3,3.0120027E-3,-9.388387E-3,8.492307E-3,-5.62257E-3,-1.1430515E-2,3.7737744E-4,5.5903196E-3,-4.1318075E-3,1.3113467E-2,2.4621852E-3,8.450817E-3,1.9196467E-2],"categories":[],"categories_nodes":[],"categories_segments":[],"categories_sizes":[],"default_left":[0,0,0,0,0,0,0,0,0,0,0,0,0,0,0,0,0,0,0,0,0,0,0,0,0,0,0,0,0],"id":34,"left_children":[1,3,5,7,9,11,13,15,17,19,21,-1,23,25,27,-1,-1,-1,-1,-1,-1,-1,-1,-1,-1,-1,-1,-1,-1],"loss_changes":[3.8318695E1,3.352454E1,1.2833162E1,5.9290855E1,3.812732E1,6.6335487E0,8.807926E0,3.674157E1,1.2836662E1,2.9814552E1,3.565774E1,0E0,6.3107214E0,7.5830936E0,4.0662956E0,0E0,0E0,0E0,0E0,0E0,0E0,0E0,0E0,0E0,0E0,0E0,0E0,0E0,0E0],"parents":[2147483647,0,0,1,1,2,2,3,3,4,4,5,5,6,6,7,7,8,8,9,9,10,10,12,12,13,13,14,14],"right_children":[2,4,6,8,10,12,14,16,18,20,22,-1,24,26,28,-1,-1,-1,-1,-1,-1,-1,-1,-1,-1,-1,-1,-1,-1],"split_conditions":[7.386E0,4.52515E2,9.997684E0,4.4331E2,4.5815E2,4.7914684E-1,7.575979E1,5.385694E-3,4.2643993E1,3.5E1,4.6589E2,-5.8725635E-3,9.180503E1,2.5826773E-1,3.4E1,1.4258491E-2,-1.227292E-3,3.0120027E-3,-9.388387E-3,8.492307E-3,-5.62257E-3,-1.1430515E-2,3.7737744E-4,5.5903196E-3,-4.1318075E-3,1.3113467E-2,2.4621852E-3,8.450817E-3,1.9196467E-2],"split_indices":[7,55,2,55,54,39,34,11,34,6,54,0,36,33,9,0,0,0,0,0,0,0,0,0,0,0,0,0,0],"split_type":[0,0,0,0,0,0,0,0,0,0,0,0,0,0,0,0,0,0,0,0,0,0,0,0,0,0,0,0,0],"sum_hessian":[6.48E2,5.33E2,1.15E2,2.71E2,2.62E2,4E1,7.5E1,1.37E2,1.34E2,9.8E1,1.64E2,1.1E1,2.9E1,4.8E1,2.7E1,1.6E1,1.21E2,8E0,1.26E2,8.1E1,1.7E1,3E1,1.34E2,2.1E1,8E0,7E0,4.1E1,2.1E1,6E0],"tree_param":{"num_deleted":"0","num_feature":"64","num_nodes":"29","size_leaf_vector":"1"}},{"base_weights":[-5.9327064E-3,-1.1507398E-2,3.7580397E-2,1.2445505E-1,-6.322592E-1,-8.1667936E-1,1.8982384E-1,5.1627576E-1,-8.4001946E-1,-9.637267E-3,9.88757E-4,1.4755736E-3,1.1704652E-2,8.114171E-3,1.3056479E-3,-1.0482606E-2,-3.92423E-3],"categories":[],"categories_nodes":[],"categories_segments":[],"categories_sizes":[],"default_left":[0,0,0,0,0,0,0,0,0,0,0,0,0,0,0,0,0],"id":35,"left_children":[1,-1,3,5,7,9,11,13,15,-1,-1,-1,-1,-1,-1,-1,-1],"loss_changes":[3.4684147E1,0E0,3.8801495E1,3.6496727E1,1.8969698E1,5.499161E0,2.2460392E1,1.0756807E0,5.1999397E0,0E0,0E0,0E0,0E0,0E0,0E0,0E0,0E0],"parents":[2147483647,0,0,2,2,3,3,4,4,5,5,6,6,7,7,8,8],"right_children":[2,-1,4,6,8,10,12,14,16,-1,-1,-1,-1,-1,-1,-1,-1],"split_conditions":[1.2E1,-1.1507398E-2,3.7E1,1.5E1,4.41395E2,2.2009993E-1,6.48E0,5.100046E1,4.7558655E1,-9.637267E-3,9.88757E-4,1.4755736E-3,1.1704652E-2,8.114171E-3,1.3056479E-3,-1.0482606E-2,-3.92423E-3],"split_indices":[25,0,12,18,52,45,20,1,1,0,0,0,0,0,0,0,0],"split_type":[0,0,0,0,0,0,0,0,0,0,0,0,0,0,0,0,0],"sum_hessian":[6.89E2,2.4E1,6.65E2,5.9E2,7.5E1,3.7E1,5.53E2,1.1E1,6.4E1,3.2E1,5E0,5.32E2,2.1E1,5E0,6E0,4.2E1,2.2E1],"tree_param":{"num_deleted":"0","num_feature":"64","num_nodes":"17","size_leaf_vector":"1"}},{"base_weights":[-2.1418892E-2,-5.1638458E-2,2.0301556E-2,-1.007932E0,-9.083572E-3,-1.1936001E-2,-4.4662375E-3,6.080809E-1,-9.279188E-2,1.3734244E-2,4.820225E-3,2.4859281E-3,-3.0602259E-3],"categories":[],"categories_nodes":[],"categories_segments":[],"categories_sizes":[],"default_left":[0,0,0,0,0,0,0,0,0,0,0,0,0],"id":36,"left_children":[1,3,-1,5,7,-1,-1,9,11,-1,-1,-1,-1],"loss_changes":[4.058703E1,2.6254936E1,0E0,1.7382908E0,3.224437E1,0E0,0E0,5.82349E0,4.0271324E1,0E0,0E0,0E0,0E0],"parents":[2147483647,0,0,1,1,3,3,4,4,7,7,8,8],"right_children":[2,4,-1,6,8,-1,-1,10,12,-1,-1,-1,-1],"split_conditions":[1.558E1,1.2E1,2.0301556E-2,1E1,5E0,-1.1936001E-2,-4.4662375E-3,2.54E0,4.4327E2,1.3734244E-2,4.820225E-3,2.4859281E-3,-3.0602259E-3],"split_indices":[7,25,0,25,23,0,0,23,52,0,0,0,0],"split_type":[0,0,0,0,0,0,0,0,0,0,0,0,0],"sum_hessian":[6.57E2,6.49E2,8E0,2.6E1,6.23E2,1.8E1,8E0,7.3E1,5.5E2,8E0,6.5E1,2.11E2,3.39E2],"tree_param":{"num_deleted":"0","num_feature":"64","num_nodes":"13","size_leaf_vector":"1"}},{"base_weights":[5.547332E-3,1.09354034E-1,-6.5730447E-1,5.807494E-2,1.3387452E0,-8.775585E-1,1.2196888E-1,-8.920727E-1,1.17393106E-1,1.7027439E-3,1.6299313E0,-6.5456474E-1,-1.4645757E-2,-5.3655496E-3,3.824205E-1,-2.973042E-3,-1.1176782E-2,1.8704034E-3,-5.8792047E-3,9.790641E-3,2.362057E-2,-7.431806E-3,3.454649E-4,-4.0273558E-4,7.2129085E-3],"categories":[],"categories_nodes":[],"categories_segments":[],"categories_sizes":[],"default_left":[0,0,0,0,0,0,0,0,0,0,0,0,0,0,0,0,0,0,0,0,0,0,0,0,0],"id":37,"left_children":[1,3,5,7,9,11,13,15,17,-1,19,21,-1,-1,23,-1,-1,-1,-1,-1,-1,-1,-1,-1,-1],"loss_changes":[4.7028812E1,3.6956436E1,1.6188198E1,3.2156105E1,7.2193527E0,7.628517E0,3.9645E0,3.7136993E0,2.6537588E1,0E0,4.6784286E0,3.5694122E0,0E0,0E0,2.5432124E0,0E0,0E0,0E0,0E0,0E0,0E0,0E0,0E0,0E0,0E0],"parents":[2147483647,0,0,1,1,2,2,3,3,4,4,5,5,6,6,7,7,8,8,10,10,11,11,14,14],"right_children":[2,4,6,8,10,12,14,16,18,-1,20,22,-1,-1,24,-1,-1,-1,-1,-1,-1,-1,-1,-1,-1],"split_conditions":[3.2E1,6.42E0,7.246915E-1,1.2E1,8.6518E5,7.58378E5,9.812607E-1,4.4039E2,6.92526E-1,1.7027439E-3,3E0,6.1816E5,-1.4645757E-2,-5.3655496E-3,4.3726E2,-2.973042E-3,-1.1176782E-2,1.8704034E-3,-5.8792047E-3,9.790641E-3,2.362057E-2,-7.431806E-3,3.454649E-4,-4.0273558E-4,7.2129085E-3],"split_indices":[12,20,38,18,43,43,33,54,38,0,26,43,0,0,54,0,0,0,0,0,0,0,0,0,0],"split_type":[0,0,0,0,0,0,0,0,0,0,0,0,0,0,0,0,0,0,0,0,0,0,0,0,0],"sum_hessian":[6.82E2,5.91E2,9.1E1,5.69E2,2.2E1,7.1E1,2E1,3.2E1,5.37E2,5E0,1.7E1,5.4E1,1.7E1,5E0,1.5E1,1E1,2.2E1,4.9E2,4.7E1,1.1E1,6E0,4.8E1,6E0,7E0,8E0],"tree_param":{"num_deleted":"0","num_feature":"64","num_nodes":"25","size_leaf_vector":"1"}},{"base_weights":[2.6320066E-2,-4.8567973E-2,8.489729E-1,5.2485996E-1,-1.3746424E-1,6.418437E-1,2.295254E-2,2.5905106E-2,2.5543547E-1,-1.8559699E-1,9.869783E-1,1.10748075E-2,3.4495416E-1,-4.837259E-3,4.986918E-3,-2.1516234E-3,1.6271139E-2,1.7775098E-2,-0E0,7.0074666E-4,7.03056E-3],"categories":[],"categories_nodes":[],"categories_segments":[],"categories_sizes":[],"default_left":[0,0,0,0,0,0,0,0,0,0,0,0,0,0,0,0,0,0,0,0,0],"id":38,"left_children":[1,3,5,7,9,11,-1,-1,13,15,17,-1,19,-1,-1,-1,-1,-1,-1,-1,-1],"loss_changes":[4.245343E1,3.2119884E1,1.4427902E1,4.5465614E1,2.9692446E1,6.394211E0,0E0,0E0,1.4119972E1,2.8406115E1,1.757643E1,0E0,3.1674776E0,0E0,0E0,0E0,0E0,0E0,0E0,0E0,0E0],"parents":[2147483647,0,0,1,1,2,2,3,3,4,4,5,5,8,8,9,9,10,10,12,12],"right_children":[2,4,6,8,10,12,-1,-1,14,16,18,-1,20,-1,-1,-1,-1,-1,-1,-1,-1],"split_conditions":[7.386E0,2.35E0,1.435E1,4.3409E2,5.83E0,9.99E0,2.295254E-2,2.5905106E-2,1.145E4,4.9860217E-3,8.5569423E-1,1.10748075E-2,3.3E1,-4.837259E-3,4.986918E-3,-2.1516234E-3,1.6271139E-2,1.7775098E-2,-0E0,7.0074666E-4,7.03056E-3],"split_indices":[23,10,7,52,20,7,0,0,43,31,33,0,22,0,0,0,0,0,0,0,0],"split_type":[0,0,0,0,0,0,0,0,0,0,0,0,0,0,0,0,0,0,0,0,0],"sum_hessian":[6.84E2,6.28E2,5.6E1,8.3E1,5.45E2,5.1E1,5E0,8E0,7.5E1,5.24E2,2.1E1,1.8E1,3.3E1,1.8E1,5.7E1,5.17E2,7E0,1.1E1,1E1,2E1,1.3E1],"tree_param":{"num_deleted":"0","num_feature":"64","num_nodes":"21","size_leaf_vector":"1"}},{"base_weights":[-7.0878635E-3,-8.6266816E-2,7.537181E-1,5.488E-1,-1.7676693E-1,5.4465103E-1,2.2697965E-2,2.5430445E-2,2.2930361E-1,-3.6674252E-1,1.06856555E-1,1.5244544E-1,8.049639E-1,-5.4751E-3,4.539469E-3,-1.2241863E-4,-9.156373E-3,8.361777E-3,-2.7830016E-3,4.6062693E-3,-3.828956E-4,1.1446446E-2,4.9762363E-3],"categories":[],"categories_nodes":[],"categories_segments":[],"categories_sizes":[],"default_left":[0,0,0,0,0,0,0,0,0,0,0,0,0,0,0,0,0,0,0,0,0,0,0],"id":39,"left_children":[1,3,5,7,9,11,-1,-1,13,15,17,19,21,-1,-1,-1,-1,-1,-1,-1,-1,-1,-1],"loss_changes":[3.7403088E1,3.2514965E1,1.612502E1,4.349019E1,2.6809061E1,5.0865955E0,0E0,0E0,1.126072E1,5.7686226E1,5.650078E1,1.4922767E0,2.1056652E0,0E0,0E0,0E0,0E0,0E0,0E0,0E0,0E0,0E0,0E0],"parents":[2147483647,0,0,1,1,2,2,3,3,4,4,5,5,8,8,9,9,10,10,11,11,12,12],"right_children":[2,4,6,8,10,12,-1,-1,14,16,18,20,22,-1,-1,-1,-1,-1,-1,-1,-1,-1,-1],"split_conditions":[7.386E0,2.35E0,1.435E1,4.3409E2,4.5391E2,5.963286E1,2.2697965E-2,2.5430445E-2,1.4173229E-1,4.445E2,4.5822E2,2.3344296E1,9.99E0,-5.4751E-3,4.539469E-3,-1.2241863E-4,-9.156373E-3,8.361777E-3,-2.7830016E-3,4.6062693E-3,-3.828956E-4,1.1446446E-2,4.9762363E-3],"split_indices":[23,10,7,52,52,42,0,0,33,52,55,3,7,0,0,0,0,0,0,0,0,0,0],"split_type":[0,0,0,0,0,0,0,0,0,0,0,0,0,0,0,0,0,0,0,0,0,0,0],"sum_hessian":[6.2E2,5.63E2,5.7E1,6.9E1,4.94E2,5.2E1,5E0,8E0,6.1E1,2.96E2,1.98E2,2.2E1,3E1,1.3E1,4.8E1,1.81E2,1.15E2,6.8E1,1.3E2,8E0,1.4E1,1.2E1,1.8E1],"tree_param":{"num_deleted":"0","num_feature":"64","num_nodes":"23","size_leaf_vector":"1"}},{"base_weights":[-4.7334135E-3,-1.3922931E-1,4.1320398E-1,6.6881716E-2,-5.7724E-1,2.8779927E-1,1.2571636E0,-6.061915E-3,1.8870495E-2,-6.9034505E-1,6.4263433E-1,5.094753E-1,-1.2067067E-2,5.655632E-4,1.6260799E0,-3.7548435E-3,2.8747271E-3,-8.651531E-3,2.5347352E-3,-4.248402E-3,1.2925957E-2,2.7334488E-3,1.0864032E-2,-2.1008519E-3,4.651181E-3,2.1815388E-2,1.0308796E-2],"categories":[],"categories_nodes":[],"categories_segments":[],"categories_sizes":[],"default_left":[0,0,0,0,0,0,0,0,0,0,0,0,0,0,0,0,0,0,0,0,0,0,0,0,0,0,0],"id":40,"left_children":[1,3,5,7,9,11,13,15,-1,17,19,21,23,-1,25,-1,-1,-1,-1,-1,-1,-1,-1,-1,-1,-1,-1],"loss_changes":[3.77771E1,4.6157047E1,1.6452559E1,4.653081E1,2.323375E1,9.714077E0,8.605457E0,3.6560555E1,0E0,2.5281845E1,1.1057622E1,1.0657831E1,6.001272E0,0E0,1.1086044E0,0E0,0E0,0E0,0E0,0E0,0E0,0E0,0E0,0E0,0E0,0E0,0E0],"parents":[2147483647,0,0,1,1,2,2,3,3,4,4,5,5,6,6,7,7,9,9,10,10,11,11,12,12,14,14],"right_children":[2,4,6,8,10,12,14,16,-1,18,20,22,24,-1,26,-1,-1,-1,-1,-1,-1,-1,-1,-1,-1,-1,-1],"split_conditions":[1.5337979E-2,3.456E0,6.82E0,7.321118E1,3.56E0,6.6869705E1,5E0,4.511E2,1.8870495E-2,1.5989522E0,1.9724545E1,7.7257775E-2,3.3817808E-3,5.655632E-4,1.5E1,-3.7548435E-3,2.8747271E-3,-8.651531E-3,2.5347352E-3,-4.248402E-3,1.2925957E-2,2.7334488E-3,1.0864032E-2,-2.1008519E-3,4.651181E-3,2.1815388E-2,1.0308796E-2],"split_indices":[8,32,20,42,28,42,6,55,0,33,3,58,41,0,6,0,0,0,0,0,0,0,0,0,0,0,0],"split_type":[0,0,0,0,0,0,0,0,0,0,0,0,0,0,0,0,0,0,0,0,0,0,0,0,0,0,0],"sum_hessian":[6.7E2,5.08E2,1.62E2,3.46E2,1.62E2,1.43E2,1.9E1,3.34E2,1.2E1,1.49E2,1.3E1,8.2E1,6.1E1,5E0,1.4E1,1.48E2,1.86E2,1.26E2,2.3E1,5E0,8E0,6E1,2.2E1,4.4E1,1.7E1,5E0,9E0],"tree_param":{"num_deleted":"0","num_feature":"64","num_nodes":"27","size_leaf_vector":"1"}},{"base_weights":[3.2826103E-2,3.303111E-1,-1.3193002E-1,1.8879656E0,1.6289799E-1,-5.7073843E-1,1.14538394E-1,2.695031E-2,5.615527E-3,-2.1297784E-1,4.2050418E-1,-7.045144E-1,1.7963804E-2,5.911625E-1,-1.9015993E-1,-3.2940023E-3,7.738693E-3,5.866419E-3,-1.0740635E-3,-7.848852E-3,4.219038E-3,3.8893293E-3,1.646754E-2,1.2868217E-3,-9.303323E-3],"categories":[],"categories_nodes":[],"categories_segments":[],"categories_sizes":[],"default_left":[0,0,0,0,0,0,0,0,0,0,0,0,0,0,0,0,0,0,0,0,0,0,0,0,0],"id":41,"left_children":[1,3,5,7,9,11,13,-1,-1,15,17,19,-1,21,23,-1,-1,-1,-1,-1,-1,-1,-1,-1,-1],"loss_changes":[3.2232716E1,6.0279484E1,4.5883698E1,2.1164886E1,2.0848608E1,4.997119E1,3.9677837E1,0E0,0E0,1.0346449E1,1.1372854E1,1.37416E1,0E0,2.1366898E1,3.9633595E1,0E0,0E0,0E0,0E0,0E0,0E0,0E0,0E0,0E0,0E0],"parents":[2147483647,0,0,1,1,2,2,3,3,4,4,5,5,6,6,9,9,10,10,11,11,13,13,14,14],"right_children":[2,4,6,8,10,12,14,-1,-1,16,18,20,-1,22,24,-1,-1,-1,-1,-1,-1,-1,-1,-1,-1],"split_conditions":[4.418E2,2.74E0,4.5194E2,4.3409E2,2.7E1,2.9991858E-2,4.5815E2,2.695031E-2,5.615527E-3,3E0,1.0218309E2,3.4888792E-1,1.7963804E-2,9.9809885E-1,3.456E0,-3.2940023E-3,7.738693E-3,5.866419E-3,-1.0740635E-3,-7.848852E-3,4.219038E-3,3.8893293E-3,1.646754E-2,1.2868217E-3,-9.303323E-3],"split_indices":[53,10,53,52,9,8,54,0,0,37,35,45,0,33,4,0,0,0,0,0,0,0,0,0,0],"split_type":[0,0,0,0,0,0,0,0,0,0,0,0,0,0,0,0,0,0,0,0,0,0,0,0,0],"sum_hessian":[6.54E2,2.33E2,4.21E2,2.1E1,2.12E2,1.51E2,2.7E2,1.2E1,9E0,8.6E1,1.26E2,1.44E2,7E0,1.05E2,1.65E2,7.8E1,8E0,9.6E1,3E1,1.35E2,9E0,9E1,1.5E1,1.16E2,4.9E1],"tree_param":{"num_deleted":"0","num_feature":"64","num_nodes":"25","size_leaf_vector":"1"}},{"base_weights":[3.6207207E-2,-3.0015625E-2,6.992017E-1,3.50955E-2,-5.780395E-1,4.2413718E-1,1.043949E0,-1.589744E-1,2.84534E-1,-7.9495937E-1,4.0374205E-1,1.278327E-1,8.9993376E-1,7.0181555E-1,1.5808364E-2,8.192001E-4,-6.034309E-3,8.371298E-3,-9.12716E-4,-1.0384535E-2,-3.813593E-3,4.9524277E-4,6.0331565E-3,-1.4488609E-3,2.6076757E-3,1.2247588E-2,4.691969E-3,9.345712E-3,2.3953158E-3],"categories":[],"categories_nodes":[],"categories_segments":[],"categories_sizes":[],"default_left":[0,0,0,0,0,0,0,0,0,0,0,0,0,0,0,0,0,0,0,0,0,0,0,0,0,0,0,0,0],"id":42,"left_children":[1,3,5,7,9,11,13,15,17,19,21,23,25,27,-1,-1,-1,-1,-1,-1,-1,-1,-1,-1,-1,-1,-1,-1,-1],"loss_changes":[2.9252628E1,2.167338E1,4.779295E0,2.6257757E1,1.4296108E1,4.7676797E0,2.5633106E0,3.2780384E1,4.9585068E1,4.509941E0,7.0827055E-1,9.6806794E-1,6.880684E-1,1.4199762E0,0E0,0E0,0E0,0E0,0E0,0E0,0E0,0E0,0E0,0E0,0E0,0E0,0E0,0E0,0E0],"parents":[2147483647,0,0,1,1,2,2,3,3,4,4,5,5,6,6,7,7,8,8,9,9,10,10,11,11,12,12,13,13],"right_children":[2,4,6,8,10,12,14,16,18,20,22,24,26,28,-1,-1,-1,-1,-1,-1,-1,-1,-1,-1,-1,-1,-1,-1,-1],"split_conditions":[7.386E0,3.7E1,2.43844E5,4.5292E2,1.1555636E0,8.166903E1,4.4E2,4.45E2,4.5815E2,4.4309563E1,8.837581E1,5.543702E1,3.65E0,1.7141001E-2,1.5808364E-2,8.192001E-4,-6.034309E-3,8.371298E-3,-9.12716E-4,-1.0384535E-2,-3.813593E-3,4.9524277E-4,6.0331565E-3,-1.4488609E-3,2.6076757E-3,1.2247588E-2,4.691969E-3,9.345712E-3,2.3953158E-3],"split_indices":[23,12,43,53,39,49,53,54,54,1,35,62,4,8,0,0,0,0,0,0,0,0,0,0,0,0,0,0,0],"split_type":[0,0,0,0,0,0,0,0,0,0,0,0,0,0,0,0,0,0,0,0,0,0,0,0,0,0,0,0,0],"sum_hessian":[6.61E2,6.02E2,5.9E1,5.39E2,6.3E1,3.5E1,2.4E1,3.03E2,2.36E2,5.2E1,1.1E1,2.3E1,1.2E1,1.7E1,7E0,1.97E2,1.06E2,9.5E1,1.41E2,3.1E1,2.1E1,5E0,6E0,7E0,1.6E1,5E0,7E0,1E1,7E0],"tree_param":{"num_deleted":"0","num_feature":"64","num_nodes":"29","size_leaf_vector":"1"}},{"base_weights":[-4.3527685E-2,-1.05710104E-1,6.414301E-1,2.7391043E-1,-1.8521316E-1,2.834632E-1,9.4605964E-1,2.2453858E-2,1.3898124E-1,-7.1962464E-1,-9.803028E-2,6.975288E-3,8.1280164E-2,3.6045767E-3,1.0693008E0,-6.272992E-3,3.1071114E-3,2.4467288E-3,-9.5153395E-3,-9.571132E-3,-4.7882547E-4,-2.2567333E-4,1.8288698E-3,1.3409326E-2,6.7508337E-3],"categories":[],"categories_nodes":[],"categories_segments":[],"categories_sizes":[],"default_left":[0,0,0,0,0,0,0,0,0,0,0,0,0,0,0,0,0,0,0,0,0,0,0,0,0],"id":43,"left_children":[1,3,5,7,9,11,13,-1,15,17,19,-1,21,-1,23,-1,-1,-1,-1,-1,-1,-1,-1,-1,-1],"loss_changes":[2.7913834E1,1.8242409E1,5.2949142E0,2.6853031E1,2.300312E1,2.0614145E0,1.1927452E0,0E0,1.3322575E1,1.6032848E1,1.8319736E1,0E0,2.5456294E-1,0E0,6.482792E-1,0E0,0E0,0E0,0E0,0E0,0E0,0E0,0E0,0E0,0E0],"parents":[2147483647,0,0,1,1,2,2,3,3,4,4,5,5,6,6,8,8,9,9,10,10,12,12,14,14],"right_children":[2,4,6,8,10,12,14,-1,16,18,20,-1,22,-1,24,-1,-1,-1,-1,-1,-1,-1,-1,-1,-1],"split_conditions":[7.386E0,2.83E0,7.1773605E1,4.3304E2,4.58E0,7.8E0,5.579756E1,2.2453858E-2,1.4173229E-1,6.7983086E1,1.2E1,6.975288E-3,-5.4874703E-2,3.6045767E-3,3.7515014E-1,-6.272992E-3,3.1071114E-3,2.4467288E-3,-9.5153395E-3,-9.571132E-3,-4.7882547E-4,-2.2567333E-4,1.8288698E-3,1.3409326E-2,6.7508337E-3],"split_indices":[23,10,49,55,10,7,42,0,33,49,25,0,38,0,38,0,0,0,0,0,0,0,0,0,0],"split_type":[0,0,0,0,0,0,0,0,0,0,0,0,0,0,0,0,0,0,0,0,0,0,0,0,0],"sum_hessian":[6.54E2,6.01E2,5.3E1,1.03E2,4.98E2,2.6E1,2.7E1,5E0,9.8E1,6.8E1,4.3E2,7E0,1.9E1,6E0,2.1E1,1.7E1,8.1E1,1.3E1,5.5E1,2.2E1,4.08E2,9E0,1E1,1E1,1.1E1],"tree_param":{"num_deleted":"0","num_feature":"64","num_nodes":"25","size_leaf_vector":"1"}},{"base_weights":[-4.907514E-2,-1.459117E-1,5.8029926E-1,-5.719967E-2,-6.2503797E-1,4.096899E-1,1.7051144E-2,2.5379052E-2,-7.576723E-1,-8.7139255E-1,6.5760094E-1,1.2267076E0,1.7340349E-1,-9.347226E-3,9.0447976E-4,-4.0365774E-3,-1.05927475E-2,-1.1384487E-2,-2.3337437E-3,-4.5123044E-3,1.5434638E-2,3.7520765E-3,1.9383768E-2,4.893051E-3,-2.0002844E-3],"categories":[],"categories_nodes":[],"categories_segments":[],"categories_sizes":[],"default_left":[0,0,0,0,0,0,0,0,0,0,0,0,0,0,0,0,0,0,0,0,0,0,0,0,0],"id":44,"left_children":[1,3,5,7,9,11,-1,13,15,17,19,21,23,-1,-1,-1,-1,-1,-1,-1,-1,-1,-1,-1,-1],"loss_changes":[3.864971E1,2.3208523E1,1.4745077E1,2.7159588E1,2.791893E1,1.39761915E1,0E0,2.610282E1,4.3512363E0,1.1680141E1,1.5506085E1,8.445116E0,7.341717E0,0E0,0E0,0E0,0E0,0E0,0E0,0E0,0E0,0E0,0E0,0E0,0E0],"parents":[2147483647,0,0,1,1,2,2,3,3,4,4,5,5,7,7,8,8,9,9,10,10,11,11,12,12],"right_children":[2,4,6,8,10,12,-1,14,16,18,20,22,24,-1,-1,-1,-1,-1,-1,-1,-1,-1,-1,-1,-1],"split_conditions":[6.84E0,6.264951E-1,4.3916E2,3.7E1,1.5777078E0,4.328E2,1.7051144E-2,1.2E1,9.446E3,6.84E0,8.094703E1,2.0982826E-1,3.8E1,-9.347226E-3,9.0447976E-4,-4.0365774E-3,-1.05927475E-2,-1.1384487E-2,-2.3337437E-3,-4.5123044E-3,1.5434638E-2,3.7520765E-3,1.9383768E-2,4.893051E-3,-2.0002844E-3],"split_indices":[23,39,55,12,33,55,0,25,43,7,34,39,25,0,0,0,0,0,0,0,0,0,0,0,0],"split_type":[0,0,0,0,0,0,0,0,0,0,0,0,0,0,0,0,0,0,0,0,0,0,0,0,0],"sum_hessian":[6.32E2,5.49E2,8.3E1,4.65E2,8.4E1,7.4E1,9E0,4.17E2,4.8E1,7.1E1,1.3E1,1.5E1,5.9E1,2.5E1,3.92E2,2.4E1,2.4E1,4.9E1,2.2E1,6E0,7E0,8E0,7E0,3.2E1,2.7E1],"tree_param":{"num_deleted":"0","num_feature":"64","num_nodes":"25","size_leaf_vector":"1"}},{"base_weights":[3.0413347E-3,-1.261383E-1,4.3281484E-1,7.1433686E-2,-5.459693E-1,3.5039046E-1,2.1979256E-2,1.2259199E-2,1.9611252E-2,-6.1925596E-1,1.0853491E-2,1.0495423E0,2.223243E-1,-2.7892499E-3,2.4478422E-3,-7.2219498E-3,-3.2033317E-4,-0E0,1.3453821E-2,-3.998623E-3,3.3758767E-3],"categories":[],"categories_nodes":[],"categories_segments":[],"categories_sizes":[],"default_left":[0,0,0,0,0,0,0,0,0,0,0,0,0,0,0,0,0,0,0,0,0],"id":45,"left_children":[1,3,5,7,9,11,-1,13,-1,15,-1,17,19,-1,-1,-1,-1,-1,-1,-1,-1],"loss_changes":[3.7090443E1,4.2663666E1,2.0813051E1,3.8650883E1,2.0581554E1,1.2781506E1,0E0,2.3150028E1,0E0,9.395485E0,0E0,6.8912983E0,9.405449E0,0E0,0E0,0E0,0E0,0E0,0E0,0E0,0E0],"parents":[2147483647,0,0,1,1,2,2,3,3,4,4,5,5,7,7,9,9,11,11,12,12],"right_children":[2,4,6,8,10,12,-1,14,-1,16,-1,18,20,-1,-1,-1,-1,-1,-1,-1,-1],"split_conditions":[6.84E0,3.44E0,1.558E1,7.321118E1,3.5531083E-3,4.3322E2,2.1979256E-2,4.5174E2,1.9611252E-2,4.901834E1,1.0853491E-2,-5.0966877E-1,4.342968E2,-2.7892499E-3,2.4478422E-3,-7.2219498E-3,-3.2033317E-4,-0E0,1.3453821E-2,-3.998623E-3,3.3758767E-3],"split_indices":[7,32,23,42,31,53,0,54,0,1,0,38,53,0,0,0,0,0,0,0,0],"split_type":[0,0,0,0,0,0,0,0,0,0,0,0,0,0,0,0,0,0,0,0,0],"sum_hessian":[6.64E2,5.11E2,1.53E2,3.48E2,1.63E2,1.48E2,5E0,3.39E2,9E0,1.57E2,6E0,2.1E1,1.27E2,1.5E2,1.89E2,1.33E2,2.4E1,5E0,1.6E1,1.9E1,1.08E2],"tree_param":{"num_deleted":"0","num_feature":"64","num_nodes":"21","size_leaf_vector":"1"}},{"base_weights":[1.5137624E-2,-8.3080456E-2,6.404823E-1,-1.1016058E-1,1.5779756E-2,5.1459265E-1,2.1759452E-2,2.0254055E-1,-2.5358447E-1,1.4700563E0,3.33277E-1,-9.637525E-3,3.6240467E-3,-3.396723E-3,2.5793216E-3,7.1738604E-3,2.0843042E-2,-5.884956E-4,7.487759E-3],"categories":[],"categories_nodes":[],"categories_segments":[],"categories_sizes":[],"default_left":[0,0,0,0,0,0,0,0,0,0,0,0,0,0,0,0,0,0,0],"id":46,"left_children":[1,3,5,7,-1,9,-1,11,13,15,17,-1,-1,-1,-1,-1,-1,-1,-1],"loss_changes":[4.229481E1,2.6663765E1,1.5855751E1,2.6346231E1,0E0,1.42362175E1,0E0,3.480337E1,1.7871998E1,3.4381866E0,1.2668086E1,0E0,0E0,0E0,0E0,0E0,0E0,0E0,0E0],"parents":[2147483647,0,0,1,1,2,2,3,3,5,5,7,7,8,8,9,9,10,10],"right_children":[2,4,6,8,-1,10,-1,12,14,16,18,-1,-1,-1,-1,-1,-1,-1,-1],"split_conditions":[6.84E0,4.9860217E-3,1.435E1,2.56E0,1.5779756E-2,4.316E2,2.1759452E-2,1.5E1,4.7035E2,8.084551E1,1.9E1,-9.637525E-3,3.6240467E-3,-3.396723E-3,2.5793216E-3,7.1738604E-3,2.0843042E-2,-5.884956E-4,7.487759E-3],"split_indices":[23,31,7,7,0,54,0,18,54,51,6,0,0,0,0,0,0,0,0],"split_type":[0,0,0,0,0,0,0,0,0,0,0,0,0,0,0,0,0,0,0],"sum_hessian":[6.84E2,5.92E2,9.2E1,5.84E2,8E0,8.7E1,5E0,1.83E2,4.01E2,1.2E1,7.5E1,2.1E1,1.62E2,3.44E2,5.7E1,7E0,5E0,3.9E1,3.6E1],"tree_param":{"num_deleted":"0","num_feature":"64","num_nodes":"19","size_leaf_vector":"1"}},{"base_weights":[-1.2943662E-2,-4.2330824E-2,2.0607226E-2,-1.0257665E0,5.374853E-3,-4.720849E-3,-1.1468948E0,3.0351624E-1,-1.5114497E-1,-1.2692552E-2,-4.843759E-3,1.846186E-2,1.6213772E-3,-5.9571234E-3,9.431468E-4],"categories":[],"categories_nodes":[],"categories_segments":[],"categories_sizes":[],"default_left":[0,0,0,0,0,0,0,0,0,0,0,0,0,0,0],"id":47,"left_children":[1,3,-1,5,7,-1,9,11,13,-1,-1,-1,-1,-1,-1],"loss_changes":[4.1440025E1,3.195066E1,0E0,9.7665024E-1,3.0268234E1,0E0,7.131958E-1,4.7894768E1,4.6507423E1,0E0,0E0,0E0,0E0,0E0,0E0],"parents":[2147483647,0,0,1,1,3,3,4,4,6,6,7,7,8,8],"right_children":[2,4,-1,6,8,-1,10,12,14,-1,-1,-1,-1,-1,-1],"split_conditions":[1.558E1,1.2E1,2.0607226E-2,2.3738552E1,4.418E2,-4.720849E-3,8.080592E-1,2.31E0,4.5292E2,-1.2692552E-2,-4.843759E-3,1.846186E-2,1.6213772E-3,-5.9571234E-3,9.431468E-4],"split_indices":[7,25,0,1,53,0,33,10,53,0,0,0,0,0,0],"split_type":[0,0,0,0,0,0,0,0,0,0,0,0,0,0,0],"sum_hessian":[6.83E2,6.75E2,8E0,3E1,6.45E2,7E0,2.3E1,2.22E2,4.23E2,1.8E1,5E0,1.7E1,2.05E2,1.5E2,2.73E2],"tree_param":{"num_deleted":"0","num_feature":"64","num_nodes":"15","size_leaf_vector":"1"}},{"base_weights":[1.0751162E-2,-1.4653208E-2,2.2454478E-2,2.5512943E-1,-1.5704295E-1,1.2633626E0,1.4134978E-1,-6.348468E-1,1.003633E-1,2.4295976E-2,4.8865024E-3,-2.9767628E-3,4.7191815E-3,5.6723086E-3,-7.3716724E-3,5.0932346E-3,-2.1999942E-3],"categories":[],"categories_nodes":[],"categories_segments":[],"categories_sizes":[],"default_left":[0,0,0,0,0,0,0,0,0,0,0,0,0,0,0,0,0],"id":48,"left_children":[1,3,-1,5,7,9,11,13,15,-1,-1,-1,-1,-1,-1,-1,-1],"loss_changes":[3.7879253E1,2.51058E1,0E0,2.5319748E1,5.2903557E1,1.7964188E1,2.992427E1,1.9172276E1,3.68448E1,0E0,0E0,0E0,0E0,0E0,0E0,0E0,0E0],"parents":[2147483647,0,0,1,1,3,3,4,4,5,5,6,6,7,7,8,8],"right_children":[2,4,-1,6,8,10,12,14,16,-1,-1,-1,-1,-1,-1,-1,-1],"split_conditions":[1.558E1,4.418E2,2.2454478E-2,2.78E0,4.5222E2,4.3409E2,2.8E1,-3.4723452E-1,4.603E2,2.4295976E-2,4.8865024E-3,-2.9767628E-3,4.7191815E-3,5.6723086E-3,-7.3716724E-3,5.0932346E-3,-2.1999942E-3],"split_indices":[7,53,0,10,53,52,9,59,52,0,0,0,0,0,0,0,0],"split_type":[0,0,0,0,0,0,0,0,0,0,0,0,0,0,0,0,0],"sum_hessian":[6.57E2,6.51E2,6E0,2.24E2,4.27E2,2.1E1,2.03E2,1.49E2,2.78E2,7E0,1.4E1,8.7E1,1.16E2,1.1E1,1.38E2,1.22E2,1.56E2],"tree_param":{"num_deleted":"0","num_feature":"64","num_nodes":"17","size_leaf_vector":"1"}},{"base_weights":[-2.5941557E-4,-9.540033E-2,6.7574996E-1,3.7997025E-1,-1.7389809E-1,5.104691E-1,2.2438733E-2,-8.832134E-1,5.674756E-1,1.9697596E-1,-3.205909E-1,1.2252824E0,3.0952224E-1,-1.2010068E-2,-3.308324E-3,1.268081E-2,4.6519297E-3,1.5642313E-2,4.5892954E-4,-6.699702E-3,-9.0064044E-4,3.1272771E-3,1.5638633E-2,-5.16327E-3,5.2087526E-3],"categories":[],"categories_nodes":[],"categories_segments":[],"categories_sizes":[],"default_left":[0,0,0,0,0,0,0,0,0,0,0,0,0,0,0,0,0,0,0,0,0,0,0,0,0],"id":49,"left_children":[1,3,5,7,9,11,-1,13,15,17,19,21,23,-1,-1,-1,-1,-1,-1,-1,-1,-1,-1,-1,-1],"loss_changes":[4.4069355E1,2.2540503E1,1.9631775E1,2.0939653E1,2.8328213E1,1.0399858E1,0E0,1.1163788E0,4.1788025E0,3.003923E1,2.9759125E1,3.989151E0,1.1487978E1,0E0,0E0,0E0,0E0,0E0,0E0,0E0,0E0,0E0,0E0,0E0,0E0],"parents":[2147483647,0,0,1,1,2,2,3,3,4,4,5,5,7,7,8,8,9,9,10,10,11,11,12,12],"right_children":[2,4,6,8,10,12,-1,14,16,18,20,22,24,-1,-1,-1,-1,-1,-1,-1,-1,-1,-1,-1,-1],"split_conditions":[6.84E0,5E0,1.435E1,1.1E1,4.4327E2,4.335E2,2.2438733E-2,2.9044911E-2,4.4393465E-3,6.443473E-3,4.5222E2,-5.5099085E-2,3.24E-1,-1.2010068E-2,-3.308324E-3,1.268081E-2,4.6519297E-3,1.5642313E-2,4.5892954E-4,-6.699702E-3,-9.0064044E-4,3.1272771E-3,1.5638633E-2,-5.16327E-3,5.2087526E-3],"split_indices":[23,23,7,9,52,53,0,39,8,11,53,39,27,0,0,0,0,0,0,0,0,0,0,0,0],"split_type":[0,0,0,0,0,0,0,0,0,0,0,0,0,0,0,0,0,0,0,0,0,0,0,0,0],"sum_hessian":[6.84E2,6.01E2,8.3E1,8.4E1,5.17E2,7.7E1,6E0,1E1,7.4E1,1.46E2,3.71E2,1.5E1,6.2E1,5E0,5E0,7E0,6.7E1,1.3E1,1.33E2,1.46E2,2.25E2,5E0,1E1,1.2E1,5E1],"tree_param":{"num_deleted":"0","num_feature":"64","num_nodes":"25","size_leaf_vector":"1"}},{"base_weights":[-1.543987E-2,-7.898871E-2,6.661543E-1,4.5064262E-1,-1.4588064E-1,4.5497245E-1,1.7797371E-2,2.5541127E-2,2.9367516E-2,-3.7385285E-1,8.885343E-2,9.478784E-3,1.5642859E-1,-3.4870731E-3,1.1492614E-2,-5.6432514E-4,-7.4177426E-3,5.3527225E-3,-2.0341075E-3,-2.0420642E-4,3.3129822E-3],"categories":[],"categories_nodes":[],"categories_segments":[],"categories_sizes":[],"default_left":[0,0,0,0,0,0,0,0,0,0,0,0,0,0,0,0,0,0,0,0,0],"id":50,"left_children":[1,3,5,7,9,11,-1,-1,13,15,17,-1,19,-1,-1,-1,-1,-1,-1,-1,-1],"loss_changes":[2.9220457E1,2.1985338E1,1.1860651E1,6.095749E1,2.9619162E1,6.9880056E0,0E0,0E0,2.5953764E1,3.2535973E1,3.578338E1,0E0,1.1083298E0,0E0,0E0,0E0,0E0,0E0,0E0,0E0,0E0],"parents":[2147483647,0,0,1,1,2,2,3,3,4,4,5,5,8,8,9,9,10,10,12,12],"right_children":[2,4,6,8,10,12,-1,-1,14,16,18,-1,20,-1,-1,-1,-1,-1,-1,-1,-1],"split_conditions":[7.386E0,4.3443E2,4.397597E2,2.74E0,4.5222E2,9.99E0,1.7797371E-2,2.5541127E-2,3E0,4.45E2,4.5815E2,9.478784E-3,2.686859E-1,-3.4870731E-3,1.1492614E-2,-5.6432514E-4,-7.4177426E-3,5.3527225E-3,-2.0341075E-3,-2.0420642E-4,3.3129822E-3],"split_indices":[23,53,52,10,53,7,0,0,37,54,54,0,59,0,0,0,0,0,0,0,0],"split_type":[0,0,0,0,0,0,0,0,0,0,0,0,0,0,0,0,0,0,0,0,0],"sum_hessian":[6.74E2,6.18E2,5.6E1,6.8E1,5.5E2,4.9E1,7E0,1E1,5.8E1,2.79E2,2.71E2,1.7E1,3.2E1,4.4E1,1.4E1,1.51E2,1.28E2,1.07E2,1.64E2,1.6E1,1.6E1],"tree_param":{"num_deleted":"0","num_feature":"64","num_nodes":"21","size_leaf_vector":"1"}},{"base_weights":[-5.3098697E-2,-8.282768E-2,1.6439135E0,3.4529895E-1,-1.734487E-1,7.7201915E-3,2.105674E-2,2.3048632E-2,1.0403097E-1,-3.0021846E-1,2.1673323E-1,-4.12256E-3,3.5376318E-3,-6.3944166E-3,6.746543E-4,3.3060955E-3,-5.1329755E-3],"categories":[],"categories_nodes":[],"categories_segments":[],"categories_sizes":[],"default_left":[0,0,0,0,0,0,0,0,0,0,0,0,0,0,0,0,0],"id":51,"left_children":[1,3,5,7,9,-1,-1,-1,11,13,15,-1,-1,-1,-1,-1,-1],"loss_changes":[3.3719048E1,2.568106E1,1.616005E0,5.3764652E1,2.7145977E1,0E0,0E0,0E0,1.3680613E1,5.1753685E1,1.1399435E1,0E0,0E0,0E0,0E0,0E0,0E0],"parents":[2147483647,0,0,1,1,2,2,3,3,4,4,8,8,9,9,10,10],"right_children":[2,4,6,8,10,-1,-1,-1,12,14,16,-1,-1,-1,-1,-1,-1],"split_conditions":[1.435E1,2.9E0,5.35E-1,4.3409E2,1.5337979E-2,7.7201915E-3,2.105674E-2,2.3048632E-2,3.6535433E-1,4.5442E2,9.32827E1,-4.12256E-3,3.5376318E-3,-6.3944166E-3,6.746543E-4,3.3060955E-3,-5.1329755E-3],"split_indices":[7,10,0,52,8,0,0,0,33,53,36,0,0,0,0,0,0],"split_type":[0,0,0,0,0,0,0,0,0,0,0,0,0,0,0,0,0],"sum_hessian":[6.69E2,6.59E2,1E1,1.14E2,5.45E2,5E0,5E0,1.1E1,1.03E2,4.12E2,1.33E2,3.3E1,7E1,2.14E2,1.98E2,1.16E2,1.7E1],"tree_param":{"num_deleted":"0","num_feature":"64","num_nodes":"17","size_leaf_vector":"1"}},{"base_weights":[9.649182E-3,-6.098388E-2,7.2875875E-1,5.2884785E-3,-6.8113714E-1,5.347028E-1,1.6854806E-2,-6.540325E-1,7.165796E-2,1.9129225E-3,-7.68508E-1,9.859923E-1,1.3933727E-1,-9.928092E-3,-2.423694E-3,1.7873374E-3,-3.812519E-3,-9.4945375E-3,-3.8034793E-3,7.020415E-3,1.3730689E-2,-6.608988E-4,3.0903372E-3],"categories":[],"categories_nodes":[],"categories_segments":[],"categories_sizes":[],"default_left":[0,0,0,0,0,0,0,0,0,0,0,0,0,0,0,0,0,0,0,0,0,0,0],"id":52,"left_children":[1,3,5,7,9,11,-1,13,15,-1,17,19,21,-1,-1,-1,-1,-1,-1,-1,-1,-1,-1],"loss_changes":[3.4917175E1,2.576581E1,9.622063E0,2.4655664E1,4.947567E0,9.114558E0,0E0,6.574312E0,2.5012733E1,0E0,3.0904503E0,8.318615E-1,1.1424625E0,0E0,0E0,0E0,0E0,0E0,0E0,0E0,0E0,0E0,0E0],"parents":[2147483647,0,0,1,1,2,2,3,3,4,4,5,5,7,7,8,8,10,10,11,11,12,12],"right_children":[2,4,6,8,10,12,-1,14,16,-1,18,20,22,-1,-1,-1,-1,-1,-1,-1,-1,-1,-1],"split_conditions":[1.6936637E-2,4.1E1,4.397597E2,1.5E1,4.3956E2,9.99E0,1.6854806E-2,6.213876E-3,6.264951E-1,1.9129225E-3,4.7558655E1,4.3137255E-1,2.686859E-1,-9.928092E-3,-2.423694E-3,1.7873374E-3,-3.812519E-3,-9.4945375E-3,-3.8034793E-3,7.020415E-3,1.3730689E-2,-6.608988E-4,3.0903372E-3],"split_indices":[24,12,52,18,52,7,0,8,39,0,1,27,39,0,0,0,0,0,0,0,0,0,0],"split_type":[0,0,0,0,0,0,0,0,0,0,0,0,0,0,0,0,0,0,0,0,0,0,0],"sum_hessian":[6.82E2,6.22E2,6E1,5.63E2,5.9E1,5.2E1,8E0,5E1,5.13E2,5E0,5.4E1,2.3E1,2.9E1,2.6E1,2.4E1,4.16E2,9.7E1,3.5E1,1.9E1,1.6E1,7E0,1.3E1,1.6E1],"tree_param":{"num_deleted":"0","num_feature":"64","num_nodes":"23","size_leaf_vector":"1"}},{"base_weights":[1.9794062E-2,-4.2111375E-3,2.1693625E-2,-1.0168812E0,3.9100915E-2,-4.065171E-3,-1.1165277E0,3.2651684E-1,-1.1373429E-1,-1.3011959E-2,-5.59216E-3,1.4775494E-2,2.133877E-3,-6.18113E-3,1.298703E-3],"categories":[],"categories_nodes":[],"categories_segments":[],"categories_sizes":[],"default_left":[0,0,0,0,0,0,0,0,0,0,0,0,0,0,0],"id":53,"left_children":[1,3,-1,5,7,-1,9,11,13,-1,-1,-1,-1,-1,-1],"loss_changes":[3.5045082E1,2.9400713E1,0E0,6.8712616E-1,2.8145824E1,0E0,8.5209465E-1,2.8161787E1,5.1515858E1,0E0,0E0,0E0,0E0,0E0,0E0],"parents":[2147483647,0,0,1,1,3,3,4,4,6,6,7,7,8,8],"right_children":[2,4,-1,6,8,-1,10,12,14,-1,-1,-1,-1,-1,-1],"split_conditions":[1.558E1,1.2E1,2.1693625E-2,2.3738552E1,4.418E2,-4.065171E-3,6.309234E-1,5.3485674E-3,4.5222E2,-1.3011959E-2,-5.59216E-3,1.4775494E-2,2.133877E-3,-6.18113E-3,1.298703E-3],"split_indices":[23,25,0,1,53,0,33,11,53,0,0,0,0,0,0],"split_type":[0,0,0,0,0,0,0,0,0,0,0,0,0,0,0],"sum_hessian":[6.69E2,6.63E2,6E0,2.6E1,6.37E2,5E0,2.1E1,2.21E2,4.16E2,1.4E1,7E0,1.8E1,2.03E2,1.35E2,2.81E2],"tree_param":{"num_deleted":"0","num_feature":"64","num_nodes":"15","size_leaf_vector":"1"}},{"base_weights":[1.5470336E-2,-1.5559904E-2,1.786076E-2,6.605607E-2,-5.2389175E-1,-9.50141E-1,1.14454105E-1,-7.6344794E-1,1.9931822E-1,-1.1745319E-2,-6.0536396E-3,-4.618269E-3,1.9841492E-3,-5.25522E-3,-1.3530702E-2,-1.0775127E-3,1.058058E-2],"categories":[],"categories_nodes":[],"categories_segments":[],"categories_sizes":[],"default_left":[0,0,0,0,0,0,0,0,0,0,0,0,0,0,0,0,0],"id":54,"left_children":[1,3,-1,5,7,9,11,13,15,-1,-1,-1,-1,-1,-1,-1,-1],"loss_changes":[3.6685196E1,2.713142E1,0E0,2.761164E1,1.6020151E1,5.502949E-1,2.6091717E1,8.167301E0,6.5578527E0,0E0,0E0,0E0,0E0,0E0,0E0,0E0,0E0],"parents":[2147483647,0,0,1,1,3,3,4,4,5,5,6,6,7,7,8,8],"right_children":[2,4,-1,6,8,10,12,14,16,-1,-1,-1,-1,-1,-1,-1,-1],"split_conditions":[3.3941273E-2,3.2E1,1.786076E-2,1.2E1,7.091267E-1,4.8491704E-1,9.167049E-3,1.1374257E-3,1.1402723E0,-1.1745319E-2,-6.0536396E-3,-4.618269E-3,1.9841492E-3,-5.25522E-3,-1.3530702E-2,-1.0775127E-3,1.058058E-2],"split_indices":[8,12,0,25,38,27,17,41,33,0,0,0,0,0,0,0,0],"split_type":[0,0,0,0,0,0,0,0,0,0,0,0,0,0,0,0,0],"sum_hessian":[6.59E2,6.49E2,1E1,5.6E2,8.9E1,2.4E1,5.36E2,6.7E1,2.2E1,1.2E1,1.2E1,6.7E1,4.69E2,5E1,1.7E1,1.7E1,5E0],"tree_param":{"num_deleted":"0","num_feature":"64","num_nodes":"17","size_leaf_vector":"1"}},{"base_weights":[1.2366029E-2,7.752304E-2,-6.8194157E-1,-2.939545E-1,1.954486E-1,-8.141504E-1,3.356142E-3,7.308694E-1,-4.9209994E-1,-1.8213475E-1,3.3573678E-1,-1.003022E-2,-3.4979784E-1,9.7160734E-4,1.5428866E-2,-8.1835125E-5,-7.329648E-3,-6.080143E-3,1.8352048E-3,2.845984E-3,1.24962665E-2,-4.882882E-3,-0E0],"categories":[],"categories_nodes":[],"categories_segments":[],"categories_sizes":[],"default_left":[0,0,0,0,0,0,0,0,0,0,0,0,0,0,0,0,0,0,0,0,0,0,0],"id":55,"left_children":[1,3,5,7,9,11,-1,13,15,17,19,-1,21,-1,-1,-1,-1,-1,-1,-1,-1,-1,-1],"loss_changes":[3.0336407E1,2.70295E1,8.241037E0,3.0646774E1,2.4939116E1,3.71986E0,0E0,1.20543995E1,1.447086E1,2.0107224E1,1.5166374E1,0E0,8.3904266E-1,0E0,0E0,0E0,0E0,0E0,0E0,0E0,0E0,0E0,0E0],"parents":[2147483647,0,0,1,1,2,2,3,3,4,4,5,5,7,7,8,8,9,9,10,10,12,12],"right_children":[2,4,6,8,10,12,-1,14,16,18,20,-1,22,-1,-1,-1,-1,-1,-1,-1,-1,-1,-1],"split_conditions":[4E1,1.2E1,8.209609E-1,-3.463979E-1,1.0832855E-3,4.7558655E1,3.356142E-3,2.1027403E1,4.545253E-3,8.721461E-1,1.5702171E-2,-1.003022E-2,9.1E1,9.7160734E-4,1.5428866E-2,-8.1835125E-5,-7.329648E-3,-6.080143E-3,1.8352048E-3,2.845984E-3,1.24962665E-2,-4.882882E-3,-0E0],"split_indices":[12,9,38,38,5,1,0,3,8,33,21,0,6,0,0,0,0,0,0,0,0,0,0],"split_type":[0,0,0,0,0,0,0,0,0,0,0,0,0,0,0,0,0,0,0,0,0,0,0],"sum_hessian":[6.7E2,6.14E2,5.6E1,1.47E2,4.67E2,5E1,6E0,2.3E1,1.24E2,1.26E2,3.41E2,3.4E1,1.6E1,1.4E1,9E0,4.2E1,8.2E1,5.8E1,6.8E1,3.25E2,1.6E1,1.1E1,5E0],"tree_param":{"num_deleted":"0","num_feature":"64","num_nodes":"23","size_leaf_vector":"1"}},{"base_weights":[4.2290725E-2,1.2878806E-2,1.8561466E-2,8.607957E-1,-4.3906055E-2,4.2544422E-1,2.2390146E-2,1.8869529E-2,-6.701473E-1,2.8834306E-4,2.0354774E-2,-1.5937319E-3,2.9039122E-3,2.7651724E-3,-7.739939E-3],"categories":[],"categories_nodes":[],"categories_segments":[],"categories_sizes":[],"default_left":[0,0,0,0,0,0,0,0,0,0,0,0,0,0,0],"id":56,"left_children":[1,3,-1,5,7,9,-1,11,13,-1,-1,-1,-1,-1,-1],"loss_changes":[3.5094086E1,3.1829786E1,0E0,2.2938644E1,2.4385479E1,2.0890697E1,0E0,2.727041E1,5.974922E0,0E0,0E0,0E0,0E0,0E0,0E0],"parents":[2147483647,0,0,1,1,3,3,4,4,5,5,7,7,8,8],"right_children":[2,4,-1,6,8,10,-1,12,14,-1,-1,-1,-1,-1,-1],"split_conditions":[1.558E1,4.32835E2,1.8561466E-2,3.0027708E1,3.7E1,8.9802915E-1,2.2390146E-2,4.5215E2,4.3956E2,2.8834306E-4,2.0354774E-2,-1.5937319E-3,2.9039122E-3,2.7651724E-3,-7.739939E-3],"split_indices":[7,53,0,2,12,40,0,53,52,0,0,0,0,0,0],"split_type":[0,0,0,0,0,0,0,0,0,0,0,0,0,0,0],"sum_hessian":[6.64E2,6.55E2,9E0,4E1,6.15E2,3.2E1,8E0,5.6E2,5.5E1,2.7E1,5E0,3.38E2,2.22E2,5E0,5E1],"tree_param":{"num_deleted":"0","num_feature":"64","num_nodes":"15","size_leaf_vector":"1"}},{"base_weights":[2.9843679E-2,-1.2943858E-3,2.0033605E-2,9.667766E-2,-4.216933E-1,4.9611356E-2,1.2113163E0,-6.4522403E-1,4.0281042E-1,-8.690977E-3,1.0137502E-3,1.679042E-2,5.6820135E-3,-8.496869E-3,2.4541162E-4,-3.2172431E-3,2.102663E-2],"categories":[],"categories_nodes":[],"categories_segments":[],"categories_sizes":[],"default_left":[0,0,0,0,0,0,0,0,0,0,0,0,0,0,0,0,0],"id":57,"left_children":[1,3,-1,5,7,9,11,13,15,-1,-1,-1,-1,-1,-1,-1,-1],"loss_changes":[4.1546074E1,2.7330395E1,0E0,2.7803497E1,2.3568233E1,2.4541157E1,4.586727E0,1.3822048E1,3.5239964E1,0E0,0E0,0E0,0E0,0E0,0E0,0E0,0E0],"parents":[2147483647,0,0,1,1,3,3,4,4,5,5,6,6,7,7,8,8],"right_children":[2,4,-1,6,8,10,12,14,16,-1,-1,-1,-1,-1,-1,-1,-1],"split_conditions":[1.558E1,5.03E0,2.0033605E-2,6.42E0,1.5777078E0,1.2E1,6.93E0,9.311861E-1,6.41317E5,-8.690977E-3,1.0137502E-3,1.679042E-2,5.6820135E-3,-8.496869E-3,2.4541162E-4,-3.2172431E-3,2.102663E-2],"split_indices":[7,10,0,20,33,18,7,38,56,0,0,0,0,0,0,0,0],"split_type":[0,0,0,0,0,0,0,0,0,0,0,0,0,0,0,0,0],"sum_hessian":[6.68E2,6.59E2,9E0,5.35E2,1.24E2,5.15E2,2E1,9.8E1,2.6E1,2.6E1,4.89E2,1E1,1E1,7.5E1,2.3E1,1.9E1,7E0],"tree_param":{"num_deleted":"0","num_feature":"64","num_nodes":"17","size_leaf_vector":"1"}},{"base_weights":[1.4052046E-2,-7.085343E-2,5.5941737E-1,1.23247825E-1,-2.8132972E-1,4.179425E-1,1.6190646E-2,1.1502951E0,3.957412E-2,-4.944797E-1,1.6090533E-1,2.9750773E-1,1.2246517E-2,2.3717308E-2,1.4814106E-3,-3.4939446E-3,3.017644E-3,-6.3927164E-3,2.1450163E-3,-1.0188818E-2,3.5314038E-3,-2.4997501E-3,4.196403E-3],"categories":[],"categories_nodes":[],"categories_segments":[],"categories_sizes":[],"default_left":[0,0,0,0,0,0,0,0,0,0,0,0,0,0,0,0,0,0,0,0,0,0,0],"id":58,"left_children":[1,3,5,7,9,11,-1,13,15,17,19,21,-1,-1,-1,-1,-1,-1,-1,-1,-1,-1,-1],"loss_changes":[2.972259E1,2.2696156E1,1.1545099E1,2.4486526E1,2.5306988E1,6.7757883E0,0E0,2.5286432E1,2.7531273E1,1.8819836E1,2.0251253E1,4.905298E0,0E0,0E0,0E0,0E0,0E0,0E0,0E0,0E0,0E0,0E0,0E0],"parents":[2147483647,0,0,1,1,2,2,3,3,4,4,5,5,7,7,8,8,9,9,10,10,11,11],"right_children":[2,4,6,8,10,12,-1,14,16,18,20,22,-1,-1,-1,-1,-1,-1,-1,-1,-1,-1,-1],"split_conditions":[1.5337979E-2,2.81E0,3E0,4.3409E2,2E0,4.397597E2,1.6190646E-2,2E1,4.5215E2,1.5777078E0,1.2E1,3.24E-1,1.2246517E-2,2.3717308E-2,1.4814106E-3,-3.4939446E-3,3.017644E-3,-6.3927164E-3,2.1450163E-3,-1.0188818E-2,3.5314038E-3,-2.4997501E-3,4.196403E-3],"split_indices":[24,4,37,52,37,52,0,12,53,33,25,27,0,0,0,0,0,0,0,0,0,0,0],"split_type":[0,0,0,0,0,0,0,0,0,0,0,0,0,0,0,0,0,0,0,0,0,0,0],"sum_hessian":[6.37E2,5.52E2,8.5E1,2.87E2,2.65E2,7.7E1,8E0,2E1,2.67E2,1.79E2,8.6E1,6.9E1,8E0,8E0,1.2E1,1.07E2,1.6E2,1.49E2,3E1,1.1E1,7.5E1,1.2E1,5.7E1],"tree_param":{"num_deleted":"0","num_feature":"64","num_nodes":"23","size_leaf_vector":"1"}},{"base_weights":[4.403616E-2,1.0268542E-2,1.5661896E0,-9.7720003E-1,5.005685E-2,8.051818E-3,2.0887606E-2,-1.1379145E-2,-5.6600105E-3,8.8269895E-1,-1.205864E-2,-6.475691E-4,1.6682602E-2,1.6410614E-3,-2.9218942E-3],"categories":[],"categories_nodes":[],"categories_segments":[],"categories_sizes":[],"default_left":[0,0,0,0,0,0,0,0,0,0,0,0,0,0,0],"id":59,"left_children":[1,3,5,7,9,-1,-1,-1,-1,11,13,-1,-1,-1,-1],"loss_changes":[3.4329548E1,2.5878082E1,2.6648293E0,3.7831116E-1,3.316157E1,0E0,0E0,0E0,0E0,3.3603413E1,2.9435629E1,0E0,0E0,0E0,0E0],"parents":[2147483647,0,0,1,1,2,2,3,3,4,4,9,9,10,10],"right_children":[2,4,6,8,10,-1,-1,-1,-1,12,14,-1,-1,-1,-1],"split_conditions":[1.435E1,1.2E1,6.35E0,1E1,4.3299E2,8.051818E-3,2.0887606E-2,-1.1379145E-2,-5.6600105E-3,4.3069E2,3.456E0,-6.475691E-4,1.6682602E-2,1.6410614E-3,-2.9218942E-3],"split_indices":[7,25,23,9,52,0,0,0,0,54,4,0,0,0,0],"split_type":[0,0,0,0,0,0,0,0,0,0,0,0,0,0,0],"sum_hessian":[6.73E2,6.6E2,1.3E1,2.4E1,6.36E2,7E0,6E0,1.5E1,9E0,4.3E1,5.93E2,2E1,2.3E1,3.64E2,2.29E2],"tree_param":{"num_deleted":"0","num_feature":"64","num_nodes":"15","size_leaf_vector":"1"}},{"base_weights":[-1.8928565E-2,-4.7456995E-2,1.5113014E0,2.277575E-1,-2.0699045E-1,7.543669E-3,2.0051563E-2,1.2872994E0,8.354832E-2,-7.482585E-1,3.8915236E-2,2.1825092E-2,7.2482866E-3,2.1416225E-4,1.4391007E-2,9.351219E-4,-9.15896E-3,4.996328E-3,-2.9086985E-3],"categories":[],"categories_nodes":[],"categories_segments":[],"categories_sizes":[],"default_left":[0,0,0,0,0,0,0,0,0,0,0,0,0,0,0,0,0,0,0],"id":60,"left_children":[1,3,5,7,9,-1,-1,11,13,15,17,-1,-1,-1,-1,-1,-1,-1,-1],"loss_changes":[2.9827665E1,2.9768913E1,1.8518581E0,3.753423E1,5.735238E1,0E0,0E0,1.1899723E1,1.8232908E1,1.9272552E1,4.53093E1,0E0,0E0,0E0,0E0,0E0,0E0,0E0,0E0],"parents":[2147483647,0,0,1,1,2,2,3,3,4,4,7,7,8,8,9,9,10,10],"right_children":[2,4,6,8,10,-1,-1,12,14,16,18,-1,-1,-1,-1,-1,-1,-1,-1],"split_conditions":[1.435E1,4.4409E2,1.3716977E-2,7.6779844E-3,4.5172E2,7.543669E-3,2.0051563E-2,4.3409E2,4.9860217E-3,2.39E0,4.5815E2,2.1825092E-2,7.2482866E-3,2.1416225E-4,1.4391007E-2,9.351219E-4,-9.15896E-3,4.996328E-3,-2.9086985E-3],"split_indices":[7,54,24,11,55,0,0,52,31,10,54,0,0,0,0,0,0,0,0],"split_type":[0,0,0,0,0,0,0,0,0,0,0,0,0,0,0,0,0,0,0],"sum_hessian":[6.86E2,6.75E2,1.1E1,2.47E2,4.28E2,6E0,5E0,2.8E1,2.19E2,1.33E2,2.95E2,9E0,1.9E1,2.11E2,8E0,2.2E1,1.11E2,1.23E2,1.72E2],"tree_param":{"num_deleted":"0","num_feature":"64","num_nodes":"19","size_leaf_vector":"1"}},{"base_weights":[4.531283E-2,2.1708636E-2,2.0757372E-2,6.554852E-1,-4.68864E-2,9.496244E-1,-6.660887E-1,9.5817137E-1,-9.027568E-2,-3.3714753E-3,1.4692945E-2,-9.856794E-3,-1.1284805E-3,7.522578E-4,1.1685246E-2,-1.9286546E-3,1.8168258E-3],"categories":[],"categories_nodes":[],"categories_segments":[],"categories_sizes":[],"default_left":[0,0,0,0,0,0,0,0,0,0,0,0,0,0,0,0,0],"id":61,"left_children":[1,3,-1,5,7,9,11,13,15,-1,-1,-1,-1,-1,-1,-1,-1],"loss_changes":[3.1264248E1,2.8708454E1,0E0,2.6078377E1,2.5837952E1,3.6744762E1,1.8235788E0,4.169792E0,1.5971828E1,0E0,0E0,0E0,0E0,0E0,0E0,0E0,0E0],"parents":[2147483647,0,0,1,1,3,3,4,4,5,5,6,6,7,7,8,8],"right_children":[2,4,-1,6,8,10,12,14,16,-1,-1,-1,-1,-1,-1,-1,-1],"split_conditions":[1.558E1,4.3316E2,2.0757372E-2,3.7515014E-1,2.85E0,-1.8001917E-1,7.49E0,5.759149E1,3.801192E1,-3.3714753E-3,1.4692945E-2,-9.856794E-3,-1.1284805E-3,7.522578E-4,1.1685246E-2,-1.9286546E-3,1.8168258E-3],"split_indices":[23,52,0,38,23,39,10,62,3,0,0,0,0,0,0,0,0],"split_type":[0,0,0,0,0,0,0,0,0,0,0,0,0,0,0,0,0],"sum_hessian":[6.61E2,6.55E2,6E0,6.3E1,5.92E2,5.2E1,1.1E1,2.3E1,5.69E2,1.5E1,3.7E1,6E0,5E0,5E0,1.8E1,4.14E2,1.55E2],"tree_param":{"num_deleted":"0","num_feature":"64","num_nodes":"17","size_leaf_vector":"1"}},{"base_weights":[4.0064096E-2,1.3615734E-2,1.5457025E0,6.8680596E-1,-4.8493654E-2,7.3017036E-3,1.9737648E-2,4.124619E-1,2.1397261E-2,1.0544609E0,-8.314668E-2,2.3127942E-4,1.8362079E-2,1.4673818E-2,5.111808E-3,-3.4177664E-4,-5.5242763E-3],"categories":[],"categories_nodes":[],"categories_segments":[],"categories_sizes":[],"default_left":[0,0,0,0,0,0,0,0,0,0,0,0,0,0,0,0,0],"id":62,"left_children":[1,3,5,7,9,-1,-1,11,-1,13,15,-1,-1,-1,-1,-1,-1],"loss_changes":[2.6516285E1,2.7961317E1,1.3120708E0,2.0686628E1,2.3232775E1,0E0,0E0,2.7002909E1,0E0,2.6292782E0,1.347014E1,0E0,0E0,0E0,0E0,0E0,0E0],"parents":[2147483647,0,0,1,1,2,2,3,3,4,4,7,7,9,9,10,10],"right_children":[2,4,6,8,10,-1,-1,12,-1,14,16,-1,-1,-1,-1,-1,-1],"split_conditions":[1.435E1,4.3316E2,6.35E0,7.261143E-1,2.85E0,7.3017036E-3,1.9737648E-2,3.0027708E1,2.1397261E-2,2.05E0,5.5E1,2.3127942E-4,1.8362079E-2,1.4673818E-2,5.111808E-3,-3.4177664E-4,-5.5242763E-3],"split_indices":[7,52,23,60,23,0,0,2,0,7,9,0,0,0,0,0,0],"split_type":[0,0,0,0,0,0,0,0,0,0,0,0,0,0,0,0,0],"sum_hessian":[6.73E2,6.63E2,1E1,5.5E1,6.08E2,5E0,5E0,4.8E1,7E0,1.7E1,5.91E2,3.9E1,9E0,8E0,9E0,5.37E2,5.4E1],"tree_param":{"num_deleted":"0","num_feature":"64","num_nodes":"17","size_leaf_vector":"1"}},{"base_weights":[2.3744116E-2,-2.4603324E-2,9.9687517E-1,4.5644447E-1,-9.056453E-2,1.6732994E-1,1.4416958E0,2.3753596E-2,1.3034713E-1,-2.5226963E-1,9.886359E-2,-8.588533E-4,3.7998382E-3,1.8415226E-2,1.8630583E-3,-5.979107E-4,1.4171031E-2,1.8501097E-4,-7.110604E-3,5.376245E-3,-1.8606209E-3],"categories":[],"categories_nodes":[],"categories_segments":[],"categories_sizes":[],"default_left":[0,0,0,0,0,0,0,0,0,0,0,0,0,0,0,0,0,0,0,0,0],"id":63,"left_children":[1,3,5,7,9,11,13,-1,15,17,19,-1,-1,-1,-1,-1,-1,-1,-1,-1,-1],"loss_changes":[3.0318695E1,1.9360292E1,1.0570799E1,4.5027283E1,1.656315E1,7.8086245E-1,8.867607E0,0E0,1.6179222E1,3.6370445E1,3.12864E1,0E0,0E0,0E0,0E0,0E0,0E0,0E0,0E0,0E0,0E0],"parents":[2147483647,0,0,1,1,2,2,3,3,4,4,5,5,6,6,8,8,9,9,10,10],"right_children":[2,4,6,8,10,12,14,-1,16,18,20,-1,-1,-1,-1,-1,-1,-1,-1,-1,-1],"split_conditions":[4.4E1,4.3409E2,5.2906748E-2,2.74E0,4.529E2,8.470916E1,2E1,2.3753596E-2,8.9802915E-1,4.4643E2,4.5815E2,-8.588533E-4,3.7998382E-3,1.8415226E-2,1.8630583E-3,-5.979107E-4,1.4171031E-2,1.8501097E-4,-7.110604E-3,5.376245E-3,-1.8606209E-3],"split_indices":[25,52,39,10,55,35,6,0,40,54,54,0,0,0,0,0,0,0,0,0,0],"split_type":[0,0,0,0,0,0,0,0,0,0,0,0,0,0,0,0,0,0,0,0,0],"sum_hessian":[6.38E2,6.09E2,2.9E1,7.2E1,5.37E2,1.1E1,1.8E1,9E0,6.3E1,2.9E2,2.47E2,5E0,6E0,1.3E1,5E0,5.6E1,7E0,1.83E2,1.07E2,9.7E1,1.5E2],"tree_param":{"num_deleted":"0","num_feature":"64","num_nodes":"21","size_leaf_vector":"1"}},{"base_weights":[-4.3288823E-2,-1.14286415E-1,6.639137E-1,6.9794744E-2,-3.4951234E-1,4.9155134E-1,1.62837E-2,-6.515066E-1,1.6541632E-1,-5.389249E-1,4.6888366E-2,9.905931E-1,1.5338539E-1,-7.662276E-3,-6.0869835E-4,2.2766467E-3,-9.372211E-3,-6.7124483E-3,2.0902157E-3,2.4373904E-3,-5.7425597E-3,6.809185E-3,1.3205214E-2,-5.0377374E-4,3.445081E-3],"categories":[],"categories_nodes":[],"categories_segments":[],"categories_sizes":[],"default_left":[0,0,0,0,0,0,0,0,0,0,0,0,0,0,0,0,0,0,0,0,0,0,0,0,0],"id":64,"left_children":[1,3,5,7,9,11,-1,13,15,17,19,21,23,-1,-1,-1,-1,-1,-1,-1,-1,-1,-1,-1,-1],"loss_changes":[3.3870316E1,2.670079E1,8.59889E0,2.3894253E1,2.0446327E1,8.74065E0,0E0,2.5088367E0,2.12155E1,1.8463589E1,1.0964983E1,4.476261E-1,1.4284167E0,0E0,0E0,0E0,0E0,0E0,0E0,0E0,0E0,0E0,0E0,0E0,0E0],"parents":[2147483647,0,0,1,1,2,2,3,3,4,4,5,5,7,7,8,8,9,9,10,10,11,11,12,12],"right_children":[2,4,6,8,10,12,-1,14,16,18,20,22,24,-1,-1,-1,-1,-1,-1,-1,-1,-1,-1,-1,-1],"split_conditions":[1.6936637E-2,3.44E0,4.3985E2,1.5E1,1.5337979E-2,9.99E0,1.62837E-2,4.506348E2,5.476367E-1,1.7085946E0,9.146485E1,4.3137255E-1,7.7257775E-2,-7.662276E-3,-6.0869835E-4,2.2766467E-3,-9.372211E-3,-6.7124483E-3,2.0902157E-3,2.4373904E-3,-5.7425597E-3,6.809185E-3,1.3205214E-2,-5.0377374E-4,3.445081E-3],"split_indices":[24,4,52,18,8,7,0,52,38,33,36,27,38,0,0,0,0,0,0,0,0,0,0,0,0],"split_type":[0,0,0,0,0,0,0,0,0,0,0,0,0,0,0,0,0,0,0,0,0,0,0,0,0],"sum_hessian":[6.73E2,6.13E2,6E1,3.44E2,2.69E2,5.3E1,7E0,3.9E1,3.05E2,1.82E2,8.7E1,2E1,3.3E1,3.2E1,7E0,2.9E2,1.5E1,1.55E2,2.7E1,6.7E1,2E1,1.3E1,7E0,1.6E1,1.7E1],"tree_param":{"num_deleted":"0","num_feature":"64","num_nodes":"25","size_leaf_vector":"1"}},{"base_weights":[2.7249724E-2,-2.2116816E-3,1.5920066E0,8.143269E-1,-5.8729205E-2,1.9995485E-2,7.2361073E-3,1.9267668E0,-1.9956706E-1,-1.0957701E-1,5.797171E-1,6.831219E-3,2.2489306E-2,-6.831748E-3,7.5088916E-3,2.9189729E-3,-1.9468511E-3,7.116746E-3,1.2994827E-3],"categories":[],"categories_nodes":[],"categories_segments":[],"categories_sizes":[],"default_left":[0,0,0,0,0,0,0,0,0,0,0,0,0,0,0,0,0,0,0],"id":65,"left_children":[1,3,5,7,9,-1,-1,11,13,15,17,-1,-1,-1,-1,-1,-1,-1,-1],"loss_changes":[3.1187151E1,3.0309563E1,1.7088699E0,4.8857803E1,2.0047525E1,0E0,0E0,5.322632E0,1.1557667E1,1.9661562E1,2.3933964E0,0E0,0E0,0E0,0E0,0E0,0E0,0E0,0E0],"parents":[2147483647,0,0,1,1,2,2,3,3,4,4,7,7,8,8,9,9,10,10],"right_children":[2,4,6,8,10,-1,-1,12,14,16,18,-1,-1,-1,-1,-1,-1,-1,-1],"split_conditions":[3.3941273E-2,4.335E2,3.880008E1,7.4960865E-2,3E1,1.9995485E-2,7.2361073E-3,7.2258896E1,2.8E1,2.83E0,3.8E1,6.831219E-3,2.2489306E-2,-6.831748E-3,7.5088916E-3,2.9189729E-3,-1.9468511E-3,7.116746E-3,1.2994827E-3],"split_indices":[8,53,1,61,22,0,0,36,9,10,25,0,0,0,0,0,0,0,0],"split_type":[0,0,0,0,0,0,0,0,0,0,0,0,0,0,0,0,0,0,0],"sum_hessian":[6.68E2,6.57E2,1.1E1,4.1E1,6.16E2,6E0,5E0,1.9E1,2.2E1,5.72E2,4.4E1,5E0,1.4E1,1.5E1,7E0,9.9E1,4.73E2,3.3E1,1.1E1],"tree_param":{"num_deleted":"0","num_feature":"64","num_nodes":"19","size_leaf_vector":"1"}},{"base_weights":[-8.644043E-3,-3.707056E-2,1.4898211E0,2.4624677E-1,-1.6001973E-1,7.3696366E-3,1.9839285E-2,1.6895894E0,1.3219988E-1,-5.0397074E-1,8.347038E-2,2.2943748E-2,3.8499779E-3,6.5204757E-3,-5.09372E-4,-6.9237035E-3,-6.9330854E-4,5.7610157E-3,-2.4201795E-3],"categories":[],"categories_nodes":[],"categories_segments":[],"categories_sizes":[],"default_left":[0,0,0,0,0,0,0,0,0,0,0,0,0,0,0,0,0,0,0],"id":66,"left_children":[1,3,5,7,9,-1,-1,11,13,15,17,-1,-1,-1,-1,-1,-1,-1,-1],"loss_changes":[2.8608583E1,2.3223642E1,1.9126034E0,3.246926E1,3.9132206E1,0E0,0E0,9.579601E0,1.8115883E1,1.5620598E1,4.4130512E1,0E0,0E0,0E0,0E0,0E0,0E0,0E0,0E0],"parents":[2147483647,0,0,1,1,2,2,3,3,4,4,7,7,8,8,9,9,10,10],"right_children":[2,4,6,8,10,-1,-1,12,14,16,18,-1,-1,-1,-1,-1,-1,-1,-1],"split_conditions":[1.435E1,4.393E2,6.35E0,2.31E0,4.5357E2,7.3696366E-3,1.9839285E-2,4.3409E2,8.5600876E1,8.753894E-1,4.5815E2,2.2943748E-2,3.8499779E-3,6.5204757E-3,-5.09372E-4,-6.9237035E-3,-6.9330854E-4,5.7610157E-3,-2.4201795E-3],"split_indices":[7,54,23,10,53,0,0,52,35,33,54,0,0,0,0,0,0,0,0],"split_type":[0,0,0,0,0,0,0,0,0,0,0,0,0,0,0,0,0,0,0],"sum_hessian":[6.75E2,6.64E2,1.1E1,2E2,4.64E2,6E0,5E0,1.3E1,1.87E2,1.92E2,2.72E2,8E0,5E0,4.8E1,1.39E2,1.33E2,5.9E1,1.08E2,1.64E2],"tree_param":{"num_deleted":"0","num_feature":"64","num_nodes":"19","size_leaf_vector":"1"}},{"base_weights":[1.5330391E-2,6.495751E-1,-4.3988984E-2,8.9144415E-1,-9.069682E-3,-7.237994E-2,1.4564843E0,-3.0826561E-2,1.5875864E0,8.889947E-1,-1.09104134E-1,1.8649543E-2,6.811334E-3,5.753513E-3,-4.122749E-3,4.1468013E-3,2.0624222E-2,1.9289362E-3,1.0599184E-2,-4.0821442E-3,-2.1411236E-4],"categories":[],"categories_nodes":[],"categories_segments":[],"categories_sizes":[],"default_left":[0,0,0,0,0,0,0,0,0,0,0,0,0,0,0,0,0,0,0,0,0],"id":67,"left_children":[1,3,5,7,-1,9,11,13,15,17,19,-1,-1,-1,-1,-1,-1,-1,-1,-1,-1],"loss_changes":[2.5728807E1,2.3233725E1,2.6399729E1,3.3449387E1,0E0,2.1614256E1,1.2274971E0,5.7569895E0,1.4651375E1,2.119814E0,1.5415921E1,0E0,0E0,0E0,0E0,0E0,0E0,0E0,0E0,0E0,0E0],"parents":[2147483647,0,0,1,1,2,2,3,3,5,5,6,6,7,7,8,8,9,9,10,10],"right_children":[2,4,6,8,-1,10,12,14,16,18,20,-1,-1,-1,-1,-1,-1,-1,-1,-1,-1],"split_conditions":[4.3316E2,7.060325E1,3.2310877E-2,8E0,-9.069682E-3,6.385839E-3,1.4E1,9.5E-2,-2.7186394E-2,3.3506495E-1,1.2E1,1.8649543E-2,6.811334E-3,5.753513E-3,-4.122749E-3,4.1468013E-3,2.0624222E-2,1.9289362E-3,1.0599184E-2,-4.0821442E-3,-2.1411236E-4],"split_indices":[52,42,8,6,0,24,22,57,39,27,9,0,0,0,0,0,0,0,0,0,0],"split_type":[0,0,0,0,0,0,0,0,0,0,0,0,0,0,0,0,0,0,0,0,0],"sum_hessian":[6.78E2,5.7E1,6.21E2,5E1,7E0,6.11E2,1E1,2.2E1,2.8E1,2.1E1,5.9E2,5E0,5E0,8E0,1.4E1,9E0,1.9E1,5E0,1.6E1,1.32E2,4.58E2],"tree_param":{"num_deleted":"0","num_feature":"64","num_nodes":"21","size_leaf_vector":"1"}},{"base_weights":[1.0321098E-2,-1.7046215E-2,1.938254E-2,-8.9225507E-1,2.7719986E-2,-1.1462075E-2,-6.245272E-1,1.1995211E-1,-3.3671078E-1,-1.912955E-3,-7.4033523E-3,4.6373988E-3,-7.168356E-4,-6.3847676E-3,1.7044861E-3],"categories":[],"categories_nodes":[],"categories_segments":[],"categories_sizes":[],"default_left":[0,0,0,0,0,0,0,0,0,0,0,0,0,0,0],"id":68,"left_children":[1,3,-1,5,7,-1,9,11,13,-1,-1,-1,-1,-1,-1],"loss_changes":[3.581095E1,2.6166607E1,0E0,7.817745E-1,2.1243353E1,0E0,5.7958794E-1,3.343163E1,1.9769886E1,0E0,0E0,0E0,0E0,0E0,0E0],"parents":[2147483647,0,0,1,1,3,3,4,4,6,6,7,7,8,8],"right_children":[2,4,-1,6,8,-1,10,12,14,-1,-1,-1,-1,-1,-1],"split_conditions":[1.558E1,1.2E1,1.938254E-2,4.8491704E-1,5.03E0,-1.1462075E-2,3.33E0,4.45E2,4.7558655E1,-1.912955E-3,-7.4033523E-3,4.6373988E-3,-7.168356E-4,-6.3847676E-3,1.7044861E-3],"split_indices":[7,25,0,27,10,0,7,54,1,0,0,0,0,0,0],"split_type":[0,0,0,0,0,0,0,0,0,0,0,0,0,0,0],"sum_hessian":[6.69E2,6.61E2,8E0,3.1E1,6.3E2,1.3E1,1.8E1,5.04E2,1.26E2,5E0,1.3E1,1.8E2,3.24E2,7.9E1,4.7E1],"tree_param":{"num_deleted":"0","num_feature":"64","num_nodes":"15","size_leaf_vector":"1"}},{"base_weights":[-1.2836016E-5,-6.2809534E-2,6.6371655E-1,-9.3824047E-1,-1.880039E-2,4.8862025E-1,1.5839381E-2,-1.3912908E-2,-7.252517E-1,5.3016794E-1,-1.00127056E-1,9.341684E-3,1.788766E-1,-3.8985047E-3,-8.793092E-3,-1.6507403E-3,6.4144656E-3,-1.6301183E-3,6.0522994E-3,-4.2048408E-4,3.3965083E-3],"categories":[],"categories_nodes":[],"categories_segments":[],"categories_sizes":[],"default_left":[0,0,0,0,0,0,0,0,0,0,0,0,0,0,0,0,0,0,0,0,0],"id":69,"left_children":[1,3,5,7,9,11,-1,-1,13,15,17,-1,19,-1,-1,-1,-1,-1,-1,-1,-1],"loss_changes":[2.822224E1,2.3726643E1,7.850523E0,9.097309E-1,2.649088E1,6.634034E0,0E0,0E0,4.4623947E-1,6.172571E0,2.3058247E1,0E0,1.2353121E0,0E0,0E0,0E0,0E0,0E0,0E0,0E0,0E0],"parents":[2147483647,0,0,1,1,2,2,3,3,4,4,5,5,8,8,9,9,10,10,12,12],"right_children":[2,4,6,8,10,12,-1,-1,14,16,18,-1,20,-1,-1,-1,-1,-1,-1,-1,-1],