{"learner":{"attributes":{"scikit_learn":"{\"_estimator_type\": \"regressor\"}"},"feature_names":["body_size","dmi_adx","dmi_minus","dmi_plus","feat_bi_amp","feat_bi_amp_rate","feat_bi_klu_cnt","feat_break_bi_amp","feat_break_bi_amp_rate","feat_break_bi_klu_cnt","feat_bsp1_bi_amp","feat_bsp1_bi_amp_rate","feat_bsp1_bi_klu_cnt","feat_bsp2_bi_amp","feat_bsp2_bi_amp_rate","feat_bsp2_bi_klu_cnt","feat_bsp2_break_bi_amp","feat_bsp2_break_bi_amp_rate","feat_bsp2_break_bi_bi_klu_cnt","feat_bsp2_retrace_rate","feat_bsp2s_bi_amp","feat_bsp2s_bi_amp_rate","feat_bsp2s_bi_klu_cnt","feat_bsp2s_break_bi_amp","feat_bsp2s_break_bi_amp_rate","feat_bsp2s_break_bi_klu_cnt","feat_bsp2s_lv","feat_bsp2s_retrace_rate","feat_bsp3_bi_amp","feat_bsp3_bi_amp_rate","feat_bsp3_bi_klu_cnt","feat_bsp3_zs_height","feat_bsp_bi_amp","feat_divergence_rate","feat_kdj_d","feat_kdj_j","feat_kdj_k","feat_level","feat_macd_dea","feat_macd_diff","feat_macd_value","feat_ppo","feat_rsi","feat_volume","feat_zs_cnt","high_low_spread_pct","is_bullish_candle","is_buy","is_segbsp","kdj_d","kdj_j","kdj_k","klu_close","klu_high","klu_low","klu_open","klu_volume","lower_shadow","macd_dea","macd_dif","macd_value","price_change_pct","rsi","upper_shadow"],"feature_types":["float","float","float","float","float","float","float","float","float","float","float","float","float","float","float","float","float","float","float","float","float","float","float","float","float","float","float","float","float","float","float","float","float","float","float","float","float","float","float","float","float","float","float","float","float","float","int","int","i","float","float","float","float","float","float","float","float","float","float","float","float","float","float","float"],"gradient_booster":{"model":{"gbtree_model_param":{"num_parallel_tree":"1","num_trees":"300"},"iteration_indptr":[0,1,2,3,4,5,6,7,8,9,10,11,12,13,14,15,16,17,18,19,20,21,22,23,24,25,26,27,28,29,30,31,32,33,34,35,36,37,38,39,40,41,42,43,44,45,46,47,48,49,50,51,52,53,54,55,56,57,58,59,60,61,62,63,64,65,66,67,68,69,70,71,72,73,74,75,76,77,78,79,80,81,82,83,84,85,86,87,88,89,90,91,92,93,94,95,96,97,98,99,100,101,102,103,104,105,106,107,108,109,110,111,112,113,114,115,116,117,118,119,120,121,122,123,124,125,126,127,128,129,130,131,132,133,134,135,136,137,138,139,140,141,142,143,144,145,146,147,148,149,150,151,152,153,154,155,156,157,158,159,160,161,162,163,164,165,166,167,168,169,170,171,172,173,174,175,176,177,178,179,180,181,182,183,184,185,186,187,188,189,190,191,192,193,194,195,196,197,198,199,200,201,202,203,204,205,206,207,208,209,210,211,212,213,214,215,216,217,218,219,220,221,222,223,224,225,226,227,228,229,230,231,232,233,234,235,236,237,238,239,240,241,242,243,244,245,246,247,248,249,250,251,252,253,254,255,256,257,258,259,260,261,262,263,264,265,266,267,268,269,270,271,272,273,274,275,276,277,278,279,280,281,282,283,284,285,286,287,288,289,290,291,292,293,294,295,296,297,298,299,300],"tree_info":[0,0,0,0,0,0,0,0,0,0,0,0,0,0,0,0,0,0,0,0,0,0,0,0,0,0,0,0,0,0,0,0,0,0,0,0,0,0,0,0,0,0,0,0,0,0,0,0,0,0,0,0,0,0,0,0,0,0,0,0,0,0,0,0,0,0,0,0,0,0,0,0,0,0,0,0,0,0,0,0,0,0,0,0,0,0,0,0,0,0,0,0,0,0,0,0,0,0,0,0,0,0,0,0,0,0,0,0,0,0,0,0,0,0,0,0,0,0,0,0,0,0,0,0,0,0,0,0,0,0,0,0,0,0,0,0,0,0,0,0,0,0,0,0,0,0,0,0,0,0,0,0,0,0,0,0,0,0,0,0,0,0,0,0,0,0,0,0,0,0,0,0,0,0,0,0,0,0,0,0,0,0,0,0,0,0,0,0,0,0,0,0,0,0,0,0,0,0,0,0,0,0,0,0,0,0,0,0,0,0,0,0,0,0,0,0,0,0,0,0,0,0,0,0,0,0,0,0,0,0,0,0,0,0,0,0,0,0,0,0,0,0,0,0,0,0,0,0,0,0,0,0,0,0,0,0,0,0,0,0,0,0,0,0,0,0,0,0,0,0,0,0,0,0,0,0,0,0,0,0,0,0,0,0,0,0,0,0,0,0,0,0,0,0,0,0,0,0,0,0],"trees":[{"base_weights":[-2.5161707E-8,1.421737E-1,-1.3342933E-1,2.2085778E-1,-2.829556E-1,-1.8963093E-1,4.1393673E-1,6.16483E-1,1.6078332E-1,-7.5922054E-1,-1.6506809E-1,-1.9737881E-1,4.635029E-2,1.0062386E0,-1.8473338E-1,9.375818E-2,9.2907614E-1,1.344374E-1,8.68169E-1,-1.7094313E-1,-2.9093623E-1,-3.7777972E-1,3.2249212E-2,-2.2208664E-1,-4.764153E-3,1.1174883E0,1.8985312E-1,-3.372162E-1,8.980882E-2,-4.759884E-1,3.1931287E-1,1.4917483E0,4.8920515E-1,3.2147482E-1,5.1554963E-2,5.169915E-1,1.1182044E-1,-5.706372E-1,6.2968636E-1,-3.2071164E-1,-8.441701E-2,1.21497996E-1,-2.8886482E-1,-8.994973E-2,-2.5449455E-1,1.0754665E-1,-3.0413747E-1,7.790232E-1,1.440219E0,3.4671042E-2,-4.974806E-3,-1.4744599E-1,-5.3859115E-1,-6.161069E-3,1.7148805E-1,-7.986756E-3,-1.3314807E-1,6.532753E-2,-4.7313394E-3,5.816282E-2,2.2441547E-1,3.232903E-2,1.078225E-1,1.4852514E-2,6.0294837E-2,-3.647222E-2,9.699577E-3,-6.071988E-3,6.0385883E-2,-2.0944891E-2,-5.9628364E-2,1.3961419E-2,1.23657785E-1,-1.8118063E-2,-5.465529E-2,-1.747367E-3,4.8081826E-2,-1.7914882E-2,-4.5135673E-2,-1.425678E-2,2.445425E-2,-7.23879E-2,-2.4332168E-2,1.625767E-2,-2.901696E-2,-4.251025E-2,8.60582E-2,8.416276E-2,1.6168797E-2,1.5265833E-1,2.116568E-2,-2.4152915E-3,1.5861571E-3,-1.7726699E-2,-4.6370627E-4,-6.077955E-2,-3.2324094E-2,2.777597E-3,-1.1723084E-2,9.032991E-3,2.1092063E-2],"categories":[],"categories_nodes":[],"categories_segments":[],"categories_sizes":[],"default_left":[0,0,0,0,0,0,0,0,0,0,0,0,0,0,0,0,0,0,0,0,0,0,0,0,0,0,0,0,0,0,0,0,0,0,0,0,0,0,0,0,0,0,0,0,0,0,0,0,0,0,0,0,0,0,0,0,0,0,0,0,0,0,0,0,0,0,0,0,0,0,0,0,0,0,0,0,0,0,0,0,0,0,0,0,0,0,0,0,0,0,0,0,0,0,0,0,0,0,0,0,0],"id":0,"left_children":[1,3,5,7,9,11,13,15,17,19,21,23,-1,25,27,29,31,33,35,-1,37,39,41,43,45,47,49,51,53,55,57,59,61,63,65,67,-1,69,71,73,-1,75,77,79,81,83,85,87,89,-1,91,93,95,97,99,-1,-1,-1,-1,-1,-1,-1,-1,-1,-1,-1,-1,-1,-1,-1,-1,-1,-1,-1,-1,-1,-1,-1,-1,-1,-1,-1,-1,-1,-1,-1,-1,-1,-1,-1,-1,-1,-1,-1,-1,-1,-1,-1,-1,-1,-1],"loss_changes":[5.082101E1,4.344832E1,4.2592743E1,2.5925716E1,1.1272251E1,6.437233E0,4.5928436E1,2.3442516E1,1.7625446E1,1.7301416E1,6.8955398E0,5.900215E0,0E0,5.691307E0,2.7513783E0,7.2199845E0,2.1545517E1,1.4229872E1,2.4073296E0,0E0,7.5692964E0,1.8319292E0,2.4997737E0,4.6833344E0,4.807155E0,5.1043243E0,2.7676642E-1,1.5256152E0,1.8918644E-1,5.315712E0,4.9284854E0,2.5401161E1,4.7332325E0,1.3638428E1,1.21037655E1,8.396144E-1,0E0,7.889891E-2,1.9093008E0,2.1698298E0,0E0,3.404005E0,2.5787115E-1,3.8717375E0,4.449394E0,2.3233545E0,5.8605566E0,1.0233574E0,2.6477928E0,0E0,2.3811148E-3,9.712815E-2,1.0159922E-1,4.848875E-2,2.2551179E-2,0E0,0E0,0E0,0E0,0E0,0E0,0E0,0E0,0E0,0E0,0E0,0E0,0E0,0E0,0E0,0E0,0E0,0E0,0E0,0E0,0E0,0E0,0E0,0E0,0E0,0E0,0E0,0E0,0E0,0E0,0E0,0E0,0E0,0E0,0E0,0E0,0E0,0E0,0E0,0E0,0E0,0E0,0E0,0E0,0E0,0E0],"parents":[2147483647,0,0,1,1,2,2,3,3,4,4,5,5,6,6,7,7,8,8,9,9,10,10,11,11,13,13,14,14,15,15,16,16,17,17,18,18,20,20,21,21,22,22,23,23,24,24,25,25,26,26,27,27,28,28,29,29,30,30,31,31,32,32,33,33,34,34,35,35,37,37,38,38,39,39,41,41,42,42,43,43,44,44,45,45,46,46,47,47,48,48,50,50,51,51,52,52,53,53,54,54],"right_children":[2,4,6,8,10,12,14,16,18,20,22,24,-1,26,28,30,32,34,36,-1,38,40,42,44,46,48,50,52,54,56,58,60,62,64,66,68,-1,70,72,74,-1,76,78,80,82,84,86,88,90,-1,92,94,96,98,100,-1,-1,-1,-1,-1,-1,-1,-1,-1,-1,-1,-1,-1,-1,-1,-1,-1,-1,-1,-1,-1,-1,-1,-1,-1,-1,-1,-1,-1,-1,-1,-1,-1,-1,-1,-1,-1,-1,-1,-1,-1,-1,-1,-1,-1,-1],"split_conditions":[4.5107E2,1.0016695E-2,5.0116E2,2.5435705E-3,5E0,2.404178E-3,5.05175E2,4.3981E2,5.72816E-3,4.2521E2,4.1E1,4.9E1,4.635029E-2,3.2E1,5.08E2,4.2557E2,4.4445E2,3.5996753E-1,2.7348E0,-1.7094313E-1,1.0075674E0,6.14E0,5.71E0,7.177807E-3,4.8987E2,8.010753E-1,3.6171432E1,1.3852E0,5.0859E2,4.2479E2,1.3460623E-3,4.4361E2,4.5043E2,3E1,4.2327E2,4.7609974E-2,1.1182044E-1,2.5418264E-1,4.599E-1,4.3677E2,-8.441701E-2,8.3371544E1,7.04E0,3.5616136E-3,7.350088E-3,2E0,1.22E2,2.5E1,2.68E0,3.4671042E-2,9.16E-2,4.09E-2,3.6480957E1,3.92048E1,1.9003E0,-7.986756E-3,-1.3314807E-1,6.532753E-2,-4.7313394E-3,5.816282E-2,2.2441547E-1,3.232903E-2,1.078225E-1,1.4852514E-2,6.0294837E-2,-3.647222E-2,9.699577E-3,-6.071988E-3,6.0385883E-2,-2.0944891E-2,-5.9628364E-2,1.3961419E-2,1.23657785E-1,-1.8118063E-2,-5.465529E-2,-1.747367E-3,4.8081826E-2,-1.7914882E-2,-4.5135673E-2,-1.425678E-2,2.445425E-2,-7.23879E-2,-2.4332168E-2,1.625767E-2,-2.901696E-2,-4.251025E-2,8.60582E-2,8.416276E-2,1.6168797E-2,1.5265833E-1,2.116568E-2,-2.4152915E-3,1.5861571E-3,-1.7726699E-2,-4.6370627E-4,-6.077955E-2,-3.2324094E-2,2.777597E-3,-1.1723084E-2,9.032991E-3,2.1092063E-2],"split_indices":[55,8,53,8,6,31,52,52,21,52,9,9,0,12,54,52,52,33,23,0,33,23,10,17,52,33,1,4,52,52,5,52,52,9,52,39,0,39,0,52,0,34,4,5,17,44,9,6,4,0,0,57,3,3,4,0,0,0,0,0,0,0,0,0,0,0,0,0,0,0,0,0,0,0,0,0,0,0,0,0,0,0,0,0,0,0,0,0,0,0,0,0,0,0,0,0,0,0,0,0,0],"split_type":[0,0,0,0,0,0,0,0,0,0,0,0,0,0,0,0,0,0,0,0,0,0,0,0,0,0,0,0,0,0,0,0,0,0,0,0,0,0,0,0,0,0,0,0,0,0,0,0,0,0,0,0,0,0,0,0,0,0,0,0,0,0,0,0,0,0,0,0,0,0,0,0,0,0,0,0,0,0,0,0,0,0,0,0,0,0,0,0,0,0,0,0,0,0,0,0,0,0,0,0,0],"sum_hessian":[2.677E3,1.296E3,1.381E3,1.094E3,2.02E2,1.253E3,1.28E2,1.43E2,9.51E2,3.9E1,1.63E2,1.239E3,1.4E1,6.4E1,6.4E1,5.4E1,8.9E1,9.18E2,3.3E1,1.2E1,2.7E1,7.8E1,8.5E1,1.098E3,1.41E2,5.6E1,8E0,4.1E1,2.3E1,1.5E1,3.9E1,3.8E1,5.1E1,2.81E2,6.37E2,1.5E1,1.8E1,2.1E1,6E0,7.1E1,7E0,6.7E1,1.8E1,2.17E2,8.81E2,1.03E2,3.8E1,2.9E1,2.7E1,4E0,4E0,2.2E1,1.9E1,1.1E1,1.2E1,1.1E1,4E0,2E1,1.9E1,1.8E1,2E1,4.1E1,1E1,1.75E2,1.06E2,6.2E1,5.75E2,2E0,1.3E1,2E0,1.9E1,4E0,2E0,4.5E1,2.6E1,4.9E1,1.8E1,1.2E1,6E0,1.88E2,2.9E1,1.9E1,8.62E2,9.1E1,1.2E1,3.5E1,3E0,2.6E1,3E0,2.5E1,2E0,2E0,2E0,1.8E1,4E0,1.3E1,6E0,9E0,2E0,5E0,7E0],"tree_param":{"num_deleted":"0","num_feature":"64","num_nodes":"101","size_leaf_vector":"1"}},{"base_weights":[1.7824511E-4,1.2816365E-1,-1.19935535E-1,1.9928041E-1,-2.560778E-1,-1.7299329E-1,3.5577512E-1,5.3365725E-1,1.4064942E-1,-6.861459E-1,-1.4962168E-1,-1.463894E-1,-3.8689202E-1,8.046634E-1,-1.676464E-1,-4.996199E-1,6.7346203E-1,1.0630924E-1,6.213588E-1,-1.5516376E-1,-2.5980526E-1,-3.470214E-1,2.480334E-2,-1.6977336E-1,7.860004E-2,-4.2099586E-1,5.976485E-1,2.46732E-1,1.0170677E0,-3.0614445E-1,8.1710435E-2,-1.5555438E-1,-1.2765138E-1,4.9661398E-1,1.0911261E0,1.300482E-1,-5.2090234E-1,6.984115E-1,-8.382844E-3,-5.1723593E-1,5.863776E-1,-2.9368868E-1,-7.703052E-2,1.12048954E-1,-2.774342E-1,-1.7854151E-1,4.2024262E-2,1.255592E-1,-2.633847E-1,-1.6996661E-3,-4.478172E-1,6.5697454E-2,1.8017212E-2,7.9042666E-2,-5.968731E-2,1.1877099E0,6.402156E-1,-1.3349226E-1,-4.893872E-1,-6.290401E-3,1.5665656E-1,-3.0458143E-2,5.8273873E-3,6.514047E-2,5.8731586E-3,3.6684725E-2,1.6190499E-1,-3.9791163E-2,1.6039506E-2,-2.1612497E-2,-9.4972126E-2,4.311974E-2,9.90151E-2,-2.286163E-2,-5.50775E-2,1.2844506E-2,1.1541394E-1,-1.7263023E-2,-4.919172E-2,-1.0562681E-3,4.352671E-2,-1.1994094E-2,-3.7243463E-2,-1.952887E-2,1.4705814E-2,1.53278755E-2,-3.0192075E-2,-3.411267E-2,-7.0772185E-3,2.3680761E-2,-6.111403E-3,-1.587013E-2,-4.799583E-2,-4.0501278E-2,6.039513E-3,7.680329E-2,1.4509062E-1,2.7656168E-2,7.867818E-2,-5.956192E-3,-1.9629827E-2,-5.6070577E-2,-3.1232113E-2,2.527615E-3,-1.0941545E-2,9.777247E-3,2.0905925E-2],"categories":[],"categories_nodes":[],"categories_segments":[],"categories_sizes":[],"default_left":[0,0,0,0,0,0,0,0,0,0,0,0,0,0,0,0,0,0,0,0,0,0,0,0,0,0,0,0,0,0,0,0,0,0,0,0,0,0,0,0,0,0,0,0,0,0,0,0,0,0,0,0,0,0,0,0,0,0,0,0,0,0,0,0,0,0,0,0,0,0,0,0,0,0,0,0,0,0,0,0,0,0,0,0,0,0,0,0,0,0,0,0,0,0,0,0,0,0,0,0,0,0,0,0,0,0,0],"id":1,"left_children":[1,3,5,7,9,11,13,15,17,19,21,23,25,27,29,31,33,35,37,-1,39,41,43,45,47,49,51,53,55,57,59,61,-1,63,65,67,69,71,-1,73,75,77,-1,79,81,83,-1,85,87,89,91,-1,-1,-1,93,95,97,99,101,103,105,-1,-1,-1,-1,-1,-1,-1,-1,-1,-1,-1,-1,-1,-1,-1,-1,-1,-1,-1,-1,-1,-1,-1,-1,-1,-1,-1,-1,-1,-1,-1,-1,-1,-1,-1,-1,-1,-1,-1,-1,-1,-1,-1,-1,-1,-1],"loss_changes":[4.118376E1,3.549286E1,3.494342E1,2.1392246E1,9.191364E0,7.0223923E0,3.2794037E1,2.388298E1,1.5335577E1,1.43566475E1,5.655366E0,5.8426933E0,4.8516026E0,8.637081E0,2.2698183E0,5.1474805E0,1.0094414E1,1.3051254E1,3.427414E0,0E0,6.402632E0,1.5120354E0,2.3515491E0,5.2690716E0,1.7192982E0,1.4949703E0,5.4676533E-3,3.7123466E0,2.712181E0,1.2634356E0,1.5927318E-1,4.9574202E-1,0E0,6.943096E0,1.5465343E1,1.3538262E1,3.9769592E0,3.9386368E0,0E0,8.704424E-2,1.6717327E0,1.5948863E0,0E0,2.7390885E0,2.5456846E-1,5.427065E0,0E0,1.1482863E0,1.7052072E-1,1.4200908E-1,1.0853958E0,0E0,0E0,0E0,6.4647365E-1,2.8621292E0,7.950945E-1,9.5103264E-2,7.744169E-2,4.1829225E-2,1.9673675E-2,0E0,0E0,0E0,0E0,0E0,0E0,0E0,0E0,0E0,0E0,0E0,0E0,0E0,0E0,0E0,0E0,0E0,0E0,0E0,0E0,0E0,0E0,0E0,0E0,0E0,0E0,0E0,0E0,0E0,0E0,0E0,0E0,0E0,0E0,0E0,0E0,0E0,0E0,0E0,0E0,0E0,0E0,0E0,0E0,0E0,0E0],"parents":[2147483647,0,0,1,1,2,2,3,3,4,4,5,5,6,6,7,7,8,8,9,9,10,10,11,11,12,12,13,13,14,14,15,15,16,16,17,17,18,18,20,20,21,21,22,22,23,23,24,24,25,25,26,26,27,27,28,28,29,29,30,30,31,31,33,33,34,34,35,35,36,36,37,37,39,39,40,40,41,41,43,43,44,44,45,45,47,47,48,48,49,49,50,50,54,54,55,55,56,56,57,57,58,58,59,59,60,60],"right_children":[2,4,6,8,10,12,14,16,18,20,22,24,26,28,30,32,34,36,38,-1,40,42,44,46,48,50,52,54,56,58,60,62,-1,64,66,68,70,72,-1,74,76,78,-1,80,82,84,-1,86,88,90,92,-1,-1,-1,94,96,98,100,102,104,106,-1,-1,-1,-1,-1,-1,-1,-1,-1,-1,-1,-1,-1,-1,-1,-1,-1,-1,-1,-1,-1,-1,-1,-1,-1,-1,-1,-1,-1,-1,-1,-1,-1,-1,-1,-1,-1,-1,-1,-1,-1,-1,-1,-1,-1,-1],"split_conditions":[4.5107E2,1.0016695E-2,5.0063E2,2.6678434E-3,5E0,4.9336E2,5.05175E2,4.259E2,4.947161E-3,4.2521E2,4E1,5E1,3.6174E0,5.0133E2,5.08E2,4.2479E2,7.643284E1,3E0,4.4292E2,-1.5516376E-1,1.0075674E0,6.14E0,5.71E0,2.404178E-3,2E0,1.0065322E-3,1.95E-1,1.5E1,2.9E1,1.3852E0,5.0859E2,4.1427E2,-1.2765138E-1,1.9134072E-3,4.4361E2,1.69E0,4.0189663E1,2.7348E0,-8.382844E-3,6.000904E0,4.599E-1,4.3601E2,-7.703052E-2,8.3371544E1,5.6468463E0,4.9086E2,4.2024262E-2,4.8987E2,3.8839287E1,4.45E-2,1.77E0,6.5697454E-2,1.8017212E-2,7.9042666E-2,7.368421E0,1.8E1,6.9499034E-3,1.74E0,3.6054962E1,3.92048E1,2.15E0,-3.0458143E-2,5.8273873E-3,6.514047E-2,5.8731586E-3,3.6684725E-2,1.6190499E-1,-3.9791163E-2,1.6039506E-2,-2.1612497E-2,-9.4972126E-2,4.311974E-2,9.90151E-2,-2.286163E-2,-5.50775E-2,1.2844506E-2,1.1541394E-1,-1.7263023E-2,-4.919172E-2,-1.0562681E-3,4.352671E-2,-1.1994094E-2,-3.7243463E-2,-1.952887E-2,1.4705814E-2,1.53278755E-2,-3.0192075E-2,-3.411267E-2,-7.0772185E-3,2.3680761E-2,-6.111403E-3,-1.587013E-2,-4.799583E-2,-4.0501278E-2,6.039513E-3,7.680329E-2,1.4509062E-1,2.7656168E-2,7.867818E-2,-5.956192E-3,-1.9629827E-2,-5.6070577E-2,-3.1232113E-2,2.527615E-3,-1.0941545E-2,9.777247E-3,2.0905925E-2],"split_indices":[55,8,53,8,6,53,52,52,21,52,9,9,16,55,54,52,34,44,52,0,33,23,10,31,44,31,0,6,9,4,52,52,0,5,52,16,3,23,0,2,0,52,0,34,2,52,0,52,3,0,16,0,0,0,2,12,11,7,3,3,4,0,0,0,0,0,0,0,0,0,0,0,0,0,0,0,0,0,0,0,0,0,0,0,0,0,0,0,0,0,0,0,0,0,0,0,0,0,0,0,0,0,0,0,0,0,0],"split_type":[0,0,0,0,0,0,0,0,0,0,0,0,0,0,0,0,0,0,0,0,0,0,0,0,0,0,0,0,0,0,0,0,0,0,0,0,0,0,0,0,0,0,0,0,0,0,0,0,0,0,0,0,0,0,0,0,0,0,0,0,0,0,0,0,0,0,0,0,0,0,0,0,0,0,0,0,0,0,0,0,0,0,0,0,0,0,0,0,0,0,0,0,0,0,0,0,0,0,0,0,0,0,0,0,0,0,0],"sum_hessian":[2.677E3,1.296E3,1.381E3,1.094E3,2.02E2,1.243E3,1.38E2,1.62E2,9.32E2,3.9E1,1.63E2,1.107E3,1.36E2,7.4E1,6.4E1,1.9E1,1.43E2,8.71E2,6.1E1,1.2E1,2.7E1,7.6E1,8.7E1,1.003E3,1.04E2,1.32E2,4E0,2.1E1,5.3E1,4.1E1,2.3E1,1.4E1,5E0,1.02E2,4.1E1,8.4E2,3.1E1,5.5E1,6E0,2.1E1,6E0,6.9E1,7E0,6.8E1,1.9E1,9.89E2,1.4E1,9.2E1,1.2E1,8E0,1.24E2,3E0,1E0,7E0,1.4E1,3.5E1,1.8E1,2.2E1,1.9E1,1.1E1,1.2E1,8E0,6E0,7.5E1,2.7E1,1.8E1,2.3E1,4.5E1,7.95E2,1.9E1,1.2E1,3E1,2.5E1,3E0,1.8E1,4E0,2E0,4.4E1,2.5E1,5E1,1.8E1,8E0,1.1E1,9.41E2,4.8E1,8.7E1,5E0,8E0,4E0,1E0,7E0,1.3E1,1.11E2,3E0,1.1E1,1.5E1,2E1,6E0,1.2E1,1.1E1,1.1E1,1.2E1,7E0,9E0,2E0,7E0,5E0],"tree_param":{"num_deleted":"0","num_feature":"64","num_nodes":"107","size_leaf_vector":"1"}},{"base_weights":[2.1882402E-4,1.1523599E-1,-1.0772436E-1,1.794535E-1,-2.3172665E-1,-1.5567903E-1,3.2222775E-1,5.065578E-1,1.2978704E-1,-1.2955205E-1,-5.980041E-1,-1.3176747E-1,-3.479297E-1,7.291679E-1,-1.522759E-1,7.0702E-2,7.6728576E-1,9.960908E-2,5.613802E-1,-1.5214802E-1,6.013524E-1,-1.0995696E0,-1.728315E-1,-1.5275897E-1,7.0206195E-2,-3.7924436E-1,5.546266E-1,2.240852E-1,9.214392E-1,-2.7821782E-1,7.4467294E-2,-3.9569685E-1,2.55494E-1,1.2589697E0,3.8376734E-1,2.7182597E-1,2.587864E-2,6.3110846E-1,-7.6643126E-3,-1.0493307E-1,-5.8897305E-1,1.0953163E-1,-9.306229E-2,-1.374815E-1,-6.1040133E-2,2.245977E-1,-2.5922745E-1,-1.6069223E-1,3.8101997E-2,1.12843454E-1,-2.4021468E-1,-3.4411123E-1,-7.048274E-2,2.500816E-2,6.74296E-2,7.212644E-2,-5.6016024E-2,1.0751026E0,5.8179057E-1,-1.2125548E-1,-4.4481364E-1,-1.2971922E-2,1.3785043E-1,-5.974533E-3,-1.1228412E-1,5.385053E-2,-5.4442617E-3,4.7679592E-2,1.9066998E-1,2.087889E-2,8.437953E-2,6.039027E-2,1.2396514E-2,-3.3431735E-2,6.6851354E-3,3.8946863E-2,8.9494415E-2,-1.8382886E-2,2.2285083E-2,-8.042534E-2,-1.3201036E-2,9.2388755E-3,-2.3198219E-2,6.321923E-3,3.111103E-2,-3.03241E-2,1.0593418E-2,-1.7578056E-2,1.3265242E-2,1.3812507E-2,-2.7676066E-2,-2.9813368E-2,-3.5363496E-3,4.2246116E-5,-3.6829274E-2,-3.7463684E-2,5.485892E-3,6.960298E-2,1.3127248E-1,2.528564E-2,7.141559E-2,-5.4102098E-3,-1.7830424E-2,-5.6571182E-2,-3.3619832E-2,1.8185786E-3,-1.0212107E-2,7.346707E-3,1.7695459E-2],"categories":[],"categories_nodes":[],"categories_segments":[],"categories_sizes":[],"default_left":[0,0,0,0,0,0,0,0,0,0,0,0,0,0,0,0,0,0,0,0,0,0,0,0,0,0,0,0,0,0,0,0,0,0,0,0,0,0,0,0,0,0,0,0,0,0,0,0,0,0,0,0,0,0,0,0,0,0,0,0,0,0,0,0,0,0,0,0,0,0,0,0,0,0,0,0,0,0,0,0,0,0,0,0,0,0,0,0,0,0,0,0,0,0,0,0,0,0,0,0,0,0,0,0,0,0,0,0,0],"id":2,"left_children":[1,3,5,7,9,11,13,15,17,19,21,23,25,27,29,31,33,35,37,39,41,43,45,47,49,51,53,55,57,59,61,63,65,67,69,71,73,75,-1,77,79,-1,81,-1,-1,83,85,87,-1,89,91,93,-1,-1,-1,-1,95,97,99,101,103,105,107,-1,-1,-1,-1,-1,-1,-1,-1,-1,-1,-1,-1,-1,-1,-1,-1,-1,-1,-1,-1,-1,-1,-1,-1,-1,-1,-1,-1,-1,-1,-1,-1,-1,-1,-1,-1,-1,-1,-1,-1,-1,-1,-1,-1,-1,-1],"loss_changes":[3.3260635E1,2.8940145E1,2.8544533E1,1.7723747E1,7.5196495E0,5.67284E0,2.695118E1,1.6309883E1,1.2343504E1,2.733973E0,9.193045E0,4.7083473E0,4.082405E0,7.076988E0,1.8768889E0,4.841371E0,1.648814E1,1.1306551E1,2.8066406E0,3.1556463E0,1.8170114E0,1.8536377E0,9.166286E-1,4.312771E0,1.4168338E0,1.2788143E0,1.3594747E-2,3.1041331E0,2.1928635E0,1.0443335E0,1.3480033E-1,3.8414793E0,3.5379405E0,1.8849754E1,4.0095634E0,1.3035141E1,9.24623E0,3.22163E0,0E0,3.7131958E0,1.3694558E0,0E0,9.872106E-2,0E0,0E0,5.0138175E-2,3.696369E-1,4.405134E0,0E0,9.5426047E-1,1.4369911E-1,1.0165806E0,0E0,0E0,0E0,0E0,5.504582E-1,2.3290405E0,6.466708E-1,7.846677E-2,7.243681E-2,3.241166E-2,2.2246867E-2,0E0,0E0,0E0,0E0,0E0,0E0,0E0,0E0,0E0,0E0,0E0,0E0,0E0,0E0,0E0,0E0,0E0,0E0,0E0,0E0,0E0,0E0,0E0,0E0,0E0,0E0,0E0,0E0,0E0,0E0,0E0,0E0,0E0,0E0,0E0,0E0,0E0,0E0,0E0,0E0,0E0,0E0,0E0,0E0,0E0,0E0],"parents":[2147483647,0,0,1,1,2,2,3,3,4,4,5,5,6,6,7,7,8,8,9,9,10,10,11,11,12,12,13,13,14,14,15,15,16,16,17,17,18,18,19,19,20,20,21,21,22,22,23,23,24,24,25,25,26,26,27,27,28,28,29,29,30,30,31,31,32,32,33,33,34,34,35,35,36,36,37,37,39,39,40,40,42,42,45,45,46,46,47,47,49,49,50,50,51,51,56,56,57,57,58,58,59,59,60,60,61,61,62,62],"right_children":[2,4,6,8,10,12,14,16,18,20,22,24,26,28,30,32,34,36,38,40,42,44,46,48,50,52,54,56,58,60,62,64,66,68,70,72,74,76,-1,78,80,-1,82,-1,-1,84,86,88,-1,90,92,94,-1,-1,-1,-1,96,98,100,102,104,106,108,-1,-1,-1,-1,-1,-1,-1,-1,-1,-1,-1,-1,-1,-1,-1,-1,-1,-1,-1,-1,-1,-1,-1,-1,-1,-1,-1,-1,-1,-1,-1,-1,-1,-1,-1,-1,-1,-1,-1,-1,-1,-1,-1,-1,-1,-1],"split_conditions":[4.5107E2,1.0016695E-2,5.0063E2,2.5435705E-3,4.6863712E1,4.9336E2,5.05175E2,4.3981E2,4.947161E-3,5.6E-1,1.5E1,5E1,3.6174E0,5.0133E2,5.08E2,4.2557E2,4.4445E2,3.5326087E-1,4.4292E2,4.8457715E-1,4.4E0,5.77E0,5.01E-2,2.404178E-3,2E0,1.8E0,2.0249346E1,1.5E1,2.9E1,1.3852E0,5.0875E2,4.2479E2,1.3460623E-3,4.4361E2,4.5017E2,1.1463E4,4.2327E2,2.7348E0,-7.6643126E-3,2.7333343E-1,4.259E2,1.0953163E-1,1.314E-1,-1.374815E-1,-6.1040133E-2,3.07E-2,6.811202E1,4.9086E2,3.8101997E-2,4.8987E2,3.92048E1,1.0065322E-3,-7.048274E-2,2.500816E-2,6.74296E-2,7.212644E-2,7.368421E0,1.8E1,6.9499034E-3,1.74E0,3.194986E1,3.3346695E1,1.9003E0,-5.974533E-3,-1.1228412E-1,5.385053E-2,-5.4442617E-3,4.7679592E-2,1.9066998E-1,2.087889E-2,8.437953E-2,6.039027E-2,1.2396514E-2,-3.3431735E-2,6.6851354E-3,3.8946863E-2,8.9494415E-2,-1.8382886E-2,2.2285083E-2,-8.042534E-2,-1.3201036E-2,9.2388755E-3,-2.3198219E-2,6.321923E-3,3.111103E-2,-3.03241E-2,1.0593418E-2,-1.7578056E-2,1.3265242E-2,1.3812507E-2,-2.7676066E-2,-2.9813368E-2,-3.5363496E-3,4.2246116E-5,-3.6829274E-2,-3.7463684E-2,5.485892E-3,6.960298E-2,1.3127248E-1,2.528564E-2,7.141559E-2,-5.4102098E-3,-1.7830424E-2,-5.6571182E-2,-3.3619832E-2,1.8185786E-3,-1.0212107E-2,7.346707E-3,1.7695459E-2],"split_indices":[55,8,53,8,3,53,52,52,21,63,6,9,16,55,54,52,52,33,52,40,4,4,0,31,44,13,2,6,9,4,53,52,5,52,54,43,52,23,0,40,52,0,0,0,0,0,3,52,0,52,3,31,0,0,0,0,2,12,11,7,3,3,4,0,0,0,0,0,0,0,0,0,0,0,0,0,0,0,0,0,0,0,0,0,0,0,0,0,0,0,0,0,0,0,0,0,0,0,0,0,0,0,0,0,0,0,0,0,0],"split_type":[0,0,0,0,0,0,0,0,0,0,0,0,0,0,0,0,0,0,0,0,0,0,0,0,0,0,0,0,0,0,0,0,0,0,0,0,0,0,0,0,0,0,0,0,0,0,0,0,0,0,0,0,0,0,0,0,0,0,0,0,0,0,0,0,0,0,0,0,0,0,0,0,0,0,0,0,0,0,0,0,0,0,0,0,0,0,0,0,0,0,0,0,0,0,0,0,0,0,0,0,0,0,0,0,0,0,0,0,0],"sum_hessian":[2.677E3,1.296E3,1.381E3,1.094E3,2.02E2,1.243E3,1.38E2,1.43E2,9.51E2,1.59E2,4.3E1,1.107E3,1.36E2,7.4E1,6.4E1,5.4E1,8.9E1,8.9E2,6.1E1,1.55E2,4E0,1.9E1,2.4E1,1.003E3,1.04E2,1.32E2,4E0,2.1E1,5.3E1,4.1E1,2.3E1,1.5E1,3.9E1,3.8E1,5.1E1,2.66E2,6.24E2,5.5E1,6E0,1.41E2,1.4E1,2E0,2E0,1.1E1,8E0,4E0,2E1,9.89E2,1.4E1,9.2E1,1.2E1,1.21E2,1.1E1,2E0,2E0,7E0,1.4E1,3.5E1,1.8E1,2.2E1,1.9E1,1E1,1.3E1,1.1E1,4E0,2E1,1.9E1,1.8E1,2E1,3.8E1,1.3E1,8.1E1,1.85E2,6.3E1,5.61E2,3E1,2.5E1,1.14E2,2.7E1,9E0,5E0,1E0,1E0,2E0,2E0,1.8E1,2E0,9.41E2,4.8E1,8.7E1,5E0,9E0,3E0,8E0,1.13E2,3E0,1.1E1,1.5E1,2E1,6E0,1.2E1,1.1E1,1.1E1,7E0,1.2E1,8E0,2E0,6E0,7E0],"tree_param":{"num_deleted":"0","num_feature":"64","num_nodes":"109","size_leaf_vector":"1"}},{"base_weights":[3.75542E-4,1.0241288E-1,-9.829079E-2,1.5723808E-1,-1.957474E-1,-1.4250301E-1,2.9173836E-1,2.751392E-1,4.8806846E-2,-9.4798036E-2,-5.23961E-1,-9.447228E-2,-2.2817421E-1,6.607541E-1,-1.3853729E-1,1.5731697E-1,2.5737575E-1,1.1921847E-2,4.7753626E-1,-1.175517E-1,8.1060606E-1,-3.4181386E-1,-1.1055638E0,-1.3768741E-1,3.8700157E-1,-5.475526E-2,-2.8528908E-1,2.0350161E-1,8.348059E-1,-2.530968E-1,6.7714244E-2,4.606683E-1,1.6986871E-1,2.375472E-1,-5.233973E-2,6.2849873E-1,-3.1809792E-1,-2.4359095E-1,3.4996007E-2,8.77693E-3,1.0222953E-1,-5.24553E-1,-8.522123E-2,-1.18772365E-1,-1.41982725E-2,-1.2479972E-1,-7.8052247E-1,2.6985013E-1,4.9242568E-1,-1.4732374E-1,1.1754438E-1,-7.358838E-1,-2.732456E-1,6.5815374E-2,-5.2546274E-2,9.7317225E-1,5.28701E-1,-1.1014038E-1,-4.0484184E-1,-4.610954E-2,1.0821715E-1,-1.2809716E-2,5.420686E-2,5.2386182E-3,3.4376975E-2,1.1947419E-2,5.9986092E-2,-3.5295652E-3,-1.0480284E-1,-1.3534411E-2,6.7344554E-2,-4.6477992E-2,3.5433803E-2,-2.7817398E-2,7.9440355E-2,-5.7996092E-3,4.1774925E-2,-1.03608266E-1,-4.215959E-2,3.484471E-2,-2.0303925E-2,-1.3470334E-2,3.7646603E-2,-1.9989753E-1,-9.324381E-3,1.3535596E-2,3.0085413E-2,2.3326283E-2,5.4137807E-2,5.098308E-2,-1.934774E-2,2.3101022E-2,1.9365773E-3,-7.878432E-2,-1.86084E-2,3.1844613E-3,-2.9784096E-2,-3.465391E-2,4.983018E-3,6.30777E-2,1.1877032E-1,2.3118299E-2,6.4823374E-2,-1.3597148E-2,1.0045791E-3,-4.583719E-2,-2.399472E-2,-7.365555E-4,-9.5313005E-3,4.888601E-3,1.50793465E-2],"categories":[],"categories_nodes":[],"categories_segments":[],"categories_sizes":[],"default_left":[0,0,0,0,0,0,0,0,0,0,0,0,0,0,0,0,0,0,0,0,0,0,0,0,0,0,0,0,0,0,0,0,0,0,0,0,0,0,0,0,0,0,0,0,0,0,0,0,0,0,0,0,0,0,0,0,0,0,0,0,0,0,0,0,0,0,0,0,0,0,0,0,0,0,0,0,0,0,0,0,0,0,0,0,0,0,0,0,0,0,0,0,0,0,0,0,0,0,0,0,0,0,0,0,0,0,0,0,0,0,0],"id":3,"left_children":[1,3,5,7,9,11,13,15,17,19,21,23,25,27,29,-1,31,33,35,37,39,41,43,45,47,49,51,53,55,57,59,61,63,65,67,69,71,73,75,-1,-1,77,79,-1,-1,81,83,85,87,89,91,93,95,-1,97,99,101,103,105,107,109,-1,-1,-1,-1,-1,-1,-1,-1,-1,-1,-1,-1,-1,-1,-1,-1,-1,-1,-1,-1,-1,-1,-1,-1,-1,-1,-1,-1,-1,-1,-1,-1,-1,-1,-1,-1,-1,-1,-1,-1,-1,-1,-1,-1,-1,-1,-1,-1,-1,-1],"loss_changes":[2.6971233E1,2.1559378E1,2.352798E1,1.4215349E1,6.742584E0,5.0150185E0,2.2161747E1,1.1884766E1,9.182058E0,3.3502872E0,4.7070932E0,1.6407555E1,4.33259E0,5.799038E0,1.552963E0,0E0,9.296825E0,7.783919E0,5.725028E0,2.9887094E0,5.223408E-1,1.7370987E0,7.0220757E-1,5.884118E0,6.699066E-1,1.7717639E0,1.5897427E0,2.595663E0,1.7726326E0,8.665135E-1,1.15634486E-1,7.641697E0,7.541215E0,5.01909E0,7.056718E0,1.4301043E0,9.5376295E-1,3.2722282E0,2.5513332E0,0E0,0E0,7.2183514E-1,9.393455E-1,0E0,0E0,3.5704336E0,1.1537441E1,9.688282E-2,2.9237652E-1,2.2824068E0,4.2998308E-1,8.193302E-2,2.4332123E0,0E0,4.687372E-1,1.8951836E0,5.2583885E-1,7.277033E-2,6.655121E-2,1.2642334E-2,3.8098127E-2,0E0,0E0,0E0,0E0,0E0,0E0,0E0,0E0,0E0,0E0,0E0,0E0,0E0,0E0,0E0,0E0,0E0,0E0,0E0,0E0,0E0,0E0,0E0,0E0,0E0,0E0,0E0,0E0,0E0,0E0,0E0,0E0,0E0,0E0,0E0,0E0,0E0,0E0,0E0,0E0,0E0,0E0,0E0,0E0,0E0,0E0,0E0,0E0,0E0,0E0],"parents":[2147483647,0,0,1,1,2,2,3,3,4,4,5,5,6,6,7,7,8,8,9,9,10,10,11,11,12,12,13,13,14,14,16,16,17,17,18,18,19,19,20,20,21,21,22,22,23,23,24,24,25,25,26,26,27,27,28,28,29,29,30,30,31,31,32,32,33,33,34,34,35,35,36,36,37,37,38,38,41,41,42,42,45,45,46,46,47,47,48,48,49,49,50,50,51,51,52,52,54,54,55,55,56,56,57,57,58,58,59,59,60,60],"right_children":[2,4,6,8,10,12,14,16,18,20,22,24,26,28,30,-1,32,34,36,38,40,42,44,46,48,50,52,54,56,58,60,62,64,66,68,70,72,74,76,-1,-1,78,80,-1,-1,82,84,86,88,90,92,94,96,-1,98,100,102,104,106,108,110,-1,-1,-1,-1,-1,-1,-1,-1,-1,-1,-1,-1,-1,-1,-1,-1,-1,-1,-1,-1,-1,-1,-1,-1,-1,-1,-1,-1,-1,-1,-1,-1,-1,-1,-1,-1,-1,-1,-1,-1,-1,-1,-1,-1,-1,-1,-1,-1,-1,-1],"split_conditions":[4.5124E2,1.0016695E-2,5.0063E2,2.80763E5,6.4E1,4.783796E2,5.05175E2,6E0,4.065E0,5.6E-1,5.3341766E1,4.7675E2,1.1961722E-3,5.0133E2,5.08E2,1.5731697E-1,2.7306274E-1,1E1,1.044491E0,4.1E1,1.314E-1,1.0107507E-2,8.653846E0,3.4170765E-1,4.771343E2,7.2170776E-1,1.13E0,1.5E1,2.9E1,1.3852E0,4.8328467E-2,2.6E1,2.485E0,4.484E2,9.396765E0,-5.058104E-1,5.1177353E1,4.4984E2,8.650988E1,8.77693E-3,1.0222953E-1,1.8908666E-1,3.832108E-1,-1.18772365E-1,-1.41982725E-2,2.3E1,3.8883236E1,4.124E3,2.35E0,-1.1926337E-1,1.1387943E0,1.314E-1,3.5102437E-3,6.5815374E-2,7.368421E0,1.8E1,6.9499034E-3,4.09E-2,3.6480957E1,3.260397E1,1.1776405E-1,-1.2809716E-2,5.420686E-2,5.2386182E-3,3.4376975E-2,1.1947419E-2,5.9986092E-2,-3.5295652E-3,-1.0480284E-1,-1.3534411E-2,6.7344554E-2,-4.6477992E-2,3.5433803E-2,-2.7817398E-2,7.9440355E-2,-5.7996092E-3,4.1774925E-2,-1.03608266E-1,-4.215959E-2,3.484471E-2,-2.0303925E-2,-1.3470334E-2,3.7646603E-2,-1.9989753E-1,-9.324381E-3,1.3535596E-2,3.0085413E-2,2.3326283E-2,5.4137807E-2,5.098308E-2,-1.934774E-2,2.3101022E-2,1.9365773E-3,-7.878432E-2,-1.86084E-2,3.1844613E-3,-2.9784096E-2,-3.465391E-2,4.983018E-3,6.30777E-2,1.1877032E-1,2.3118299E-2,6.4823374E-2,-1.3597148E-2,1.0045791E-3,-4.583719E-2,-2.399472E-2,-7.365555E-4,-9.5313005E-3,4.888601E-3,1.50793465E-2],"split_indices":[55,8,53,43,12,52,52,25,7,63,1,53,5,55,54,0,33,9,33,9,0,5,2,40,52,33,16,6,9,4,45,25,7,52,33,38,1,52,34,0,0,39,39,0,0,30,1,43,10,38,33,0,17,0,2,12,11,57,3,3,40,0,0,0,0,0,0,0,0,0,0,0,0,0,0,0,0,0,0,0,0,0,0,0,0,0,0,0,0,0,0,0,0,0,0,0,0,0,0,0,0,0,0,0,0,0,0,0,0,0,0],"split_type":[0,0,0,0,0,0,0,0,0,0,0,0,0,0,0,0,0,0,0,0,0,0,0,0,0,0,0,0,0,0,0,0,0,0,0,0,0,0,0,0,0,0,0,0,0,0,0,0,0,0,0,0,0,0,0,0,0,0,0,0,0,0,0,0,0,0,0,0,0,0,0,0,0,0,0,0,0,0,0,0,0,0,0,0,0,0,0,0,0,0,0,0,0,0,0,0,0,0,0,0,0,0,0,0,0,0,0,0,0,0,0],"sum_hessian":[2.677E3,1.316E3,1.361E3,1.112E3,2.04E2,1.223E3,1.38E2,5.32E2,5.8E2,1.57E2,4.7E1,7.85E2,4.38E2,7.4E1,6.4E1,6E0,5.26E2,5.35E2,4.5E1,1.54E2,3E0,3.7E1,1E1,7.21E2,6.4E1,1.09E2,3.29E2,2.1E1,5.3E1,4.1E1,2.3E1,1.57E2,3.69E2,1.18E2,4.17E2,3.8E1,7E0,8.4E1,7E1,1E0,2E0,2.1E1,1.6E1,9E0,1E0,7.08E2,1.3E1,3.2E1,3.2E1,7.1E1,3.8E1,7E0,3.22E2,7E0,1.4E1,3.5E1,1.8E1,2.2E1,1.9E1,6E0,1.7E1,1.9E1,1.38E2,2.21E2,1.48E2,9E1,2.8E1,4.11E2,6E0,2E0,3.6E1,6E0,1E0,8.2E1,2E0,5.7E1,1.3E1,2E0,1.9E1,3E0,1.3E1,6.95E2,1.3E1,4E0,9E0,7E0,2.5E1,6E0,2.6E1,4E0,6.7E1,1.7E1,2.1E1,6E0,1E0,2.4E1,2.98E2,3E0,1.1E1,1.5E1,2E1,6E0,1.2E1,1.8E1,4E0,1.3E1,6E0,4E0,2E0,8E0,9E0],"tree_param":{"num_deleted":"0","num_feature":"64","num_nodes":"111","size_leaf_vector":"1"}},{"base_weights":[4.4292596E-4,9.38348E-2,-8.7205194E-2,1.4621831E-1,-1.8918876E-1,-1.2640455E-1,2.642423E-1,4.2412978E-1,1.040277E-1,-5.0385034E-1,-1.03973635E-1,-8.3161674E-2,-2.0551014E-1,5.987578E-1,-1.2580238E-1,3.753693E-2,6.556684E-1,1.2333829E-1,-4.5500603E-1,-1.18558586E-1,-2.0170803E-1,-2.5807172E-1,3.3415064E-2,-1.2409065E-1,3.2338026E-1,-4.8764534E-2,-2.5713593E-1,1.8479438E-1,7.5632143E-1,-2.2974959E-1,6.1346997E-2,-3.9069173E-1,2.0788997E-1,1.0883602E0,3.1854057E-1,3.788591E-2,2.8142694E-1,-1.9557989E-1,-8.1912273E-1,-3.8556334E-1,3.7507144E-1,-2.13738E-1,-6.08191E-2,1.2174465E-1,-1.8697889E-1,-3.5736147E-1,-8.7951295E-2,1.12930335E-1,3.9923337E-1,-1.5367498E-1,8.02015E-2,-2.8479555E-1,-1.0023725E-1,6.0056526E-2,-4.9269702E-2,8.8090634E-1,4.8045942E-1,-9.967384E-2,-3.6784923E-1,-4.296544E-2,9.850478E-2,-8.467299E-3,-1.0469984E-1,4.667423E-2,-7.4299457E-3,3.9665855E-2,1.6623588E-1,7.513357E-2,1.5501051E-2,-4.1449577E-2,7.0131235E-3,3.1891335E-2,-7.1667165E-2,-2.4735352E-2,-8.700023E-3,-9.233793E-2,-4.6763644E-2,-1.299533E-2,-4.301877E-2,-1.0909628E-3,1.0220098E-1,2.1339606E-3,-2.8510747E-2,5.8657525E-4,4.2813785E-2,-2.326186E-2,1.1078419E-2,-1.904626E-2,-1.2681709E-1,-6.928652E-3,-4.4998046E-2,1.6975757E-2,-2.8461883E-2,2.9817775E-2,4.8924536E-2,-2.581971E-2,7.3505226E-3,4.5375492E-2,2.8612122E-3,-3.918692E-2,-2.2313317E-2,3.429524E-2,-1.3508144E-2,-3.2054868E-2,4.526242E-3,2.0051787E-2,9.596887E-2,2.1136729E-2,5.883968E-2,-1.8572161E-2,-5.837924E-3,-4.7610447E-2,-2.7293453E-2,-1.3766334E-3,-1.0908003E-2,6.054878E-3,1.6432533E-2],"categories":[],"categories_nodes":[],"categories_segments":[],"categories_sizes":[],"default_left":[0,0,0,0,0,0,0,0,0,0,0,0,0,0,0,0,0,0,0,0,0,0,0,0,0,0,0,0,0,0,0,0,0,0,0,0,0,0,0,0,0,0,0,0,0,0,0,0,0,0,0,0,0,0,0,0,0,0,0,0,0,0,0,0,0,0,0,0,0,0,0,0,0,0,0,0,0,0,0,0,0,0,0,0,0,0,0,0,0,0,0,0,0,0,0,0,0,0,0,0,0,0,0,0,0,0,0,0,0,0,0,0,0,0,0,0,0],"id":4,"left_children":[1,3,5,7,9,11,13,15,17,19,21,23,25,27,29,31,33,35,37,-1,39,41,43,45,47,49,51,53,55,57,59,61,63,65,67,69,71,73,75,77,79,81,-1,83,85,87,89,91,93,95,97,99,101,-1,103,105,107,109,111,113,115,-1,-1,-1,-1,-1,-1,-1,-1,-1,-1,-1,-1,-1,-1,-1,-1,-1,-1,-1,-1,-1,-1,-1,-1,-1,-1,-1,-1,-1,-1,-1,-1,-1,-1,-1,-1,-1,-1,-1,-1,-1,-1,-1,-1,-1,-1,-1,-1,-1,-1,-1,-1,-1,-1,-1,-1],"loss_changes":[2.1929281E1,1.9256687E1,1.9072546E1,1.27950325E1,5.39084E0,4.238327E0,1.8211487E1,1.2864996E1,1.0333219E1,8.618048E0,3.4172084E0,1.3451441E1,3.5398998E0,4.7521553E0,1.2785821E0,4.093474E0,1.2781834E1,1.2431174E1,2.8625607E0,0E0,3.4319768E0,1.0496855E0,1.6969519E0,6.1479473E0,1.1361966E0,1.5006124E0,1.4035721E0,2.1705642E0,1.4326439E0,7.177985E-1,9.725674E-2,3.124822E0,2.9564943E0,1.4825005E1,3.5638356E0,8.766798E0,1.2313639E1,9.091151E-2,4.4576645E-2,2.1784997E-1,2.0087972E0,1.1637218E0,0E0,2.1987677E0,3.6551595E-1,1.4655743E1,4.2663965E0,5.2274E-1,3.4531403E-1,1.4674456E0,9.5058656E-1,1.7612381E0,8.3389837E-1,0E0,3.9917743E-1,1.7372589E0,4.2748833E-1,7.0883796E-2,7.555485E-2,1.2011777E-2,3.5019442E-2,0E0,0E0,0E0,0E0,0E0,0E0,0E0,0E0,0E0,0E0,0E0,0E0,0E0,0E0,0E0,0E0,0E0,0E0,0E0,0E0,0E0,0E0,0E0,0E0,0E0,0E0,0E0,0E0,0E0,0E0,0E0,0E0,0E0,0E0,0E0,0E0,0E0,0E0,0E0,0E0,0E0,0E0,0E0,0E0,0E0,0E0,0E0,0E0,0E0,0E0,0E0,0E0,0E0,0E0,0E0,0E0],"parents":[2147483647,0,0,1,1,2,2,3,3,4,4,5,5,6,6,7,7,8,8,9,9,10,10,11,11,12,12,13,13,14,14,15,15,16,16,17,17,18,18,20,20,21,21,22,22,23,23,24,24,25,25,26,26,27,27,28,28,29,29,30,30,31,31,32,32,33,33,34,34,35,35,36,36,37,37,38,38,39,39,40,40,41,41,43,43,44,44,45,45,46,46,47,47,48,48,49,49,50,50,51,51,52,52,54,54,55,55,56,56,57,57,58,58,59,59,60,60],"right_children":[2,4,6,8,10,12,14,16,18,20,22,24,26,28,30,32,34,36,38,-1,40,42,44,46,48,50,52,54,56,58,60,62,64,66,68,70,72,74,76,78,80,82,-1,84,86,88,90,92,94,96,98,100,102,-1,104,106,108,110,112,114,116,-1,-1,-1,-1,-1,-1,-1,-1,-1,-1,-1,-1,-1,-1,-1,-1,-1,-1,-1,-1,-1,-1,-1,-1,-1,-1,-1,-1,-1,-1,-1,-1,-1,-1,-1,-1,-1,-1,-1,-1,-1,-1,-1,-1,-1,-1,-1,-1,-1,-1,-1,-1,-1,-1,-1,-1],"split_conditions":[4.5107E2,1.0016695E-2,5.0063E2,2.5435705E-3,6E0,4.783796E2,5.05175E2,4.3981E2,3E0,4.2521E2,4E1,4.763574E2,1.1961722E-3,5.0133E2,5.08E2,4.2557E2,4.4445E2,6.39798E-3,4.0189663E1,-1.18558586E-1,1.0075674E0,6.14E0,5.4987E0,1.7E1,2.35E0,4.881E2,2.2567497E-1,1.5E1,2.9E1,1.3852E0,4.8328467E-2,4.2479E2,1.3460623E-3,4.4361E2,8.4E-1,5.3038675E-1,1.607096E6,8.708309E1,2.9E1,2.5418264E-1,4.599E-1,4.3033E2,-6.08191E-2,8.3371544E1,5.2312923E1,1.6E1,6.105E0,4.62173E5,4.771343E2,7.2170776E-1,1.4968152E-1,1.2892972E1,1.3E0,6.0056526E-2,7.368421E0,1.5287427E1,6.9499034E-3,8.8E-1,3.194986E1,4.1751892E1,2.15E0,-8.467299E-3,-1.0469984E-1,4.667423E-2,-7.4299457E-3,3.9665855E-2,1.6623588E-1,7.513357E-2,1.5501051E-2,-4.1449577E-2,7.0131235E-3,3.1891335E-2,-7.1667165E-2,-2.4735352E-2,-8.700023E-3,-9.233793E-2,-4.6763644E-2,-1.299533E-2,-4.301877E-2,-1.0909628E-3,1.0220098E-1,2.1339606E-3,-2.8510747E-2,5.8657525E-4,4.2813785E-2,-2.326186E-2,1.1078419E-2,-1.904626E-2,-1.2681709E-1,-6.928652E-3,-4.4998046E-2,1.6975757E-2,-2.8461883E-2,2.9817775E-2,4.8924536E-2,-2.581971E-2,7.3505226E-3,4.5375492E-2,2.8612122E-3,-3.918692E-2,-2.2313317E-2,3.429524E-2,-1.3508144E-2,-3.2054868E-2,4.526242E-3,2.0051787E-2,9.596887E-2,2.1136729E-2,5.883968E-2,-1.8572161E-2,-5.837924E-3,-4.7610447E-2,-2.7293453E-2,-1.3766334E-3,-1.0908003E-2,6.054878E-3,1.6432533E-2],"split_indices":[55,8,53,8,6,52,52,52,44,52,9,52,5,55,54,52,52,8,3,0,33,23,10,25,10,52,40,6,9,4,45,52,5,52,13,19,43,36,6,39,0,52,0,34,3,25,7,43,52,33,33,2,4,0,2,1,11,20,3,1,4,0,0,0,0,0,0,0,0,0,0,0,0,0,0,0,0,0,0,0,0,0,0,0,0,0,0,0,0,0,0,0,0,0,0,0,0,0,0,0,0,0,0,0,0,0,0,0,0,0,0,0,0,0,0,0,0],"split_type":[0,0,0,0,0,0,0,0,0,0,0,0,0,0,0,0,0,0,0,0,0,0,0,0,0,0,0,0,0,0,0,0,0,0,0,0,0,0,0,0,0,0,0,0,0,0,0,0,0,0,0,0,0,0,0,0,0,0,0,0,0,0,0,0,0,0,0,0,0,0,0,0,0,0,0,0,0,0,0,0,0,0,0,0,0,0,0,0,0,0,0,0,0,0,0,0,0,0,0,0,0,0,0,0,0,0,0,0,0,0,0,0,0,0,0,0,0],"sum_hessian":[2.677E3,1.296E3,1.381E3,1.094E3,2.02E2,1.243E3,1.38E2,1.43E2,9.51E2,4.2E1,1.6E2,8.05E2,4.38E2,7.4E1,6.4E1,5.4E1,8.9E1,9.2E2,3.1E1,1.2E1,3E1,7.5E1,8.5E1,7.32E2,7.3E1,1.09E2,3.29E2,2.1E1,5.3E1,4.1E1,2.3E1,1.5E1,3.9E1,3.8E1,5.1E1,5.98E2,3.22E2,1.9E1,1.2E1,2.3E1,7E0,6.8E1,7E0,6.1E1,2.4E1,9.7E1,6.35E2,2E1,5.3E1,6E1,4.9E1,2.79E2,5E1,7E0,1.4E1,3.5E1,1.8E1,2.2E1,1.9E1,6E0,1.7E1,1.1E1,4E0,2E1,1.9E1,1.8E1,2E1,1.3E1,3.8E1,3.9E1,5.59E2,3.11E2,1.1E1,1.2E1,7E0,8E0,4E0,4E0,1.9E1,5E0,2E0,1.6E1,5.2E1,4.5E1,1.6E1,2.1E1,3E0,8.3E1,1.4E1,6.05E2,3E1,1.8E1,2E0,2.7E1,2.6E1,4.1E1,1.9E1,5E0,4.4E1,1E2,1.79E2,3E0,4.7E1,3E0,1.1E1,4E0,3.1E1,6E0,1.2E1,6E0,1.6E1,7E0,1.2E1,5E0,1E0,1.2E1,5E0],"tree_param":{"num_deleted":"0","num_feature":"64","num_nodes":"117","size_leaf_vector":"1"}},{"base_weights":[3.405094E-4,8.341932E-2,-7.999366E-2,1.2102879E-1,-2.0779696E-1,-1.1613357E-1,2.3882104E-1,3.5804188E-1,8.191793E-2,-6.3526547E-1,-9.6562915E-2,-9.712354E-2,-2.6625606E-1,5.41929E-1,-1.1459309E-1,-4.3342844E-1,4.6401015E-1,-4.0032345E-1,1.02886975E-1,-1.090871E0,-7.656151E-2,-1.3727954E-1,7.0671916E-2,-1.1510836E-1,7.598482E-2,-2.9187635E-1,4.684948E-1,1.6779348E-1,6.843189E-1,-2.0913926E-1,5.5637415E-2,-1.5814269E-1,-1.04940474E-1,6.9202435E-1,2.618712E-1,2.87255E-1,-5.4604644E-1,8.667568E-2,7.0701903E-1,-1.2658678E-1,8.545395E-2,4.997332E-2,-1.5342066E-1,2.814572E-1,-1.928624E-1,-1.2839837E-1,1.4164948E-1,1.1186548E-1,-2.0543233E-1,-2.6032698E-1,-5.8830526E-2,5.303784E-2,1.1048016E-2,5.4801583E-1,-4.6177983E-2,5.834085E-1,1.0257496E-1,-9.076777E-2,-3.348095E-1,-8.188908E-3,1.1027422E-1,-4.9796235E-2,-6.755795E-3,8.735721E-2,4.7396007E-3,3.4491867E-2,-1.4834337E-2,5.0667144E-2,-5.882927E-3,-3.8360424E-2,-9.727012E-2,-1.0534587E-2,1.3656228E-2,3.588037E-2,1.00084834E-1,-1.6157342E-3,-2.5434846E-2,5.2313186E-2,8.906776E-3,7.943636E-3,-2.7214125E-2,-3.0658571E-2,-1.0508594E-2,-1.0965147E-2,2.2611607E-2,1.4933461E-2,-9.0431655E-3,-2.661711E-2,-1.7412007E-3,4.4655134E-3,-2.8212098E-2,1.6018037E-2,5.80538E-2,1.5146694E-2,-1.6014714E-2,9.426629E-2,4.8996408E-2,-1.6980262E-2,-5.288473E-3,-4.3444533E-2,-2.4774058E-2,1.563249E-3,-8.486393E-3,1.6088495E-2,6.9904462E-3],"categories":[],"categories_nodes":[],"categories_segments":[],"categories_sizes":[],"default_left":[0,0,0,0,0,0,0,0,0,0,0,0,0,0,0,0,0,0,0,0,0,0,0,0,0,0,0,0,0,0,0,0,0,0,0,0,0,0,0,0,0,0,0,0,0,0,0,0,0,0,0,0,0,0,0,0,0,0,0,0,0,0,0,0,0,0,0,0,0,0,0,0,0,0,0,0,0,0,0,0,0,0,0,0,0,0,0,0,0,0,0,0,0,0,0,0,0,0,0,0,0,0,0,0,0],"id":5,"left_children":[1,3,5,7,9,11,13,15,17,19,21,23,25,27,29,31,33,35,37,39,41,43,-1,45,47,49,51,53,55,57,59,61,-1,63,65,67,69,71,73,-1,-1,-1,75,77,79,81,83,85,87,89,-1,-1,-1,91,93,95,-1,97,99,101,103,-1,-1,-1,-1,-1,-1,-1,-1,-1,-1,-1,-1,-1,-1,-1,-1,-1,-1,-1,-1,-1,-1,-1,-1,-1,-1,-1,-1,-1,-1,-1,-1,-1,-1,-1,-1,-1,-1,-1,-1,-1,-1,-1,-1],"loss_changes":[1.7879826E1,1.4449576E1,1.5720613E1,1.0788511E1,7.118565E0,3.4672337E0,1.49521475E1,1.4039785E1,1.0183664E1,7.8074875E0,4.054558E0,3.3960419E0,2.715702E0,3.8806572E0,1.0577877E0,3.2254343E0,6.5479946E0,4.365086E0,9.360316E0,6.8692265E0,7.410722E-1,2.7541347E0,0E0,3.3827286E0,1.0630164E0,1.0906839E0,5.2179813E-2,1.8151541E0,1.2620811E0,5.943928E-1,8.459741E-2,4.2809582E-1,0E0,7.9166946E0,2.7424812E0,6.3729966E-1,2.0526028E0,8.999769E0,2.1987877E0,0E0,0E0,0E0,1.8984199E-1,6.0434484E-1,2.2451336E0,3.8642159E0,1.0648937E0,7.108551E-1,1.3240689E-1,8.2350445E-1,0E0,0E0,0E0,7.915497E-3,3.6213836E-1,1.0152225E0,0E0,5.9883893E-2,6.587386E-2,2.324471E-2,1.5314281E-2,0E0,0E0,0E0,0E0,0E0,0E0,0E0,0E0,0E0,0E0,0E0,0E0,0E0,0E0,0E0,0E0,0E0,0E0,0E0,0E0,0E0,0E0,0E0,0E0,0E0,0E0,0E0,0E0,0E0,0E0,0E0,0E0,0E0,0E0,0E0,0E0,0E0,0E0,0E0,0E0,0E0,0E0,0E0,0E0],"parents":[2147483647,0,0,1,1,2,2,3,3,4,4,5,5,6,6,7,7,8,8,9,9,10,10,11,11,12,12,13,13,14,14,15,15,16,16,17,17,18,18,19,19,20,20,21,21,23,23,24,24,25,25,26,26,27,27,28,28,29,29,30,30,31,31,33,33,34,34,35,35,36,36,37,37,38,38,42,42,43,43,44,44,45,45,46,46,47,47,48,48,49,49,53,53,54,54,55,55,57,57,58,58,59,59,60,60],"right_children":[2,4,6,8,10,12,14,16,18,20,22,24,26,28,30,32,34,36,38,40,42,44,-1,46,48,50,52,54,56,58,60,62,-1,64,66,68,70,72,74,-1,-1,-1,76,78,80,82,84,86,88,90,-1,-1,-1,92,94,96,-1,98,100,102,104,-1,-1,-1,-1,-1,-1,-1,-1,-1,-1,-1,-1,-1,-1,-1,-1,-1,-1,-1,-1,-1,-1,-1,-1,-1,-1,-1,-1,-1,-1,-1,-1,-1,-1,-1,-1,-1,-1,-1,-1,-1,-1,-1,-1],"split_conditions":[4.5124E2,8.8366605E-3,5.0063E2,2.6678434E-3,4.253E2,4.9336E2,5.05175E2,4.259E2,3.7737607E-3,4.9294106E-4,4.4984E2,5E1,3.6174E0,5.0133E2,5.08E2,4.2479E2,2.379974E1,2.095559E1,5.7E1,1.3705584E1,2.63064E1,1.2188E4,7.0671916E-2,4.9086E2,2E0,1.8E0,1.95E-1,1.5E1,7.226046E1,1.3852E0,5.0859E2,1.9523718E1,-1.04940474E-1,4.08683E5,2.9281769E1,2.3328598E1,2.3E1,2.6703579E1,4.2557E2,-1.2658678E-1,8.545395E-2,4.997332E-2,8.5E-2,4.8943663E-1,4.7619047E0,1.82E0,5.144555E-1,3.61E0,3.8839287E1,1.0065322E-3,-5.8830526E-2,5.303784E-2,1.1048016E-2,4.7337467E1,3.3612198E1,8E-1,1.0257496E-1,8.8E-1,3.194986E1,3.92048E1,1.0741859E1,-4.9796235E-2,-6.755795E-3,8.735721E-2,4.7396007E-3,3.4491867E-2,-1.4834337E-2,5.0667144E-2,-5.882927E-3,-3.8360424E-2,-9.727012E-2,-1.0534587E-2,1.3656228E-2,3.588037E-2,1.00084834E-1,-1.6157342E-3,-2.5434846E-2,5.2313186E-2,8.906776E-3,7.943636E-3,-2.7214125E-2,-3.0658571E-2,-1.0508594E-2,-1.0965147E-2,2.2611607E-2,1.4933461E-2,-9.0431655E-3,-2.661711E-2,-1.7412007E-3,4.4655134E-3,-2.8212098E-2,1.6018037E-2,5.80538E-2,1.5146694E-2,-1.6014714E-2,9.426629E-2,4.8996408E-2,-1.6980262E-2,-5.288473E-3,-4.3444533E-2,-2.4774058E-2,1.563249E-3,-8.486393E-3,1.6088495E-2,6.9904462E-3],"split_indices":[55,11,53,8,54,53,52,52,17,5,52,9,16,55,54,52,3,1,18,2,1,43,0,52,44,13,0,6,42,4,52,1,0,43,2,3,9,1,52,0,0,0,63,33,2,23,33,4,3,31,0,0,0,42,1,4,0,20,3,3,2,0,0,0,0,0,0,0,0,0,0,0,0,0,0,0,0,0,0,0,0,0,0,0,0,0,0,0,0,0,0,0,0,0,0,0,0,0,0,0,0,0,0,0,0],"split_type":[0,0,0,0,0,0,0,0,0,0,0,0,0,0,0,0,0,0,0,0,0,0,0,0,0,0,0,0,0,0,0,0,0,0,0,0,0,0,0,0,0,0,0,0,0,0,0,0,0,0,0,0,0,0,0,0,0,0,0,0,0,0,0,0,0,0,0,0,0,0,0,0,0,0,0,0,0,0,0,0,0,0,0,0,0,0,0,0,0,0,0,0,0,0,0,0,0,0,0,0,0,0,0,0,0],"sum_hessian":[2.677E3,1.316E3,1.361E3,1.166E3,1.5E2,1.223E3,1.38E2,1.64E2,1.002E3,3E1,1.2E2,1.087E3,1.36E2,7.4E1,6.4E1,1.9E1,1.45E2,4.1E1,9.61E2,1.6E1,1.4E1,1.15E2,5E0,9.85E2,1.02E2,1.32E2,4E0,2.1E1,5.3E1,4.1E1,2.3E1,1.4E1,5E0,6.7E1,7.8E1,7E0,3.4E1,9.37E2,2.4E1,1.5E1,1E0,1E0,1.3E1,1.3E1,1.02E2,9.37E2,4.8E1,9.1E1,1.1E1,1.21E2,1.1E1,3E0,1E0,7E0,1.4E1,4.3E1,1E1,2.2E1,1.9E1,1.1E1,1.2E1,2E0,1.2E1,5.2E1,1.5E1,6.5E1,1.3E1,4E0,3E0,2.6E1,8E0,1.93E2,7.44E2,1.2E1,1.2E1,6E0,7E0,5E0,8E0,2.3E1,7.9E1,1.07E2,8.3E2,1.2E1,3.6E1,7.7E1,1.4E1,8E0,3E0,8E0,1.13E2,1E0,6E0,5E0,9E0,7E0,3.6E1,6E0,1.6E1,7E0,1.2E1,9E0,2E0,4E0,8E0],"tree_param":{"num_deleted":"0","num_feature":"64","num_nodes":"105","size_leaf_vector":"1"}},{"base_weights":[4.062205E-4,7.1711086E-2,-7.545852E-2,1.0992442E-1,-1.4803918E-1,-1.1040205E-1,2.1669945E-1,2.0355646E-1,2.2558972E-2,-7.348016E-2,-4.1918743E-1,-1.4954293E-1,-3.678808E-2,4.9199E-1,-1.0427734E-1,1.220961E-1,1.9052197E-1,-8.405038E-3,4.0238738E-1,-8.750393E-2,6.9894776E-2,-7.651577E-1,-1.2564373E-1,5.1208116E-2,-1.5551074E-1,-4.905865E-1,-1.3118582E-2,1.5434158E-1,6.204395E-1,-1.903798E-1,5.0746836E-2,-2.651897E-1,2.1945141E-1,1.2598188E-1,-1.04486585E-1,5.6593883E-1,-1.6945255E-1,-1.0639403E-1,5.193681E-1,-9.0206675E-2,-4.470358E-2,2.0381567E-1,-1.981034E-1,-1.4815536E-1,-6.857285E-1,-2.6632395E-1,-1.672633E-1,4.014744E-2,-1.695216E-1,5.024732E-1,-4.161805E-2,6.659795E-1,1.451232E-1,-8.265919E-2,-3.047395E-1,-3.8892448E-2,8.278729E-2,-4.3693207E-2,1.9068515E-2,4.1703563E-2,1.4160496E-2,3.881149E-3,4.4142723E-2,-6.97855E-3,-8.2855694E-2,-1.4862259E-2,6.1234314E-2,5.0769996E-2,-3.76342E-2,-6.780978E-3,-4.6456542E-2,9.324626E-2,-6.6849054E-3,3.7913602E-3,3.017792E-2,-2.6681537E-2,1.814569E-3,-1.2450949E-2,-2.786752E-2,-1.5922335E-1,-6.97644E-3,-1.1127505E-2,-5.578759E-2,-4.499591E-3,2.740467E-2,-1.9426497E-2,4.6051383E-2,6.375004E-2,2.9395683E-2,-2.8449645E-2,4.280959E-3,4.5949403E-2,8.309669E-2,2.0201901E-2,-6.967789E-3,-1.0483567E-2,1.8143248E-3,-3.9643135E-2,-2.2487223E-2,-1.2246912E-3,-9.938284E-3,1.4801416E-2,5.3578606E-3],"categories":[],"categories_nodes":[],"categories_segments":[],"categories_sizes":[],"default_left":[0,0,0,0,0,0,0,0,0,0,0,0,0,0,0,0,0,0,0,0,0,0,0,0,0,0,0,0,0,0,0,0,0,0,0,0,0,0,0,0,0,0,0,0,0,0,0,0,0,0,0,0,0,0,0,0,0,0,0,0,0,0,0,0,0,0,0,0,0,0,0,0,0,0,0,0,0,0,0,0,0,0,0,0,0,0,0,0,0,0,0,0,0,0,0,0,0,0,0,0,0,0,0],"id":6,"left_children":[1,3,5,7,9,11,13,15,17,19,21,23,25,27,29,-1,31,33,35,37,-1,39,41,-1,43,45,47,49,51,53,55,57,59,61,63,65,67,69,71,-1,-1,73,75,77,79,81,-1,83,85,87,89,91,93,95,97,99,101,-1,-1,-1,-1,-1,-1,-1,-1,-1,-1,-1,-1,-1,-1,-1,-1,-1,-1,-1,-1,-1,-1,-1,-1,-1,-1,-1,-1,-1,-1,-1,-1,-1,-1,-1,-1,-1,-1,-1,-1,-1,-1,-1,-1,-1,-1],"loss_changes":[1.449212E1,1.1613069E1,1.3275247E1,9.623511E0,4.113591E0,3.3368235E0,1.2333605E1,7.2998314E0,7.177599E0,1.8160019E0,4.3723884E0,3.0686092E0,4.333001E0,3.1570473E0,8.7727875E-1,0E0,7.4673157E0,7.308502E0,4.398061E0,1.8894777E0,0E0,4.678192E-1,6.371895E-1,0E0,2.8272686E0,4.8563128E0,3.2142277E0,1.5217464E0,1.0722313E0,4.922042E-1,7.214978E-2,2.7452793E0,8.077614E0,6.4722767E0,8.233767E0,1.2847223E0,1.7321217E0,2.1243834E0,1.2731494E0,0E0,0E0,6.982021E-2,3.168785E-1,2.2553062E0,5.472664E0,7.5160885E-1,0E0,5.7478404E0,1.617203E0,3.784561E-2,3.1976393E-1,1.2874813E0,8.740392E-2,5.3317234E-2,5.7317138E-2,1.0065459E-2,2.6363067E-2,0E0,0E0,0E0,0E0,0E0,0E0,0E0,0E0,0E0,0E0,0E0,0E0,0E0,0E0,0E0,0E0,0E0,0E0,0E0,0E0,0E0,0E0,0E0,0E0,0E0,0E0,0E0,0E0,0E0,0E0,0E0,0E0,0E0,0E0,0E0,0E0,0E0,0E0,0E0,0E0,0E0,0E0,0E0,0E0,0E0,0E0],"parents":[2147483647,0,0,1,1,2,2,3,3,4,4,5,5,6,6,7,7,8,8,9,9,10,10,11,11,12,12,13,13,14,14,16,16,17,17,18,18,19,19,21,21,22,22,24,24,25,25,26,26,27,27,28,28,29,29,30,30,31,31,32,32,33,33,34,34,35,35,36,36,37,37,38,38,41,41,42,42,43,43,44,44,45,45,47,47,48,48,49,49,50,50,51,51,52,52,53,53,54,54,55,55,56,56],"right_children":[2,4,6,8,10,12,14,16,18,20,22,24,26,28,30,-1,32,34,36,38,-1,40,42,-1,44,46,48,50,52,54,56,58,60,62,64,66,68,70,72,-1,-1,74,76,78,80,82,-1,84,86,88,90,92,94,96,98,100,102,-1,-1,-1,-1,-1,-1,-1,-1,-1,-1,-1,-1,-1,-1,-1,-1,-1,-1,-1,-1,-1,-1,-1,-1,-1,-1,-1,-1,-1,-1,-1,-1,-1,-1,-1,-1,-1,-1,-1,-1,-1,-1,-1,-1,-1,-1],"split_conditions":[4.534799E2,1.0016695E-2,5.0063E2,2.80763E5,4.6863712E1,3.8883236E1,5.05175E2,6E0,4.065E0,4.4984E2,1.5E1,9.45E-1,1.2E1,5.0133E2,5.08E2,1.220961E-1,8.8E-1,1.5E1,4.005E0,5.6E-1,6.9894776E-2,7.04E0,5.01E-2,5.1208116E-2,3.7203097E-1,2.05E-1,4.8374E2,1.5E1,3.2E1,1.3852E0,4.8328467E-2,3.3713657E1,2.7306274E-1,4.4932E2,1.662936E6,-5.058104E-1,1.7E1,4.8457715E-1,4.4E0,-9.0206675E-2,-4.470358E-2,3.07E-2,8.16E-2,4.9336E2,2.64E0,5.283453E1,-1.672633E-1,4.7414E2,3.6E1,4E-2,7.368421E0,7.07483E-1,3.6171432E1,4.09E-2,3.194986E1,4.1751892E1,1.0741859E1,-4.3693207E-2,1.9068515E-2,4.1703563E-2,1.4160496E-2,3.881149E-3,4.4142723E-2,-6.97855E-3,-8.2855694E-2,-1.4862259E-2,6.1234314E-2,5.0769996E-2,-3.76342E-2,-6.780978E-3,-4.6456542E-2,9.324626E-2,-6.6849054E-3,3.7913602E-3,3.017792E-2,-2.6681537E-2,1.814569E-3,-1.2450949E-2,-2.786752E-2,-1.5922335E-1,-6.97644E-3,-1.1127505E-2,-5.578759E-2,-4.499591E-3,2.740467E-2,-1.9426497E-2,4.6051383E-2,6.375004E-2,2.9395683E-2,-2.8449645E-2,4.280959E-3,4.5949403E-2,8.309669E-2,2.0201901E-2,-6.967789E-3,-1.0483567E-2,1.8143248E-3,-3.9643135E-2,-2.2487223E-2,-1.2246912E-3,-9.938284E-3,1.4801416E-2,5.3578606E-3],"split_indices":[52,8,53,43,3,1,52,25,7,52,6,23,22,55,54,0,20,9,4,63,0,4,0,0,40,0,52,6,12,4,45,1,33,55,43,38,6,40,4,0,0,0,57,53,4,1,0,54,18,0,2,33,1,57,3,1,2,0,0,0,0,0,0,0,0,0,0,0,0,0,0,0,0,0,0,0,0,0,0,0,0,0,0,0,0,0,0,0,0,0,0,0,0,0,0,0,0,0,0,0,0,0,0],"split_type":[0,0,0,0,0,0,0,0,0,0,0,0,0,0,0,0,0,0,0,0,0,0,0,0,0,0,0,0,0,0,0,0,0,0,0,0,0,0,0,0,0,0,0,0,0,0,0,0,0,0,0,0,0,0,0,0,0,0,0,0,0,0,0,0,0,0,0,0,0,0,0,0,0,0,0,0,0,0,0,0,0,0,0,0,0,0,0,0,0,0,0,0,0,0,0,0,0,0,0,0,0,0,0],"sum_hessian":[2.677E3,1.38E3,1.297E3,1.176E3,2.04E2,1.159E3,1.38E2,5.67E2,6.09E2,1.61E2,4.3E1,7.56E2,4.03E2,7.4E1,6.4E1,6E0,5.61E2,5.64E2,4.5E1,1.59E2,2E0,1.9E1,2.4E1,6E0,7.5E2,1.9E1,3.84E2,2.1E1,5.3E1,4.1E1,2.3E1,3.3E1,5.28E2,2.35E2,3.29E2,3.5E1,1E1,1.55E2,4E0,1.2E1,7E0,4E0,2E1,7.41E2,9E0,1.7E1,2E0,2.87E2,9.7E1,7E0,1.4E1,4.8E1,5E0,2.2E1,1.9E1,6E0,1.7E1,2.4E1,9E0,1.48E2,3.8E2,1.85E2,5E1,3.15E2,1.4E1,2E0,3.3E1,2E0,8E0,1.41E2,1.4E1,2E0,2E0,2E0,2E0,1.5E1,5E0,6.29E2,1.12E2,3E0,6E0,1.2E1,5E0,2.11E2,7.6E1,9.4E1,3E0,3E0,4E0,3E0,1.1E1,2.3E1,2.5E1,4E0,1E0,1.8E1,4E0,7E0,1.2E1,5E0,1E0,4E0,1.3E1],"tree_param":{"num_deleted":"0","num_feature":"64","num_nodes":"103","size_leaf_vector":"1"}},{"base_weights":[3.4989318E-4,9.3132585E-2,-4.82583E-2,4.89227E-2,4.6818435E-1,-6.8455815E-2,2.0732467E-1,2.5262523E-1,-6.7079174E-3,8.1116325E-1,-1.3550666E-1,-1.8097542E-1,-4.4071667E-2,5.0626016E-1,-9.480043E-2,1.1368947E-1,5.936491E-1,2.674773E-1,-6.193801E-2,1.3156718E-1,1.181652E0,5.066251E-1,-3.683145E-1,-1.5527137E-1,-1.6150527E-1,-1.1937124E-2,-1.3977239E-1,5.643503E-1,8.210481E-2,-1.7302752E-1,4.6046995E-2,3.3784244E-2,6.6592044E-1,3.076483E-1,8.364776E-1,-3.5016042E-1,4.367311E-1,-8.492154E-2,5.739737E-1,6.640257E-1,-2.58158E-1,1.3564519E0,1.6381617E-1,6.508751E-2,-4.6916436E-2,-2.2999394E-1,-8.141041E-2,1.1485554E-1,-2.143834E-1,-3.203467E-2,2.7919716E-1,3.8167946E-2,-1.5853818E-1,3.8119954E-1,7.404279E-1,1.8585747E-2,-3.806881E-2,-7.47702E-2,-2.7737206E-1,-1.3374532E-2,8.944626E-2,-2.3604145E-2,1.1403348E-2,1.00189164E-1,4.704391E-2,3.5013407E-2,-3.5600506E-2,2.3643703E-3,8.668311E-2,5.174695E-3,-6.409334E-2,2.5709897E-2,6.1879575E-2,-1.1103714E-2,3.6377307E-2,8.619291E-2,3.3417236E-2,1.722253E-2,1.1213811E-1,-3.9364997E-2,6.4457557E-3,1.914003E-2,1.4232863E-1,3.464769E-2,-1.9522373E-2,4.194975E-3,-1.123244E-2,-3.0961737E-2,1.0264917E-2,4.8791286E-2,2.5426967E-3,-7.208377E-3,-2.9603228E-2,-1.7171996E-3,-3.420233E-2,2.9869342E-2,-2.2329027E-2,-2.7888067E-5,-2.1085951E-2,4.678887E-2,1.6103232E-2,7.8496516E-2,1.0762892E-2,-5.465451E-3,1.4137E-3,-2.3594438E-3,-1.1971511E-2,-3.3142E-2,-1.74489E-2,1.984543E-3,-5.7207574E-3,1.36172995E-2,5.7138274E-3],"categories":[],"categories_nodes":[],"categories_segments":[],"categories_sizes":[],"default_left":[0,0,0,0,0,0,0,0,0,0,0,0,0,0,0,0,0,0,0,0,0,0,0,0,0,0,0,0,0,0,0,0,0,0,0,0,0,0,0,0,0,0,0,0,0,0,0,0,0,0,0,0,0,0,0,0,0,0,0,0,0,0,0,0,0,0,0,0,0,0,0,0,0,0,0,0,0,0,0,0,0,0,0,0,0,0,0,0,0,0,0,0,0,0,0,0,0,0,0,0,0,0,0,0,0,0,0,0,0,0,0,0,0],"id":7,"left_children":[1,3,5,7,9,11,13,15,17,19,21,23,25,27,29,31,33,35,37,39,41,43,45,47,-1,49,51,53,55,57,59,61,63,65,67,69,71,73,75,77,79,81,83,-1,85,87,-1,89,91,93,95,-1,97,99,101,-1,103,105,107,109,111,-1,-1,-1,-1,-1,-1,-1,-1,-1,-1,-1,-1,-1,-1,-1,-1,-1,-1,-1,-1,-1,-1,-1,-1,-1,-1,-1,-1,-1,-1,-1,-1,-1,-1,-1,-1,-1,-1,-1,-1,-1,-1,-1,-1,-1,-1,-1,-1,-1,-1,-1,-1],"loss_changes":[1.2082272E1,1.5248192E1,9.089235E0,9.350675E0,2.0194086E1,4.4642463E0,1.1698748E1,8.318841E0,9.844552E0,1.5455059E1,5.5683565E0,1.0439095E1,4.122307E0,1.5552139E0,7.2414285E-1,5.5815215E0,3.284565E0,1.1547518E1,7.955726E0,4.944211E0,6.894493E0,8.2902E-1,1.4776316E0,4.591399E0,0E0,5.8892837E0,3.3582106E0,1.5559292E0,1.19290344E-1,4.0987062E-1,6.308873E-2,2.452087E0,5.7948875E-1,8.2954526E-1,6.456585E-1,2.837897E0,2.6535091E0,6.168869E0,1.0239568E0,2.0561461E0,6.3733923E-1,2.3750153E0,5.2671784E-1,0E0,2.214965E-2,6.144779E-1,0E0,1.7224171E0,2.709033E0,4.3295584E0,7.034769E-1,0E0,2.6993313E0,4.9723816E-1,7.046423E-1,0E0,5.102001E-3,5.007747E-2,5.338335E-2,1.715276E-2,1.33543685E-2,0E0,0E0,0E0,0E0,0E0,0E0,0E0,0E0,0E0,0E0,0E0,0E0,0E0,0E0,0E0,0E0,0E0,0E0,0E0,0E0,0E0,0E0,0E0,0E0,0E0,0E0,0E0,0E0,0E0,0E0,0E0,0E0,0E0,0E0,0E0,0E0,0E0,0E0,0E0,0E0,0E0,0E0,0E0,0E0,0E0,0E0,0E0,0E0,0E0,0E0,0E0,0E0],"parents":[2147483647,0,0,1,1,2,2,3,3,4,4,5,5,6,6,7,7,8,8,9,9,10,10,11,11,12,12,13,13,14,14,15,15,16,16,17,17,18,18,19,19,20,20,21,21,22,22,23,23,25,25,26,26,27,27,28,28,29,29,30,30,31,31,32,32,33,33,34,34,35,35,36,36,37,37,38,38,39,39,40,40,41,41,42,42,44,44,45,45,47,47,48,48,49,49,50,50,52,52,53,53,54,54,56,56,57,57,58,58,59,59,60,60],"right_children":[2,4,6,8,10,12,14,16,18,20,22,24,26,28,30,32,34,36,38,40,42,44,46,48,-1,50,52,54,56,58,60,62,64,66,68,70,72,74,76,78,80,82,84,-1,86,88,-1,90,92,94,96,-1,98,100,102,-1,104,106,108,110,112,-1,-1,-1,-1,-1,-1,-1,-1,-1,-1,-1,-1,-1,-1,-1,-1,-1,-1,-1,-1,-1,-1,-1,-1,-1,-1,-1,-1,-1,-1,-1,-1,-1,-1,-1,-1,-1,-1,-1,-1,-1,-1,-1,-1,-1,-1,-1,-1,-1,-1,-1,-1],"split_conditions":[4.4604E2,4.4335E2,5.0116E2,2.4399261E-1,2.80763E5,2.5899E0,5.05175E2,3E1,4.3780427E0,-2.9228134E-2,5.416591E1,3.279097E-1,4.8377E2,3.2E1,5.08E2,5.4627103E-3,1.7465754E-1,1.19E0,5.7E1,1.7068E0,3.045433E-3,6.26745E5,4.2123802E1,1.2201E0,-1.6150527E-1,4.7675E2,9.064129E-3,8.010753E-1,3.6171432E1,1.3852E0,5.0875E2,4.259E2,7.064582E1,4E1,7E0,4.3716E2,1.6E1,3.49E0,3.2520393E1,1.01E0,3.1499E0,4.529635E1,1.95E-1,6.508751E-2,1.399E-1,3.0027872E1,-8.141041E-2,4.5064E2,1.2E1,1.6071104E-2,3.2E1,3.8167946E-2,1.1961722E-3,1.468306E-1,2.68E0,1.8585747E-2,1.55E-1,1.74E0,3.5901928E1,3.058705E1,1.0741859E1,-2.3604145E-2,1.1403348E-2,1.00189164E-1,4.704391E-2,3.5013407E-2,-3.5600506E-2,2.3643703E-3,8.668311E-2,5.174695E-3,-6.409334E-2,2.5709897E-2,6.1879575E-2,-1.1103714E-2,3.6377307E-2,8.619291E-2,3.3417236E-2,1.722253E-2,1.1213811E-1,-3.9364997E-2,6.4457557E-3,1.914003E-2,1.4232863E-1,3.464769E-2,-1.9522373E-2,4.194975E-3,-1.123244E-2,-3.0961737E-2,1.0264917E-2,4.8791286E-2,2.5426967E-3,-7.208377E-3,-2.9603228E-2,-1.7171996E-3,-3.420233E-2,2.9869342E-2,-2.2329027E-2,-2.7888067E-5,-2.1085951E-2,4.678887E-2,1.6103232E-2,7.8496516E-2,1.0762892E-2,-5.465451E-3,1.4137E-3,-2.3594438E-3,-1.1971511E-2,-3.3142E-2,-1.74489E-2,1.984543E-3,-5.7207574E-3,1.36172995E-2,5.7138274E-3],"split_indices":[53,54,53,33,43,23,52,9,23,38,42,40,53,12,54,5,33,4,18,7,5,43,3,23,0,53,24,33,1,4,53,52,36,12,15,52,9,16,1,7,7,34,0,0,0,1,0,52,9,8,18,0,5,38,4,0,0,7,3,3,2,0,0,0,0,0,0,0,0,0,0,0,0,0,0,0,0,0,0,0,0,0,0,0,0,0,0,0,0,0,0,0,0,0,0,0,0,0,0,0,0,0,0,0,0,0,0,0,0,0,0,0,0],"split_type":[0,0,0,0,0,0,0,0,0,0,0,0,0,0,0,0,0,0,0,0,0,0,0,0,0,0,0,0,0,0,0,0,0,0,0,0,0,0,0,0,0,0,0,0,0,0,0,0,0,0,0,0,0,0,0,0,0,0,0,0,0,0,0,0,0,0,0,0,0,0,0,0,0,0,0,0,0,0,0,0,0,0,0,0,0,0,0,0,0,0,0,0,0,0,0,0,0,0,0,0,0,0,0,0,0,0,0,0,0,0,0,0,0],"sum_hessian":[2.677E3,9.2E2,1.757E3,8.24E2,9.6E1,1.629E3,1.28E2,1.76E2,6.48E2,6.1E1,3.5E1,2.89E2,1.34E3,6.4E1,6.4E1,1.26E2,5E1,1.08E2,5.4E2,2.2E1,3.9E1,9E0,2.6E1,2.85E2,4E0,1.004E3,3.36E2,5.6E1,8E0,4.1E1,2.3E1,1.11E2,1.5E1,2.4E1,2.6E1,2.3E1,8.5E1,5.22E2,1.8E1,9E0,1.3E1,3.3E1,6E0,7E0,2E0,2.1E1,5E0,5.1E1,2.34E2,9.4E2,6.4E1,1.1E1,3.25E2,2.9E1,2.7E1,4E0,4E0,2.2E1,1.9E1,1E1,1.3E1,2.5E1,8.6E1,4E0,1.1E1,2.3E1,1E0,1E0,2.5E1,1E1,1.3E1,4.4E1,4.1E1,4.94E2,2.8E1,7E0,1.1E1,5E0,4E0,9E0,4E0,2E0,3.1E1,4E0,2E0,1E0,1E0,1.7E1,4E0,9E0,4.2E1,8.6E1,1.48E2,8.98E2,4.2E1,6.2E1,2E0,8.1E1,2.44E2,2E1,9E0,2.5E1,2E0,3E0,1E0,1.1E1,1.1E1,1.1E1,8E0,6E0,4E0,4E0,9E0],"tree_param":{"num_deleted":"0","num_feature":"64","num_nodes":"113","size_leaf_vector":"1"}},{"base_weights":[5.333827E-4,6.41509E-2,-6.0982622E-2,9.737872E-2,-1.4901693E-1,-8.810422E-2,1.7828228E-1,1.8013752E-1,2.5431857E-2,-2.2690836E-1,4.441194E-1,4.2500448E-1,-9.2254825E-2,4.050185E-1,-8.607926E-2,3.2588628E-1,1.0737154E-1,-6.857135E-2,1.4206797E-1,-6.00122E-1,-1.2736107E-1,1.5754735E-1,6.903169E-2,2.7147273E-2,5.242417E-2,-2.2835203E-1,-7.287179E-2,1.3346966E-1,5.0814915E-1,-1.8826495E-1,6.8874722E-3,-2.631129E-1,4.8998106E-1,4.4612385E-2,4.346981E-1,-9.286109E-1,-3.417048E-2,1.8153687E-1,-1.6085531E-1,-9.940702E-2,-2.5752485E-1,2.5972137E-1,-3.1041944E-1,2.556105E-1,-1.1250496E-2,-1.7143065E-1,-1.2243927E0,-5.1496837E-2,-1.8203034E-1,4.269727E-1,-3.1963263E-2,4.272384E-1,7.855968E-2,-3.3295076E-2,-2.6047465E-1,-4.114967E-2,8.188244E-2,1.5310516E-3,-8.908415E-2,6.651673E-2,1.3663821E-2,1.0072501E-1,2.1461956E-3,8.077914E-2,3.381295E-2,-2.7429229E-2,-1.9206624E-1,2.330719E-2,-7.654411E-3,-2.6755228E-3,2.5657872E-2,-3.8814675E-2,2.0119727E-2,-3.712091E-2,2.615934E-2,-1.3020717E-2,7.1807064E-2,-6.6123605E-2,-2.2078656E-2,1.1296214E-2,2.9007742E-2,-7.723072E-3,2.455224E-3,-9.833999E-2,-1.4120725E-2,-1.6398306E-1,1.4614046E-3,-8.526235E-3,1.7968588E-2,-2.9013177E-2,3.7110347E-4,5.6052875E-2,2.3473332E-2,-2.4521543E-2,4.1784397E-3,5.2556593E-2,2.223174E-2,-8.174212E-3,-4.909672E-4,-3.5749156E-2,-2.0781364E-2,1.8400431E-3,-9.230812E-3,1.25279175E-2,5.1995832E-3],"categories":[],"categories_nodes":[],"categories_segments":[],"categories_sizes":[],"default_left":[0,0,0,0,0,0,0,0,0,0,0,0,0,0,0,0,0,0,0,0,0,0,0,0,0,0,0,0,0,0,0,0,0,0,0,0,0,0,0,0,0,0,0,0,0,0,0,0,0,0,0,0,0,0,0,0,0,0,0,0,0,0,0,0,0,0,0,0,0,0,0,0,0,0,0,0,0,0,0,0,0,0,0,0,0,0,0,0,0,0,0,0,0,0,0,0,0,0,0,0,0,0,0,0,0],"id":8,"left_children":[1,3,5,7,9,11,13,15,17,19,21,23,25,27,29,31,33,35,37,39,41,43,-1,-1,-1,45,47,49,51,53,55,57,59,61,63,65,67,69,71,-1,73,75,77,79,81,83,85,87,89,91,93,95,-1,97,99,101,103,-1,-1,-1,-1,-1,-1,-1,-1,-1,-1,-1,-1,-1,-1,-1,-1,-1,-1,-1,-1,-1,-1,-1,-1,-1,-1,-1,-1,-1,-1,-1,-1,-1,-1,-1,-1,-1,-1,-1,-1,-1,-1,-1,-1,-1,-1,-1,-1],"loss_changes":[1.0484252E1,9.342958E0,8.85406E0,6.783246E0,8.324416E0,2.645975E0,8.36657E0,5.5859528E0,6.7088485E0,5.793646E0,1.3728623E0,1.0043383E-2,3.1885014E0,2.0325537E0,6.1878824E-1,1.7139618E1,7.273278E0,9.997961E0,3.2932034E0,4.1978655E0,9.008818E0,1.8495709E-1,0E0,0E0,0E0,8.351198E0,2.4755464E0,1.0818589E0,8.765812E-1,3.3822763E-1,1.2945847E-1,6.8298383E0,8.451427E0,6.641739E0,1.7805204E0,7.911708E0,3.7207978E0,3.7894769E0,2.7114203E0,0E0,1.2184016E0,7.4211597E0,2.5582523E0,1.6487241E-3,1.370755E-2,3.3949652E0,4.1418085E0,6.9782753E0,3.4948072E0,7.3823094E-2,2.461489E-1,7.6973057E-1,0E0,1.472575E-2,3.299761E-2,6.872131E-2,1.1643745E-2,0E0,0E0,0E0,0E0,0E0,0E0,0E0,0E0,0E0,0E0,0E0,0E0,0E0,0E0,0E0,0E0,0E0,0E0,0E0,0E0,0E0,0E0,0E0,0E0,0E0,0E0,0E0,0E0,0E0,0E0,0E0,0E0,0E0,0E0,0E0,0E0,0E0,0E0,0E0,0E0,0E0,0E0,0E0,0E0,0E0,0E0,0E0,0E0],"parents":[2147483647,0,0,1,1,2,2,3,3,4,4,5,5,6,6,7,7,8,8,9,9,10,10,11,11,12,12,13,13,14,14,15,15,16,16,17,17,18,18,19,19,20,20,21,21,25,25,26,26,27,27,28,28,29,29,30,30,31,31,32,32,33,33,34,34,35,35,36,36,37,37,38,38,40,40,41,41,42,42,43,43,44,44,45,45,46,46,47,47,48,48,49,49,50,50,51,51,53,53,54,54,55,55,56,56],"right_children":[2,4,6,8,10,12,14,16,18,20,22,24,26,28,30,32,34,36,38,40,42,44,-1,-1,-1,46,48,50,52,54,56,58,60,62,64,66,68,70,72,-1,74,76,78,80,82,84,86,88,90,92,94,96,-1,98,100,102,104,-1,-1,-1,-1,-1,-1,-1,-1,-1,-1,-1,-1,-1,-1,-1,-1,-1,-1,-1,-1,-1,-1,-1,-1,-1,-1,-1,-1,-1,-1,-1,-1,-1,-1,-1,-1,-1,-1,-1,-1,-1,-1,-1,-1,-1,-1,-1,-1],"split_conditions":[4.5124E2,1.2660896E0,5.0063E2,2.80763E5,4.4877E2,9.45E-1,5.05175E2,8.4829924E-4,4.0423884E-3,1.4821708E0,9.392895E1,4.746E2,4.657681E-3,5.0133E2,5.075791E2,4.3484E2,5.6E1,4.22745E2,6.14E0,4.2517E2,4.9294106E-4,4.5671185E1,6.903169E-2,2.7147273E-2,5.242417E-2,2.7554712E-1,7.177807E-3,1.5E1,7.226046E1,1.74E0,5.0875E2,7.3647064E1,4.4625E2,6E0,5.8E1,1.63E0,8E0,3.14E0,4.4586E2,-9.940702E-2,3.29E0,2.0795111E-1,3.4E0,2.09E-2,6.581139E1,-2.6384604E-1,2.64E0,6.045194E-3,3.34E0,4E-2,7.368421E0,2.4568099E-1,7.855968E-2,1E1,3.31E0,3.3346695E1,1.0741859E1,1.5310516E-3,-8.908415E-2,6.651673E-2,1.3663821E-2,1.0072501E-1,2.1461956E-3,8.077914E-2,3.381295E-2,-2.7429229E-2,-1.9206624E-1,2.330719E-2,-7.654411E-3,-2.6755228E-3,2.5657872E-2,-3.8814675E-2,2.0119727E-2,-3.712091E-2,2.615934E-2,-1.3020717E-2,7.1807064E-2,-6.6123605E-2,-2.2078656E-2,1.1296214E-2,2.9007742E-2,-7.723072E-3,2.455224E-3,-9.833999E-2,-1.4120725E-2,-1.6398306E-1,1.4614046E-3,-8.526235E-3,1.7968588E-2,-2.9013177E-2,3.7110347E-4,5.6052875E-2,2.3473332E-2,-2.4521543E-2,4.1784397E-3,5.2556593E-2,2.223174E-2,-8.174212E-3,-4.909672E-4,-3.5749156E-2,-2.0781364E-2,1.8400431E-3,-9.230812E-3,1.25279175E-2,5.1995832E-3],"split_indices":[55,33,53,43,54,23,52,5,5,33,35,52,24,55,54,52,9,52,7,53,5,1,0,0,0,40,8,6,42,7,53,42,52,25,9,7,9,10,52,0,4,39,4,0,1,38,4,8,10,0,2,39,0,9,10,3,2,0,0,0,0,0,0,0,0,0,0,0,0,0,0,0,0,0,0,0,0,0,0,0,0,0,0,0,0,0,0,0,0,0,0,0,0,0,0,0,0,0,0,0,0,0,0,0,0],"split_type":[0,0,0,0,0,0,0,0,0,0,0,0,0,0,0,0,0,0,0,0,0,0,0,0,0,0,0,0,0,0,0,0,0,0,0,0,0,0,0,0,0,0,0,0,0,0,0,0,0,0,0,0,0,0,0,0,0,0,0,0,0,0,0,0,0,0,0,0,0,0,0,0,0,0,0,0,0,0,0,0,0,0,0,0,0,0,0,0,0,0,0,0,0,0,0,0,0,0,0,0,0,0,0,0,0],"sum_hessian":[2.677E3,1.316E3,1.361E3,1.139E3,1.77E2,1.223E3,1.38E2,5.29E2,6.1E2,1.57E2,2E1,9E0,1.214E3,7.4E1,6.4E1,1.75E2,3.54E2,3.38E2,2.72E2,3.2E1,1.25E2,1E1,1E1,5E0,4E0,1.5E2,1.064E3,2.1E1,5.3E1,3E1,3.4E1,3.8E1,1.37E2,2.98E2,5.6E1,1.2E1,3.26E2,2.41E2,3.1E1,1.4E1,1.8E1,4E1,8.5E1,6E0,4E0,1.43E2,7E0,8.91E2,1.73E2,7E0,1.4E1,4.3E1,1E1,1E1,2E1,2.1E1,1.3E1,2.7E1,1.1E1,9.1E1,4.6E1,6E0,2.92E2,1E1,4.6E1,8E0,4E0,4.4E1,2.82E2,6.4E1,1.77E2,1.9E1,1.2E1,1.5E1,3E0,2.2E1,1.8E1,1.6E1,6.9E1,2E0,4E0,1E0,3E0,4E0,1.39E2,5E0,2E0,7.78E2,1.13E2,1.09E2,6.4E1,3E0,4E0,3E0,1.1E1,2.8E1,1.5E1,3E0,7E0,5E0,1.5E1,1E1,1.1E1,4E0,9E0],"tree_param":{"num_deleted":"0","num_feature":"64","num_nodes":"105","size_leaf_vector":"1"}},{"base_weights":[4.4937892E-4,5.8645796E-2,-5.416799E-2,9.0947896E-2,-1.517502E-1,-7.8232266E-2,1.6158836E-1,7.529434E-2,4.3315056E-1,-5.4345423E-1,-5.8998547E-2,-8.319202E-2,3.336827E-2,3.6735037E-1,-7.8315325E-2,2.6393872E-1,4.7749627E-2,-6.8140846E-1,4.9507666E-1,-9.0129024E-1,-2.3234929E-1,2.8647733E-1,-2.579513E-1,-1.16596065E-1,-2.0100575E-2,1.22812815E-1,4.6017402E-1,-1.7154154E-1,6.49405E-3,-2.42815E-2,4.5174804E-1,-1.5266575E-1,8.415174E-2,-8.990564E-2,-1.2305634E-2,7.709293E-1,2.4262151E-1,-1.0428842E-1,-5.904851E-2,-3.3640826E-1,2.419739E-2,1.2915822E-2,6.0509425E-1,-1.7762457E-1,-5.693902E-1,1.7986538E-1,-1.2752491E-1,-2.712808E-3,-2.8816912E-1,3.9421618E-1,-3.0123156E-2,3.862143E-1,7.141789E-2,-3.0753314E-2,-2.3711911E-1,-3.7401494E-2,7.500891E-2,-3.3884175E-2,1.0214963E-2,7.344355E-2,1.2949819E-2,1.709745E-2,-2.9077856E-2,-1.6017092E-2,1.3026922E-2,8.509107E-2,1.9828524E-2,-2.7812231E-2,3.226369E-2,-4.0044513E-2,-1.1543817E-2,3.3787407E-2,-2.0444056E-2,8.190616E-2,2.7776359E-2,5.372435E-2,-2.053285E-2,-6.874957E-2,-2.8558223E-2,-1.2633604E-2,4.0343907E-2,-9.864776E-3,-2.2056043E-2,9.878561E-4,-3.523792E-2,-1.15944585E-2,-5.1248033E-2,5.1848907E-2,2.1595461E-2,1.2546408E-2,-1.20463185E-2,6.7279875E-2,3.1381186E-2,-7.561146E-3,-4.480079E-4,-3.2770064E-2,-1.8833112E-2,2.3772104E-3,-9.036051E-3,1.1525682E-2,4.7384053E-3],"categories":[],"categories_nodes":[],"categories_segments":[],"categories_sizes":[],"default_left":[0,0,0,0,0,0,0,0,0,0,0,0,0,0,0,0,0,0,0,0,0,0,0,0,0,0,0,0,0,0,0,0,0,0,0,0,0,0,0,0,0,0,0,0,0,0,0,0,0,0,0,0,0,0,0,0,0,0,0,0,0,0,0,0,0,0,0,0,0,0,0,0,0,0,0,0,0,0,0,0,0,0,0,0,0,0,0,0,0,0,0,0,0,0,0,0,0,0,0,0,0],"id":9,"left_children":[1,3,5,7,9,11,13,15,17,19,21,23,-1,25,27,29,31,33,35,37,39,41,43,45,47,49,51,53,55,57,59,61,63,-1,-1,65,67,-1,-1,69,-1,71,73,75,77,79,81,83,85,87,89,91,-1,93,95,97,99,-1,-1,-1,-1,-1,-1,-1,-1,-1,-1,-1,-1,-1,-1,-1,-1,-1,-1,-1,-1,-1,-1,-1,-1,-1,-1,-1,-1,-1,-1,-1,-1,-1,-1,-1,-1,-1,-1,-1,-1,-1,-1,-1,-1],"loss_changes":[8.515294E0,8.828516E0,7.188016E0,5.99366E0,6.253235E0,2.5692449E0,6.890235E0,5.583656E0,3.7193441E0,3.4642963E0,9.765303E0,2.5898943E0,0E0,1.6458998E0,5.150337E-1,7.426839E0,6.877953E0,2.5393784E-1,3.0860538E0,4.431343E-2,1.019196E0,4.5245743E0,2.1503797E0,2.627882E0,1.9895138E0,9.2503643E-1,7.386255E-1,2.7891672E-1,1.0806783E-1,2.2219737E0,7.4658585E0,6.5310507E0,9.001098E0,0E0,0E0,8.3889675E-1,1.1730878E0,0E0,0E0,1.801771E-1,0E0,2.1173956E0,1.4534082E0,1.5560515E0,4.0701056E-1,2.036268E0,2.0630445E0,1.7733979E0,9.4500995E-1,6.525445E-2,2.2595014E-1,7.018423E-1,0E0,1.262551E-2,3.1088948E-2,7.3421314E-2,1.010447E-2,0E0,0E0,0E0,0E0,0E0,0E0,0E0,0E0,0E0,0E0,0E0,0E0,0E0,0E0,0E0,0E0,0E0,0E0,0E0,0E0,0E0,0E0,0E0,0E0,0E0,0E0,0E0,0E0,0E0,0E0,0E0,0E0,0E0,0E0,0E0,0E0,0E0,0E0,0E0,0E0,0E0,0E0,0E0,0E0],"parents":[2147483647,0,0,1,1,2,2,3,3,4,4,5,5,6,6,7,7,8,8,9,9,10,10,11,11,13,13,14,14,15,15,16,16,17,17,18,18,19,19,20,20,21,21,22,22,23,23,24,24,25,25,26,26,27,27,28,28,29,29,30,30,31,31,32,32,35,35,36,36,39,39,41,41,42,42,43,43,44,44,45,45,46,46,47,47,48,48,49,49,50,50,51,51,53,53,54,54,55,55,56,56],"right_children":[2,4,6,8,10,12,14,16,18,20,22,24,-1,26,28,30,32,34,36,38,40,42,44,46,48,50,52,54,56,58,60,62,64,-1,-1,66,68,-1,-1,70,-1,72,74,76,78,80,82,84,86,88,90,92,-1,94,96,98,100,-1,-1,-1,-1,-1,-1,-1,-1,-1,-1,-1,-1,-1,-1,-1,-1,-1,-1,-1,-1,-1,-1,-1,-1,-1,-1,-1,-1,-1,-1,-1,-1,-1,-1,-1,-1,-1,-1,-1,-1,-1,-1,-1,-1],"split_conditions":[4.5124E2,1.2660896E0,5.0063E2,1.0188258E0,1.4821708E0,2.404178E-3,5.05175E2,2.5435705E-3,4.22745E2,4.2517E2,4.9294106E-4,7.9126436E-1,3.336827E-2,5.0133E2,5.075791E2,4.3981E2,2.452447E1,2.85E-1,3.2E1,5.879569E1,3.29E0,2.0795111E-1,9.396765E0,1.0065322E-3,2.1E1,1.5E1,7.226046E1,1.74E0,5.0838E2,4.2557E2,4.4528E2,4.3368E2,2.67E0,-8.990564E-2,-1.2305634E-2,1.05E-1,2.8367453E0,-1.0428842E-1,-5.904851E-2,6.37905E5,2.419739E-2,4.2291344E-3,4.3773E2,2.44E0,5.22E0,8.1766146E-4,5.20053E5,3E0,2.295E0,4E-2,3.3612198E1,8E-1,7.141789E-2,1E1,3.31E0,6.573641E1,1.0741859E1,-3.3884175E-2,1.0214963E-2,7.344355E-2,1.2949819E-2,1.709745E-2,-2.9077856E-2,-1.6017092E-2,1.3026922E-2,8.509107E-2,1.9828524E-2,-2.7812231E-2,3.226369E-2,-4.0044513E-2,-1.1543817E-2,3.3787407E-2,-2.0444056E-2,8.190616E-2,2.7776359E-2,5.372435E-2,-2.053285E-2,-6.874957E-2,-2.8558223E-2,-1.2633604E-2,4.0343907E-2,-9.864776E-3,-2.2056043E-2,9.878561E-4,-3.523792E-2,-1.15944585E-2,-5.1248033E-2,5.1848907E-2,2.1595461E-2,1.2546408E-2,-1.20463185E-2,6.7279875E-2,3.1381186E-2,-7.561146E-3,-4.480079E-4,-3.2770064E-2,-1.8833112E-2,2.3772104E-3,-9.036051E-3,1.1525682E-2,4.7384053E-3],"split_indices":[53,33,53,33,33,31,52,8,52,53,5,33,0,55,54,52,1,0,9,1,4,39,33,31,22,6,42,7,54,52,52,52,16,0,0,57,2,0,0,43,0,8,52,4,4,31,43,44,7,0,1,4,0,9,10,34,2,0,0,0,0,0,0,0,0,0,0,0,0,0,0,0,0,0,0,0,0,0,0,0,0,0,0,0,0,0,0,0,0,0,0,0,0,0,0,0,0,0,0,0,0],"split_type":[0,0,0,0,0,0,0,0,0,0,0,0,0,0,0,0,0,0,0,0,0,0,0,0,0,0,0,0,0,0,0,0,0,0,0,0,0,0,0,0,0,0,0,0,0,0,0,0,0,0,0,0,0,0,0,0,0,0,0,0,0,0,0,0,0,0,0,0,0,0,0,0,0,0,0,0,0,0,0,0,0,0,0,0,0,0,0,0,0,0,0,0,0,0,0,0,0,0,0,0,0],"sum_hessian":[2.677E3,1.296E3,1.381E3,1.124E3,1.72E2,1.243E3,1.38E2,1.076E3,4.8E1,3.2E1,1.4E2,1.229E3,1.4E1,7.4E1,6.4E1,1.36E2,9.4E2,2E0,4.6E1,1.4E1,1.8E1,5.1E1,8.9E1,8.03E2,4.26E2,2.1E1,5.3E1,3E1,3.4E1,5.4E1,8.2E1,1.44E2,7.96E2,1E0,1E0,2.1E1,2.5E1,8E0,6E0,1.5E1,3E0,2.8E1,2.3E1,7.2E1,1.7E1,2.8E1,7.75E2,4.01E2,2.5E1,7E0,1.4E1,4.3E1,1E1,1E1,2E1,2.1E1,1.3E1,1.5E1,3.9E1,4.3E1,3.9E1,4.3E1,1.01E2,1.26E2,6.7E2,1.8E1,3E0,3E0,2.2E1,1.1E1,4E0,1.1E1,1.7E1,1.3E1,1E1,2E0,7E1,1.1E1,6E0,1.2E1,1.6E1,5.93E2,1.82E2,3.88E2,1.3E1,1.5E1,1E1,3E0,4E0,5E0,9E0,7E0,3.6E1,3E0,7E0,5E0,1.5E1,1E1,1.1E1,4E0,9E0],"tree_param":{"num_deleted":"0","num_feature":"64","num_nodes":"101","size_leaf_vector":"1"}},{"base_weights":[4.2280898E-4,7.091253E-2,-3.6506347E-2,3.419216E-2,3.8249388E-1,-5.1618215E-2,1.5472504E-1,1.8950762E-2,5.211589E-1,6.63678E-1,-1.1239243E-1,-1.4493674E-1,-3.139898E-2,3.783228E-1,-7.125313E-2,-2.334465E-1,5.2434366E-2,2.4736838E-1,7.186108E-2,1.4161254E-1,1.0125976E0,4.453426E-1,-3.1479827E-1,-1.16112605E-1,-1.0319889E0,-5.2016457E-3,-1.0943139E-1,4.2378706E-1,4.834687E-2,-1.5631036E-1,6.1190873E-3,-1.5819699E0,-1.5593468E-1,1.0233917E-1,-1.4720267E-1,-3.828286E-2,3.0832691E-2,-8.89874E-2,9.251102E-2,1.1303942E0,2.155824E-1,5.6947225E-1,-3.4117352E-2,-1.792436E-1,-5.659917E-1,1.0185078E-2,-2.0838015E-1,-8.9016914E-2,-1.4886387E-1,-3.2753028E-2,1.6668506E-1,3.1972732E-2,-1.2489297E-1,2.807093E-1,5.619494E-1,1.2809852E-2,-4.1074146E-2,-2.8406085E-2,-2.158645E-1,-3.1765327E-2,7.267466E-2,-1.8963902E-1,-1.621446E-2,6.316667E-2,-2.0969553E-2,6.5986337E-3,4.264437E-2,-3.0141497E-2,-1.310897E-3,1.3563574E-3,-7.0987865E-3,3.2525178E-2,-3.193393E-2,1.3783044E-2,1.19197085E-1,3.0662024E-2,-1.1980345E-2,6.0269993E-2,1.6843924E-2,3.716603E-3,-8.834206E-3,-2.5423268E-2,1.6552366E-2,-5.9791714E-2,-1.5529416E-2,2.9779827E-2,-4.6868874E-3,3.8433857E-3,-2.5337134E-2,-2.1008793E-2,2.13694E-3,4.275124E-3,-7.855423E-3,-1.4502647E-3,2.7185638E-2,1.3024234E-3,-1.7054325E-2,1.5857054E-2,3.9227672E-2,5.962908E-2,7.7007734E-3,-9.026775E-3,-6.2088075E-4,-6.99406E-3,-4.0880704E-4,-3.1436857E-2,-1.741948E-2,1.7533249E-3,-7.841679E-3,3.868488E-3,9.628235E-3],"categories":[],"categories_nodes":[],"categories_segments":[],"categories_sizes":[],"default_left":[0,0,0,0,0,0,0,0,0,0,0,0,0,0,0,0,0,0,0,0,0,0,0,0,0,0,0,0,0,0,0,0,0,0,0,0,0,0,0,0,0,0,0,0,0,0,0,0,0,0,0,0,0,0,0,0,0,0,0,0,0,0,0,0,0,0,0,0,0,0,0,0,0,0,0,0,0,0,0,0,0,0,0,0,0,0,0,0,0,0,0,0,0,0,0,0,0,0,0,0,0,0,0,0,0,0,0,0,0,0,0],"id":10,"left_children":[1,3,5,7,9,11,13,15,17,19,21,23,25,27,29,31,33,35,-1,37,39,41,43,45,47,49,51,53,55,57,59,61,63,65,67,69,-1,71,-1,73,75,77,79,81,83,85,87,89,-1,91,93,-1,95,97,99,-1,101,103,105,107,109,-1,-1,-1,-1,-1,-1,-1,-1,-1,-1,-1,-1,-1,-1,-1,-1,-1,-1,-1,-1,-1,-1,-1,-1,-1,-1,-1,-1,-1,-1,-1,-1,-1,-1,-1,-1,-1,-1,-1,-1,-1,-1,-1,-1,-1,-1,-1,-1,-1,-1],"loss_changes":[6.9737597E0,1.0524435E1,5.0883665E0,6.1133175E0,1.3572545E1,3.0709805E0,6.545097E0,6.7816277E0,1.1737504E0,1.1150455E1,4.2041907E0,7.2950416E0,2.7407587E0,9.54648E-1,4.2872584E-1,9.578806E0,7.0687604E0,2.207582E-1,0E0,4.7798615E0,3.2300758E0,6.1458087E-1,8.179116E-1,3.288318E0,3.742958E0,4.764855E0,2.2760844E0,9.690294E-1,6.944479E-2,2.3000216E-1,9.055819E-2,1.9246197E0,3.9432487E0,6.6523213E0,2.9324527E0,6.049763E-3,0E0,2.1077018E0,0E0,1.7915115E0,2.19931E-1,5.0849915E-3,1.4879284E-2,5.333034E-1,2.5152206E-2,1.9830936E0,1.8197641E0,5.7947785E-2,0E0,3.0016057E0,2.652692E0,0E0,2.0547037E0,3.465979E-1,4.2038155E-1,0E0,8.015303E-3,1.0824484E-2,3.1436026E-2,5.4271467E-2,6.706789E-3,0E0,0E0,0E0,0E0,0E0,0E0,0E0,0E0,0E0,0E0,0E0,0E0,0E0,0E0,0E0,0E0,0E0,0E0,0E0,0E0,0E0,0E0,0E0,0E0,0E0,0E0,0E0,0E0,0E0,0E0,0E0,0E0,0E0,0E0,0E0,0E0,0E0,0E0,0E0,0E0,0E0,0E0,0E0,0E0,0E0,0E0,0E0,0E0,0E0,0E0],"parents":[2147483647,0,0,1,1,2,2,3,3,4,4,5,5,6,6,7,7,8,8,9,9,10,10,11,11,12,12,13,13,14,14,15,15,16,16,17,17,19,19,20,20,21,21,22,22,23,23,24,24,25,25,26,26,27,27,28,28,29,29,30,30,31,31,32,32,33,33,34,34,35,35,37,37,39,39,40,40,41,41,42,42,43,43,44,44,45,45,46,46,47,47,49,49,50,50,52,52,53,53,54,54,56,56,57,57,58,58,59,59,60,60],"right_children":[2,4,6,8,10,12,14,16,18,20,22,24,26,28,30,32,34,36,-1,38,40,42,44,46,48,50,52,54,56,58,60,62,64,66,68,70,-1,72,-1,74,76,78,80,82,84,86,88,90,-1,92,94,-1,96,98,100,-1,102,104,106,108,110,-1,-1,-1,-1,-1,-1,-1,-1,-1,-1,-1,-1,-1,-1,-1,-1,-1,-1,-1,-1,-1,-1,-1,-1,-1,-1,-1,-1,-1,-1,-1,-1,-1,-1,-1,-1,-1,-1,-1,-1,-1,-1,-1,-1,-1,-1,-1,-1,-1,-1],"split_conditions":[4.4604E2,4.4335E2,5.0116E2,5.7E1,2.80763E5,2.5899E0,5.05175E2,2.72E0,4.2521E2,1.0305393E-4,5.416591E1,2.7554712E-1,4.8377E2,3.2E1,5.075791E2,4.2075E2,9.769417E-3,3.07E-2,7.186108E-2,4.2657536E-1,3.045433E-3,6.26745E5,2E0,1.4E0,1.49E0,4.74865E2,9.064129E-3,8.010753E-1,3.6171432E1,1.74E0,5.0859E2,2.29E0,-6.5674685E-2,4.947161E-3,1.9E1,1.5E-2,3.0832691E-2,9E0,9.251102E-2,4.529635E1,1.95E-1,3.1940746E1,1.399E-1,3.0027872E1,1.6232466E1,4.523962E2,8E0,1.201E-1,-1.4886387E-1,4.5124E2,2.35E0,3.1972732E-2,1.1961722E-3,5E-1,2.68E0,1.2809852E-2,7.9795723E0,1E1,2.88E0,3.92048E1,6.2607044E-1,-1.8963902E-1,-1.621446E-2,6.316667E-2,-2.0969553E-2,6.5986337E-3,4.264437E-2,-3.0141497E-2,-1.310897E-3,1.3563574E-3,-7.0987865E-3,3.2525178E-2,-3.193393E-2,1.3783044E-2,1.19197085E-1,3.0662024E-2,-1.1980345E-2,6.0269993E-2,1.6843924E-2,3.716603E-3,-8.834206E-3,-2.5423268E-2,1.6552366E-2,-5.9791714E-2,-1.5529416E-2,2.9779827E-2,-4.6868874E-3,3.8433857E-3,-2.5337134E-2,-2.1008793E-2,2.13694E-3,4.275124E-3,-7.855423E-3,-1.4502647E-3,2.7185638E-2,1.3024234E-3,-1.7054325E-2,1.5857054E-2,3.9227672E-2,5.962908E-2,7.7007734E-3,-9.026775E-3,-6.2088075E-4,-6.99406E-3,-4.0880704E-4,-3.1436857E-2,-1.741948E-2,1.7533249E-3,-7.841679E-3,3.868488E-3,9.628235E-3],"split_indices":[53,54,53,18,43,23,52,16,52,41,42,40,53,12,54,54,8,0,0,33,5,43,44,7,7,52,24,33,1,7,52,4,61,21,6,0,0,6,0,34,0,1,0,1,2,52,9,0,0,55,10,0,5,27,4,0,2,9,10,3,33,0,0,0,0,0,0,0,0,0,0,0,0,0,0,0,0,0,0,0,0,0,0,0,0,0,0,0,0,0,0,0,0,0,0,0,0,0,0,0,0,0,0,0,0,0,0,0,0,0,0],"split_type":[0,0,0,0,0,0,0,0,0,0,0,0,0,0,0,0,0,0,0,0,0,0,0,0,0,0,0,0,0,0,0,0,0,0,0,0,0,0,0,0,0,0,0,0,0,0,0,0,0,0,0,0,0,0,0,0,0,0,0,0,0,0,0,0,0,0,0,0,0,0,0,0,0,0,0,0,0,0,0,0,0,0,0,0,0,0,0,0,0,0,0,0,0,0,0,0,0,0,0,0,0,0,0,0,0,0,0,0,0,0,0],"sum_hessian":[2.677E3,9.2E2,1.757E3,8.24E2,9.6E1,1.629E3,1.28E2,8E2,2.4E1,6.1E1,3.5E1,2.89E2,1.34E3,6.4E1,6.4E1,9.3E1,7.07E2,1.1E1,1.3E1,2.5E1,3.6E1,9E0,2.6E1,2.81E2,8E0,1.004E3,3.36E2,5.6E1,8E0,3E1,3.4E1,4E0,8.9E1,5.66E2,1.41E2,2E0,9E0,2E1,5E0,3.1E1,5E0,7E0,2E0,1.8E1,8E0,1.19E2,1.62E2,3E0,5E0,8.66E2,1.38E2,1.1E1,3.25E2,2.9E1,2.7E1,4E0,4E0,1E1,2E1,2.2E1,1.2E1,3E0,1E0,5E0,8.4E1,5.1E2,5.6E1,6.5E1,7.6E1,1E0,1E0,7E0,1.3E1,2E0,2.9E1,4E0,1E0,6E0,1E0,1E0,1E0,1.5E1,3E0,7E0,1E0,1.9E1,1E2,2.5E1,1.37E2,1E0,2E0,3.27E2,5.39E2,5.1E1,8.7E1,8.1E1,2.44E2,1.5E1,1.4E1,2.5E1,2E0,1E0,3E0,3E0,7E0,4E0,1.6E1,1.1E1,1.1E1,6E0,6E0],"tree_param":{"num_deleted":"0","num_feature":"64","num_nodes":"111","size_leaf_vector":"1"}},{"base_weights":[4.3078937E-4,6.402067E-2,-3.288361E-2,3.0713644E-2,3.466421E-1,-4.71366E-2,1.3346696E-1,1.8357657E-1,-1.1023571E-2,6.01258E-1,-1.01491965E-1,4.9913278E-1,-5.0157253E-2,3.0358756E-1,-6.4879365E-2,-1.6448353E-1,2.7673876E-1,1.9991726E-2,-3.2740343E-1,1.3103215E-1,9.1543674E-1,4.0800798E-1,-2.8643668E-1,-5.139183E-3,5.7437237E-2,-8.3812915E-2,-2.470485E-3,1.09429255E-1,3.770671E-1,-1.4249414E-1,5.718848E-3,-3.5072678E-1,4.0219024E-2,1.9833052E-1,6.8827707E-1,2.8284505E-1,-2.8938977E-2,-6.781576E-1,-7.753189E-2,-8.006051E-2,8.480178E-2,1.0215104E0,1.9713779E-1,5.221643E-1,-3.2411475E-2,-1.6178612E-1,-5.177616E-1,-1.1904328E-1,8.482446E-3,-1.9526751E-1,2.1876732E-2,3.4241906E-1,-2.212725E-2,3.1400284E-1,5.9504528E-2,-2.6238464E-2,-1.9660453E-1,-3.1012762E-2,6.303146E-2,-6.991782E-2,-6.0160975E-3,2.2279205E-2,-1.8739456E-2,4.141911E-2,5.166888E-3,7.19825E-2,1.2885391E-3,1.3042065E-2,4.648266E-2,-4.887317E-3,4.519252E-2,-1.0072394E-1,-3.711536E-2,3.9673742E-2,-2.5696117E-2,-2.9330311E-2,3.031216E-2,1.2864174E-2,1.07674696E-1,2.8209066E-2,-1.1381327E-2,3.6484826E-2,8.1168815E-2,3.5307736E-3,-8.392495E-3,3.120305E-2,-2.054443E-2,-5.7030845E-2,-2.2256492E-2,-1.2804977E-2,2.9118214E-2,4.933124E-3,-2.974983E-2,1.89005E-2,-2.9448573E-2,3.7838952E-3,-3.2829173E-2,4.5637634E-2,1.8276943E-2,-2.029281E-2,3.998364E-3,5.6175333E-2,2.519486E-2,-6.4695044E-3,-3.7303643E-4,-2.8921906E-2,-1.578E-2,2.304646E-3,-7.021118E-3,9.8333685E-3,3.9077206E-3],"categories":[],"categories_nodes":[],"categories_segments":[],"categories_sizes":[],"default_left":[0,0,0,0,0,0,0,0,0,0,0,0,0,0,0,0,0,0,0,0,0,0,0,0,0,0,0,0,0,0,0,0,0,0,0,0,0,0,0,0,0,0,0,0,0,0,0,0,0,0,0,0,0,0,0,0,0,0,0,0,0,0,0,0,0,0,0,0,0,0,0,0,0,0,0,0,0,0,0,0,0,0,0,0,0,0,0,0,0,0,0,0,0,0,0,0,0,0,0,0,0,0,0,0,0,0,0,0,0,0,0],"id":11,"left_children":[1,3,5,7,9,11,13,15,17,19,21,23,25,27,29,31,33,35,37,39,41,43,45,-1,-1,47,49,51,53,55,57,59,61,63,65,67,69,71,73,75,-1,77,79,81,83,85,87,89,91,93,95,97,99,101,-1,103,105,107,109,-1,-1,-1,-1,-1,-1,-1,-1,-1,-1,-1,-1,-1,-1,-1,-1,-1,-1,-1,-1,-1,-1,-1,-1,-1,-1,-1,-1,-1,-1,-1,-1,-1,-1,-1,-1,-1,-1,-1,-1,-1,-1,-1,-1,-1,-1,-1,-1,-1,-1,-1,-1],"loss_changes":[5.675338E0,8.658985E0,4.174497E0,5.2655845E0,1.1128922E1,2.6981788E0,4.7099457E0,5.7849283E0,6.374933E0,9.039618E0,3.5091243E0,4.0230918E-1,2.5869398E0,1.0287375E0,3.5698012E-1,1.4628358E0,4.381015E0,7.622252E0,5.0307446E0,4.003003E0,2.6177483E0,5.196905E-1,6.94772E-1,0E0,0E0,3.073771E0,3.1399114E0,6.819059E-1,5.554724E-1,1.8985128E-1,7.563623E-2,1.9828982E0,8.313159E-1,3.745957E0,4.594822E-1,2.5190501E0,4.814906E0,2.0508652E0,3.0803692E0,1.8048321E0,0E0,1.4396896E0,1.9060276E-1,6.823087E-2,1.3428554E-2,4.5713827E-1,1.2674332E-2,2.5644512E0,3.2893991E0,2.9151711E0,3.332564E0,6.2134206E-2,1.7655931E-1,5.3492165E-1,0E0,9.280094E-3,2.9832363E-2,4.8236914E-2,7.996332E-3,0E0,0E0,0E0,0E0,0E0,0E0,0E0,0E0,0E0,0E0,0E0,0E0,0E0,0E0,0E0,0E0,0E0,0E0,0E0,0E0,0E0,0E0,0E0,0E0,0E0,0E0,0E0,0E0,0E0,0E0,0E0,0E0,0E0,0E0,0E0,0E0,0E0,0E0,0E0,0E0,0E0,0E0,0E0,0E0,0E0,0E0,0E0,0E0,0E0,0E0,0E0,0E0],"parents":[2147483647,0,0,1,1,2,2,3,3,4,4,5,5,6,6,7,7,8,8,9,9,10,10,11,11,12,12,13,13,14,14,15,15,16,16,17,17,18,18,19,19,20,20,21,21,22,22,25,25,26,26,27,27,28,28,29,29,30,30,31,31,32,32,33,33,34,34,35,35,36,36,37,37,38,38,39,39,41,41,42,42,43,43,44,44,45,45,46,46,47,47,48,48,49,49,50,50,51,51,52,52,53,53,55,55,56,56,57,57,58,58],"right_children":[2,4,6,8,10,12,14,16,18,20,22,24,26,28,30,32,34,36,38,40,42,44,46,-1,-1,48,50,52,54,56,58,60,62,64,66,68,70,72,74,76,-1,78,80,82,84,86,88,90,92,94,96,98,100,102,-1,104,106,108,110,-1,-1,-1,-1,-1,-1,-1,-1,-1,-1,-1,-1,-1,-1,-1,-1,-1,-1,-1,-1,-1,-1,-1,-1,-1,-1,-1,-1,-1,-1,-1,-1,-1,-1,-1,-1,-1,-1,-1,-1,-1,-1,-1,-1,-1,-1,-1,-1,-1,-1,-1,-1],"split_conditions":[4.4604E2,4.4335E2,5.0063E2,2.4399261E-1,2.80763E5,3.2E-1,5.05175E2,2.2E1,4.4087E2,1.0305393E-4,5.416591E1,1.2618297E1,6.9285715E-1,5.0133E2,5.075791E2,1.01109726E2,2.208051E-1,4.3780427E0,1.3E0,4.2657536E-1,3.045433E-3,6.26745E5,2E0,-5.139183E-3,5.7437237E-2,5.6052757E-3,1.9280559E0,1.5E1,7.226046E1,1.74E0,5.0875E2,1.5736113E-1,4.9294106E-4,4.3136E2,4.4052864E1,1.6E1,5.2E1,2.3194008E1,6.597938E-1,1.4105E4,8.480178E-2,4.529635E1,1.95E-1,2.471669E1,1.399E-1,5.418079E-1,1.0325387E2,2.404178E-3,8.125E0,7.49251E-2,3E0,4E-2,7.368421E0,8E-1,5.9504528E-2,1E1,2.88E0,6.573641E1,1.0741859E1,-6.991782E-2,-6.0160975E-3,2.2279205E-2,-1.8739456E-2,4.141911E-2,5.166888E-3,7.19825E-2,1.2885391E-3,1.3042065E-2,4.648266E-2,-4.887317E-3,4.519252E-2,-1.0072394E-1,-3.711536E-2,3.9673742E-2,-2.5696117E-2,-2.9330311E-2,3.031216E-2,1.2864174E-2,1.07674696E-1,2.8209066E-2,-1.1381327E-2,3.6484826E-2,8.1168815E-2,3.5307736E-3,-8.392495E-3,3.120305E-2,-2.054443E-2,-5.7030845E-2,-2.2256492E-2,-1.2804977E-2,2.9118214E-2,4.933124E-3,-2.974983E-2,1.89005E-2,-2.9448573E-2,3.7838952E-3,-3.2829173E-2,4.5637634E-2,1.8276943E-2,-2.029281E-2,3.998364E-3,5.6175333E-2,2.519486E-2,-6.4695044E-3,-3.7303643E-4,-2.8921906E-2,-1.578E-2,2.304646E-3,-7.021118E-3,9.8333685E-3,3.9077206E-3],"split_indices":[53,54,53,33,43,7,52,12,53,41,42,2,33,55,54,35,33,23,4,33,5,43,44,0,0,8,26,6,42,7,53,38,5,53,3,9,18,2,33,43,0,34,0,2,0,19,35,31,7,39,44,0,2,4,0,9,10,34,2,0,0,0,0,0,0,0,0,0,0,0,0,0,0,0,0,0,0,0,0,0,0,0,0,0,0,0,0,0,0,0,0,0,0,0,0,0,0,0,0,0,0,0,0,0,0,0,0,0,0,0,0],"split_type":[0,0,0,0,0,0,0,0,0,0,0,0,0,0,0,0,0,0,0,0,0,0,0,0,0,0,0,0,0,0,0,0,0,0,0,0,0,0,0,0,0,0,0,0,0,0,0,0,0,0,0,0,0,0,0,0,0,0,0,0,0,0,0,0,0,0,0,0,0,0,0,0,0,0,0,0,0,0,0,0,0,0,0,0,0,0,0,0,0,0,0,0,0,0,0,0,0,0,0,0,0,0,0,0,0,0,0,0,0,0,0],"sum_hessian":[2.677E3,9.2E2,1.757E3,8.24E2,9.6E1,1.619E3,1.38E2,1.76E2,6.48E2,6.1E1,3.5E1,8E0,1.611E3,7.4E1,6.4E1,3.7E1,1.39E2,5.91E2,5.7E1,2.5E1,3.6E1,9E0,2.6E1,1E0,7E0,9.44E2,6.67E2,2.1E1,5.3E1,3E1,3.4E1,1.9E1,1.8E1,1.18E2,2.1E1,9.2E1,4.99E2,2.3E1,3.4E1,2E1,5E0,3.1E1,5E0,7E0,2E0,1.8E1,8E0,6.83E2,2.61E2,7.4E1,5.93E2,7E0,1.4E1,4.3E1,1E1,1E1,2E1,2.1E1,1.3E1,8E0,1.1E1,1E1,8E0,4.7E1,7.1E1,2E1,1E0,5.1E1,4.1E1,4.8E2,1.9E1,1E1,1.3E1,9E0,2.5E1,1.3E1,7E0,2E0,2.9E1,4E0,1E0,6E0,1E0,1E0,1E0,1E0,1.7E1,6E0,2E0,6.69E2,1.4E1,2.31E2,3E1,1.5E1,5.9E1,5.68E2,2.5E1,3E0,4E0,3E0,1.1E1,7E0,3.6E1,3E0,7E0,4E0,1.6E1,9E0,1.2E1,4E0,9E0],"tree_param":{"num_deleted":"0","num_feature":"64","num_nodes":"111","size_leaf_vector":"1"}},{"base_weights":[5.523621E-4,4.1989926E-2,-4.3535333E-2,5.7126246E-2,-2.186683E-1,-6.32341E-2,1.2117045E-1,1.18202955E-1,6.943372E-3,-7.0213366E-1,-1.17047705E-1,4.033866E-1,-6.7233205E-2,2.7574205E-1,-5.9045583E-2,-5.4997668E-2,1.5502325E-1,7.420494E-2,-6.0901232E-2,-8.2436913E-1,-1.9892126E-2,-1.6850527E-1,2.16138E-1,2.5721578E-2,4.981143E-2,-1.9029456E-1,-4.9725767E-2,3.2163915E-1,7.979055E-3,-1.2990744E-1,5.4048016E-3,1.3118212E-1,-3.118606E-1,5.6362208E-2,1.2976009E-1,-1.2257022E-2,2.9690164E-1,-3.5570778E-2,-5.373893E-1,-9.9094085E-2,-5.2040268E-2,-1.21140275E-2,9.130209E-3,-3.3802487E-2,-2.927526E-1,6.741073E-3,3.19713E-2,-1.4098668E-1,-1.0047418E0,-8.103369E-2,5.7354257E-3,8.084448E-2,3.5957202E-1,9.769471E-3,-4.909061E-2,-3.612721E-2,-1.8723564E-1,-2.8546162E-2,5.837026E-2,7.152542E-2,5.4460545E-3,-3.8992755E-2,1.5648289E-2,1.4261461E-2,-4.6166953E-2,-9.459536E-3,1.5639184E-2,3.9596178E-2,-4.0780634E-4,1.2553858E-2,-9.1248145E-3,-1.2159951E-1,-2.5664508E-2,-2.4886282E-2,6.466479E-3,-4.442238E-2,-4.5066568E-4,-3.0149526E-3,5.8706435E-3,-8.614459E-2,-1.1262848E-2,-1.3483667E-1,1.7422179E-3,-1.9515013E-2,-4.60587E-3,1.5838671E-2,-3.6984289E-3,-1.877085E-2,2.227541E-2,2.424098E-2,4.6389237E-2,-9.486601E-4,-1.1193509E-2,-3.4039505E-4,-7.373702E-3,-2.391854E-2,-1.2770987E-2,2.0200722E-3,-7.085196E-3,9.046696E-3,3.6484879E-3],"categories":[],"categories_nodes":[],"categories_segments":[],"categories_sizes":[],"default_left":[0,0,0,0,0,0,0,0,0,0,0,0,0,0,0,0,0,0,0,0,0,0,0,0,0,0,0,0,0,0,0,0,0,0,0,0,0,0,0,0,0,0,0,0,0,0,0,0,0,0,0,0,0,0,0,0,0,0,0,0,0,0,0,0,0,0,0,0,0,0,0,0,0,0,0,0,0,0,0,0,0,0,0,0,0,0,0,0,0,0,0,0,0,0,0,0,0,0,0,0,0],"id":12,"left_children":[1,3,5,7,9,11,13,15,17,19,21,23,25,27,29,31,33,35,37,39,41,43,45,-1,-1,47,49,51,53,55,57,59,61,-1,63,65,67,69,71,-1,-1,-1,-1,73,75,77,-1,79,81,83,85,87,89,-1,91,93,95,97,99,-1,-1,-1,-1,-1,-1,-1,-1,-1,-1,-1,-1,-1,-1,-1,-1,-1,-1,-1,-1,-1,-1,-1,-1,-1,-1,-1,-1,-1,-1,-1,-1,-1,-1,-1,-1,-1,-1,-1,-1,-1,-1],"loss_changes":[4.894231E0,5.461098E0,4.2190237E0,4.0020757E0,3.6516986E0,2.1917577E0,3.8883045E0,3.7647543E0,3.2809935E0,1.0677266E0,1.1336956E0,1.0341287E-2,2.4703546E0,9.191494E-1,2.9756197E-1,5.01447E0,4.943597E0,6.9546194E0,4.3018227E0,4.1265488E-2,4.4834983E-2,9.273459E-1,1.930393E-1,0E0,0E0,5.601034E0,1.7524669E0,5.5550814E-1,6.62364E-2,1.5989947E-1,6.460424E-2,2.6945133E0,1.6697512E0,0E0,3.5554104E0,3.6391096E0,3.0129385E0,3.0702746E0,3.1171842E0,0E0,0E0,0E0,0E0,6.09032E-1,1.2641661E0,9.438104E-3,0E0,2.6815825E0,2.8334208E0,2.5653496E0,2.3861027E0,4.229154E-1,5.597811E-1,0E0,1.8849261E-2,1.5748307E-2,2.8208315E-2,4.6801325E-2,6.533604E-3,0E0,0E0,0E0,0E0,0E0,0E0,0E0,0E0,0E0,0E0,0E0,0E0,0E0,0E0,0E0,0E0,0E0,0E0,0E0,0E0,0E0,0E0,0E0,0E0,0E0,0E0,0E0,0E0,0E0,0E0,0E0,0E0,0E0,0E0,0E0,0E0,0E0,0E0,0E0,0E0,0E0,0E0],"parents":[2147483647,0,0,1,1,2,2,3,3,4,4,5,5,6,6,7,7,8,8,9,9,10,10,11,11,12,12,13,13,14,14,15,15,16,16,17,17,18,18,19,19,20,20,21,21,22,22,25,25,26,26,27,27,28,28,29,29,30,30,31,31,32,32,34,34,35,35,36,36,37,37,38,38,43,43,44,44,45,45,47,47,48,48,49,49,50,50,51,51,52,52,54,54,55,55,56,56,57,57,58,58],"right_children":[2,4,6,8,10,12,14,16,18,20,22,24,26,28,30,32,34,36,38,40,42,44,46,-1,-1,48,50,52,54,56,58,60,62,-1,64,66,68,70,72,-1,-1,-1,-1,74,76,78,-1,80,82,84,86,88,90,-1,92,94,96,98,100,-1,-1,-1,-1,-1,-1,-1,-1,-1,-1,-1,-1,-1,-1,-1,-1,-1,-1,-1,-1,-1,-1,-1,-1,-1,-1,-1,-1,-1,-1,-1,-1,-1,-1,-1,-1,-1,-1,-1,-1,-1,-1],"split_conditions":[4.534799E2,8.030083E1,5.0063E2,2.80763E5,4.2817E2,9.45E-1,5.05175E2,3E1,1.9E1,4.9294106E-4,2E0,4.746E2,4.657681E-3,3.2E1,5.075791E2,1.9E1,3.5E1,5.6052757E-3,4.8457715E-1,3.221245E1,6.43E-2,4.4091E2,1.4961271E-1,2.5721578E-2,4.981143E-2,2.7554712E-1,3.8883236E1,5.0106E2,3.6171432E1,2.27E0,5.0838E2,6E0,5.059383E1,5.6362208E-2,9.782934E-3,4.491732E2,8.3645576E-1,8.35318E1,4.9294106E-4,-9.9094085E-2,-5.2040268E-2,-1.21140275E-2,9.130209E-3,4.083303E1,4.4796E2,5.01E-2,3.19713E-2,-2.6384604E-1,2.64E0,4.6914E2,4.603E2,7.368421E0,8.010753E-1,9.769471E-3,2.9804728E1,2E0,3.194986E1,6.573641E1,1.0741859E1,7.152542E-2,5.4460545E-3,-3.8992755E-2,1.5648289E-2,1.4261461E-2,-4.6166953E-2,-9.459536E-3,1.5639184E-2,3.9596178E-2,-4.0780634E-4,1.2553858E-2,-9.1248145E-3,-1.2159951E-1,-2.5664508E-2,-2.4886282E-2,6.466479E-3,-4.442238E-2,-4.5066568E-4,-3.0149526E-3,5.8706435E-3,-8.614459E-2,-1.1262848E-2,-1.3483667E-1,1.7422179E-3,-1.9515013E-2,-4.60587E-3,1.5838671E-2,-3.6984289E-3,-1.877085E-2,2.227541E-2,2.424098E-2,4.6389237E-2,-9.486601E-4,-1.1193509E-2,-3.4039505E-4,-7.373702E-3,-2.391854E-2,-1.2770987E-2,2.0200722E-3,-7.085196E-3,9.046696E-3,3.6484879E-3],"split_indices":[52,42,53,43,52,23,52,25,9,5,37,52,24,12,54,9,25,8,40,1,0,52,40,0,0,40,1,52,1,7,54,9,1,0,11,52,33,35,5,0,0,0,0,1,52,0,0,38,4,54,52,2,33,0,3,37,3,34,2,0,0,0,0,0,0,0,0,0,0,0,0,0,0,0,0,0,0,0,0,0,0,0,0,0,0,0,0,0,0,0,0,0,0,0,0,0,0,0,0,0,0],"split_type":[0,0,0,0,0,0,0,0,0,0,0,0,0,0,0,0,0,0,0,0,0,0,0,0,0,0,0,0,0,0,0,0,0,0,0,0,0,0,0,0,0,0,0,0,0,0,0,0,0,0,0,0,0,0,0,0,0,0,0,0,0,0,0,0,0,0,0,0,0,0,0,0,0,0,0,0,0,0,0,0,0,0,0,0,0,0,0,0,0,0,0,0,0,0,0,0,0,0,0,0,0],"sum_hessian":[2.677E3,1.38E3,1.297E3,1.305E3,7.5E1,1.159E3,1.38E2,5.88E2,7.17E2,1.2E1,6.3E1,9E0,1.15E3,7.4E1,6.4E1,1.03E2,4.85E2,3.6E2,3.57E2,1E1,2E0,5.5E1,8E0,5E0,4E0,1.42E2,1.008E3,6.3E1,1.1E1,3E1,3.4E1,6E1,4.3E1,2.7E1,4.58E2,2.6E2,1E2,3.4E2,1.7E1,5E0,5E0,1E0,1E0,2.7E1,2.8E1,3E0,5E0,1.35E2,7E0,6.44E2,3.64E2,9E0,5.4E1,4E0,7E0,1.2E1,1.8E1,2.1E1,1.3E1,6E0,5.4E1,3.7E1,6E0,4.49E2,9E0,1.75E2,8.5E1,7.5E1,2.5E1,8.7E1,2.53E2,4E0,1.3E1,8E0,1.9E1,1.8E1,1E1,2E0,1E0,4E0,1.31E2,5E0,2E0,1.5E2,4.94E2,7.9E1,2.85E2,3E0,6E0,2.7E1,2.7E1,5E0,2E0,7E0,5E0,8E0,1E1,1E1,1.1E1,4E0,9E0],"tree_param":{"num_deleted":"0","num_feature":"64","num_nodes":"101","size_leaf_vector":"1"}},{"base_weights":[3.720548E-4,-4.574876E-3,3.4417394E-1,9.551835E-3,-1.1868939E-1,-1.4254192E-1,4.222382E-1,-6.1603915E-3,2.164035E-1,-1.5160836E-1,5.5434827E-2,-2.8642938E-2,-2.4689324E-2,1.846067E-1,6.350322E-2,6.406513E-2,-3.4889158E-2,2.5325084E-1,-8.0840087E-1,-3.5226288E-1,-1.09553955E-1,-7.8235924E-2,1.7619453E-1,3.6865682E-3,-6.276771E-3,2.4743067E-1,-1.9104874E-2,1.9317468E-1,-1.559296E-3,-5.9413992E-2,7.6251335E-2,4.6046394E-1,1.04445286E-1,-1.1383267E-1,-9.903288E-2,1.2302383E-2,-3.6685583E-1,-5.3569652E-2,-2.6804563E-1,-1.782248E-2,-1.3026888E-2,4.7829798E-1,7.6753765E-2,5.110383E-4,2.6437423E-1,9.238743E-3,6.575476E-2,-1.1546875E-2,5.7238266E-3,9.0570515E-3,-8.231976E-3,2.0696422E-2,4.0121024E-4,5.9781212E-2,5.335989E-3,-2.5269488E-2,2.1553813E-2,1.05165485E-2,-2.537148E-2,-4.0480096E-2,-1.2472223E-2,-9.555577E-3,1.8607235E-2,-5.146685E-2,-1.0298128E-2,-3.3900396E-3,9.474982E-4,5.7059016E-2,8.4186497E-4,-1.3370248E-2,2.0036114E-2,1.1075533E-2,2.8074777E-2],"categories":[],"categories_nodes":[],"categories_segments":[],"categories_sizes":[],"default_left":[0,0,0,0,0,0,0,0,0,0,0,0,0,0,0,0,0,0,0,0,0,0,0,0,0,0,0,0,0,0,0,0,0,0,0,0,0,0,0,0,0,0,0,0,0,0,0,0,0,0,0,0,0,0,0,0,0,0,0,0,0,0,0,0,0,0,0,0,0,0,0,0,0],"id":13,"left_children":[1,3,5,7,9,11,13,15,17,19,21,23,-1,25,-1,27,29,31,33,35,37,39,41,-1,-1,43,-1,45,47,49,51,53,55,-1,57,-1,59,61,63,-1,65,67,69,-1,71,-1,-1,-1,-1,-1,-1,-1,-1,-1,-1,-1,-1,-1,-1,-1,-1,-1,-1,-1,-1,-1,-1,-1,-1,-1,-1,-1,-1],"loss_changes":[4.556221E0,4.258591E0,1.5040011E0,7.642319E0,1.6764135E0,6.424131E-2,1.551465E0,4.412474E0,6.4731073E0,2.0288177E0,7.724606E-1,1.125584E-2,0E0,4.484741E-1,0E0,5.380491E0,4.2348204E0,4.916255E0,1.2915008E0,3.3643723E-1,1.7957425E0,1.4764236E-1,7.143238E-1,0E0,0E0,6.023544E-2,0E0,9.955063E0,2.8329954E0,4.377425E0,2.65254E0,3.714404E0,3.823658E0,0E0,1.2143941E-1,0E0,3.2621193E-1,1.5471493E0,2.1045566E0,0E0,7.3666E-3,2.553934E-1,5.4706764E-1,0E0,4.1196346E-3,0E0,0E0,0E0,0E0,0E0,0E0,0E0,0E0,0E0,0E0,0E0,0E0,0E0,0E0,0E0,0E0,0E0,0E0,0E0,0E0,0E0,0E0,0E0,0E0,0E0,0E0,0E0,0E0],"parents":[2147483647,0,0,1,1,2,2,3,3,4,4,5,5,6,6,7,7,8,8,9,9,10,10,11,11,13,13,15,15,16,16,17,17,18,18,19,19,20,20,21,21,22,22,25,25,27,27,28,28,29,29,30,30,31,31,32,32,34,34,36,36,37,37,38,38,40,40,41,41,42,42,44,44],"right_children":[2,4,6,8,10,12,14,16,18,20,22,24,-1,26,-1,28,30,32,34,36,38,40,42,-1,-1,44,-1,46,48,50,52,54,56,-1,58,-1,60,62,64,-1,66,68,70,-1,72,-1,-1,-1,-1,-1,-1,-1,-1,-1,-1,-1,-1,-1,-1,-1,-1,-1,-1,-1,-1,-1,-1,-1,-1,-1,-1,-1,-1],"split_conditions":[5.2E1,9.769417E-3,1.8919647E1,8.245338E-3,3.9E1,2.245953E1,2.22E0,9.4720366E-4,5.127314E-1,2E1,2.02E-2,1.95E-2,-2.4689324E-2,7.4E1,6.350322E-2,4.46425E2,4.6034737E1,4.3733E2,3.3472805E1,2.5E1,4.6863712E1,4.4586E2,4.259E2,3.6865682E-3,-6.276771E-3,1.5E-2,-1.9104874E-2,4.4316E2,2.7138643E1,8E0,4.4604E2,4.1459844E-1,4.4096E2,-1.1383267E-1,2.05E-1,1.2302383E-2,6.649859E1,3.4170765E-1,1.5E1,-1.782248E-2,-4.4464106E-3,2.65E-1,3.0027872E1,5.110383E-4,9E0,9.238743E-3,6.575476E-2,-1.1546875E-2,5.7238266E-3,9.0570515E-3,-8.231976E-3,2.0696422E-2,4.0121024E-4,5.9781212E-2,5.335989E-3,-2.5269488E-2,2.1553813E-2,1.05165485E-2,-2.537148E-2,-4.0480096E-2,-1.2472223E-2,-9.555577E-3,1.8607235E-2,-5.146685E-2,-1.0298128E-2,-3.3900396E-3,9.474982E-4,5.7059016E-2,8.4186497E-4,-1.3370248E-2,2.0036114E-2,1.1075533E-2,2.8074777E-2],"split_indices":[18,8,3,8,25,2,7,5,40,22,57,0,0,9,0,52,1,52,3,9,3,52,52,0,0,0,0,52,3,9,53,39,55,0,0,0,42,40,6,0,61,0,1,0,6,0,0,0,0,0,0,0,0,0,0,0,0,0,0,0,0,0,0,0,0,0,0,0,0,0,0,0,0],"split_type":[0,0,0,0,0,0,0,0,0,0,0,0,0,0,0,0,0,0,0,0,0,0,0,0,0,0,0,0,0,0,0,0,0,0,0,0,0,0,0,0,0,0,0,0,0,0,0,0,0,0,0,0,0,0,0,0,0,0,0,0,0,0,0,0,0,0,0,0,0,0,0,0,0],"sum_hessian":[2.677E3,2.64E3,3.7E1,2.35E3,2.9E2,5E0,3.2E1,2.185E3,1.65E2,2.44E2,4.6E1,3E0,2E0,1.6E1,1.6E1,6.34E2,1.551E3,1.6E2,5E0,4.1E1,2.03E2,2.2E1,2.4E1,1E0,2E0,1.4E1,2E0,2.13E2,4.21E2,1.271E3,2.8E2,6.6E1,9.4E1,3E0,2E0,1E0,4E1,1.51E2,5.2E1,8E0,1.4E1,5E0,1.9E1,1E0,1.3E1,1.76E2,3.7E1,1.43E2,2.78E2,1.68E2,1.103E3,9.9E1,1.81E2,4.9E1,1.7E1,2.2E1,7.2E1,1E0,1E0,3.4E1,6E0,1.29E2,2.2E1,2E1,3.2E1,7E0,7E0,4E0,1E0,7E0,1.2E1,2E0,1.1E1],"tree_param":{"num_deleted":"0","num_feature":"64","num_nodes":"73","size_leaf_vector":"1"}},{"base_weights":[3.466247E-4,-4.126947E-3,3.1125075E-1,-8.621225E-3,2.9594314E-1,-1.3283432E-1,3.8256162E-1,3.8496105E-3,-1.0810016E-1,2.3086098E-1,8.0769666E-2,-2.6426196E-2,-2.304337E-2,1.6735521E-1,5.752644E-2,-9.83322E-3,1.8811618E-1,-1.3827148E-1,5.0833937E-2,6.372889E-2,3.34321E-1,3.5022409E-3,-5.8583203E-3,2.2533166E-1,-1.7831216E-2,5.7767548E-2,-3.80493E-2,2.2317833E-1,-7.490087E-1,-3.1800446E-1,-1.0040421E-1,-6.688558E-2,1.6643538E-1,1.002323E-1,-2.2365943E-2,8.754378E-3,4.0175292E-1,4.854858E-4,2.4073324E-1,-7.61901E-3,1.0970356E-2,-4.595206E-3,2.8015748E-2,3.4445E-2,8.6331804E-4,-1.0529522E-1,-9.408123E-3,1.1687264E-2,-3.314618E-2,-4.8153135E-3,-2.5120726E-2,-1.4269486E-2,-1.1887033E-3,4.4011835E-2,7.1249427E-3,1.3959062E-2,-3.3061162E-3,4.505597E-2,2.3801287E-3,1.0337162E-2,2.5501255E-2],"categories":[],"categories_nodes":[],"categories_segments":[],"categories_sizes":[],"default_left":[0,0,0,0,0,0,0,0,0,0,0,0,0,0,0,0,0,0,0,0,0,0,0,0,0,0,0,0,0,0,0,0,0,0,0,0,0,0,0,0,0,0,0,0,0,0,0,0,0,0,0,0,0,0,0,0,0,0,0,0,0],"id":14,"left_children":[1,3,5,7,9,11,13,15,17,19,-1,21,-1,23,-1,25,27,29,31,33,35,-1,-1,37,-1,39,41,43,45,47,49,51,53,55,-1,-1,57,-1,59,-1,-1,-1,-1,-1,-1,-1,-1,-1,-1,-1,-1,-1,-1,-1,-1,-1,-1,-1,-1,-1,-1],"loss_changes":[3.7259855E0,3.5641997E0,1.254205E0,3.22966E0,1.112469E0,5.6222714E-2,1.2722659E0,5.8361106E0,1.3976524E0,6.011876E-1,0E0,9.955737E-3,0E0,3.8086912E-1,0E0,4.1127067E0,5.4243803E0,1.6287346E0,6.5073377E-1,1.797777E-1,3.3092356E-1,0E0,0E0,4.97666E-2,0E0,4.426197E0,3.8377514E0,4.029855E0,1.0953026E0,2.8453398E-1,1.587467E0,9.836938E-2,5.938603E-1,7.806194E-2,0E0,0E0,3.0286837E-1,0E0,1.0989308E-3,0E0,0E0,0E0,0E0,0E0,0E0,0E0,0E0,0E0,0E0,0E0,0E0,0E0,0E0,0E0,0E0,0E0,0E0,0E0,0E0,0E0,0E0],"parents":[2147483647,0,0,1,1,2,2,3,3,4,4,5,5,6,6,7,7,8,8,9,9,11,11,13,13,15,15,16,16,17,17,18,18,19,19,20,20,23,23,25,25,26,26,27,27,28,28,29,29,30,30,31,31,32,32,33,33,36,36,38,38],"right_children":[2,4,6,8,10,12,14,16,18,20,-1,22,-1,24,-1,26,28,30,32,34,36,-1,-1,38,-1,40,42,44,46,48,50,52,54,56,-1,-1,58,-1,60,-1,-1,-1,-1,-1,-1,-1,-1,-1,-1,-1,-1,-1,-1,-1,-1,-1,-1,-1,-1,-1,-1],"split_conditions":[5.2E1,5.037196E-3,1.8919647E1,9.769417E-3,1.244501E6,2.245953E1,2.22E0,8.245338E-3,3.9E1,4.63E-2,8.0769666E-2,1.95E-2,-2.304337E-2,7.4E1,5.752644E-2,9.4720366E-4,5.127314E-1,2E1,3.5E-2,5.6729645E1,-2.127842E-1,3.5022409E-3,-5.8583203E-3,1.5E-2,-1.7831216E-2,2.5660559E1,5.72816E-3,4.4E1,3.3472805E1,2.5E1,4.6863712E1,4.4586E2,4.259E2,8.480622E1,-2.2365943E-2,8.754378E-3,9.084297E1,4.854858E-4,9E0,-7.61901E-3,1.0970356E-2,-4.595206E-3,2.8015748E-2,3.4445E-2,8.6331804E-4,-1.0529522E-1,-9.408123E-3,1.1687264E-2,-3.314618E-2,-4.8153135E-3,-2.5120726E-2,-1.4269486E-2,-1.1887033E-3,4.4011835E-2,7.1249427E-3,1.3959062E-2,-3.3061162E-3,4.505597E-2,2.3801287E-3,1.0337162E-2,2.5501255E-2],"split_indices":[18,29,3,8,43,2,7,8,25,57,0,0,0,9,0,5,40,22,57,1,39,0,0,0,0,1,21,9,3,9,3,52,52,34,0,0,36,0,6,0,0,0,0,0,0,0,0,0,0,0,0,0,0,0,0,0,0,0,0,0,0],"split_type":[0,0,0,0,0,0,0,0,0,0,0,0,0,0,0,0,0,0,0,0,0,0,0,0,0,0,0,0,0,0,0,0,0,0,0,0,0,0,0,0,0,0,0,0,0,0,0,0,0,0,0,0,0,0,0,0,0,0,0,0,0],"sum_hessian":[2.677E3,2.64E3,3.7E1,2.602E3,3.8E1,5E0,3.2E1,2.313E3,2.89E2,3.5E1,3E0,3E0,2E0,1.6E1,1.6E1,2.154E3,1.59E2,2.43E2,4.6E1,1.4E1,2.1E1,1E0,2E0,1.4E1,2E0,6.34E2,1.52E3,1.54E2,5E0,4.1E1,2.02E2,2.3E1,2.3E1,1.3E1,1E0,5E0,1.6E1,1E0,1.3E1,1.77E2,4.57E2,1.484E3,3.6E1,9.8E1,5.6E1,3E0,2E0,1E0,4E1,1.51E2,5.1E1,9E0,1.4E1,5E0,1.8E1,1E1,3E0,1.4E1,2E0,2E0,1.1E1],"tree_param":{"num_deleted":"0","num_feature":"64","num_nodes":"61","size_leaf_vector":"1"}},{"base_weights":[3.5212236E-4,-3.692696E-3,2.8145775E-1,6.501224E-2,-5.4281848E-3,-1.2378411E-1,3.4660906E-1,-1.0424317E-2,2.2484769E-1,-4.4140466E-2,-2.6100118E-2,1.517075E-1,5.2112186E-1,-1.5394047E-1,-3.2997155E-3,-9.329011E-2,2.798142E-1,3.3271282E-3,-7.1811224E-3,2.0522009E-1,-1.6642468E-2,5.3595454E-2,1.4189971E-2,-1.5445293E-1,-1.1789291E-1,5.359112E-2,-2.7679585E-2,1.4105077E-2,-2.3396902E-2,2.3205787E-1,7.4711934E-2,4.612118E-4,2.192198E-1,-6.3155973E-3,-7.859646E-2,2.51234E-3,2.5827957E-2,-6.1205192E-3,3.4477424E-3,4.8249684E-2,1.6486846E-2,2.5623584E-2,1.4559862E-2],"categories":[],"categories_nodes":[],"categories_segments":[],"categories_sizes":[],"default_left":[0,0,0,0,0,0,0,0,0,0,0,0,0,0,0,0,0,0,0,0,0,0,0,0,0,0,0,0,0,0,0,0,0,0,0,0,0,0,0,0,0,0,0],"id":15,"left_children":[1,3,5,-1,7,9,11,13,15,17,-1,19,21,23,25,27,29,-1,-1,31,-1,-1,-1,-1,33,35,37,-1,-1,39,-1,-1,41,-1,-1,-1,-1,-1,-1,-1,-1,-1,-1],"loss_changes":[3.0459821E0,3.0002413E0,1.0461822E0,0E0,3.0338817E0,5.4050088E-2,1.0433648E0,2.63753E0,1.0053716E0,1.3099459E-2,0E0,3.23563E-1,1.9571304E-2,5.933446E0,3.4120948E0,3.297029E-1,8.978305E-1,0E0,0E0,4.111576E-2,0E0,0E0,0E0,0E0,4.3385453E0,4.2938466E0,3.5905025E0,0E0,0E0,6.7765975E-1,0E0,0E0,8.446574E-4,0E0,0E0,0E0,0E0,0E0,0E0,0E0,0E0,0E0,0E0],"parents":[2147483647,0,0,1,1,2,2,4,4,5,5,6,6,7,7,8,8,9,9,11,11,12,12,13,13,14,14,15,15,16,16,19,19,24,24,25,25,26,26,29,29,32,32],"right_children":[2,4,6,-1,8,10,12,14,16,18,-1,20,22,24,26,28,30,-1,-1,32,-1,-1,-1,-1,34,36,38,-1,-1,40,-1,-1,42,-1,-1,-1,-1,-1,-1,-1,-1,-1,-1],"split_conditions":[5.2E1,6E0,1.8919647E1,6.501224E-2,1.86E0,3.483146E1,2.22E0,4.2354E2,8.1766146E-4,1.95E-2,-2.6100118E-2,7.4E1,1.0574798E2,1.13E0,4.4604E2,2.6369442E1,1.244501E6,3.3271282E-3,-7.1811224E-3,1.5E-2,-1.6642468E-2,5.3595454E-2,1.4189971E-2,-1.5445293E-1,1.662936E6,4.4335E2,7.9126436E-1,1.4105077E-2,-2.3396902E-2,8.95979E-4,7.4711934E-2,4.612118E-4,4.1509434E1,-6.3155973E-3,-7.859646E-2,2.51234E-3,2.5827957E-2,-6.1205192E-3,3.4477424E-3,4.8249684E-2,1.6486846E-2,2.5623584E-2,1.4559862E-2],"split_indices":[18,25,3,0,28,2,7,55,31,0,0,9,35,13,53,1,43,0,0,0,0,0,0,0,43,54,33,0,0,31,0,0,3,0,0,0,0,0,0,0,0,0,0],"split_type":[0,0,0,0,0,0,0,0,0,0,0,0,0,0,0,0,0,0,0,0,0,0,0,0,0,0,0,0,0,0,0,0,0,0,0,0,0,0,0,0,0,0,0],"sum_hessian":[2.677E3,2.64E3,3.7E1,6E0,2.634E3,5E0,3.2E1,2.579E3,5.5E1,4E0,1E0,1.6E1,1.6E1,1.21E2,2.458E3,8E0,4.7E1,1E0,3E0,1.4E1,2E0,1.5E1,1E0,2E0,1.19E2,7.37E2,1.721E3,3E0,5E0,4.4E1,3E0,1E0,1.3E1,1.11E2,8E0,6.48E2,8.9E1,1.118E3,6.03E2,8E0,3.6E1,7E0,6E0],"tree_param":{"num_deleted":"0","num_feature":"64","num_nodes":"43","size_leaf_vector":"1"}},{"base_weights":[3.3308144E-4,1.109404E-2,-9.3738474E-2,-1.8315423E-2,7.699275E-2,-1.6327265E-1,-3.2081015E-2,5.0078917E-2,-4.930088E-2,1.7974369E-1,2.8415093E-2,-1.0524177E-1,-4.4073E-1,1.8732923E-1,-7.857762E-2,1.1268124E-1,-1.2882459E-1,5.9439756E-2,-5.32136E-2,-1.24886625E-1,2.698248E-1,-1.2211279E-1,6.3139506E-2,-1.3477767E-1,1.9768772E-1,-5.048383E-2,-2.6543573E-2,4.104971E-1,4.5034654E-2,-2.5254872E-1,-4.6038885E-2,3.2370257E-1,2.6013097E-2,-1.6576487E-1,4.067578E-1,-9.6939914E-2,9.686613E-3,-1.3104205E0,4.7024067E-2,1.09212406E-1,3.630354E-1,1.5627621E-1,-2.593993E-1,1.231353E-1,-9.3855895E-3,-1.69786E-1,1.9377516E-1,2.1710454E-2,1.1468113E-3,5.4000586E-1,8.123248E-2,-1.8023013E-1,1.5391415E-1,-3.3258111E-3,-2.6288384E-1,1.685043E-1,-8.409116E-2,-5.400485E-3,5.1839024E-2,-1.4715682E-3,2.7180744E-2,-7.7672577E-3,-3.8628504E-2,4.5555312E-2,8.197561E-4,-1.1119872E-2,2.6161356E-2,-1.1472086E-3,2.7177772E-2,-1.7012972E-1,-2.2215264E-2,4.3334484E-2,-2.8380563E-2,2.2389144E-2,-4.5417063E-2,4.830202E-2,1.8911703E-2,-9.59657E-3,3.1241966E-2,2.6780972E-2,-3.3949718E-2,5.0389796E-2,9.1575E-3,-7.996902E-3,1.7539773E-2,-1.961199E-2,2.3157533E-2,4.675826E-2,-1.735488E-2,1.0735476E-2,5.9422195E-2,-7.882766E-3,1.6086174E-2,-1.08504E-3,-2.11936E-2,7.282545E-3,2.5287328E-2,-3.2612454E-2,-2.0408649E-2,-3.9035298E-3,2.409371E-2,-1.6228443E-2,2.5123085E-3],"categories":[],"categories_nodes":[],"categories_segments":[],"categories_sizes":[],"default_left":[0,0,0,0,0,0,0,0,0,0,0,0,0,0,0,0,0,0,0,0,0,0,0,0,0,0,0,0,0,0,0,0,0,0,0,0,0,0,0,0,0,0,0,0,0,0,0,0,0,0,0,0,0,0,0,0,0,0,0,0,0,0,0,0,0,0,0,0,0,0,0,0,0,0,0,0,0,0,0,0,0,0,0,0,0,0,0,0,0,0,0,0,0,0,0,0,0,0,0,0,0,0,0],"id":16,"left_children":[1,3,5,7,9,11,13,15,17,19,21,23,25,27,29,31,33,-1,35,37,39,41,43,45,47,-1,-1,49,51,53,55,57,59,61,63,65,67,69,71,73,75,77,79,81,83,85,87,-1,-1,89,91,93,95,-1,97,99,101,-1,-1,-1,-1,-1,-1,-1,-1,-1,-1,-1,-1,-1,-1,-1,-1,-1,-1,-1,-1,-1,-1,-1,-1,-1,-1,-1,-1,-1,-1,-1,-1,-1,-1,-1,-1,-1,-1,-1,-1,-1,-1,-1,-1,-1,-1],"loss_changes":[2.7119799E0,4.660472E0,1.1737695E0,3.526748E0,3.6985116E0,2.0306575E0,1.5143892E0,5.827199E0,2.9154408E0,6.564759E0,2.6473413E0,9.929514E-1,1.1322975E-1,8.071586E-1,6.789905E-1,7.032778E0,2.7383428E0,0E0,3.1336389E0,1.1270948E1,2.7149763E0,3.6713476E0,1.7894995E0,1.171607E0,3.366816E-2,0E0,0E0,3.825605E-1,4.446942E-1,3.4318566E-2,8.6321056E-1,8.263915E0,2.746987E0,2.437115E0,1.7129648E-1,3.4647217E0,2.598415E0,2.599701E0,6.385499E0,4.559652E0,2.3292894E0,1.2903308E0,2.7935333E0,2.6576767E0,2.453E0,9.966636E-1,1.0869087E0,0E0,0E0,1.00403786E-1,6.366224E-2,2.9922381E-2,7.7878E-2,0E0,3.732443E-4,2.4992788E-1,7.641208E-1,0E0,0E0,0E0,0E0,0E0,0E0,0E0,0E0,0E0,0E0,0E0,0E0,0E0,0E0,0E0,0E0,0E0,0E0,0E0,0E0,0E0,0E0,0E0,0E0,0E0,0E0,0E0,0E0,0E0,0E0,0E0,0E0,0E0,0E0,0E0,0E0,0E0,0E0,0E0,0E0,0E0,0E0,0E0,0E0,0E0,0E0],"parents":[2147483647,0,0,1,1,2,2,3,3,4,4,5,5,6,6,7,7,8,8,9,9,10,10,11,11,12,12,13,13,14,14,15,15,16,16,18,18,19,19,20,20,21,21,22,22,23,23,24,24,27,27,28,28,29,29,30,30,31,31,32,32,33,33,34,34,35,35,36,36,37,37,38,38,39,39,40,40,41,41,42,42,43,43,44,44,45,45,46,46,49,49,50,50,51,51,52,52,54,54,55,55,56,56],"right_children":[2,4,6,8,10,12,14,16,18,20,22,24,26,28,30,32,34,-1,36,38,40,42,44,46,48,-1,-1,50,52,54,56,58,60,62,64,66,68,70,72,74,76,78,80,82,84,86,88,-1,-1,90,92,94,96,-1,98,100,102,-1,-1,-1,-1,-1,-1,-1,-1,-1,-1,-1,-1,-1,-1,-1,-1,-1,-1,-1,-1,-1,-1,-1,-1,-1,-1,-1,-1,-1,-1,-1,-1,-1,-1,-1,-1,-1,-1,-1,-1,-1,-1,-1,-1,-1,-1],"split_conditions":[1.0293002E-2,5.6052757E-3,1.7E1,9.4720366E-4,4.3645E2,4.65239E1,4.3033E2,5.4401543E-4,6E0,4.23695E2,4.43895E2,8E0,7.04E0,4.0684074E1,4.3368E2,4.4625E2,2.496514E0,5.9439756E-2,6.9285715E-1,5.539938E1,4.424912E-1,7.269551E-1,1.9E1,1.044491E0,1.230537E1,-5.048383E-2,-2.6543573E-2,5.8225468E-2,5.9645486E-1,2.7138643E1,4.3716E2,4.3733E2,1.4827156E-1,8.924547E1,2.9E1,2.8675762E-3,5.0133E2,5.4178815E-3,6.186485E-1,4.084507E-1,4.338216E2,2.1359223E-1,3.33E0,4.4568E2,4.86777E1,5.2E1,8.0500805E-1,2.1710454E-2,1.1468113E-3,3.07E-2,2.6162895E1,4.5671185E1,4.288E2,-3.3258111E-3,4.3208E2,2.88E0,1.1305331E1,-5.400485E-3,5.1839024E-2,-1.4715682E-3,2.7180744E-2,-7.7672577E-3,-3.8628504E-2,4.5555312E-2,8.197561E-4,-1.1119872E-2,2.6161356E-2,-1.1472086E-3,2.7177772E-2,-1.7012972E-1,-2.2215264E-2,4.3334484E-2,-2.8380563E-2,2.2389144E-2,-4.5417063E-2,4.830202E-2,1.8911703E-2,-9.59657E-3,3.1241966E-2,2.6780972E-2,-3.3949718E-2,5.0389796E-2,9.1575E-3,-7.996902E-3,1.7539773E-2,-1.961199E-2,2.3157533E-2,4.675826E-2,-1.735488E-2,1.0735476E-2,5.9422195E-2,-7.882766E-3,1.6086174E-2,-1.08504E-3,-2.11936E-2,7.282545E-3,2.5287328E-2,-3.2612454E-2,-2.0408649E-2,-3.9035298E-3,2.409371E-2,-1.6228443E-2,2.5123085E-3],"split_indices":[8,8,6,5,54,3,52,41,25,52,52,26,4,1,52,52,33,0,33,34,33,33,6,33,2,0,0,61,38,3,52,52,40,34,9,31,55,5,33,33,54,33,23,55,1,25,38,0,0,0,1,1,52,0,52,4,2,0,0,0,0,0,0,0,0,0,0,0,0,0,0,0,0,0,0,0,0,0,0,0,0,0,0,0,0,0,0,0,0,0,0,0,0,0,0,0,0,0,0,0,0,0,0],"split_type":[0,0,0,0,0,0,0,0,0,0,0,0,0,0,0,0,0,0,0,0,0,0,0,0,0,0,0,0,0,0,0,0,0,0,0,0,0,0,0,0,0,0,0,0,0,0,0,0,0,0,0,0,0,0,0,0,0,0,0,0,0,0,0,0,0,0,0,0,0,0,0,0,0,0,0,0,0,0,0,0,0,0,0,0,0,0,0,0,0,0,0,0,0,0,0,0,0,0,0,0,0,0,0],"sum_hessian":[2.677E3,2.403E3,2.74E2,1.662E3,7.41E2,1.28E2,1.46E2,5.18E2,1.144E3,2.37E2,5.04E2,1.07E2,2.1E1,2.5E1,1.21E2,3.84E2,1.34E2,6E0,1.138E3,5.4E1,1.83E2,9.4E1,4.1E2,9.8E1,9E0,1.4E1,7E0,9E0,1.6E1,1.8E1,1.03E2,1.11E2,2.73E2,1.26E2,8E0,6.71E2,4.67E2,6E0,4.8E1,6.8E1,1.15E2,3.1E1,6.3E1,2.24E2,1.86E2,8.9E1,9E0,8E0,1E0,6E0,3E0,5E0,1.1E1,1E0,1.7E1,1.5E1,8.8E1,3.8E1,7.3E1,2.35E2,3.8E1,9.1E1,3.5E1,7E0,1E0,6.46E2,2.5E1,4.33E2,3.4E1,4E0,2E0,2.2E1,2.6E1,5.7E1,1.1E1,6.7E1,4.8E1,1.2E1,1.9E1,8E0,5.5E1,1.6E1,2.08E2,1.35E2,5.1E1,8.4E1,5E0,5E0,4E0,1E0,5E0,1E0,2E0,1E0,4E0,7E0,4E0,6E0,1.1E1,4E0,1.1E1,5.1E1,3.7E1],"tree_param":{"num_deleted":"0","num_feature":"64","num_nodes":"103","size_leaf_vector":"1"}},{"base_weights":[3.5226034E-4,1.8020977E-1,-4.6151704E-3,3.9032483E-1,2.0834135E-2,-8.326158E-3,2.464862E-1,6.481074E-1,1.9340385E-1,-2.9555459E-2,5.0692417E-2,-1.2945633E-2,1.9928648E-1,-1.0916524E-1,3.036808E-1,-1.2446031E-3,7.0419066E-2,-1.3399181E-2,2.1903649E-1,-1.6843714E-1,5.4955762E-2,-2.0207975E-2,1.1325917E-1,-7.510919E-2,2.4658386E-1,-1.3654739E-2,-2.0012416E-2,1.4264354E-1,4.468545E-1,2.6983136E-1,1.0066865E-1,-1.9589564E-2,-4.3952386E-3,-5.8493935E-2,2.6314345E-1,1.6653296E-2,-5.2518327E-2,2.4292085E-1,-4.2897735E-2,1.3881186E-2,-2.0520503E-2,2.0401649E-1,6.638209E-2,3.6406012E-3,-4.2476994E-3,1.925324E-1,-1.5434864E-2,4.609512E-2,1.106537E-2,8.28367E-3,2.9894663E-2,1.1667796E-2,2.3063719E-4,-1.8302178E-2,7.253325E-3,3.4422517E-2,1.2943302E-2,3.8829378E-3,-8.048771E-3,-2.4324607E-2,-4.20108E-3,2.813769E-2,1.7578453E-3,-8.980003E-3,4.257582E-3,4.4949252E-2,1.3879216E-2,9.941459E-4,2.0486452E-2],"categories":[],"categories_nodes":[],"categories_segments":[],"categories_sizes":[],"default_left":[0,0,0,0,0,0,0,0,0,0,0,0,0,0,0,0,0,0,0,0,0,0,0,0,0,0,0,0,0,0,0,0,0,0,0,0,0,0,0,0,0,0,0,0,0,0,0,0,0,0,0,0,0,0,0,0,0,0,0,0,0,0,0,0,0,0,0,0,0],"id":17,"left_children":[1,3,5,7,9,11,13,15,17,19,-1,21,23,25,27,-1,-1,-1,29,31,33,35,37,39,41,43,-1,45,47,49,51,-1,-1,53,55,57,59,61,63,-1,-1,65,-1,-1,-1,67,-1,-1,-1,-1,-1,-1,-1,-1,-1,-1,-1,-1,-1,-1,-1,-1,-1,-1,-1,-1,-1,-1,-1],